{"learner":{"attributes":{"scikit_learn":"{\"_estimator_type\": \"regressor\"}"},"feature_names":["Age","G","GS","MP","PER","TS%","3PAr","FTr","ORB%","DRB%","TRB%","AST%","STL%","BLK%","TOV%","USG%","OWS","DWS","WS","WS/48","OBPM","DBPM","BPM","VORP","Pos_C","Pos_PF","Pos_PG","Pos_SF","Pos_SG"],"feature_types":["float","float","float","float","float","float","float","float","float","float","float","float","float","float","float","float","float","float","float","float","float","float","float","float","float","float","float","float","float"],"gradient_booster":{"model":{"gbtree_model_param":{"num_parallel_tree":"1","num_trees":"400"},"iteration_indptr":[0,1,2,3,4,5,6,7,8,9,10,11,12,13,14,15,16,17,18,19,20,21,22,23,24,25,26,27,28,29,30,31,32,33,34,35,36,37,38,39,40,41,42,43,44,45,46,47,48,49,50,51,52,53,54,55,56,57,58,59,60,61,62,63,64,65,66,67,68,69,70,71,72,73,74,75,76,77,78,79,80,81,82,83,84,85,86,87,88,89,90,91,92,93,94,95,96,97,98,99,100,101,102,103,104,105,106,107,108,109,110,111,112,113,114,115,116,117,118,119,120,121,122,123,124,125,126,127,128,129,130,131,132,133,134,135,136,137,138,139,140,141,142,143,144,145,146,147,148,149,150,151,152,153,154,155,156,157,158,159,160,161,162,163,164,165,166,167,168,169,170,171,172,173,174,175,176,177,178,179,180,181,182,183,184,185,186,187,188,189,190,191,192,193,194,195,196,197,198,199,200,201,202,203,204,205,206,207,208,209,210,211,212,213,214,215,216,217,218,219,220,221,222,223,224,225,226,227,228,229,230,231,232,233,234,235,236,237,238,239,240,241,242,243,244,245,246,247,248,249,250,251,252,253,254,255,256,257,258,259,260,261,262,263,264,265,266,267,268,269,270,271,272,273,274,275,276,277,278,279,280,281,282,283,284,285,286,287,288,289,290,291,292,293,294,295,296,297,298,299,300,301,302,303,304,305,306,307,308,309,310,311,312,313,314,315,316,317,318,319,320,321,322,323,324,325,326,327,328,329,330,331,332,333,334,335,336,337,338,339,340,341,342,343,344,345,346,347,348,349,350,351,352,353,354,355,356,357,358,359,360,361,362,363,364,365,366,367,368,369,370,371,372,373,374,375,376,377,378,379,380,381,382,383,384,385,386,387,388,389,390,391,392,393,394,395,396,397,398,399,400],"tree_info":[0,0,0,0,0,0,0,0,0,0,0,0,0,0,0,0,0,0,0,0,0,0,0,0,0,0,0,0,0,0,0,0,0,0,0,0,0,0,0,0,0,0,0,0,0,0,0,0,0,0,0,0,0,0,0,0,0,0,0,0,0,0,0,0,0,0,0,0,0,0,0,0,0,0,0,0,0,0,0,0,0,0,0,0,0,0,0,0,0,0,0,0,0,0,0,0,0,0,0,0,0,0,0,0,0,0,0,0,0,0,0,0,0,0,0,0,0,0,0,0,0,0,0,0,0,0,0,0,0,0,0,0,0,0,0,0,0,0,0,0,0,0,0,0,0,0,0,0,0,0,0,0,0,0,0,0,0,0,0,0,0,0,0,0,0,0,0,0,0,0,0,0,0,0,0,0,0,0,0,0,0,0,0,0,0,0,0,0,0,0,0,0,0,0,0,0,0,0,0,0,0,0,0,0,0,0,0,0,0,0,0,0,0,0,0,0,0,0,0,0,0,0,0,0,0,0,0,0,0,0,0,0,0,0,0,0,0,0,0,0,0,0,0,0,0,0,0,0,0,0,0,0,0,0,0,0,0,0,0,0,0,0,0,0,0,0,0,0,0,0,0,0,0,0,0,0,0,0,0,0,0,0,0,0,0,0,0,0,0,0,0,0,0,0,0,0,0,0,0,0,0,0,0,0,0,0,0,0,0,0,0,0,0,0,0,0,0,0,0,0,0,0,0,0,0,0,0,0,0,0,0,0,0,0,0,0,0,0,0,0,0,0,0,0,0,0,0,0,0,0,0,0,0,0,0,0,0,0,0,0,0,0,0,0,0,0,0,0,0,0,0,0,0,0,0,0,0,0,0,0,0,0,0,0,0,0,0,0,0,0,0,0,0,0,0,0,0,0,0,0],"trees":[{"base_weights":[-6.1006033E-1,-2.3754366E2,3.8474442E2,-3.773776E2,-3.6186684E1,2.6296207E2,5.801636E2,-4.091509E2,1.0664501E1,6.1603912E1,-1.6264783E2,5.0677444E2,1.760497E2,4.9767816E2,7.635806E2,-2.5485605E1,-1.7698467E1,-1.3967864E1,1.3411232E1,-4.0249667E0,1.0171099E1,-1.0831717E0,-1.4884978E1,1.7649237E1,3.478223E1,1.918504E0,1.321259E1,1.6263578E1,2.946023E1,3.873997E1,-1.8213007E1],"categories":[],"categories_nodes":[],"categories_segments":[],"categories_sizes":[],"default_left":[0,0,0,0,0,0,0,0,0,0,0,0,0,0,0,0,0,0,0,0,0,0,0,0,0,0,0,0,0,0,0],"id":0,"left_children":[1,3,5,7,9,11,13,15,17,19,21,23,25,27,29,-1,-1,-1,-1,-1,-1,-1,-1,-1,-1,-1,-1,-1,-1,-1,-1],"loss_changes":[2.7409296E8,5.232935E7,2.7049248E7,1.3529696E7,9.44582E6,1.487114E7,6.246576E6,5.4464E6,6.349566E6,8.702235E6,6.333934E6,5.128008E6,6.328837E6,4.621184E6,1.977744E6,0E0,0E0,0E0,0E0,0E0,0E0,0E0,0E0,0E0,0E0,0E0,0E0,0E0,0E0,0E0,0E0],"parents":[2147483647,0,0,1,1,2,2,3,3,4,4,5,5,6,6,7,7,8,8,9,9,10,10,11,11,12,12,13,13,14,14],"right_children":[2,4,6,8,10,12,14,16,18,20,22,24,26,28,30,-1,-1,-1,-1,-1,-1,-1,-1,-1,-1,-1,-1,-1,-1,-1,-1],"split_conditions":[1.899E3,1.416E3,2.401E3,1.5E0,6.9E1,6.7E1,2.779E3,-2.2E0,1.7E1,0E0,2.6E1,2.3E0,2.098E3,1.58E1,1.48E1,-2.5485605E1,-1.7698467E1,-1.3967864E1,1.3411232E1,-4.0249667E0,1.0171099E1,-1.0831717E0,-1.4884978E1,1.7649237E1,3.478223E1,1.918504E0,1.321259E1,1.6263578E1,2.946023E1,3.873997E1,-1.8213007E1],"split_indices":[3,3,3,20,1,1,3,22,2,20,0,22,3,4,16,0,0,0,0,0,0,0,0,0,0,0,0,0,0,0,0],"split_type":[0,0,0,0,0,0,0,0,0,0,0,0,0,0,0,0,0,0,0,0,0,0,0,0,0,0,0,0,0,0,0],"sum_hessian":[3E3,1.858E3,1.142E3,1.096E3,7.62E2,7.05E2,4.37E2,1.013E3,8.3E1,4.3E2,3.32E2,1.84E2,5.21E2,3.04E2,1.33E2,3.56E2,6.57E2,3.9E1,4.4E1,2.15E2,2.15E2,1.63E2,1.69E2,1.03E2,8.1E1,2.04E2,3.17E2,1.07E2,1.97E2,1.32E2,1E0],"tree_param":{"num_deleted":"0","num_feature":"29","num_nodes":"31","size_leaf_vector":"1"}},{"base_weights":[3.4076307E0,-2.2579613E2,3.5938562E2,-3.484452E2,-4.309022E1,2.4535214E2,5.6449725E2,-3.7493582E2,5.9881805E1,1.3710167E2,-1.1179832E2,1.4166061E2,4.1434567E2,4.8345078E2,7.47507E2,-1.6252865E1,-2.5717667E1,-3.3535092E0,2.2234154E1,-8.668523E-1,1.4814967E1,-2.616981E-1,-1.0300264E1,-7.741256E0,8.923702E0,2.8793182E1,1.7967594E1,-1.2697878E1,2.4979162E1,3.7949295E1,-1.775768E1],"categories":[],"categories_nodes":[],"categories_segments":[],"categories_sizes":[],"default_left":[0,0,0,0,0,0,0,0,0,0,0,0,0,0,0,0,0,0,0,0,0,0,0,0,0,0,0,0,0,0,0],"id":1,"left_children":[1,3,5,7,9,11,13,15,17,19,21,23,25,27,29,-1,-1,-1,-1,-1,-1,-1,-1,-1,-1,-1,-1,-1,-1,-1,-1],"loss_changes":[2.4705861E8,4.126184E7,2.7601552E7,1.1942608E7,9.189384E6,1.3329028E7,5.912672E6,7.030144E6,3.3517125E6,5.045325E6,5.3899205E6,5.212096E6,2.36898E6,3.64816E6,1.889696E6,0E0,0E0,0E0,0E0,0E0,0E0,0E0,0E0,0E0,0E0,0E0,0E0,0E0,0E0,0E0,0E0],"parents":[2147483647,0,0,1,1,2,2,3,3,4,4,5,5,6,6,7,7,8,8,9,9,10,10,11,11,12,12,13,13,14,14],"right_children":[2,4,6,8,10,12,14,16,18,20,22,24,26,28,30,-1,-1,-1,-1,-1,-1,-1,-1,-1,-1,-1,-1,-1,-1,-1,-1],"split_conditions":[1.899E3,1.416E3,2.43E3,1.7E0,6.1E1,1.67E1,2.779E3,2.9E1,3.8E0,1.55E1,2.6E1,-1.9E0,6.3E1,1.08E1,1.48E1,-1.6252865E1,-2.5717667E1,-3.3535092E0,2.2234154E1,-8.668523E-1,1.4814967E1,-2.616981E-1,-1.0300264E1,-7.741256E0,8.923702E0,2.8793182E1,1.7967594E1,-1.2697878E1,2.4979162E1,3.7949295E1,-1.775768E1],"split_indices":[3,3,3,20,1,4,3,0,22,4,0,20,1,4,16,0,0,0,0,0,0,0,0,0,0,0,0,0,0,0,0],"split_type":[0,0,0,0,0,0,0,0,0,0,0,0,0,0,0,0,0,0,0,0,0,0,0,0,0,0,0,0,0,0,0],"sum_hessian":[3.026E3,1.841E3,1.185E3,1.101E3,7.4E2,7.63E2,4.22E2,1.034E3,6.7E1,2.04E2,5.36E2,4.74E2,2.89E2,2.95E2,1.27E2,7.64E2,2.7E2,5.1E1,1.6E1,1.04E2,1E2,2.52E2,2.84E2,5.2E1,4.22E2,7.1E1,2.18E2,6E0,2.89E2,1.26E2,1E0],"tree_param":{"num_deleted":"0","num_feature":"29","num_nodes":"31","size_leaf_vector":"1"}},{"base_weights":[-5.428162E0,-2.7211578E2,2.6881088E2,-3.2136438E2,-4.24373E0,1.7697192E2,5.4583923E2,-3.777561E2,-1.6899411E2,-1.9957616E2,9.971034E1,1.0056802E2,3.3912875E2,3.866176E2,6.182294E2,-2.329957E1,-1.6084417E1,4.524167E0,-1.0677772E1,-4.9869165E0,-2.3593285E1,-5.8110833E0,1.161243E1,3.9315444E-1,1.0970916E1,6.808445E0,1.9957628E1,2.0222158E1,-2.1575432E1,-4.0483837E0,3.1491663E1],"categories":[],"categories_nodes":[],"categories_segments":[],"categories_sizes":[],"default_left":[0,0,0,0,0,0,0,0,0,0,0,0,0,0,0,0,0,0,0,0,0,0,0,0,0,0,0,0,0,0,0],"id":2,"left_children":[1,3,5,7,9,11,13,15,17,19,21,23,25,27,29,-1,-1,-1,-1,-1,-1,-1,-1,-1,-1,-1,-1,-1,-1,-1,-1],"loss_changes":[2.2013986E8,2.013012E7,3.765933E7,1.1011792E7,4.852633E6,1.379248E7,4.014096E6,4.500416E6,4.066253E6,2.209275E6,4.491595E6,8.3719595E6,4.294768E6,1.89538E6,2.09556E6,0E0,0E0,0E0,0E0,0E0,0E0,0E0,0E0,0E0,0E0,0E0,0E0,0E0,0E0,0E0,0E0],"parents":[2147483647,0,0,1,1,2,2,3,3,4,4,5,5,6,6,7,7,8,8,9,9,10,10,11,11,12,12,13,13,14,14],"right_children":[2,4,6,8,10,12,14,16,18,20,22,24,26,28,30,-1,-1,-1,-1,-1,-1,-1,-1,-1,-1,-1,-1,-1,-1,-1,-1],"split_conditions":[1.691E3,1E0,2.481E3,1.366E3,8E-1,1.71E1,1.61E1,8.63E2,2.2E1,3.8E0,2.5E1,2.079E3,1.907E3,2.03E1,3.6E1,-2.329957E1,-1.6084417E1,4.524167E0,-1.0677772E1,-4.9869165E0,-2.3593285E1,-5.8110833E0,1.161243E1,3.9315444E-1,1.0970916E1,6.808445E0,1.9957628E1,2.0222158E1,-2.1575432E1,-4.0483837E0,3.1491663E1],"split_indices":[3,23,3,3,20,4,4,3,0,13,2,3,3,14,2,0,0,0,0,0,0,0,0,0,0,0,0,0,0,0,0],"split_type":[0,0,0,0,0,0,0,0,0,0,0,0,0,0,0,0,0,0,0,0,0,0,0,0,0,0,0,0,0,0,0],"sum_hessian":[3.008E3,1.525E3,1.483E3,1.288E3,2.37E2,1.115E3,3.68E2,9.39E2,3.49E2,8.2E1,1.55E2,7.59E2,3.56E2,1.17E2,2.51E2,3.62E2,5.77E2,5.1E1,2.98E2,6.1E1,2.1E1,5.9E1,9.6E1,4.27E2,3.32E2,8.2E1,2.74E2,1.15E2,2E0,4E0,2.47E2],"tree_param":{"num_deleted":"0","num_feature":"29","num_nodes":"31","size_leaf_vector":"1"}},{"base_weights":[-4.166113E0,-2.6877344E2,2.5390616E2,-3.841798E2,-1.4748987E2,8.158723E1,3.9002136E2,-4.4348816E2,-2.5343732E2,-2.0393472E2,5.921727E1,2.5164148E2,-3.1013474E1,3.0512985E2,5.66341E2,-1.2057403E1,-2.3093927E1,3.685357E-1,-1.5491493E1,-6.3895144E0,-1.881321E1,1.3619806E1,-3.882593E0,-8.608885E0,1.4582077E1,-9.145904E0,7.6898557E-1,2.068402E1,1.0293481E1,3.557662E1,2.410323E1],"categories":[],"categories_nodes":[],"categories_segments":[],"categories_sizes":[],"default_left":[0,0,0,0,0,0,0,0,0,0,0,0,0,0,0,0,0,0,0,0,0,0,0,0,0,0,0,0,0,0,0],"id":3,"left_children":[1,3,5,7,9,11,13,15,17,19,21,23,25,27,29,-1,-1,-1,-1,-1,-1,-1,-1,-1,-1,-1,-1,-1,-1,-1,-1],"loss_changes":[2.0745834E8,2.093868E7,3.604232E7,5.842768E6,8.564396E6,1.30286E7,1.2684736E7,1.849648E6,3.561529E6,7.510148E6,4.6312135E6,4.64442E6,2.8922215E6,6.185744E6,3.058656E6,0E0,0E0,0E0,0E0,0E0,0E0,0E0,0E0,0E0,0E0,0E0,0E0,0E0,0E0,0E0,0E0],"parents":[2147483647,0,0,1,1,2,2,3,3,4,4,5,5,6,6,7,7,8,8,9,9,10,10,11,11,12,12,13,13,14,14],"right_children":[2,4,6,8,10,12,14,16,18,20,22,24,26,28,30,-1,-1,-1,-1,-1,-1,-1,-1,-1,-1,-1,-1,-1,-1,-1,-1],"split_conditions":[1.672E3,3E-1,2.098E3,1.234E3,1.2E0,6.7E1,2.569E3,2.1E1,2.2E1,2.9E1,5.4E1,1.17E1,2.6E0,7.5E1,2.5E1,-1.2057403E1,-2.3093927E1,3.685357E-1,-1.5491493E1,-6.3895144E0,-1.881321E1,1.3619806E1,-3.882593E0,-8.608885E0,1.4582077E1,-9.145904E0,7.6898557E-1,2.068402E1,1.0293481E1,3.557662E1,2.410323E1],"split_indices":[3,23,3,3,23,1,3,0,0,0,1,4,18,1,0,0,0,0,0,0,0,0,0,0,0,0,0,0,0,0,0],"split_type":[0,0,0,0,0,0,0,0,0,0,0,0,0,0,0,0,0,0,0,0,0,0,0,0,0,0,0,0,0,0,0],"sum_hessian":[3.036E3,1.499E3,1.537E3,7.67E2,7.32E2,6.79E2,8.58E2,5.26E2,2.41E2,5.75E2,1.57E2,2.7E2,4.09E2,5.81E2,2.77E2,4.5E1,4.81E2,4.3E1,1.98E2,4E2,1.75E2,6.1E1,9.6E1,2.3E1,2.47E2,9.5E1,3.14E2,2.76E2,3.05E2,9.9E1,1.78E2],"tree_param":{"num_deleted":"0","num_feature":"29","num_nodes":"31","size_leaf_vector":"1"}},{"base_weights":[-1.2771372E0,-1.769296E2,2.627852E2,-3.0684653E2,-4.303642E1,1.5134291E2,4.585467E2,-3.8707626E2,-1.9827614E2,-1.800003E2,8.599908E1,2.1821376E2,1.2202764E1,5.1981647E2,2.7827042E2,-2.1094648E1,-1.0287117E1,-3.5632584E0,-1.5779937E1,-1.2658608E1,-1.9170774E0,-1.1193895E0,1.1568107E1,1.299175E1,-4.6718655E0,-8.00508E0,4.687463E0,-2.3786257E1,2.637268E1,8.995012E0,2.3384394E1],"categories":[],"categories_nodes":[],"categories_segments":[],"categories_sizes":[],"default_left":[0,0,0,0,0,0,0,0,0,0,0,0,0,0,0,0,0,0,0,0,0,0,0,0,0,0,0,0,0,0,0],"id":4,"left_children":[1,3,5,7,9,11,13,15,17,19,21,23,25,27,29,-1,-1,-1,-1,-1,-1,-1,-1,-1,-1,-1,-1,-1,-1,-1,-1],"loss_changes":[1.4003098E8,3.1523912E7,2.6240824E7,7.936984E6,1.5815323E7,7.16174E6,4.682224E6,3.246704E6,5.833702E6,4.488893E6,7.2684395E6,6.769356E6,3.5417642E6,2.721944E6,2.021395E6,0E0,0E0,0E0,0E0,0E0,0E0,0E0,0E0,0E0,0E0,0E0,0E0,0E0,0E0,0E0,0E0],"parents":[2147483647,0,0,1,1,2,2,3,3,4,4,5,5,6,6,7,7,8,8,9,9,10,10,11,11,12,12,13,13,14,14],"right_children":[2,4,6,8,10,12,14,16,18,20,22,24,26,28,30,-1,-1,-1,-1,-1,-1,-1,-1,-1,-1,-1,-1,-1,-1,-1,-1],"split_conditions":[1E0,1.9E1,2.3E0,1.1E0,1.8E1,5.79E-1,3E1,1.5E0,2.6E1,1.7E0,5.1E1,1.7E0,2.3E1,1.7E0,2.61E1,-2.1094648E1,-1.0287117E1,-3.5632584E0,-1.5779937E1,-1.2658608E1,-1.9170774E0,-1.1193895E0,1.1568107E1,1.299175E1,-4.6718655E0,-8.00508E0,4.687463E0,-2.3786257E1,2.637268E1,8.995012E0,2.3384394E1],"split_indices":[23,2,23,17,15,5,0,16,0,17,2,21,2,16,15,0,0,0,0,0,0,0,0,0,0,0,0,0,0,0,0],"split_type":[0,0,0,0,0,0,0,0,0,0,0,0,0,0,0,0,0,0,0,0,0,0,0,0,0,0,0,0,0,0,0],"sum_hessian":[3.017E3,1.812E3,1.205E3,9.19E2,8.93E2,7.69E2,4.36E2,5.27E2,3.92E2,4.33E2,4.6E2,5.19E2,2.5E2,3.24E2,1.12E2,4.41E2,8.6E1,1.89E2,2.03E2,2.85E2,1.48E2,2.64E2,1.96E2,4.58E2,6.1E1,8E1,1.7E2,2E0,3.22E2,7.5E1,3.7E1],"tree_param":{"num_deleted":"0","num_feature":"29","num_nodes":"31","size_leaf_vector":"1"}},{"base_weights":[-2.3693554E0,-2.5042874E2,2.2399217E2,-3.4141995E2,-1.4943349E2,8.079692E1,3.7968848E2,-3.9362906E2,-2.2481824E2,-7.9544785E1,-2.9707315E2,2.2326584E2,-1.2921795E1,2.9714423E2,5.196319E2,-1.0106914E1,-2.0601738E1,2.1068244E-1,-1.36959E1,-1.5594986E1,-1.6197475E0,-1.6786509E1,1.0960148E1,-1.4818779E1,1.2108644E1,4.492599E0,-4.7842917E0,3.0467133E1,1.3096535E1,3.314207E1,2.1842424E1],"categories":[],"categories_nodes":[],"categories_segments":[],"categories_sizes":[],"default_left":[0,0,0,0,0,0,0,0,0,0,0,0,0,0,0,0,0,0,0,0,0,0,0,0,0,0,0,0,0,0,0],"id":5,"left_children":[1,3,5,7,9,11,13,15,17,19,21,23,25,27,29,-1,-1,-1,-1,-1,-1,-1,-1,-1,-1,-1,-1,-1,-1,-1,-1],"loss_changes":[1.7064314E8,1.3274024E7,3.539603E7,4.550304E6,7.085708E6,1.1071698E7,8.636304E6,1.76708E6,2.677561E6,5.1280235E6,4.484244E6,3.304156E6,4.2700895E6,5.12832E6,3.0418E6,0E0,0E0,0E0,0E0,0E0,0E0,0E0,0E0,0E0,0E0,0E0,0E0,0E0,0E0,0E0,0E0],"parents":[2147483647,0,0,1,1,2,2,3,3,4,4,5,5,6,6,7,7,8,8,9,9,10,10,11,11,12,12,13,13,14,14],"right_children":[2,4,6,8,10,12,14,16,18,20,22,24,26,28,30,-1,-1,-1,-1,-1,-1,-1,-1,-1,-1,-1,-1,-1,-1,-1,-1],"split_conditions":[1.643E3,3E-1,2.164E3,1.234E3,2.9E1,6.7E1,2.569E3,2.1E1,2.2E1,9.13E2,1.8E0,1.06E1,2.6E1,6.7E1,2.5E1,-1.0106914E1,-2.0601738E1,2.1068244E-1,-1.36959E1,-1.5594986E1,-1.6197475E0,-1.6786509E1,1.0960148E1,-1.4818779E1,1.2108644E1,4.492599E0,-4.7842917E0,3.0467133E1,1.3096535E1,3.314207E1,2.1842424E1],"split_indices":[3,23,3,3,0,1,3,0,0,3,23,4,0,1,0,0,0,0,0,0,0,0,0,0,0,0,0,0,0,0,0],"split_type":[0,0,0,0,0,0,0,0,0,0,0,0,0,0,0,0,0,0,0,0,0,0,0,0,0,0,0,0,0,0,0],"sum_hessian":[3.037E3,1.449E3,1.588E3,7.61E2,6.88E2,8.28E2,7.6E2,5.24E2,2.37E2,4.68E2,2.2E2,3.28E2,5E2,4.8E2,2.8E2,4.7E1,4.77E2,4.2E1,1.95E2,7.8E1,3.9E2,2.05E2,1.5E1,1.1E1,3.17E2,2.23E2,2.77E2,4.7E1,4.33E2,1E2,1.8E2],"tree_param":{"num_deleted":"0","num_feature":"29","num_nodes":"31","size_leaf_vector":"1"}},{"base_weights":[-2.0257054E-1,-1.4803067E2,2.6707303E2,-2.1244017E2,7.13849E1,4.40489E1,3.4961832E2,-2.804598E2,-1.0001905E2,2.0652591E2,-8.953206E1,-9.12767E1,2.2449152E2,2.742066E2,4.7828006E2,-1.818389E1,-9.018483E0,-1.13811E0,-1.3035357E1,1.3072486E1,-5.093948E0,1.0237861E1,-7.3066072E0,-1.3548633E0,-2.27366E1,1.5351344E1,-1.7840575E0,2.3242174E1,1.0772263E1,2.7351608E1,1.5382407E1],"categories":[],"categories_nodes":[],"categories_segments":[],"categories_sizes":[],"default_left":[0,0,0,0,0,0,0,0,0,0,0,0,0,0,0,0,0,0,0,0,0,0,0,0,0,0,0,0,0,0,0],"id":6,"left_children":[1,3,5,7,9,11,13,15,17,19,21,23,25,27,29,-1,-1,-1,-1,-1,-1,-1,-1,-1,-1,-1,-1,-1,-1,-1,-1],"loss_changes":[1.19046216E8,2.74321E7,1.9738096E7,1.1442216E7,9.608688E6,7.126276E6,7.465984E6,7.713968E6,7.03295E6,4.091941E6,3.3945945E6,3.883179E6,2.695136E6,5.456084E6,3.210328E6,0E0,0E0,0E0,0E0,0E0,0E0,0E0,0E0,0E0,0E0,0E0,0E0,0E0,0E0,0E0,0E0],"parents":[2147483647,0,0,1,1,2,2,3,3,4,4,5,5,6,6,7,7,8,8,9,9,10,10,11,11,12,12,13,13,14,14],"right_children":[2,4,6,8,10,12,14,16,18,20,22,24,26,28,30,-1,-1,-1,-1,-1,-1,-1,-1,-1,-1,-1,-1,-1,-1,-1,-1],"split_conditions":[5.5E1,1E0,-2E-1,1.9E1,2.7E1,1.8E1,2.8E0,1.9E0,2.8E1,1.7E0,5E1,1.66E1,1E0,5.33E-1,2.9E1,-1.818389E1,-9.018483E0,-1.13811E0,-1.3035357E1,1.3072486E1,-5.093948E0,1.0237861E1,-7.3066072E0,-1.3548633E0,-2.27366E1,1.5351344E1,-1.7840575E0,2.3242174E1,1.0772263E1,2.7351608E1,1.5382407E1],"split_indices":[2,23,20,2,0,15,23,18,0,21,1,10,25,5,0,0,0,0,0,0,0,0,0,0,0,0,0,0,0,0,0],"split_type":[0,0,0,0,0,0,0,0,0,0,0,0,0,0,0,0,0,0,0,0,0,0,0,0,0,0,0,0,0,0,0],"sum_hessian":[3.011E3,1.939E3,1.072E3,1.499E3,4.4E2,2.9E2,7.82E2,9.33E2,5.66E2,2.39E2,2.01E2,1.66E2,1.24E2,4.95E2,2.87E2,5.08E2,4.25E2,3.83E2,1.83E2,2.03E2,3.6E1,3.2E1,1.69E2,1.42E2,2.4E1,9.4E1,3E1,1.15E2,3.8E2,2.03E2,8.4E1],"tree_param":{"num_deleted":"0","num_feature":"29","num_nodes":"31","size_leaf_vector":"1"}},{"base_weights":[-4.1323295E0,-1.7409315E2,2.6530017E2,-2.6313583E2,-4.553281E1,1.7869153E2,4.2670343E2,-2.819443E2,1.0780539E2,3.860218E1,-1.5446968E2,3.5770667E2,1.2015013E2,3.5922885E2,5.7142126E2,-1.2236346E1,-1.9278149E1,-6.5339E0,1.7556435E1,-4.4002943E0,8.310191E0,-8.8114357E-1,-1.2303447E1,-4.090835E-2,2.153935E1,-5.8523667E-1,9.853372E0,1.1093471E1,2.126475E1,2.6478067E1,4.0802685E1],"categories":[],"categories_nodes":[],"categories_segments":[],"categories_sizes":[],"default_left":[0,0,0,0,0,0,0,0,0,0,0,0,0,0,0,0,0,0,0,0,0,0,0,0,0,0,0,0,0,0,0],"id":7,"left_children":[1,3,5,7,9,11,13,15,17,19,21,23,25,27,29,-1,-1,-1,-1,-1,-1,-1,-1,-1,-1,-1,-1,-1,-1,-1,-1],"loss_changes":[1.3957736E8,2.1383128E7,1.6404896E7,7.732832E6,7.0266615E6,8.015988E6,3.808056E6,3.958736E6,3.1794272E6,7.0099145E6,4.182375E6,4.95236E6,5.894761E6,2.473812E6,8.88848E5,0E0,0E0,0E0,0E0,0E0,0E0,0E0,0E0,0E0,0E0,0E0,0E0,0E0,0E0,0E0,0E0],"parents":[2147483647,0,0,1,1,2,2,3,3,4,4,5,5,6,6,7,7,8,8,9,9,10,10,11,11,12,12,13,13,14,14],"right_children":[2,4,6,8,10,12,14,16,18,20,22,24,26,28,30,-1,-1,-1,-1,-1,-1,-1,-1,-1,-1,-1,-1,-1,-1,-1,-1],"split_conditions":[1.899E3,1.416E3,2.448E3,1.98E1,6.9E1,6.7E1,2.779E3,2.9E1,2E1,0E0,2.5E1,9.2E0,2.098E3,1.58E1,4.82E-1,-1.2236346E1,-1.9278149E1,-6.5339E0,1.7556435E1,-4.4002943E0,8.310191E0,-8.8114357E-1,-1.2303447E1,-4.090835E-2,2.153935E1,-5.8523667E-1,9.853372E0,1.1093471E1,2.126475E1,2.6478067E1,4.0802685E1],"split_indices":[3,3,3,4,1,1,3,0,2,20,0,11,3,4,7,0,0,0,0,0,0,0,0,0,0,0,0,0,0,0,0],"split_type":[0,0,0,0,0,0,0,0,0,0,0,0,0,0,0,0,0,0,0,0,0,0,0,0,0,0,0,0,0,0,0],"sum_hessian":[3.046E3,1.868E3,1.178E3,1.103E3,7.65E2,7.68E2,4.1E2,1.05E3,5.3E1,4.32E2,3.33E2,1.88E2,5.8E2,2.82E2,1.28E2,7.75E2,2.75E2,2.7E1,2.6E1,2.17E2,2.15E2,1.34E2,1.99E2,3.2E1,1.56E2,2.14E2,3.66E2,9.3E1,1.89E2,1.12E2,1.6E1],"tree_param":{"num_deleted":"0","num_feature":"29","num_nodes":"31","size_leaf_vector":"1"}},{"base_weights":[1.4111049E0,-1.3697453E2,2.5083464E2,-2.5036113E2,-1.9206932E1,1.5205617E2,3.948592E2,-3.333617E2,-1.6099954E2,-1.7929997E2,1.07061615E2,2.2505392E2,-2.3399517E1,4.8299164E2,3.0208548E2,-1.0523356E1,-1.9343138E1,-4.020129E-1,-1.2355296E1,-1.2950772E1,-2.542817E0,7.574563E0,-5.1091566E0,2.1012377E1,8.281734E0,-1.8923388E1,1.1344068E0,-2.0288336E1,2.4639109E1,6.983463E0,1.881805E1],"categories":[],"categories_nodes":[],"categories_segments":[],"categories_sizes":[],"default_left":[0,0,0,0,0,0,0,0,0,0,0,0,0,0,0,0,0,0,0,0,0,0,0,0,0,0,0,0,0,0,0],"id":8,"left_children":[1,3,5,7,9,11,13,15,17,19,21,23,25,27,29,-1,-1,-1,-1,-1,-1,-1,-1,-1,-1,-1,-1,-1,-1,-1,-1],"loss_changes":[1.05241064E8,2.6180948E7,1.5418416E7,7.355976E6,1.9485968E7,8.291961E6,3.468056E6,3.317844E6,6.359497E6,4.338379E6,5.026384E6,5.230794E6,3.1341602E6,2.157764E6,2.577288E6,0E0,0E0,0E0,0E0,0E0,0E0,0E0,0E0,0E0,0E0,0E0,0E0,0E0,0E0,0E0,0E0],"parents":[2147483647,0,0,1,1,2,2,3,3,4,4,5,5,6,6,7,7,8,8,9,9,10,10,11,11,12,12,13,13,14,14],"right_children":[2,4,6,8,10,12,14,16,18,20,22,24,26,28,30,-1,-1,-1,-1,-1,-1,-1,-1,-1,-1,-1,-1,-1,-1,-1,-1],"split_conditions":[4.2E0,1.9E1,2.3E0,1.9E0,1.81E1,1.46E-1,2.7E1,2.3E1,5.42E-1,1.6E0,3E1,2.4E1,-5E-1,1.36E-1,7.1E0,-1.0523356E1,-1.9343138E1,-4.020129E-1,-1.2355296E1,-1.2950772E1,-2.542817E0,7.574563E0,-5.1091566E0,2.1012377E1,8.281734E0,-1.8923388E1,1.1344068E0,-2.0288336E1,2.4639109E1,6.983463E0,1.881805E1],"split_indices":[18,2,23,18,15,19,0,0,5,17,0,0,20,7,18,0,0,0,0,0,0,0,0,0,0,0,0,0,0,0,0],"split_type":[0,0,0,0,0,0,0,0,0,0,0,0,0,0,0,0,0,0,0,0,0,0,0,0,0,0,0,0,0,0,0],"sum_hessian":[3.047E3,1.96E3,1.087E3,9.98E2,9.62E2,6.46E2,4.41E2,5.16E2,4.82E2,4.24E2,5.38E2,4.56E2,1.9E2,2.24E2,2.17E2,1.58E2,3.58E2,1.74E2,3.08E2,2.61E2,1.63E2,4.44E2,9.4E1,1.05E2,3.51E2,2.1E1,1.69E2,2E0,2.22E2,6.9E1,1.48E2],"tree_param":{"num_deleted":"0","num_feature":"29","num_nodes":"31","size_leaf_vector":"1"}},{"base_weights":[-2.0385392E0,-1.4362494E2,2.7516156E2,-2.3796881E2,-2.6222746E1,1.9798473E2,3.9964337E2,-3.4719418E2,-1.8457613E2,-3.025737E2,1.8205196E0,3.9106863E2,1.4464319E2,3.4051712E2,5.341888E2,-1.4129381E1,-2.3225832E1,-5.9064345E0,-1.7445036E1,-1.579181E0,-2.070815E1,6.985517E0,-2.2452743E0,2.248952E1,4.150507E0,1.0152803E1,-4.181529E-1,5.3868303E0,1.9238653E1,3.0090235E1,1.2355105E1],"categories":[],"categories_nodes":[],"categories_segments":[],"categories_sizes":[],"default_left":[0,0,0,0,0,0,0,0,0,0,0,0,0,0,0,0,0,0,0,0,0,0,0,0,0,0,0,0,0,0,0],"id":9,"left_children":[1,3,5,7,9,11,13,15,17,19,21,23,25,27,29,-1,-1,-1,-1,-1,-1,-1,-1,-1,-1,-1,-1,-1,-1,-1,-1],"loss_changes":[1.1829303E8,2.209074E7,9.71052E6,6.38592E6,6.897858E6,6.442354E6,2.912656E6,2.61262E6,8.0934E6,2.4665655E6,5.2186935E6,2.422864E6,4.434715E6,2.77097E6,2.122452E6,0E0,0E0,0E0,0E0,0E0,0E0,0E0,0E0,0E0,0E0,0E0,0E0,0E0,0E0,0E0,0E0],"parents":[2147483647,0,0,1,1,2,2,3,3,4,4,5,5,6,6,7,7,8,8,9,9,10,10,11,11,12,12,13,13,14,14],"right_children":[2,4,6,8,10,12,14,16,18,20,22,24,26,28,30,-1,-1,-1,-1,-1,-1,-1,-1,-1,-1,-1,-1,-1,-1,-1,-1],"split_conditions":[1.999E3,1.416E3,2.448E3,-2.2E0,-2.4E0,6.7E1,2.796E3,5.2E-1,2.9E1,2.2E1,2.4E1,5.9E-1,3E1,1.73E1,2.95E1,-1.4129381E1,-2.3225832E1,-5.9064345E0,-1.7445036E1,-1.579181E0,-2.070815E1,6.985517E0,-2.2452743E0,2.248952E1,4.150507E0,1.0152803E1,-4.181529E-1,5.3868303E0,1.9238653E1,3.0090235E1,1.2355105E1],"split_indices":[3,3,3,22,20,1,3,5,0,0,0,5,0,15,15,0,0,0,0,0,0,0,0,0,0,0,0,0,0,0,0],"split_type":[0,0,0,0,0,0,0,0,0,0,0,0,0,0,0,0,0,0,0,0,0,0,0,0,0,0,0,0,0,0,0],"sum_hessian":[3.012E3,1.994E3,1.018E3,1.105E3,8.89E2,6.3E2,3.88E2,3.61E2,7.44E2,8.1E1,8.08E2,1.35E2,4.95E2,2.72E2,1.16E2,2.35E2,1.26E2,5.31E2,2.13E2,2.4E1,5.7E1,2.04E2,6.04E2,1.13E2,2.2E1,3.58E2,1.37E2,4.4E1,2.28E2,9.3E1,2.3E1],"tree_param":{"num_deleted":"0","num_feature":"29","num_nodes":"31","size_leaf_vector":"1"}},{"base_weights":[-1.046157E0,-1.5181636E2,2.3731892E2,-2.3279932E2,-3.4065773E1,1.1521248E2,3.4229865E2,-2.4937996E2,1.1806072E2,8.932937E1,-8.5165695E1,-1.6073666E2,1.579184E2,2.8241653E2,4.8943683E2,-1.4699161E1,-8.691498E0,1.5433013E1,-3.487442E0,5.4444904E0,-3.1486734E1,-3.299818E1,-3.8130805E0,-3.9587438E0,-2.49403E1,2.4243667E0,1.2172405E1,2.0577566E1,1.230144E1,2.4856373E1,-2.2179586E1],"categories":[],"categories_nodes":[],"categories_segments":[],"categories_sizes":[],"default_left":[0,0,0,0,0,0,0,0,0,0,0,0,0,0,0,0,0,0,0,0,0,0,0,0,0,0,0,0,0,0,0],"id":10,"left_children":[1,3,5,7,9,11,13,15,17,19,21,23,25,27,29,-1,-1,-1,-1,-1,-1,-1,-1,-1,-1,-1,-1,-1,-1,-1,-1],"loss_changes":[1.0824641E8,1.75856E7,1.491998E7,6.38796E6,4.755636E6,6.4008845E6,5.38624E6,3.466944E6,1.8113492E6,3.1769835E6,2.67759E6,1.9733755E6,4.377852E6,2.003864E6,1.512124E6,0E0,0E0,0E0,0E0,0E0,0E0,0E0,0E0,0E0,0E0,0E0,0E0,0E0,0E0,0E0,0E0],"parents":[2147483647,0,0,1,1,2,2,3,3,4,4,5,5,6,6,7,7,8,8,9,9,10,10,11,11,12,12,13,13,14,14],"right_children":[2,4,6,8,10,12,14,16,18,20,22,24,26,28,30,-1,-1,-1,-1,-1,-1,-1,-1,-1,-1,-1,-1,-1,-1,-1,-1],"split_conditions":[1.899E3,1.416E3,2.1E1,2.2E0,6.2E1,2E-1,2.613E3,1.87E1,4.1E1,2.95E1,-1.4E0,1.49E1,2.172E3,6.5E1,1.48E1,-1.4699161E1,-8.691498E0,1.5433013E1,-3.487442E0,5.4444904E0,-3.1486734E1,-3.299818E1,-3.8130805E0,-3.9587438E0,-2.49403E1,2.4243667E0,1.2172405E1,2.0577566E1,1.230144E1,2.4856373E1,-2.2179586E1],"split_indices":[3,3,15,20,1,23,3,15,1,9,16,14,3,1,16,0,0,0,0,0,0,0,0,0,0,0,0,0,0,0,0],"split_type":[0,0,0,0,0,0,0,0,0,0,0,0,0,0,0,0,0,0,0,0,0,0,0,0,0,0,0,0,0,0,0],"sum_hessian":[3.01E3,1.844E3,1.166E3,1.092E3,7.52E2,5.4E2,6.26E2,1.043E3,4.9E1,2.2E2,5.32E2,7.2E1,4.68E2,4.47E2,1.79E2,6.54E2,3.89E2,2.4E1,2.5E1,2.15E2,5E0,7E0,5.25E2,5.9E1,1.3E1,2.06E2,2.62E2,9.6E1,3.51E2,1.78E2,1E0],"tree_param":{"num_deleted":"0","num_feature":"29","num_nodes":"31","size_leaf_vector":"1"}},{"base_weights":[-2.9216332E0,-1.4470424E2,2.2520311E2,-2.2395473E2,-3.1903063E1,1.6478967E2,3.6999554E2,-3.294954E2,-1.7489139E2,-1.4204912E2,2.6613863E1,4.7334747E1,2.2321643E2,-2.3763243E2,3.8344174E2,-1.8334291E1,-6.2690563E0,-1.19839735E1,-2.688246E0,1.4755986E1,-7.745235E0,4.755506E0,-5.8842854E0,1.1290077E0,1.8029455E1,-3.9868913E0,1.207681E1,1.1791832E1,-2.8444061E1,1.6036924E1,2.2910975E1],"categories":[],"categories_nodes":[],"categories_segments":[],"categories_sizes":[],"default_left":[0,0,0,0,0,0,0,0,0,0,0,0,0,0,0,0,0,0,0,0,0,0,0,0,0,0,0,0,0,0,0],"id":11,"left_children":[1,3,5,7,9,11,13,15,17,19,21,23,25,27,29,-1,-1,-1,-1,-1,-1,-1,-1,-1,-1,-1,-1,-1,-1,-1,-1],"loss_changes":[9.7970584E7,1.6691928E7,1.0094768E7,5.622836E6,4.979636E6,5.623554E6,2.877184E6,2.588136E6,5.880624E6,1.551889E6,5.002603E6,2.1165865E6,3.060686E6,1.3888514E6,1.419096E6,0E0,0E0,0E0,0E0,0E0,0E0,0E0,0E0,0E0,0E0,0E0,0E0,0E0,0E0,0E0,0E0],"parents":[2147483647,0,0,1,1,2,2,3,3,4,4,5,5,6,6,7,7,8,8,9,9,10,10,11,11,12,12,13,13,14,14],"right_children":[2,4,6,8,10,12,14,16,18,20,22,24,26,28,30,-1,-1,-1,-1,-1,-1,-1,-1,-1,-1,-1,-1,-1,-1,-1,-1],"split_conditions":[1.899E3,1.416E3,2.5E0,-2.2E0,-1.1E0,2.098E3,4.8E0,1.241E3,1.96E1,6.7E0,5.81E-1,2.68E1,-1.9E0,5.7E0,2.569E3,-1.8334291E1,-6.2690563E0,-1.19839735E1,-2.688246E0,1.4755986E1,-7.745235E0,4.755506E0,-5.8842854E0,1.1290077E0,1.8029455E1,-3.9868913E0,1.207681E1,1.1791832E1,-2.8444061E1,1.6036924E1,2.2910975E1],"split_indices":[3,3,23,22,22,3,10,3,15,14,5,15,20,16,3,0,0,0,0,0,0,0,0,0,0,0,0,0,0,0,0],"split_type":[0,0,0,0,0,0,0,0,0,0,0,0,0,0,0,0,0,0,0,0,0,0,0,0,0,0,0,0,0,0,0],"sum_hessian":[3.027E3,1.867E3,1.16E3,1.096E3,7.71E2,8.2E2,3.4E2,3.46E2,7.5E2,2.67E2,5.04E2,2.73E2,5.47E2,7E0,3.33E2,2.92E2,5.4E1,4.88E2,2.62E2,7E0,2.6E2,3.42E2,1.62E2,2.54E2,1.9E1,3.1E1,5.16E2,3E0,4E0,1.84E2,1.49E2],"tree_param":{"num_deleted":"0","num_feature":"29","num_nodes":"31","size_leaf_vector":"1"}},{"base_weights":[-2.7339715E-1,-1.7555449E2,1.6432E2,-2.4672281E2,-9.805333E1,9.321228E1,3.4084677E2,-1.4382465E2,-2.8822424E2,-1.9746555E1,-2.181278E2,2.170946E2,3.4830086E1,3.4684802E2,-4.1050342E2,-1.3331917E1,-5.242232E-1,-1.5997574E1,-8.447526E0,3.9743245E0,-4.7762465E0,-1.2151988E1,1.1660178E1,7.391083E0,1.8739857E1,-1.7327204E0,6.315356E0,2.2436415E1,1.4822486E1,-3.0744461E1,5.0663514E0],"categories":[],"categories_nodes":[],"categories_segments":[],"categories_sizes":[],"default_left":[0,0,0,0,0,0,0,0,0,0,0,0,0,0,0,0,0,0,0,0,0,0,0,0,0,0,0,0,0,0,0],"id":12,"left_children":[1,3,5,7,9,11,13,15,17,19,21,23,25,27,29,-1,-1,-1,-1,-1,-1,-1,-1,-1,-1,-1,-1,-1,-1,-1,-1],"loss_changes":[8.7156184E7,8.045172E6,1.9524892E7,3.212608E6,6.5963505E6,8.035004E6,2.15792E6,3.6163005E6,1.996996E6,3.2109928E6,3.17114E6,3.833726E6,4.8160475E6,2.146732E6,4.807485E5,0E0,0E0,0E0,0E0,0E0,0E0,0E0,0E0,0E0,0E0,0E0,0E0,0E0,0E0,0E0,0E0],"parents":[2147483647,0,0,1,1,2,2,3,3,4,4,5,5,6,6,7,7,8,8,9,9,10,10,11,11,12,12,13,13,14,14],"right_children":[2,4,6,8,10,12,14,16,18,20,22,24,26,28,30,-1,-1,-1,-1,-1,-1,-1,-1,-1,-1,-1,-1,-1,-1,-1,-1],"split_conditions":[1.654E3,3E-1,2.401E3,2.3E1,2.8E1,6.7E1,3.5E0,6E1,1E0,1.46E1,2.74E1,2.3E0,2.098E3,2.5E1,2.64E3,-1.3331917E1,-5.242232E-1,-1.5997574E1,-8.447526E0,3.9743245E0,-4.7762465E0,-1.2151988E1,1.1660178E1,7.391083E0,1.8739857E1,-1.7327204E0,6.315356E0,2.2436415E1,1.4822486E1,-3.0744461E1,5.0663514E0],"split_indices":[3,23,3,0,0,1,12,1,25,9,15,22,3,0,3,0,0,0,0,0,0,0,0,0,0,0,0,0,0,0,0],"split_type":[0,0,0,0,0,0,0,0,0,0,0,0,0,0,0,0,0,0,0,0,0,0,0,0,0,0,0,0,0,0,0],"sum_hessian":[3.019E3,1.462E3,1.557E3,7.61E2,7.01E2,1.111E3,4.46E2,2.2E2,5.41E2,4.25E2,2.76E2,3.55E2,7.56E2,4.43E2,3E0,1.14E2,1.06E2,4.26E2,1.15E2,1.84E2,2.41E2,2.62E2,1.4E1,2.48E2,1.07E2,4.3E2,3.26E2,1.44E2,2.99E2,2E0,1E0],"tree_param":{"num_deleted":"0","num_feature":"29","num_nodes":"31","size_leaf_vector":"1"}},{"base_weights":[6.430199E0,-1.6533783E2,1.6209769E2,-1.8210751E2,2.3055731E2,5.0108402E1,2.5495633E2,-7.066237E1,-2.1370598E2,-1.1334562E2,3.50373E2,1.5648988E2,-2.0032864E1,2.2147418E2,4.4022046E2,-1.2917414E1,9.2897844E-1,-1.3924189E1,-7.822782E0,-8.767904E0,1.0691386E1,2.2847307E1,7.7115264E0,9.81861E0,-4.7346396E0,2.5398695E0,-5.2321877E0,5.8493133E0,1.3487716E1,2.2523603E1,-2.2568436E1],"categories":[],"categories_nodes":[],"categories_segments":[],"categories_sizes":[],"default_left":[0,0,0,0,0,0,0,0,0,0,0,0,0,0,0,0,0,0,0,0,0,0,0,0,0,0,0,0,0,0,0],"id":13,"left_children":[1,3,5,7,9,11,13,15,17,19,21,23,25,27,29,-1,-1,-1,-1,-1,-1,-1,-1,-1,-1,-1,-1,-1,-1,-1,-1],"loss_changes":[8.104506E7,9.60884E6,1.6521908E7,4.855128E6,2.470806E6,5.390505E6,5.292944E6,5.146882E6,3.950536E6,3.6211756E5,8.492795E5,2.8936895E6,2.6182685E6,3.691424E6,1.409836E6,0E0,0E0,0E0,0E0,0E0,0E0,0E0,0E0,0E0,0E0,0E0,0E0,0E0,0E0,0E0,0E0],"parents":[2147483647,0,0,1,1,2,2,3,3,4,4,5,5,6,6,7,7,8,8,9,9,10,10,11,11,12,12,13,13,14,14],"right_children":[2,4,6,8,10,12,14,16,18,20,22,24,26,28,30,-1,-1,-1,-1,-1,-1,-1,-1,-1,-1,-1,-1,-1,-1,-1,-1],"split_conditions":[1.643E3,3E0,2.098E3,2.3E1,1.3E1,6.7E1,2.779E3,9E-1,-1.2E0,4.2E0,2.3E0,4.94E-1,2.7E1,9.2E-2,1.48E1,-1.2917414E1,9.2897844E-1,-1.3924189E1,-7.822782E0,-8.767904E0,1.0691386E1,2.2847307E1,7.7115264E0,9.81861E0,-4.7346396E0,2.5398695E0,-5.2321877E0,5.8493133E0,1.3487716E1,2.2523603E1,-2.2568436E1],"split_indices":[3,22,3,0,2,1,3,18,22,16,13,6,0,19,16,0,0,0,0,0,0,0,0,0,0,0,0,0,0,0,0],"split_type":[0,0,0,0,0,0,0,0,0,0,0,0,0,0,0,0,0,0,0,0,0,0,0,0,0,0,0,0,0,0,0],"sum_hessian":[3.029E3,1.44E3,1.589E3,1.382E3,5.8E1,7.21E2,8.68E2,3.06E2,1.076E3,1.5E1,4.3E1,2.86E2,4.35E2,7.37E2,1.31E2,9.8E1,2.08E2,5.03E2,5.73E2,1.3E1,2E0,2.7E1,1.6E1,2.47E2,3.9E1,2.37E2,1.98E2,2.34E2,5.03E2,1.3E2,1E0],"tree_param":{"num_deleted":"0","num_feature":"29","num_nodes":"31","size_leaf_vector":"1"}},{"base_weights":[1.3095211E0,-1.2228118E2,1.9577737E2,-2.1760909E2,-4.615915E1,1.0941532E2,2.9236798E2,1.26091515E2,-2.3861555E2,5.414182E1,-1.34318E2,8.617091E1,4.752275E2,2.4458304E2,4.0192474E2,-4.984573E0,1.6889975E1,-1.598087E1,-9.122604E0,-2.9662311E-2,9.086761E0,5.817322E0,-8.470139E0,5.6044683E0,-1.2641032E1,3.0402267E1,5.300882E0,1.4312136E1,5.897926E0,2.3262926E1,1.2645619E1],"categories":[],"categories_nodes":[],"categories_segments":[],"categories_sizes":[],"default_left":[0,0,0,0,0,0,0,0,0,0,0,0,0,0,0,0,0,0,0,0,0,0,0,0,0,0,0,0,0,0,0],"id":14,"left_children":[1,3,5,7,9,11,13,15,17,19,21,23,25,27,29,-1,-1,-1,-1,-1,-1,-1,-1,-1,-1,-1,-1,-1,-1,-1,-1],"loss_changes":[7.280017E7,1.342909E7,9.786264E6,5.964876E6,9.123806E6,5.2564735E6,2.807212E6,2.3280788E6,3.467428E6,3.3733E6,4.847894E6,5.1858E6,1.7499295E6,2.018262E6,1.458396E6,0E0,0E0,0E0,0E0,0E0,0E0,0E0,0E0,0E0,0E0,0E0,0E0,0E0,0E0,0E0,0E0],"parents":[2147483647,0,0,1,1,2,2,3,3,4,4,5,5,6,6,7,7,8,8,9,9,10,10,11,11,12,12,13,13,14,14],"right_children":[2,4,6,8,10,12,14,16,18,20,22,24,26,28,30,-1,-1,-1,-1,-1,-1,-1,-1,-1,-1,-1,-1,-1,-1,-1,-1],"split_conditions":[1.899E3,1.234E3,1.65E1,3E1,2.6E1,2.779E3,2.613E3,1.42E1,8.49E2,3E-1,5.3E1,3.73E-1,3.9E0,5.94E-1,2.8E1,-4.984573E0,1.6889975E1,-1.598087E1,-9.122604E0,-2.9662311E-2,9.086761E0,5.817322E0,-8.470139E0,5.6044683E0,-1.2641032E1,3.0402267E1,5.300882E0,1.4312136E1,5.897926E0,2.3262926E1,1.2645619E1],"split_indices":[3,3,4,1,0,3,3,4,3,22,1,7,16,5,0,0,0,0,0,0,0,0,0,0,0,0,0,0,0,0,0],"split_type":[0,0,0,0,0,0,0,0,0,0,0,0,0,0,0,0,0,0,0,0,0,0,0,0,0,0,0,0,0,0,0],"sum_hessian":[3.027E3,1.851E3,1.176E3,8.21E2,1.03E3,6.22E2,5.54E2,4.7E1,7.74E2,4.82E2,5.48E2,5.86E2,3.6E1,3.88E2,1.66E2,2.3E1,2.4E1,3.15E2,4.59E2,3.38E2,1.44E2,6.7E1,4.81E2,5.45E2,4.1E1,2.6E1,1E1,2.91E2,9.7E1,1.15E2,5.1E1],"tree_param":{"num_deleted":"0","num_feature":"29","num_nodes":"31","size_leaf_vector":"1"}},{"base_weights":[-1.9090347E0,-1.2127005E2,1.8616437E2,-1.8127365E2,-2.8020578E1,1.3539177E2,3.3853955E2,-1.9751396E2,1.4092282E2,4.9853546E1,-1.2176043E2,-1.7165793E2,1.5273499E2,-3.1809357E2,3.4865854E2,-4.803228E0,-1.1319258E1,-1.4161962E1,1.095735E1,-2.0955994E0,7.0004716E0,-1.3196539E0,-1.0964644E1,-2.11464E1,-4.2762756E0,8.859889E0,-3.6550846E0,-8.175049E-1,-2.5690292E1,2.0329012E1,1.05211735E1],"categories":[],"categories_nodes":[],"categories_segments":[],"categories_sizes":[],"default_left":[0,0,0,0,0,0,0,0,0,0,0,0,0,0,0,0,0,0,0,0,0,0,0,0,0,0,0,0,0,0,0],"id":15,"left_children":[1,3,5,7,9,11,13,15,17,19,21,23,25,27,29,-1,-1,-1,-1,-1,-1,-1,-1,-1,-1,-1,-1,-1,-1,-1,-1],"loss_changes":[6.84011E7,1.042457E7,9.106424E6,5.961572E6,5.342303E6,4.760351E6,2.071024E6,3.141536E6,1.8869558E6,3.315149E6,3.082281E6,1.0026689E6,4.66466E6,2.8687378E5,2.244428E6,0E0,0E0,0E0,0E0,0E0,0E0,0E0,0E0,0E0,0E0,0E0,0E0,0E0,0E0,0E0,0E0],"parents":[2147483647,0,0,1,1,2,2,3,3,4,4,5,5,6,6,7,7,8,8,9,9,10,10,11,11,12,12,13,13,14,14],"right_children":[2,4,6,8,10,12,14,16,18,20,22,24,26,28,30,-1,-1,-1,-1,-1,-1,-1,-1,-1,-1,-1,-1,-1,-1,-1,-1],"split_conditions":[1.899E3,1.433E3,2.8E0,2.2E0,6.9E1,-2.2E0,4.8E0,2.3E1,8E0,1.27E1,2.6E1,1.1E0,3.2E1,5.5E1,2.9E1,-4.803228E0,-1.1319258E1,-1.4161962E1,1.095735E1,-2.0955994E0,7.0004716E0,-1.3196539E0,-1.0964644E1,-2.11464E1,-4.2762756E0,8.859889E0,-3.6550846E0,-8.175049E-1,-2.5690292E1,2.0329012E1,1.05211735E1],"split_indices":[3,3,23,20,1,20,10,0,2,11,0,12,0,2,0,0,0,0,0,0,0,0,0,0,0,0,0,0,0,0,0],"split_type":[0,0,0,0,0,0,0,0,0,0,0,0,0,0,0,0,0,0,0,0,0,0,0,0,0,0,0,0,0,0,0],"sum_hessian":[3.045E3,1.863E3,1.182E3,1.133E3,7.3E2,8.88E2,2.94E2,1.079E3,5.4E1,3.99E2,3.31E2,4.7E1,8.41E2,4E0,2.9E2,2.4E2,8.39E2,8E0,4.6E1,1.98E2,2.01E2,1.68E2,1.63E2,1.1E1,3.6E1,7.59E2,8.2E1,2E0,2E0,2.03E2,8.7E1],"tree_param":{"num_deleted":"0","num_feature":"29","num_nodes":"31","size_leaf_vector":"1"}},{"base_weights":[-1.0196878E0,-1.4975078E2,1.3384567E2,-1.7868982E2,4.0842777E1,4.8744797E1,2.3585046E2,-5.563487E1,-2.1664455E2,-2.8070374E2,1.1111206E2,1.9683066E2,1.0618849E1,1.828741E2,3.3927536E2,-8.682674E0,4.5368257E0,-9.32771E0,-1.6229315E1,9.5351715E0,-1.842784E1,-8.180976E0,8.260183E0,1.6584213E1,3.5781994E0,-1.2187105E1,1.5362769E0,9.425174E0,-3.809476E1,1.4571541E1,2.8560614E1],"categories":[],"categories_nodes":[],"categories_segments":[],"categories_sizes":[],"default_left":[0,0,0,0,0,0,0,0,0,0,0,0,0,0,0,0,0,0,0,0,0,0,0,0,0,0,0,0,0,0,0],"id":16,"left_children":[1,3,5,7,9,11,13,15,17,19,21,23,25,27,29,-1,-1,-1,-1,-1,-1,-1,-1,-1,-1,-1,-1,-1,-1,-1,-1],"loss_changes":[5.989518E7,7.839444E6,1.3582476E7,5.746692E6,4.2790195E6,4.8251665E6,3.839052E6,5.0599245E6,2.999068E6,1.4783805E6,2.3304348E6,2.932479E6,3.490366E6,2.659251E6,2.496794E6,0E0,0E0,0E0,0E0,0E0,0E0,0E0,0E0,0E0,0E0,0E0,0E0,0E0,0E0,0E0,0E0],"parents":[2147483647,0,0,1,1,2,2,3,3,4,4,5,5,6,6,7,7,8,8,9,9,10,10,11,11,12,12,13,13,14,14],"right_children":[2,4,6,8,10,12,14,16,18,20,22,24,26,28,30,-1,-1,-1,-1,-1,-1,-1,-1,-1,-1,-1,-1,-1,-1,-1,-1],"split_conditions":[1.643E3,1.3E0,2.189E3,2.3E1,1.53E1,6.2E1,2.8E0,-1.8E0,1E0,5.26E-1,8.63E2,5.48E-1,-2.3E0,3.6E0,1E0,-8.682674E0,4.5368257E0,-9.32771E0,-1.6229315E1,9.5351715E0,-1.842784E1,-8.180976E0,8.260183E0,1.6584213E1,3.5781994E0,-1.2187105E1,1.5362769E0,9.425174E0,-3.809476E1,1.4571541E1,2.8560614E1],"split_indices":[3,22,3,0,15,1,23,22,24,5,3,5,20,20,27,0,0,0,0,0,0,0,0,0,0,0,0,0,0,0,0],"split_type":[0,0,0,0,0,0,0,0,0,0,0,0,0,0,0,0,0,0,0,0,0,0,0,0,0,0,0,0,0,0,0],"sum_hessian":[2.984E3,1.419E3,1.565E3,1.232E3,1.87E2,8.54E2,7.11E2,2.91E2,9.41E2,3.3E1,1.54E2,1.74E2,6.8E2,4.72E2,2.39E2,1.61E2,1.3E2,7.38E2,2.03E2,5E0,2.8E1,2.5E1,1.29E2,8.3E1,9.1E1,4.9E1,6.31E2,4.7E2,2E0,2E2,3.9E1],"tree_param":{"num_deleted":"0","num_feature":"29","num_nodes":"31","size_leaf_vector":"1"}},{"base_weights":[2.1137307E0,-1.0023784E2,1.5360922E2,-1.687376E2,-2.8335533E1,2.0622722E2,3.813775E1,-1.3978403E2,-3.0693997E2,-1.165907E2,7.5319626E1,1.6709659E2,3.4682132E2,-7.1281235E1,1.4122128E2,-9.629135E0,-2.9315314E0,-1.7983326E1,-9.292864E0,-3.867579E0,-1.4613365E1,-1.0406989E1,5.142234E0,9.024731E0,-6.3476906E0,-2.0317608E1,1.7878342E1,-1.05677836E-1,-1.2175401E1,-3.3988845E0,1.0111305E1],"categories":[],"categories_nodes":[],"categories_segments":[],"categories_sizes":[],"default_left":[0,0,0,0,0,0,0,0,0,0,0,0,0,0,0,0,0,0,0,0,0,0,0,0,0,0,0,0,0,0,0],"id":17,"left_children":[1,3,5,7,9,11,13,15,17,19,21,23,25,27,29,-1,-1,-1,-1,-1,-1,-1,-1,-1,-1,-1,-1,-1,-1,-1,-1],"loss_changes":[4.65328E7,8.816416E6,7.343946E6,3.626426E6,8.0133725E6,4.513824E6,4.2961985E6,3.24515E6,9.41867E5,3.237968E6,3.1657065E6,2.591594E6,1.602078E6,2.203303E6,2.5151275E6,0E0,0E0,0E0,0E0,0E0,0E0,0E0,0E0,0E0,0E0,0E0,0E0,0E0,0E0,0E0,0E0],"parents":[2147483647,0,0,1,1,2,2,3,3,4,4,5,5,6,6,7,7,8,8,9,9,10,10,11,11,12,12,13,13,14,14],"right_children":[2,4,6,8,10,12,14,16,18,20,22,24,26,28,30,-1,-1,-1,-1,-1,-1,-1,-1,-1,-1,-1,-1,-1,-1,-1,-1],"split_conditions":[1E0,1.9E1,2.9E1,1E0,1.87E1,3E0,2.08E1,2E0,1.6E0,3.1E1,-2.4E0,1.79E1,4.8E0,1.23E1,4.6E0,-9.629135E0,-2.9315314E0,-1.7983326E1,-9.292864E0,-3.867579E0,-1.4613365E1,-1.0406989E1,5.142234E0,9.024731E0,-6.3476906E0,-2.0317608E1,1.7878342E1,-1.05677836E-1,-1.2175401E1,-3.3988845E0,1.0111305E1],"split_indices":[23,2,0,24,15,23,15,18,17,0,20,14,10,10,18,0,0,0,0,0,0,0,0,0,0,0,0,0,0,0,0],"split_type":[0,0,0,0,0,0,0,0,0,0,0,0,0,0,0,0,0,0,0,0,0,0,0,0,0,0,0,0,0,0,0],"sum_hessian":[2.999E3,1.79E3,1.209E3,9.16E2,8.74E2,8.3E2,3.79E2,7.59E2,1.57E2,4.72E2,4.02E2,6.51E2,1.79E2,1.84E2,1.95E2,4.59E2,3E2,1.08E2,4.9E1,3.87E2,8.5E1,3.5E1,3.67E2,6.23E2,2.8E1,2E0,1.77E2,1.32E2,5.2E1,4.4E1,1.51E2],"tree_param":{"num_deleted":"0","num_feature":"29","num_nodes":"31","size_leaf_vector":"1"}},{"base_weights":[1.4686538E0,-1.3233826E2,1.2212018E2,-1.6577342E2,2.562514E0,7.181154E1,2.4518321E2,-1.380083E2,-2.7376553E2,-1.135829E2,1.4370415E2,1.3224855E2,-2.9846378E1,2.1578236E2,3.9205615E2,-1.1172477E1,-4.2087507E0,-1.2598194E0,-1.5570739E1,-7.414737E0,1.42497425E1,-1.8927265E0,1.0681998E1,2.0727494E0,1.0441086E1,1.3702112E0,-8.1973715E0,1.1088096E1,-3.127569E1,2.0510979E1,-2.4254995E1],"categories":[],"categories_nodes":[],"categories_segments":[],"categories_sizes":[],"default_left":[0,0,0,0,0,0,0,0,0,0,0,0,0,0,0,0,0,0,0,0,0,0,0,0,0,0,0,0,0,0,0],"id":18,"left_children":[1,3,5,7,9,11,13,15,17,19,21,23,25,27,29,-1,-1,-1,-1,-1,-1,-1,-1,-1,-1,-1,-1,-1,-1,-1,-1],"loss_changes":[4.9029372E7,6.495444E6,9.86963E6,3.422388E6,4.7211E6,6.9772745E6,1.914722E6,4.212806E6,2.19139E6,2.2282505E6,1.6587562E6,4.941415E6,3.259696E6,2.090578E6,1.40984E6,0E0,0E0,0E0,0E0,0E0,0E0,0E0,0E0,0E0,0E0,0E0,0E0,0E0,0E0,0E0,0E0],"parents":[2147483647,0,0,1,1,2,2,3,3,4,4,5,5,6,6,7,7,8,8,9,9,10,10,11,11,12,12,13,13,14,14],"right_children":[2,4,6,8,10,12,14,16,18,20,22,24,26,28,30,-1,-1,-1,-1,-1,-1,-1,-1,-1,-1,-1,-1,-1,-1,-1,-1],"split_conditions":[1.643E3,4E-1,2.401E3,3E1,2.2E1,2.8E1,2.871E3,9E-1,3.7E-2,2.4E0,2.02E1,9E-1,1.4E1,3.5E0,1.48E1,-1.1172477E1,-4.2087507E0,-1.2598194E0,-1.5570739E1,-7.414737E0,1.42497425E1,-1.8927265E0,1.0681998E1,2.0727494E0,1.0441086E1,1.3702112E0,-8.1973715E0,1.1088096E1,-3.127569E1,2.0510979E1,-2.4254995E1],"split_indices":[3,20,3,0,2,0,3,17,19,12,15,23,14,12,16,0,0,0,0,0,0,0,0,0,0,0,0,0,0,0,0],"split_type":[0,0,0,0,0,0,0,0,0,0,0,0,0,0,0,0,0,0,0,0,0,0,0,0,0,0,0,0,0,0,0],"sum_hessian":[3.035E3,1.439E3,1.596E3,1.153E3,2.86E2,1.134E3,4.62E2,9.19E2,2.34E2,1.57E2,1.29E2,7.11E2,4.23E2,3.87E2,7.5E1,3.54E2,5.65E2,3.1E1,2.03E2,1.45E2,1.2E1,3.6E1,9.3E1,3.26E2,3.85E2,2.97E2,1.26E2,3.85E2,2E0,7.4E1,1E0],"tree_param":{"num_deleted":"0","num_feature":"29","num_nodes":"31","size_leaf_vector":"1"}},{"base_weights":[-6.2084585E-1,-1.2814343E2,1.0559651E2,-1.5570067E2,1.6896984E1,5.028204E1,2.4236987E2,-1.2628379E2,-2.7449652E2,-9.123526E1,1.5383893E2,-2.1174988E2,6.818351E1,1.8989182E2,3.3619986E2,-1.0310721E1,-3.7357872E0,1.5376735E1,-1.4315781E1,-5.970314E0,1.3943254E1,-1.2315312E1,1.0394217E1,-1.7664837E1,-1.9943926E0,6.4018326E0,-3.1260765E-1,1.4668785E1,3.6076875E0,1.3142443E1,2.3027784E1],"categories":[],"categories_nodes":[],"categories_segments":[],"categories_sizes":[],"default_left":[0,0,0,0,0,0,0,0,0,0,0,0,0,0,0,0,0,0,0,0,0,0,0,0,0,0,0,0,0,0,0],"id":19,"left_children":[1,3,5,7,9,11,13,15,17,19,21,23,25,27,29,-1,-1,-1,-1,-1,-1,-1,-1,-1,-1,-1,-1,-1,-1,-1,-1],"loss_changes":[4.071659E7,5.462414E6,1.2395312E7,3.97714E6,3.2569528E6,5.4979325E6,2.260294E6,3.784954E6,1.649604E6,1.3157091E6,2.1489255E6,1.8103975E6,4.8792535E6,3.69495E6,1.411376E6,0E0,0E0,0E0,0E0,0E0,0E0,0E0,0E0,0E0,0E0,0E0,0E0,0E0,0E0,0E0,0E0],"parents":[2147483647,0,0,1,1,2,2,3,3,4,4,5,5,6,6,7,7,8,8,9,9,10,10,11,11,12,12,13,13,14,14],"right_children":[2,4,6,8,10,12,14,16,18,20,22,24,26,28,30,-1,-1,-1,-1,-1,-1,-1,-1,-1,-1,-1,-1,-1,-1,-1,-1],"split_conditions":[1.601E3,7E-1,2.2E0,3E1,2.3E1,-2.3E0,2.584E3,-2.2E0,2E-1,2.4E0,1E0,1.6E0,2.7E1,6.7E1,5.84E-1,-1.0310721E1,-3.7357872E0,1.5376735E1,-1.4315781E1,-5.970314E0,1.3943254E1,-1.2315312E1,1.0394217E1,-1.7664837E1,-1.9943926E0,6.4018326E0,-3.1260765E-1,1.4668785E1,3.6076875E0,1.3142443E1,2.3027784E1],"split_indices":[3,20,23,0,2,20,3,22,17,12,12,12,0,2,5,0,0,0,0,0,0,0,0,0,0,0,0,0,0,0,0],"split_type":[0,0,0,0,0,0,0,0,0,0,0,0,0,0,0,0,0,0,0,0,0,0,0,0,0,0,0,0,0,0,0],"sum_hessian":[3.004E3,1.365E3,1.639E3,1.147E3,2.18E2,1.168E3,4.71E2,9.21E2,2.26E2,1.22E2,9.6E1,7.4E1,1.094E3,3.04E2,1.67E2,3.6E2,5.61E2,4E0,2.22E2,1.14E2,8E0,1.1E1,8.5E1,4E1,3.4E1,6.06E2,4.88E2,1.61E2,1.43E2,1.07E2,6E1],"tree_param":{"num_deleted":"0","num_feature":"29","num_nodes":"31","size_leaf_vector":"1"}},{"base_weights":[-1.7477868E0,-8.7286804E1,1.6335252E2,-1.57337E2,-1.7500366E1,8.397113E1,2.2602133E2,-3.9169487E1,-2.0057858E2,3.896327E1,-1.0116909E2,-3.912305E1,1.450411E2,1.793584E2,3.307892E2,-7.004473E0,3.4938686E0,-1.3263858E1,-8.353625E0,4.4876513E0,-3.6737595E0,-1.1366363E1,-9.272421E-1,1.8383038E0,-1.5694898E1,8.555764E0,-6.488195E0,1.0019918E1,-7.2128496E0,3.1181872E0,1.795483E1],"categories":[],"categories_nodes":[],"categories_segments":[],"categories_sizes":[],"default_left":[0,0,0,0,0,0,0,0,0,0,0,0,0,0,0,0,0,0,0,0,0,0,0,0,0,0,0,0,0,0,0],"id":20,"left_children":[1,3,5,7,9,11,13,15,17,19,21,23,25,27,29,-1,-1,-1,-1,-1,-1,-1,-1,-1,-1,-1,-1,-1,-1,-1,-1],"loss_changes":[4.2621896E7,9.715691E6,5.105E6,5.061014E6,4.714009E6,3.4335902E6,2.751712E6,2.9481252E6,1.529502E6,3.4101845E6,4.186121E6,3.1811098E6,2.207625E6,2.752452E6,1.314928E6,0E0,0E0,0E0,0E0,0E0,0E0,0E0,0E0,0E0,0E0,0E0,0E0,0E0,0E0,0E0,0E0],"parents":[2147483647,0,0,1,1,2,2,3,3,4,4,5,5,6,6,7,7,8,8,9,9,10,10,11,11,12,12,13,13,14,14],"right_children":[2,4,6,8,10,12,14,16,18,20,22,24,26,28,30,-1,-1,-1,-1,-1,-1,-1,-1,-1,-1,-1,-1,-1,-1,-1,-1],"split_conditions":[1.999E3,4E-1,2.1E1,2.3E1,2.8E1,2.164E3,2.613E3,1.137E3,9.22E2,2.6E0,1.05E1,3E1,2.06E1,8.2E1,5.09E-1,-7.004473E0,3.4938686E0,-1.3263858E1,-8.353625E0,4.4876513E0,-3.6737595E0,-1.1366363E1,-9.272421E-1,1.8383038E0,-1.5694898E1,8.555764E0,-6.488195E0,1.0019918E1,-7.2128496E0,3.1181872E0,1.795483E1],"split_indices":[3,23,15,0,0,3,3,3,3,13,11,0,15,1,5,0,0,0,0,0,0,0,0,0,0,0,0,0,0,0,0],"split_type":[0,0,0,0,0,0,0,0,0,0,0,0,0,0,0,0,0,0,0,0,0,0,0,0,0,0,0,0,0,0,0],"sum_hessian":[3.016E3,1.987E3,1.029E3,9.91E2,9.96E2,4.55E2,5.74E2,2.66E2,7.25E2,5.95E2,4.01E2,1.51E2,3.04E2,3.99E2,1.75E2,1.38E2,1.28E2,2.45E2,4.8E2,4.1E2,1.85E2,1.58E2,2.43E2,1.19E2,3.2E1,2.78E2,2.6E1,3.75E2,2.4E1,1.7E1,1.58E2],"tree_param":{"num_deleted":"0","num_feature":"29","num_nodes":"31","size_leaf_vector":"1"}},{"base_weights":[1.4439541E0,-1.2093204E2,1.0563107E2,-2.0386195E2,-8.452005E1,6.330537E1,2.155944E2,-2.2079619E2,6.3854347E1,2.568046E2,-9.834604E1,1.1964124E2,-2.7944248E1,2.2100891E2,-4.487903E2,-8.526782E0,-1.6354902E1,2.634818E1,-2.2150114E0,1.5392163E1,-1.2699234E1,-1.35236025E1,-3.640951E0,1.66865E0,9.8541975E0,1.6161541E0,-8.410742E0,2.7649467E0,1.1939382E1,-3.0709589E1,1.1853516E0],"categories":[],"categories_nodes":[],"categories_segments":[],"categories_sizes":[],"default_left":[0,0,0,0,0,0,0,0,0,0,0,0,0,0,0,0,0,0,0,0,0,0,0,0,0,0,0,0,0,0,0],"id":21,"left_children":[1,3,5,7,9,11,13,15,17,19,21,23,25,27,29,-1,-1,-1,-1,-1,-1,-1,-1,-1,-1,-1,-1,-1,-1,-1,-1],"loss_changes":[3.859428E7,4.186112E6,7.596092E6,1.936334E6,4.5981115E6,6.0795635E6,1.732368E6,2.075992E6,1.3256166E6,1.0688472E6,4.075385E6,4.87712E6,3.8265248E6,1.315492E6,3.2716762E5,0E0,0E0,0E0,0E0,0E0,0E0,0E0,0E0,0E0,0E0,0E0,0E0,0E0,0E0,0E0,0E0],"parents":[2147483647,0,0,1,1,2,2,3,3,4,4,5,5,6,6,7,7,8,8,9,9,10,10,11,11,12,12,13,13,14,14],"right_children":[2,4,6,8,10,12,14,16,18,20,22,24,26,28,30,-1,-1,-1,-1,-1,-1,-1,-1,-1,-1,-1,-1,-1,-1,-1,-1],"split_conditions":[1.601E3,-2.2E0,2.401E3,7.8E1,2.1E1,2.8E1,3.5E0,5.24E-1,8.7E0,6.38E-1,1.32E1,9E-1,1.4E1,-7E-1,2.64E3,-8.526782E0,-1.6354902E1,2.634818E1,-2.2150114E0,1.5392163E1,-1.2699234E1,-1.35236025E1,-3.640951E0,1.66865E0,9.8541975E0,1.6161541E0,-8.410742E0,2.7649467E0,1.1939382E1,-3.0709589E1,1.1853516E0],"split_indices":[3,22,3,1,0,0,12,5,9,5,15,23,14,20,3,0,0,0,0,0,0,0,0,0,0,0,0,0,0,0,0],"split_type":[0,0,0,0,0,0,0,0,0,0,0,0,0,0,0,0,0,0,0,0,0,0,0,0,0,0,0,0,0,0,0],"sum_hessian":[3.025E3,1.391E3,1.634E3,4.23E2,9.68E2,1.181E3,4.53E2,3.98E2,2.5E1,3.7E1,9.31E2,7.3E2,4.51E2,4.5E2,3E0,2.72E2,1.26E2,4E0,2.1E1,3.4E1,3E0,1.19E2,8.12E2,3.46E2,3.84E2,3.16E2,1.35E2,4.4E1,4.06E2,2E0,1E0],"tree_param":{"num_deleted":"0","num_feature":"29","num_nodes":"31","size_leaf_vector":"1"}},{"base_weights":[-1.1295717E0,-7.975282E1,1.5222504E2,-9.507687E1,1.9353146E2,1.26085915E2,3.174945E2,-1.611919E2,-4.5932896E1,3.0266574E2,8.081328E1,-1.11909454E2,1.421813E2,4.4539874E2,2.3200348E2,3.1701834E0,-8.77021E0,6.2370234E0,-3.52609E0,1.5030056E0,2.1355227E1,2.101306E0,2.7757313E1,-2.2589506E1,-6.1110895E-2,8.636094E0,1.8797525E0,2.4562618E1,-2.5657398E1,-1.7739086E1,1.2874353E1],"categories":[],"categories_nodes":[],"categories_segments":[],"categories_sizes":[],"default_left":[0,0,0,0,0,0,0,0,0,0,0,0,0,0,0,0,0,0,0,0,0,0,0,0,0,0,0,0,0,0,0],"id":22,"left_children":[1,3,5,7,9,11,13,15,17,19,21,23,25,27,29,-1,-1,-1,-1,-1,-1,-1,-1,-1,-1,-1,-1,-1,-1,-1,-1],"loss_changes":[3.6642028E7,8.431736E6,4.409568E6,6.175738E6,1.2917922E6,3.429E6,1.427518E6,2.599852E6,4.595758E6,1.818988E6,9.701627E5,2.1438135E6,2.660602E6,2.66949E6,1.3773435E6,0E0,0E0,0E0,0E0,0E0,0E0,0E0,0E0,0E0,0E0,0E0,0E0,0E0,0E0,0E0,0E0],"parents":[2147483647,0,0,1,1,2,2,3,3,4,4,5,5,6,6,7,7,8,8,9,9,10,10,11,11,12,12,13,13,14,14],"right_children":[2,4,6,8,10,12,14,16,18,20,22,24,26,28,30,-1,-1,-1,-1,-1,-1,-1,-1,-1,-1,-1,-1,-1,-1,-1,-1],"split_conditions":[1.999E3,3E0,2.779E3,1.234E3,2.7E1,1.1E1,2.5E1,3E1,2.2E1,1.5E1,1.967E3,1.1E0,3E1,3.22E1,7E-2,3.1701834E0,-8.77021E0,6.2370234E0,-3.52609E0,1.5030056E0,2.1355227E1,2.101306E0,2.7757313E1,-2.2589506E1,-6.1110895E-2,8.636094E0,1.8797525E0,2.4562618E1,-2.5657398E1,-1.7739086E1,1.2874353E1],"split_indices":[3,22,3,3,0,4,0,1,0,2,3,12,0,15,19,0,0,0,0,0,0,0,0,0,0,0,0,0,0,0,0],"split_type":[0,0,0,0,0,0,0,0,0,0,0,0,0,0,0,0,0,0,0,0,0,0,0,0,0,0,0,0,0,0,0],"sum_hessian":[3.037E3,2.008E3,1.029E3,1.902E3,1.06E2,8.9E2,1.39E2,8.1E2,1.092E3,5.3E1,5.3E1,5.6E1,8.34E2,5.4E1,8.5E1,4.8E1,7.62E2,1.37E2,9.55E2,1.7E1,3.6E1,5E1,3E0,1.3E1,4.3E1,6.45E2,1.89E2,5.2E1,2E0,3E0,8.2E1],"tree_param":{"num_deleted":"0","num_feature":"29","num_nodes":"31","size_leaf_vector":"1"}},{"base_weights":[-1.8499112E0,-1.0479339E2,9.522546E1,-1.8721278E2,-7.1047806E1,2.917401E1,1.6846744E2,4.654102E1,-2.1487106E2,1.0218983E2,-1.0790143E2,-2.0652296E2,4.8338318E1,1.3110843E2,2.9015213E2,-8.244662E0,8.80856E0,-1.0952914E1,1.9356686E1,9.8273796E-1,1.2301243E1,-2.9065483E0,-1.1451125E1,-1.1953118E1,1.6253187E1,8.945765E0,5.5217355E-1,3.2837029E0,9.636621E0,-1.6514632E0,1.616491E1],"categories":[],"categories_nodes":[],"categories_segments":[],"categories_sizes":[],"default_left":[0,0,0,0,0,0,0,0,0,0,0,0,0,0,0,0,0,0,0,0,0,0,0,0,0,0,0,0,0,0,0],"id":23,"left_children":[1,3,5,7,9,11,13,15,17,19,21,23,25,27,29,-1,-1,-1,-1,-1,-1,-1,-1,-1,-1,-1,-1,-1,-1,-1,-1],"loss_changes":[3.0309592E7,4.080757E6,7.546794E6,2.770654E6,6.689145E6,3.722932E6,3.326012E6,1.2898295E6,1.047722E6,2.179508E6,5.189068E6,1.1501558E6,3.7039778E6,2.277705E6,1.863887E6,0E0,0E0,0E0,0E0,0E0,0E0,0E0,0E0,0E0,0E0,0E0,0E0,0E0,0E0,0E0,0E0],"parents":[2147483647,0,0,1,1,2,2,3,3,4,4,5,5,6,6,7,7,8,8,9,9,10,10,11,11,12,12,13,13,14,14],"right_children":[2,4,6,8,10,12,14,16,18,20,22,24,26,28,30,-1,-1,-1,-1,-1,-1,-1,-1,-1,-1,-1,-1,-1,-1,-1,-1],"split_conditions":[1.654E3,9.13E2,2.12E1,3E1,5.1E1,-2.3E0,2.613E3,3.05E-1,3.67E1,5.61E-1,2.9E1,4.17E-1,2.4E1,-4E-1,5.09E-1,-8.244662E0,8.80856E0,-1.0952914E1,1.9356686E1,9.8273796E-1,1.2301243E1,-2.9065483E0,-1.1451125E1,-1.1953118E1,1.6253187E1,8.945765E0,5.5217355E-1,3.2837029E0,9.636621E0,-1.6514632E0,1.616491E1],"split_indices":[3,3,15,1,1,20,3,6,11,5,0,7,0,21,5,0,0,0,0,0,0,0,0,0,0,0,0,0,0,0,0],"split_type":[0,0,0,0,0,0,0,0,0,0,0,0,0,0,0,0,0,0,0,0,0,0,0,0,0,0,0,0,0,0,0],"sum_hessian":[3.031E3,1.471E3,1.56E3,4.26E2,1.045E3,8.21E2,7.39E2,4.5E1,3.81E2,1.83E2,8.62E2,6.1E1,7.6E2,5.67E2,1.72E2,1.7E1,2.8E1,3.79E2,2E0,1.17E2,6.6E1,6.12E2,2.5E2,5.8E1,3E0,1.68E2,5.92E2,2.76E2,2.91E2,1.6E1,1.56E2],"tree_param":{"num_deleted":"0","num_feature":"29","num_nodes":"31","size_leaf_vector":"1"}},{"base_weights":[2.1465816E0,-6.998088E1,1.4029634E2,-1.386459E2,-1.672304E1,6.8644844E1,1.9590794E2,4.418862E1,-1.577279E2,3.2812363E1,-9.115439E1,7.5372777E0,2.0099222E2,1.7134721E2,3.3836703E2,-1.0691428E1,6.751519E0,-1.1242623E1,-6.1153064E0,5.32464E0,-1.6363636E0,-9.83609E0,-8.556199E-1,2.7363005E0,-6.41481E0,-2.5634456E0,1.3391324E1,1.02786455E1,3.6554983E0,-1.6704481E1,1.8352169E1],"categories":[],"categories_nodes":[],"categories_segments":[],"categories_sizes":[],"default_left":[0,0,0,0,0,0,0,0,0,0,0,0,0,0,0,0,0,0,0,0,0,0,0,0,0,0,0,0,0,0,0],"id":24,"left_children":[1,3,5,7,9,11,13,15,17,19,21,23,25,27,29,-1,-1,-1,-1,-1,-1,-1,-1,-1,-1,-1,-1,-1,-1,-1,-1],"loss_changes":[3.0211888E7,7.282328E6,4.130594E6,3.042267E6,4.1434772E6,3.6863512E6,1.98888E6,1.9742884E6,1.846106E6,3.2630522E6,3.5062072E6,2.0132915E6,2.441525E6,1.669451E6,1.761731E6,0E0,0E0,0E0,0E0,0E0,0E0,0E0,0E0,0E0,0E0,0E0,0E0,0E0,0E0,0E0,0E0],"parents":[2147483647,0,0,1,1,2,2,3,3,4,4,5,5,6,6,7,7,8,8,9,9,10,10,11,11,12,12,13,13,14,14],"right_children":[2,4,6,8,10,12,14,16,18,20,22,24,26,28,30,-1,-1,-1,-1,-1,-1,-1,-1,-1,-1,-1,-1,-1,-1,-1,-1],"split_conditions":[1.999E3,3E-1,2.1E1,2.1E1,2.8E1,8E-1,1E0,6E0,-2.8E0,1.47E1,1.09E1,3E1,2.116E3,2.9E1,8.1E0,-1.0691428E1,6.751519E0,-1.1242623E1,-6.1153064E0,5.32464E0,-1.6363636E0,-9.83609E0,-8.556199E-1,2.7363005E0,-6.41481E0,-2.5634456E0,1.3391324E1,1.02786455E1,3.6554983E0,-1.6704481E1,1.8352169E1],"split_indices":[3,23,15,0,0,21,27,2,22,9,11,0,3,0,11,0,0,0,0,0,0,0,0,0,0,0,0,0,0,0,0],"split_type":[0,0,0,0,0,0,0,0,0,0,0,0,0,0,0,0,0,0,0,0,0,0,0,0,0,0,0,0,0,0,0],"sum_hessian":[3.03E3,1.991E3,1.039E3,8.69E2,1.122E3,4.55E2,5.84E2,8.2E1,7.87E2,6.74E2,4.48E2,3.12E2,1.43E2,5E2,8.4E1,2.1E1,6.1E1,2.7E2,5.17E2,3.17E2,3.57E2,1.84E2,2.64E2,2.32E2,8E1,3E1,1.13E2,3.7E2,1.3E2,3E0,8.1E1],"tree_param":{"num_deleted":"0","num_feature":"29","num_nodes":"31","size_leaf_vector":"1"}},{"base_weights":[-5.3766096E-1,-1.03928635E2,8.666139E1,-7.23956E1,-1.9375864E2,3.0413008E1,1.5803844E2,-1.5567096E2,-1.9371294E1,3.9398262E1,-2.3427078E2,1.8088412E2,-1.0628797E1,4.592182E2,1.4524384E2,-1.2239883E1,-2.9153116E0,5.9187803E0,-3.1803193E0,-1.1015412E1,7.2467155E0,1.1201599E1,-1.2131404E1,1.35526495E1,3.9599285E0,6.796631E0,-2.045022E0,-6.598873E0,2.5394926E1,5.7691617E0,1.34698105E1],"categories":[],"categories_nodes":[],"categories_segments":[],"categories_sizes":[],"default_left":[0,0,0,0,0,0,0,0,0,0,0,0,0,0,0,0,0,0,0,0,0,0,0,0,0,0,0,0,0,0,0],"id":25,"left_children":[1,3,5,7,9,11,13,15,17,19,21,23,25,27,29,-1,-1,-1,-1,-1,-1,-1,-1,-1,-1,-1,-1,-1,-1,-1,-1],"loss_changes":[2.7272168E7,3.906308E6,6.583552E6,4.527408E6,3.400231E6,5.677305E6,2.719364E6,3.448167E6,3.8340885E6,1.5119838E6,1.226388E6,1.7848005E6,3.2132612E6,9.01639E5,2.545465E6,0E0,0E0,0E0,0E0,0E0,0E0,0E0,0E0,0E0,0E0,0E0,0E0,0E0,0E0,0E0,0E0],"parents":[2147483647,0,0,1,1,2,2,3,3,4,4,5,5,6,6,7,7,8,8,9,9,10,10,11,11,12,12,13,13,14,14],"right_children":[2,4,6,8,10,12,14,16,18,20,22,24,26,28,30,-1,-1,-1,-1,-1,-1,-1,-1,-1,-1,-1,-1,-1,-1,-1,-1],"split_conditions":[1.601E3,2.9E1,2.189E3,9E-1,4.1E1,6.2E1,6.6E1,9E0,5.3E1,8.8E0,2E-1,5.51E-1,2.3E1,9.6E0,2.779E3,-1.2239883E1,-2.9153116E0,5.9187803E0,-3.1803193E0,-1.1015412E1,7.2467155E0,1.1201599E1,-1.2131404E1,1.35526495E1,3.9599285E0,6.796631E0,-2.045022E0,-6.598873E0,2.5394926E1,5.7691617E0,1.34698105E1],"split_indices":[3,0,3,17,1,1,1,2,1,11,17,5,0,14,3,0,0,0,0,0,0,0,0,0,0,0,0,0,0,0,0],"split_type":[0,0,0,0,0,0,0,0,0,0,0,0,0,0,0,0,0,0,0,0,0,0,0,0,0,0,0,0,0,0,0],"sum_hessian":[3.023E3,1.383E3,1.64E3,1.025E3,3.58E2,9.18E2,7.22E2,3.98E2,6.27E2,5.3E1,3.05E2,1.96E2,7.22E2,2.8E1,6.94E2,2.07E2,1.91E2,1.52E2,4.75E2,1.5E1,3.8E1,5E0,3E2,1.03E2,9.3E1,1.23E2,5.99E2,2E0,2.6E1,5.61E2,1.33E2],"tree_param":{"num_deleted":"0","num_feature":"29","num_nodes":"31","size_leaf_vector":"1"}},{"base_weights":[7.442073E0,-8.806522E1,8.6959404E1,-1.6971939E2,-5.8219006E1,1.3177397E2,1.3702193E1,6.305936E1,-2.0162442E2,7.488328E1,-9.883289E1,1.8421274E1,1.7280396E2,-3.0451355E1,1.3650482E2,-6.526332E-1,2.7998148E1,-1.4615972E1,-8.127636E0,3.0810437E-1,1.08354025E1,-4.3790022E-1,-8.146221E0,6.1065516E0,-2.8352392E0,7.097609E0,1.3910547E1,1.3395058E0,-8.0478525E0,5.27353E0,1.9290785E1],"categories":[],"categories_nodes":[],"categories_segments":[],"categories_sizes":[],"default_left":[0,0,0,0,0,0,0,0,0,0,0,0,0,0,0,0,0,0,0,0,0,0,0,0,0,0,0,0,0,0,0],"id":26,"left_children":[1,3,5,7,9,11,13,15,17,19,21,23,25,27,29,-1,-1,-1,-1,-1,-1,-1,-1,-1,-1,-1,-1,-1,-1,-1,-1],"loss_changes":[2.2950598E7,3.336214E6,5.411847E6,2.738355E6,5.451042E6,4.754644E6,3.4038585E6,1.7092241E6,1.097067E6,2.2988075E6,4.455358E6,2.1339515E6,2.402756E6,3.4556078E6,1.243678E6,0E0,0E0,0E0,0E0,0E0,0E0,0E0,0E0,0E0,0E0,0E0,0E0,0E0,0E0,0E0,0E0],"parents":[2147483647,0,0,1,1,2,2,3,3,4,4,5,5,6,6,7,7,8,8,9,9,10,10,11,11,12,12,13,13,14,14],"right_children":[2,4,6,8,10,12,14,16,18,20,22,24,26,28,30,-1,-1,-1,-1,-1,-1,-1,-1,-1,-1,-1,-1,-1,-1,-1,-1],"split_conditions":[1.601E3,8.63E2,2.8E1,3E1,5.2E1,-6E-1,2.401E3,2.7E0,1.2E0,5.61E-1,2.5E1,2.19E-1,2.613E3,1.4E1,6E0,-6.526332E-1,2.7998148E1,-1.4615972E1,-8.127636E0,3.0810437E-1,1.08354025E1,-4.3790022E-1,-8.146221E0,6.1065516E0,-2.8352392E0,7.097609E0,1.3910547E1,1.3395058E0,-8.0478525E0,5.27353E0,1.9290785E1],"split_indices":[3,3,0,1,1,20,3,12,12,5,0,7,3,14,20,0,0,0,0,0,0,0,0,0,0,0,0,0,0,0,0],"split_type":[0,0,0,0,0,0,0,0,0,0,0,0,0,0,0,0,0,0,0,0,0,0,0,0,0,0,0,0,0,0,0],"sum_hessian":[3.02E3,1.372E3,1.648E3,3.66E2,1.006E3,1.022E3,6.26E2,4.4E1,3.22E2,2.35E2,7.71E2,2.72E2,7.5E2,4.61E2,1.65E2,3.9E1,5E0,9.5E1,2.27E2,1.59E2,7.6E1,3.21E2,4.5E2,1.14E2,1.58E2,5.82E2,1.68E2,3.21E2,1.4E2,1.48E2,1.7E1],"tree_param":{"num_deleted":"0","num_feature":"29","num_nodes":"31","size_leaf_vector":"1"}},{"base_weights":[-1.1476761E0,-6.3445618E1,1.2155966E2,-7.63318E1,1.5595595E2,1.03058075E2,2.5471588E2,-1.6524141E2,-4.75284E1,3.1540106E2,9.6446205E1,1.308373E2,1.3527196E1,4.235615E2,1.8883163E2,1.9474872E0,-9.387576E0,4.9292102E-2,-5.6134086E0,3.063152E1,2.6035473E0,8.018489E0,-8.058057E0,-7.779248E0,7.254487E0,7.873469E0,-2.6575162E0,4.3991944E-1,2.39285E1,1.0395947E0,1.5179247E1],"categories":[],"categories_nodes":[],"categories_segments":[],"categories_sizes":[],"default_left":[0,0,0,0,0,0,0,0,0,0,0,0,0,0,0,0,0,0,0,0,0,0,0,0,0,0,0,0,0,0,0],"id":27,"left_children":[1,3,5,7,9,11,13,15,17,19,21,23,25,27,29,-1,-1,-1,-1,-1,-1,-1,-1,-1,-1,-1,-1,-1,-1,-1,-1],"loss_changes":[2.3200868E7,5.7031585E6,2.491551E6,4.862976E6,1.03229725E6,2.234132E6,1.2994275E6,2.144624E6,4.516582E6,2.3161828E6,1.392621E6,2.822974E6,2.062279E6,7.715155E5,1.7484512E6,0E0,0E0,0E0,0E0,0E0,0E0,0E0,0E0,0E0,0E0,0E0,0E0,0E0,0E0,0E0,0E0],"parents":[2147483647,0,0,1,1,2,2,3,3,4,4,5,5,6,6,7,7,8,8,9,9,10,10,11,11,12,12,13,13,14,14],"right_children":[2,4,6,8,10,12,14,16,18,20,22,24,26,28,30,-1,-1,-1,-1,-1,-1,-1,-1,-1,-1,-1,-1,-1,-1,-1,-1],"split_conditions":[1.999E3,3E0,2.779E3,9.58E2,2.5E1,3E1,3.9E0,3E1,6.8E1,4.4E0,1.59E1,1.07E1,1.1E1,7E-1,5.62E-1,1.9474872E0,-9.387576E0,4.9292102E-2,-5.6134086E0,3.063152E1,2.6035473E0,8.018489E0,-8.058057E0,-7.779248E0,7.254487E0,7.873469E0,-2.6575162E0,4.3991944E-1,2.39285E1,1.0395947E0,1.5179247E1],"split_indices":[3,22,3,3,0,0,16,1,1,8,14,4,14,16,5,0,0,0,0,0,0,0,0,0,0,0,0,0,0,0,0],"split_type":[0,0,0,0,0,0,0,0,0,0,0,0,0,0,0,0,0,0,0,0,0,0,0,0,0,0,0,0,0,0,0],"sum_hessian":[3.033E3,2.012E3,1.021E3,1.901E3,1.11E2,8.98E2,1.23E2,4.64E2,1.437E3,2.9E1,8.2E1,6.85E2,2.13E2,3.3E1,9E1,4.6E1,4.18E2,8.22E2,6.15E2,1.3E1,1.6E1,6.6E1,1.6E1,3.2E1,6.53E2,6.7E1,1.46E2,4E0,2.9E1,3.7E1,5.3E1],"tree_param":{"num_deleted":"0","num_feature":"29","num_nodes":"31","size_leaf_vector":"1"}},{"base_weights":[2.722235E0,-6.547508E1,1.0210276E2,-1.1772261E2,-7.883161E0,6.9346436E1,1.9493451E2,-3.4200684E1,-1.4555421E2,-1.3966615E1,5.641615E2,1.678347E2,3.0116667E1,-2.639505E2,2.0305634E2,-4.9757347E0,4.1499248E0,-2.3596299E0,-8.814797E0,1.6775398E-1,-9.216982E0,3.3105118E1,7.3789454E0,1.0202551E1,-7.545733E0,4.755943E0,-1.9650296E0,5.4847517E0,-2.3909851E1,1.3206863E1,6.9150467E0],"categories":[],"categories_nodes":[],"categories_segments":[],"categories_sizes":[],"default_left":[0,0,0,0,0,0,0,0,0,0,0,0,0,0,0,0,0,0,0,0,0,0,0,0,0,0,0,0,0,0,0],"id":28,"left_children":[1,3,5,7,9,11,13,15,17,19,21,23,25,27,29,-1,-1,-1,-1,-1,-1,-1,-1,-1,-1,-1,-1,-1,-1,-1,-1],"loss_changes":[2.0467912E7,5.388254E6,3.723659E6,2.177775E6,2.9763255E6,3.5108865E6,1.246232E6,1.8147802E6,2.12044E6,2.4943395E6,2.6949175E5,3.02067E6,2.9457405E6,5.327694E5,1.209396E6,0E0,0E0,0E0,0E0,0E0,0E0,0E0,0E0,0E0,0E0,0E0,0E0,0E0,0E0,0E0,0E0],"parents":[2147483647,0,0,1,1,2,2,3,3,4,4,5,5,6,6,7,7,8,8,9,9,10,10,11,11,12,12,13,13,14,14],"right_children":[2,4,6,8,10,12,14,16,18,20,22,24,26,28,30,-1,-1,-1,-1,-1,-1,-1,-1,-1,-1,-1,-1,-1,-1,-1,-1],"split_conditions":[1E0,1.371E3,2.8E0,2.3E0,2.87E1,5.42E-1,4.8E0,7.9E-2,2.3E1,3.2E1,1.19E1,1.69E1,9.6E0,3.7E-1,4.4E0,-4.9757347E0,4.1499248E0,-2.3596299E0,-8.814797E0,1.6775398E-1,-9.216982E0,3.3105118E1,7.3789454E0,1.0202551E1,-7.545733E0,4.755943E0,-1.9650296E0,5.4847517E0,-2.3909851E1,1.3206863E1,6.9150467E0],"split_indices":[23,3,23,8,15,5,10,19,0,0,9,14,10,7,22,0,0,0,0,0,0,0,0,0,0,0,0,0,0,0,0],"split_type":[0,0,0,0,0,0,0,0,0,0,0,0,0,0,0,0,0,0,0,0,0,0,0,0,0,0,0,0,0,0,0],"sum_hessian":[3.018E3,1.79E3,1.228E3,9.38E2,8.52E2,9.09E2,3.19E2,2.35E2,7.03E2,8.44E2,8E0,2.58E2,6.51E2,5E0,3.14E2,1.51E2,8.4E1,1.68E2,5.35E2,7.67E2,7.7E1,6E0,2E0,2.32E2,2.6E1,3.36E2,3.15E2,2E0,3E0,1.6E2,1.54E2],"tree_param":{"num_deleted":"0","num_feature":"29","num_nodes":"31","size_leaf_vector":"1"}},{"base_weights":[-5.5390964E0,-6.05768E1,1.0792627E2,-1.1490352E2,-1.8448145E1,1.2003273E2,-1.326682E2,4.614665E1,-1.3212343E2,7.4452686E0,-1.3341582E2,2.5213971E2,1.05660515E2,-2.7267093E2,9.5371284E1,-2.980044E0,1.4826947E1,-7.9891853E0,-2.4789817E0,-3.5245595E0,2.3356187E0,-1.3990738E1,-2.4773593E0,1.4465039E1,-6.1356297E0,-7.4411385E-2,6.683824E0,-2.374182E1,-1.9424858E0,1.8022133E1,-1.2521485E0],"categories":[],"categories_nodes":[],"categories_segments":[],"categories_sizes":[],"default_left":[0,0,0,0,0,0,0,0,0,0,0,0,0,0,0,0,0,0,0,0,0,0,0,0,0,0,0,0,0,0,0],"id":29,"left_children":[1,3,5,7,9,11,13,15,17,19,21,23,25,27,29,-1,-1,-1,-1,-1,-1,-1,-1,-1,-1,-1,-1,-1,-1,-1,-1],"loss_changes":[1.8965972E7,4.678295E6,2.905371E6,2.482626E6,3.4333655E6,1.767602E6,1.5584602E6,2.3212918E6,1.834609E6,2.886132E6,2.5891312E6,1.317053E6,2.563802E6,1.39967E6,6.154757E5,0E0,0E0,0E0,0E0,0E0,0E0,0E0,0E0,0E0,0E0,0E0,0E0,0E0,0E0,0E0,0E0],"parents":[2147483647,0,0,1,1,2,2,3,3,4,4,5,5,6,6,7,7,8,8,9,9,10,10,11,11,12,12,13,13,14,14],"right_children":[2,4,6,8,10,12,14,16,18,20,22,24,26,28,30,-1,-1,-1,-1,-1,-1,-1,-1,-1,-1,-1,-1,-1,-1,-1,-1],"split_conditions":[2.02E3,3E-1,3.4E1,2.1E1,3.1E1,2.2E1,7.7E1,4E-1,1E0,1.06E1,1.93E-1,4.41E-1,9E-1,2.24E1,1.24E1,-2.980044E0,1.4826947E1,-7.9891853E0,-2.4789817E0,-3.5245595E0,2.3356187E0,-1.3990738E1,-2.4773593E0,1.4465039E1,-6.1356297E0,-7.4411385E-2,6.683824E0,-2.374182E1,-1.9424858E0,1.8022133E1,-1.2521485E0],"split_indices":[3,23,0,0,0,0,2,16,28,14,7,6,23,15,11,0,0,0,0,0,0,0,0,0,0,0,0,0,0,0,0],"split_type":[0,0,0,0,0,0,0,0,0,0,0,0,0,0,0,0,0,0,0,0,0,0,0,0,0,0,0,0,0,0,0],"sum_hessian":[3.035E3,2.044E3,9.91E2,8.92E2,1.152E3,9.44E2,4.7E1,8.6E1,8.06E2,9.41E2,2.11E2,9.1E1,8.53E2,2.9E1,1.8E1,6.1E1,2.5E1,6.03E2,2.03E2,3.15E2,6.26E2,7.6E1,1.35E2,8.3E1,8E0,1.77E2,6.76E2,1.5E1,1.4E1,5E0,1.3E1],"tree_param":{"num_deleted":"0","num_feature":"29","num_nodes":"31","size_leaf_vector":"1"}},{"base_weights":[-1.8578314E0,-6.875898E1,7.851273E1,-1.1737422E2,-2.2253605E1,-1.3565704E2,9.277408E1,2.184418E1,-1.3234105E2,5.330206E1,-8.835733E1,-3.7477548E2,-7.986054E1,1.1935072E2,3.0900042E0,1.0752279E1,-4.725677E0,-5.3942456E0,-1.0196344E1,-2.327666E0,7.720695E0,9.048453E0,-5.5052457E0,7.0480876E0,-2.2926046E1,4.5070763E0,-9.632793E0,4.339896E0,1.046263E1,-2.1493084E1,1.0686429E0],"categories":[],"categories_nodes":[],"categories_segments":[],"categories_sizes":[],"default_left":[0,0,0,0,0,0,0,0,0,0,0,0,0,0,0,0,0,0,0,0,0,0,0,0,0,0,0,0,0,0,0],"id":30,"left_children":[1,3,5,7,9,11,13,15,17,19,21,23,25,27,29,-1,-1,-1,-1,-1,-1,-1,-1,-1,-1,-1,-1,-1,-1,-1,-1],"loss_changes":[1.6227455E7,3.72104E6,4.200099E6,1.680235E6,4.2150825E6,1.1174801E6,3.064813E6,1.7962822E6,1.250768E6,3.985233E6,2.6556638E6,7.5568425E5,1.3788226E6,2.884983E6,2.3442868E6,0E0,0E0,0E0,0E0,0E0,0E0,0E0,0E0,0E0,0E0,0E0,0E0,0E0,0E0,0E0,0E0],"parents":[2147483647,0,0,1,1,2,2,3,3,4,4,5,5,6,6,7,7,8,8,9,9,10,10,11,11,12,12,13,13,14,14],"right_children":[2,4,6,8,10,12,14,16,18,20,22,24,26,28,30,-1,-1,-1,-1,-1,-1,-1,-1,-1,-1,-1,-1,-1,-1,-1,-1],"split_conditions":[1.757E3,3E-1,-1.9E0,2.1E1,1.46E1,7.1E1,3E1,1.67E1,6.8E1,2.09E-1,2.6E0,-5E0,2.18E-1,2.3E0,1.11E-1,1.0752279E1,-4.725677E0,-5.3942456E0,-1.0196344E1,-2.327666E0,7.720695E0,9.048453E0,-5.5052457E0,7.0480876E0,-2.2926046E1,4.5070763E0,-9.632793E0,4.339896E0,1.046263E1,-2.1493084E1,1.0686429E0],"split_indices":[3,23,20,0,9,1,0,15,1,7,8,22,7,22,7,0,0,0,0,0,0,0,0,0,0,0,0,0,0,0,0],"split_type":[0,0,0,0,0,0,0,0,0,0,0,0,0,0,0,0,0,0,0,0,0,0,0,0,0,0,0,0,0,0,0],"sum_hessian":[3.016E3,1.646E3,1.37E3,8.04E2,8.42E2,8.5E1,1.285E3,7.8E1,7.26E2,3.93E2,4.49E2,1.5E1,7E1,9.91E2,2.94E2,2.9E1,4.9E1,5.43E2,1.83E2,1.98E2,1.95E2,3.3E1,4.16E2,2E0,1.3E1,2.8E1,4.2E1,7.29E2,2.62E2,1.1E1,2.83E2],"tree_param":{"num_deleted":"0","num_feature":"29","num_nodes":"31","size_leaf_vector":"1"}},{"base_weights":[6.6640306E-1,-4.798427E1,9.551333E1,4.503075E1,-7.23611E1,2.7943368E0,1.261369E2,-1.25630424E2,1.04892166E2,-1.3042169E2,-2.2972801E1,1.9770229E2,-5.1253384E1,1.412058E2,-5.578741E1,-9.259607E0,9.288779E0,-1.2515271E1,6.846406E0,-5.0971155E0,-1.1539653E1,9.788539E-1,-5.597772E0,-1.1777584E1,1.4283877E1,5.197194E-1,-1.2739051E1,1.2616378E1,5.875203E0,-2.7036621E1,-1.0388727E0],"categories":[],"categories_nodes":[],"categories_segments":[],"categories_sizes":[],"default_left":[0,0,0,0,0,0,0,0,0,0,0,0,0,0,0,0,0,0,0,0,0,0,0,0,0,0,0,0,0,0,0],"id":31,"left_children":[1,3,5,7,9,11,13,15,17,19,21,23,25,27,29,-1,-1,-1,-1,-1,-1,-1,-1,-1,-1,-1,-1,-1,-1,-1,-1],"loss_changes":[1.4032258E7,4.5607555E6,2.927055E6,4.283474E6,4.564954E6,2.7174558E6,2.132461E6,2.0561225E6,3.561792E6,2.068905E6,3.2658965E6,2.2017672E6,2.5371475E6,1.856136E6,1.00743925E6,0E0,0E0,0E0,0E0,0E0,0E0,0E0,0E0,0E0,0E0,0E0,0E0,0E0,0E0,0E0,0E0],"parents":[2147483647,0,0,1,1,2,2,3,3,4,4,5,5,6,6,7,7,8,8,9,9,10,10,11,11,12,12,13,13,14,14],"right_children":[2,4,6,8,10,12,14,16,18,20,22,24,26,28,30,-1,-1,-1,-1,-1,-1,-1,-1,-1,-1,-1,-1,-1,-1,-1,-1],"split_conditions":[1.999E3,2.3E1,-2E-1,-2.6E0,4E-1,2.3E1,3.3E1,7.6E1,6.41E2,5.57E-1,2.1E0,2E-1,1.42E1,5.33E-1,1.3E-1,-9.259607E0,9.288779E0,-1.2515271E1,6.846406E0,-5.0971155E0,-1.1539653E1,9.788539E-1,-5.597772E0,-1.1777584E1,1.4283877E1,5.197194E-1,-1.2739051E1,1.2616378E1,5.875203E0,-2.7036621E1,-1.0388727E0],"split_indices":[3,0,20,20,23,0,0,1,3,5,13,18,14,5,7,0,0,0,0,0,0,0,0,0,0,0,0,0,0,0,0],"split_type":[0,0,0,0,0,0,0,0,0,0,0,0,0,0,0,0,0,0,0,0,0,0,0,0,0,0,0,0,0,0,0],"sum_hessian":[3.039E3,2.009E3,1.03E3,4.17E2,1.592E3,2.56E2,7.74E2,1.08E2,3.09E2,7.31E2,8.61E2,5.5E1,2.01E2,7.15E2,5.9E1,9.1E1,1.7E1,2.5E1,2.84E2,5.71E2,1.6E2,5.83E2,2.78E2,9E0,4.6E1,1.55E2,4.6E1,1.24E2,5.91E2,3E0,5.6E1],"tree_param":{"num_deleted":"0","num_feature":"29","num_nodes":"31","size_leaf_vector":"1"}},{"base_weights":[8.675177E-1,-5.3393505E1,8.158568E1,3.5218285E1,-8.182973E1,1.5699707E2,4.7791836E1,-1.03966736E2,8.393174E1,-5.6874523E1,-1.9162479E2,1.79876E2,-1.11344E2,5.92094E-1,1.1282389E2,2.5521922E-1,-1.2977984E1,1.3721381E-1,7.385341E0,-6.4484572E0,-1.0008191E0,-2.1067316E1,-7.631562E0,3.1314573E0,1.0780612E1,-1.8387661E1,2.8229427E0,7.1859055E0,-1.570748E0,1.1501003E1,4.013084E0],"categories":[],"categories_nodes":[],"categories_segments":[],"categories_sizes":[],"default_left":[0,0,0,0,0,0,0,0,0,0,0,0,0,0,0,0,0,0,0,0,0,0,0,0,0,0,0,0,0,0,0],"id":32,"left_children":[1,3,5,7,9,11,13,15,17,19,21,23,25,27,29,-1,-1,-1,-1,-1,-1,-1,-1,-1,-1,-1,-1,-1,-1,-1,-1],"loss_changes":[1.3183325E7,4.538493E6,3.076109E6,2.9784465E6,3.723664E6,2.316149E6,2.5691015E6,1.9359844E6,1.6823592E6,2.9523068E6,2.193019E6,1.432035E6,1.3115489E6,2.2309012E6,1.324829E6,0E0,0E0,0E0,0E0,0E0,0E0,0E0,0E0,0E0,0E0,0E0,0E0,0E0,0E0,0E0,0E0],"parents":[2147483647,0,0,1,1,2,2,3,3,4,4,5,5,6,6,7,7,8,8,9,9,10,10,11,11,12,12,13,13,14,14],"right_children":[2,4,6,8,10,12,14,16,18,20,22,24,26,28,30,-1,-1,-1,-1,-1,-1,-1,-1,-1,-1,-1,-1,-1,-1,-1,-1],"split_conditions":[1E0,2.3E1,2.5E1,-2.7E0,1E0,4.94E-1,2.2E0,1.75E1,1.7E1,-1.6E0,-2E-1,8E-1,5.49E-1,3E-1,6.4E1,2.5521922E-1,-1.2977984E1,1.3721381E-1,7.385341E0,-6.4484572E0,-1.0008191E0,-2.1067316E1,-7.631562E0,3.1314573E0,1.0780612E1,-1.8387661E1,2.8229427E0,7.1859055E0,-1.570748E0,1.1501003E1,4.013084E0],"split_indices":[23,0,0,20,24,6,23,15,2,20,23,13,5,22,1,0,0,0,0,0,0,0,0,0,0,0,0,0,0,0,0],"split_type":[0,0,0,0,0,0,0,0,0,0,0,0,0,0,0,0,0,0,0,0,0,0,0,0,0,0,0,0,0,0,0],"sum_hessian":[3.008E3,1.799E3,1.209E3,4.37E2,1.362E3,3.73E2,8.36E2,1.13E2,3.24E2,1.111E3,2.51E2,3.44E2,2.9E1,4.85E2,3.51E2,6.7E1,4.6E1,1.43E2,1.81E2,3.75E2,7.36E2,3.5E1,2.16E2,8.1E1,2.63E2,1.1E1,1.8E1,8.8E1,3.97E2,7.5E1,2.76E2],"tree_param":{"num_deleted":"0","num_feature":"29","num_nodes":"31","size_leaf_vector":"1"}},{"base_weights":[1.8583196E0,-5.2004967E1,8.137347E1,5.877466E1,-7.111827E1,1.575915E2,4.7831467E1,-8.7679474E1,1.3416415E2,-1.5250258E2,-4.7912964E1,1.0407482E2,2.2741425E2,-4.038791E1,8.986705E1,-8.408183E0,7.8792605E0,-1.0512237E1,8.615502E0,-4.8422184E0,-1.2776087E1,2.4874662E-1,-5.3535113E0,9.984941E0,1.7578974E0,-6.9834274E-1,1.2894778E1,7.239454E0,-5.216268E0,-1.5748122E1,4.84242E0],"categories":[],"categories_nodes":[],"categories_segments":[],"categories_sizes":[],"default_left":[0,0,0,0,0,0,0,0,0,0,0,0,0,0,0,0,0,0,0,0,0,0,0,0,0,0,0,0,0,0,0],"id":33,"left_children":[1,3,5,7,9,11,13,15,17,19,21,23,25,27,29,-1,-1,-1,-1,-1,-1,-1,-1,-1,-1,-1,-1,-1,-1,-1,-1],"loss_changes":[1.2960148E7,3.823906E6,3.1165125E6,2.948697E6,2.8991685E6,1.370114E6,3.1557298E6,1.8228335E6,2.3484762E6,1.9305005E6,3.7518478E6,1.3966718E6,1.1881775E6,3.2710352E6,1.6584285E6,0E0,0E0,0E0,0E0,0E0,0E0,0E0,0E0,0E0,0E0,0E0,0E0,0E0,0E0,0E0,0E0],"parents":[2147483647,0,0,1,1,2,2,3,3,4,4,5,5,6,6,7,7,8,8,9,9,10,10,11,11,12,12,13,13,14,14],"right_children":[2,4,6,8,10,12,14,16,18,20,22,24,26,28,30,-1,-1,-1,-1,-1,-1,-1,-1,-1,-1,-1,-1,-1,-1,-1,-1],"split_conditions":[1E0,2.2E1,2.5E1,6E1,-1E-1,2E0,1.907E3,1.1E0,3E-1,5.21E-1,5.44E-1,4.2E1,1.1E0,5.4E1,4.91E-1,-8.408183E0,7.8792605E0,-1.0512237E1,8.615502E0,-4.8422184E0,-1.2776087E1,2.4874662E-1,-5.3535113E0,9.984941E0,1.7578974E0,-6.9834274E-1,1.2894778E1,7.239454E0,-5.216268E0,-1.5748122E1,4.84242E0],"split_indices":[23,0,0,1,23,23,3,17,18,5,5,2,12,1,5,0,0,0,0,0,0,0,0,0,0,0,0,0,0,0,0],"split_type":[0,0,0,0,0,0,0,0,0,0,0,0,0,0,0,0,0,0,0,0,0,0,0,0,0,0,0,0,0,0,0],"sum_hessian":[3.024E3,1.803E3,1.221E3,2.65E2,1.538E3,3.72E2,8.49E2,9E1,1.75E2,3.4E2,1.198E3,2.12E2,1.6E2,2.74E2,5.75E2,6.8E1,2.2E1,1.7E1,1.58E2,2.22E2,1.18E2,6.33E2,5.65E2,8.8E1,1.24E2,1.8E1,1.42E2,7E1,2.04E2,9E0,5.66E2],"tree_param":{"num_deleted":"0","num_feature":"29","num_nodes":"31","size_leaf_vector":"1"}},{"base_weights":[4.001506E0,-4.3096848E1,9.42468E1,-9.415958E1,-1.1510852E1,8.010565E0,1.2578058E2,1.5388474E2,-1.1147049E2,3.304074E1,-7.301632E1,-2.5134198E2,4.1443108E1,1.3454205E2,-9.970831E1,2.1140602E1,1.8778561E0,-4.2535195E0,-8.972055E0,4.747716E0,-1.388191E0,-1.2947754E0,-7.665342E0,-2.1957022E1,1.0740165E0,1.2549675E0,2.3633598E1,6.8511057E0,-2.5689383E1,-2.289354E1,1.0995781E1],"categories":[],"categories_nodes":[],"categories_segments":[],"categories_sizes":[],"default_left":[0,0,0,0,0,0,0,0,0,0,0,0,0,0,0,0,0,0,0,0,0,0,0,0,0,0,0,0,0,0,0],"id":34,"left_children":[1,3,5,7,9,11,13,15,17,19,21,23,25,27,29,-1,-1,-1,-1,-1,-1,-1,-1,-1,-1,-1,-1,-1,-1,-1,-1],"loss_changes":[1.2865788E7,3.2069088E6,2.821682E6,3.280497E6,3.3728172E6,2.429574E6,1.514881E6,1.5483039E6,1.260575E6,2.6905805E6,1.9520245E6,1.6489724E6,1.736016E6,1.247383E6,3.4205348E6,0E0,0E0,0E0,0E0,0E0,0E0,0E0,0E0,0E0,0E0,0E0,0E0,0E0,0E0,0E0,0E0],"parents":[2147483647,0,0,1,1,2,2,3,3,4,4,5,5,6,6,7,7,8,8,9,9,10,10,11,11,12,12,13,13,14,14],"right_children":[2,4,6,8,10,12,14,16,18,20,22,24,26,28,30,-1,-1,-1,-1,-1,-1,-1,-1,-1,-1,-1,-1,-1,-1,-1,-1],"split_conditions":[1.999E3,1.186E3,1.81E1,3E1,6.9E1,5.2E-2,1.96E1,2.5E0,2.8E1,5.48E-1,-2E-1,2.7E0,2.779E3,8.3E1,1.4E0,2.1140602E1,1.8778561E0,-4.2535195E0,-8.972055E0,4.747716E0,-1.388191E0,-1.2947754E0,-7.665342E0,-2.1957022E1,1.0740165E0,1.2549675E0,2.3633598E1,6.8511057E0,-2.5689383E1,-2.289354E1,1.0995781E1],"split_indices":[3,3,15,1,1,19,10,8,0,5,20,8,3,1,12,0,0,0,0,0,0,0,0,0,0,0,0,0,0,0,0],"split_type":[0,0,0,0,0,0,0,0,0,0,0,0,0,0,0,0,0,0,0,0,0,0,0,0,0,0,0,0,0,0,0],"sum_hessian":[3.025E3,1.988E3,1.037E3,7.59E2,1.229E3,2.78E2,7.59E2,4.9E1,7.1E2,7.13E2,5.16E2,3.1E1,2.47E2,7.31E2,2.8E1,1.4E1,3.5E1,5.13E2,1.97E2,3.53E2,3.6E2,3.26E2,1.9E2,1.8E1,1.3E1,2.39E2,8E0,7.29E2,2E0,1.3E1,1.5E1],"tree_param":{"num_deleted":"0","num_feature":"29","num_nodes":"31","size_leaf_vector":"1"}},{"base_weights":[-9.272158E-1,-6.516539E1,5.3105095E1,-4.1619522E1,-1.5769249E2,-1.0658178E2,6.6272705E1,-2.345607E2,-2.6766293E1,6.575371E1,-1.9079378E2,9.271634E1,-1.9698802E2,4.322784E1,1.4762411E2,-1.5973793E1,-1.3325996E0,5.6826396E0,-2.1085722E0,-1.3319597E1,8.3283E0,1.7274376E1,-1.0056415E1,-1.4559148E1,9.889532E0,1.0580913E1,-1.1493386E1,4.591848E0,-4.9497768E-1,9.260239E0,2.655957E0],"categories":[],"categories_nodes":[],"categories_segments":[],"categories_sizes":[],"default_left":[0,0,0,0,0,0,0,0,0,0,0,0,0,0,0,0,0,0,0,0,0,0,0,0,0,0,0,0,0,0,0],"id":35,"left_children":[1,3,5,7,9,11,13,15,17,19,21,23,25,27,29,-1,-1,-1,-1,-1,-1,-1,-1,-1,-1,-1,-1,-1,-1,-1,-1],"loss_changes":[1.0537755E7,3.015198E6,3.474407E6,3.1661615E6,2.0909215E6,2.288506E6,2.85071E6,1.3861985E6,2.2307025E6,1.2832934E6,1.427326E6,1.671111E6,1.217476E6,3.0714728E6,1.183486E6,0E0,0E0,0E0,0E0,0E0,0E0,0E0,0E0,0E0,0E0,0E0,0E0,0E0,0E0,0E0,0E0],"parents":[2147483647,0,0,1,1,2,2,3,3,4,4,5,5,6,6,7,7,8,8,9,9,10,10,11,11,12,12,13,13,14,14],"right_children":[2,4,6,8,10,12,14,16,18,20,22,24,26,28,30,-1,-1,-1,-1,-1,-1,-1,-1,-1,-1,-1,-1,-1,-1,-1,-1],"split_conditions":[1.601E3,3E1,-2.3E0,6.09E2,4.1E1,2.2E1,2.52E1,4.55E-1,5.3E0,8.2E0,2E-1,-1.7E0,8E0,2.7E1,4.4E0,-1.5973793E1,-1.3325996E0,5.6826396E0,-2.1085722E0,-1.3319597E1,8.3283E0,1.7274376E1,-1.0056415E1,-1.4559148E1,9.889532E0,1.0580913E1,-1.1493386E1,4.591848E0,-4.9497768E-1,9.260239E0,2.655957E0],"split_indices":[3,0,22,3,1,0,15,6,10,11,17,16,2,0,22,0,0,0,0,0,0,0,0,0,0,0,0,0,0,0,0],"split_type":[0,0,0,0,0,0,0,0,0,0,0,0,0,0,0,0,0,0,0,0,0,0,0,0,0,0,0,0,0,0,0],"sum_hessian":[3.034E3,1.386E3,1.648E3,1.106E3,2.8E2,1.25E2,1.523E3,7.8E1,1.028E3,3.6E1,2.44E2,3.9E1,8.6E1,1.188E3,3.35E2,5.5E1,2.3E1,1.01E2,9.27E2,8E0,2.8E1,4E0,2.4E2,8E0,3.1E1,6E0,8E1,6.2E2,5.68E2,2.39E2,9.6E1],"tree_param":{"num_deleted":"0","num_feature":"29","num_nodes":"31","size_leaf_vector":"1"}},{"base_weights":[6.0943418E0,-4.1670666E1,7.809442E1,-2.247394E1,-1.3110516E2,1.5910966E2,5.073252E1,-1.7615013E2,-5.4328794E0,-1.7238678E2,1.0641541E2,2.0341124E2,-5.8642357E1,3.1657831E1,1.980225E2,-3.3833146E0,-1.2037307E1,-2.5127783E0,2.223232E0,-1.57341385E1,-6.135735E0,2.1669699E1,2.0009606E0,-1.888159E1,1.0955905E1,-1.0328578E1,8.478303E0,4.5401187E0,-1.2979239E0,-9.372876E-1,1.5024053E1],"categories":[],"categories_nodes":[],"categories_segments":[],"categories_sizes":[],"default_left":[0,0,0,0,0,0,0,0,0,0,0,0,0,0,0,0,0,0,0,0,0,0,0,0,0,0,0,0,0,0,0],"id":36,"left_children":[1,3,5,7,9,11,13,15,17,19,21,23,25,27,29,-1,-1,-1,-1,-1,-1,-1,-1,-1,-1,-1,-1,-1,-1,-1,-1],"loss_changes":[1.0365215E7,3.1079848E6,2.656439E6,3.9089195E6,3.1560195E6,2.934896E6,2.5222908E6,1.0278455E6,3.010382E6,1.8909855E6,1.0247424E6,2.382589E6,1.7904792E6,2.7216935E6,2.2932382E6,0E0,0E0,0E0,0E0,0E0,0E0,0E0,0E0,0E0,0E0,0E0,0E0,0E0,0E0,0E0,0E0],"parents":[2147483647,0,0,1,1,2,2,3,3,4,4,5,5,6,6,7,7,8,8,9,9,10,10,11,11,12,12,13,13,14,14],"right_children":[2,4,6,8,10,12,14,16,18,20,22,24,26,28,30,-1,-1,-1,-1,-1,-1,-1,-1,-1,-1,-1,-1,-1,-1,-1,-1],"split_conditions":[1E0,1E0,5.42E-1,1.32E1,5.01E-1,3.41E1,2.1E-1,9E0,2E1,-2.2E0,5.28E-1,2.5E0,2E-1,2.7E1,1.15E1,-3.3833146E0,-1.2037307E1,-2.5127783E0,2.223232E0,-1.57341385E1,-6.135735E0,2.1669699E1,2.0009606E0,-1.888159E1,1.0955905E1,-1.0328578E1,8.478303E0,4.5401187E0,-1.2979239E0,-9.372876E-1,1.5024053E1],"split_indices":[23,24,5,15,7,11,19,4,2,22,7,18,21,0,14,0,0,0,0,0,0,0,0,0,0,0,0,0,0,0,0],"split_type":[0,0,0,0,0,0,0,0,0,0,0,0,0,0,0,0,0,0,0,0,0,0,0,0,0,0,0,0,0,0,0],"sum_hessian":[3.012E3,1.811E3,1.201E3,1.492E3,3.19E2,3.02E2,8.99E2,1.48E2,1.344E3,2.72E2,4.7E1,2.51E2,5.1E1,7.97E2,1.02E2,5.6E1,9.2E1,7.08E2,6.36E2,6.9E1,2.03E2,7E0,4E1,6E0,2.45E2,3.1E1,2E1,3.93E2,4.04E2,3.3E1,6.9E1],"tree_param":{"num_deleted":"0","num_feature":"29","num_nodes":"31","size_leaf_vector":"1"}},{"base_weights":[-3.966743E0,-8.40515E1,2.8083874E1,-6.5585556E1,-2.8575308E2,6.8587364E1,-3.789204E1,-4.779594E1,-2.0190349E2,1.8448422E2,-3.5585815E2,1.1869853E2,4.1311577E1,1.3207204E1,-1.1266243E2,-5.568128E0,-3.7376022E-1,-1.3584177E1,1.4650705E0,-1.4267611E1,2.7263361E1,5.3840714E0,-1.9041492E1,1.1220369E1,2.930076E0,-1.0428301E0,4.9951186E0,-8.629628E0,1.6235183E0,-8.732392E0,1.6755034E0],"categories":[],"categories_nodes":[],"categories_segments":[],"categories_sizes":[],"default_left":[0,0,0,0,0,0,0,0,0,0,0,0,0,0,0,0,0,0,0,0,0,0,0,0,0,0,0,0,0,0,0],"id":37,"left_children":[1,3,5,7,9,11,13,15,17,19,21,23,25,27,29,-1,-1,-1,-1,-1,-1,-1,-1,-1,-1,-1,-1,-1,-1,-1,-1],"loss_changes":[7.741159E6,3.191874E6,5.758637E6,1.908559E6,2.439204E6,1.819803E6,3.1344705E6,1.7958676E6,1.476108E6,1.850683E6,7.702555E5,2.9726595E6,3.1564735E6,1.7522006E6,3.02302E6,0E0,0E0,0E0,0E0,0E0,0E0,0E0,0E0,0E0,0E0,0E0,0E0,0E0,0E0,0E0,0E0],"parents":[2147483647,0,0,1,1,2,2,3,3,4,4,5,5,6,6,7,7,8,8,9,9,10,10,11,11,12,12,13,13,14,14],"right_children":[2,4,6,8,10,12,14,16,18,20,22,24,26,28,30,-1,-1,-1,-1,-1,-1,-1,-1,-1,-1,-1,-1,-1,-1,-1,-1],"split_conditions":[2E0,1.1E0,2.8E1,1E0,2.2E1,5.42E-1,1.5E0,9E-1,1.01E-1,9.47E2,2.5E1,6.9E1,2.8E0,1E0,3.1E0,-5.568128E0,-3.7376022E-1,-1.3584177E1,1.4650705E0,-1.4267611E1,2.7263361E1,5.3840714E0,-1.9041492E1,1.1220369E1,2.930076E0,-1.0428301E0,4.9951186E0,-8.629628E0,1.6235183E0,-8.732392E0,1.6755034E0],"split_indices":[18,16,0,24,0,5,13,18,19,3,1,1,16,12,16,0,0,0,0,0,0,0,0,0,0,0,0,0,0,0,0],"split_type":[0,0,0,0,0,0,0,0,0,0,0,0,0,0,0,0,0,0,0,0,0,0,0,0,0,0,0,0,0,0,0],"sum_hessian":[3.014E3,8.61E2,2.153E3,7.9E2,7.1E1,1.334E3,8.19E2,7E2,9E1,9E0,6.2E1,4.69E2,8.65E2,4.87E2,3.32E2,2.71E2,4.29E2,6.9E1,2.1E1,4E0,5E0,3E0,5.9E1,1.69E2,3E2,4.2E2,4.45E2,4.5E1,4.42E2,2.33E2,9.9E1],"tree_param":{"num_deleted":"0","num_feature":"29","num_nodes":"31","size_leaf_vector":"1"}},{"base_weights":[-3.2307286E0,-4.234575E1,7.33201E1,-4.9786156E1,1.4948698E2,6.455904E1,3.515916E2,1.98066E2,-5.4740463E1,4.0073615E2,8.525379E1,3.8696652E2,5.821001E1,3.7924152E2,-1.1947626E1,-6.6400065E0,1.6889091E1,-3.6319299E0,4.2524716E-1,3.280044E1,4.7685714E0,-2.8070157E0,9.594672E0,3.3210766E1,1.0395604E1,-4.035489E0,3.4688027E0,8.314291E0,2.3129494E1],"categories":[],"categories_nodes":[],"categories_segments":[],"categories_sizes":[],"default_left":[0,0,0,0,0,0,0,0,0,0,0,0,0,0,0,0,0,0,0,0,0,0,0,0,0,0,0,0,0],"id":38,"left_children":[1,3,5,7,9,11,13,15,17,19,21,23,25,27,-1,-1,-1,-1,-1,-1,-1,-1,-1,-1,-1,-1,-1,-1,-1],"loss_changes":[9.057829E6,2.8649255E6,2.4713295E6,2.3783025E6,1.1762256E6,2.0101195E6,5.9680325E5,1.8014922E6,2.141181E6,1.106705E6,9.305441E5,8.051115E5,1.518004E6,4.55563E5,0E0,0E0,0E0,0E0,0E0,0E0,0E0,0E0,0E0,0E0,0E0,0E0,0E0,0E0,0E0],"parents":[2147483647,0,0,1,1,2,2,3,3,4,4,5,5,6,6,7,7,8,8,9,9,10,10,11,11,12,12,13,13],"right_children":[2,4,6,8,10,12,14,16,18,20,22,24,26,28,-1,-1,-1,-1,-1,-1,-1,-1,-1,-1,-1,-1,-1,-1,-1],"split_conditions":[1.999E3,3.4E0,9.6E0,2E1,2.4E1,5.9E1,5.55E-1,1E1,1E0,4.4E0,3.5E0,9E-1,9E-1,3.79E-1,-1.1947626E1,-6.6400065E0,1.6889091E1,-3.6319299E0,4.2524716E-1,3.280044E1,4.7685714E0,-2.8070157E0,9.594672E0,3.3210766E1,1.0395604E1,-4.035489E0,3.4688027E0,8.314291E0,2.3129494E1],"split_indices":[3,22,16,0,0,1,6,2,28,8,16,13,17,7,0,0,0,0,0,0,0,0,0,0,0,0,0,0,0],"split_type":[0,0,0,0,0,0,0,0,0,0,0,0,0,0,0,0,0,0,0,0,0,0,0,0,0,0,0,0,0],"sum_hessian":[3.023E3,2.001E3,1.022E3,1.927E3,7.4E1,9.92E2,3E1,3.7E1,1.89E3,1.4E1,6E1,1.8E1,9.74E2,2.9E1,1E0,1.1E1,2.6E1,1.473E3,4.17E2,7E0,7E0,2.6E1,3.4E1,6E0,1.2E1,7.2E1,9.02E2,9E0,2E1],"tree_param":{"num_deleted":"0","num_feature":"29","num_nodes":"29","size_leaf_vector":"1"}},{"base_weights":[6.5969944E-1,-3.7537216E1,6.820843E1,-6.02169E1,3.0865053E1,1.5017531E2,3.1663628E1,1.7017763E2,-6.675192E1,-1.26624695E2,5.5078255E1,1.6337256E2,-1.2233071E2,7.0052414E1,-6.499445E1,-1.1971005E1,1.32158575E1,-4.271074E0,9.772194E-1,-9.200522E0,8.329926E0,4.436231E0,-4.45742E0,1.1341016E1,4.5639777E0,-3.0872944E1,4.7083454E0,-9.938632E0,4.232273E0,-1.613441E1,-9.657181E-3],"categories":[],"categories_nodes":[],"categories_segments":[],"categories_sizes":[],"default_left":[0,0,0,0,0,0,0,0,0,0,0,0,0,0,0,0,0,0,0,0,0,0,0,0,0,0,0,0,0,0,0],"id":39,"left_children":[1,3,5,7,9,11,13,15,17,19,21,23,25,27,29,-1,-1,-1,-1,-1,-1,-1,-1,-1,-1,-1,-1,-1,-1,-1,-1],"loss_changes":[7.7430195E6,2.975781E6,3.242327E6,2.179471E6,1.8297465E6,1.221159E6,2.7912035E6,1.6056562E6,2.25884E6,1.1075735E6,2.0217816E6,1.438447E6,1.7732492E6,2.1273872E6,3.5735008E6,0E0,0E0,0E0,0E0,0E0,0E0,0E0,0E0,0E0,0E0,0E0,0E0,0E0,0E0,0E0,0E0],"parents":[2147483647,0,0,1,1,2,2,3,3,4,4,5,5,6,6,7,7,8,8,9,9,10,10,11,11,12,12,13,13,14,14],"right_children":[2,4,6,8,10,12,14,16,18,20,22,24,26,28,30,-1,-1,-1,-1,-1,-1,-1,-1,-1,-1,-1,-1,-1,-1,-1,-1],"split_conditions":[4.2E0,1E0,2.5E1,3E1,1.1E0,4.94E-1,1.41E1,3E0,1.9E0,2.7E0,1.44E1,6.2E0,5.49E-1,9E-2,1.71E1,-1.1971005E1,1.32158575E1,-4.271074E0,9.772194E-1,-9.200522E0,8.329926E0,4.436231E0,-4.45742E0,1.1341016E1,4.5639777E0,-3.0872944E1,4.7083454E0,-9.938632E0,4.232273E0,-1.613441E1,-9.657181E-3],"split_indices":[18,28,0,1,12,6,10,2,17,8,14,8,5,19,4,0,0,0,0,0,0,0,0,0,0,0,0,0,0,0,0],"split_type":[0,0,0,0,0,0,0,0,0,0,0,0,0,0,0,0,0,0,0,0,0,0,0,0,0,0,0,0,0,0,0],"sum_hessian":[2.999E3,1.916E3,1.083E3,1.439E3,4.77E2,3.33E2,7.5E2,3.9E1,1.4E3,6.3E1,4.14E2,3.18E2,1.5E1,5.37E2,2.13E2,7E0,3.2E1,1.151E3,2.49E2,5.3E1,1E1,3.36E2,7.8E1,1.68E2,1.5E2,4E0,1.1E1,2.7E1,5.1E2,4.2E1,1.71E2],"tree_param":{"num_deleted":"0","num_feature":"29","num_nodes":"31","size_leaf_vector":"1"}},{"base_weights":[5.926273E-1,-6.3849735E1,3.8459812E1,1.4066026E2,-7.3738106E1,-9.02937E1,5.235272E1,4.1639972E2,-5.167463E0,-1.441166E2,-4.4409294E1,1.1137509E1,-1.7576688E2,1.1568368E2,2.6615707E1,-3.5038683E-1,3.4323895E1,-6.6888857E0,6.943869E0,-6.441047E0,-1.7569662E1,2.8504064E0,-4.320489E0,-2.4497027E0,1.3863761E1,5.55298E0,-1.0784399E1,4.8770804E0,1.6612696E1,-6.6118336E-1,4.5992107E0],"categories":[],"categories_nodes":[],"categories_segments":[],"categories_sizes":[],"default_left":[0,0,0,0,0,0,0,0,0,0,0,0,0,0,0,0,0,0,0,0,0,0,0,0,0,0,0,0,0,0,0],"id":40,"left_children":[1,3,5,7,9,11,13,15,17,19,21,23,25,27,29,-1,-1,-1,-1,-1,-1,-1,-1,-1,-1,-1,-1,-1,-1,-1,-1],"loss_changes":[7.384214E6,2.2753155E6,3.4141055E6,2.0930955E6,2.2001415E6,1.614512E6,2.802064E6,2.0631665E6,6.669763E5,9.5025E5,3.2251695E6,1.3898666E6,1.180447E6,1.9203215E6,3.191411E6,0E0,0E0,0E0,0E0,0E0,0E0,0E0,0E0,0E0,0E0,0E0,0E0,0E0,0E0,0E0,0E0],"parents":[2147483647,0,0,1,1,2,2,3,3,4,4,5,5,6,6,7,7,8,8,9,9,10,10,11,11,12,12,13,13,14,14],"right_children":[2,4,6,8,10,12,14,16,18,20,22,24,26,28,30,-1,-1,-1,-1,-1,-1,-1,-1,-1,-1,-1,-1,-1,-1,-1,-1],"split_conditions":[1.426E3,3E1,-1.9E0,9E-1,8.49E2,5.01E-1,6.7E1,1.5E0,9.5E0,6.19E-1,5.3E1,-1.7E0,1.3E1,2.189E3,2.368E3,-3.5038683E-1,3.4323895E1,-6.6888857E0,6.943869E0,-6.441047E0,-1.7569662E1,2.8504064E0,-4.320489E0,-2.4497027E0,1.3863761E1,5.55298E0,-1.0784399E1,4.8770804E0,1.6612696E1,-6.6118336E-1,4.5992107E0],"split_indices":[3,1,20,13,3,5,1,12,10,5,1,22,2,3,3,0,0,0,0,0,0,0,0,0,0,0,0,0,0,0,0],"split_type":[0,0,0,0,0,0,0,0,0,0,0,0,0,0,0,0,0,0,0,0,0,0,0,0,0,0,0,0,0,0,0],"sum_hessian":[3.024E3,1.119E3,1.905E3,5.1E1,1.068E3,1.85E2,1.72E3,1.7E1,3.4E1,3.13E2,7.55E2,8.5E1,1E2,4.96E2,1.224E3,7E0,1E1,1.8E1,1.6E1,2.93E2,2E1,2.21E2,5.34E2,7E1,1.5E1,1.2E1,8.8E1,4.59E2,3.7E1,7.61E2,4.63E2],"tree_param":{"num_deleted":"0","num_feature":"29","num_nodes":"31","size_leaf_vector":"1"}},{"base_weights":[4.1332555E0,-2.9474655E1,8.758092E1,-3.9356228E1,1.2691739E2,5.7225684E2,8.292717E1,2.877319E1,-5.6758087E1,-2.6479407E2,1.73909E2,6.34007E0,3.498042E1,6.1668636E1,1.7591296E2,-5.7720675E0,3.8532073E0,-5.542209E0,-1.3345069E0,-1.9963926E1,8.561833E0,4.4349366E-1,1.1772162E1,5.7603707E0,1.4898148E0,7.117604E-1,1.5217926E1],"categories":[],"categories_nodes":[],"categories_segments":[],"categories_sizes":[],"default_left":[0,0,0,0,0,0,0,0,0,0,0,0,0,0,0,0,0,0,0,0,0,0,0,0,0,0,0],"id":41,"left_children":[1,3,5,7,9,11,13,15,17,19,21,-1,-1,23,25,-1,-1,-1,-1,-1,-1,-1,-1,-1,-1,-1,-1],"loss_changes":[8.390845E6,3.3013315E6,1.890067E6,2.381089E6,2.383758E6,3.651245E5,1.673336E6,2.8572782E6,2.597428E6,8.89322E5,1.1556452E6,0E0,0E0,1.1825198E6,3.2768205E6,0E0,0E0,0E0,0E0,0E0,0E0,0E0,0E0,0E0,0E0,0E0,0E0],"parents":[2147483647,0,0,1,1,2,2,3,3,4,4,5,5,6,6,7,7,8,8,9,9,10,10,13,13,14,14],"right_children":[2,4,6,8,10,12,14,16,18,20,22,-1,-1,24,26,-1,-1,-1,-1,-1,-1,-1,-1,-1,-1,-1,-1],"split_conditions":[2.098E3,3.03E1,5.9E1,2.3E1,1.75E1,2.5E1,1E0,9E-1,2.1E0,3.67E1,8E-1,6.34007E0,3.498042E1,1.13E1,4E-1,-5.7720675E0,3.8532073E0,-5.542209E0,-1.3345069E0,-1.9963926E1,8.561833E0,4.4349366E-1,1.1772162E1,5.7603707E0,1.4898148E0,7.117604E-1,1.5217926E1],"split_indices":[3,11,1,0,15,0,27,18,18,11,17,0,0,14,22,0,0,0,0,0,0,0,0,0,0,0,0],"split_type":[0,0,0,0,0,0,0,0,0,0,0,0,0,0,0,0,0,0,0,0,0,0,0,0,0,0,0],"sum_hessian":[2.99E3,2.132E3,8.58E2,2.006E3,1.26E2,7E0,8.51E2,4.08E2,1.598E3,1.3E1,1.13E2,2E0,5E0,6.94E2,1.57E2,1.02E2,3.06E2,5.7E2,1.028E3,1E1,3E0,3.1E1,8.2E1,2.58E2,4.36E2,7E1,8.7E1],"tree_param":{"num_deleted":"0","num_feature":"29","num_nodes":"27","size_leaf_vector":"1"}},{"base_weights":[-1.1089389E0,-4.3592308E1,4.9945904E1,-1.24057335E2,-2.4894405E1,5.680839E0,9.182713E1,-1.515433E2,2.1208861E2,-6.4651955E1,2.2829344E1,2.3623306E1,-1.4162352E2,7.797624E1,2.2104172E2,-8.93918E0,3.6408653E0,-1.4844174E1,1.6436361E1,-1.8893442E0,-8.819335E0,4.5576045E-1,1.2432811E1,-1.1720482E1,1.787035E0,-1.3765546E1,1.7124668E-1,4.746629E0,-6.44107E0,1.8587917E-2,1.7881905E1],"categories":[],"categories_nodes":[],"categories_segments":[],"categories_sizes":[],"default_left":[0,0,0,0,0,0,0,0,0,0,0,0,0,0,0,0,0,0,0,0,0,0,0,0,0,0,0,0,0,0,0],"id":42,"left_children":[1,3,5,7,9,11,13,15,17,19,21,23,25,27,29,-1,-1,-1,-1,-1,-1,-1,-1,-1,-1,-1,-1,-1,-1,-1,-1],"loss_changes":[6.580699E6,2.4884085E6,2.5541185E6,2.9148015E6,2.5534512E6,1.7768011E6,1.2498975E6,1.779286E6,1.5223726E6,2.1966275E6,1.8931098E6,1.8812632E6,1.4164966E6,2.259916E6,2.049572E6,0E0,0E0,0E0,0E0,0E0,0E0,0E0,0E0,0E0,0E0,0E0,0E0,0E0,0E0,0E0,0E0],"parents":[2147483647,0,0,1,1,2,2,3,3,4,4,5,5,6,6,7,7,8,8,9,9,10,10,11,11,12,12,13,13,14,14],"right_children":[2,4,6,8,10,12,14,16,18,20,22,24,26,28,30,-1,-1,-1,-1,-1,-1,-1,-1,-1,-1,-1,-1,-1,-1,-1,-1],"split_conditions":[1.757E3,1.1E0,2.1E1,5.01E-1,-8E-1,3.2E1,2.1E-1,1.9E0,1.01E1,1.37E1,2.7E0,1.6E0,2.153E3,4.7E0,1.23E1,-8.93918E0,3.6408653E0,-1.4844174E1,1.6436361E1,-1.8893442E0,-8.819335E0,4.5576045E-1,1.2432811E1,-1.1720482E1,1.787035E0,-1.3765546E1,1.7124668E-1,4.746629E0,-6.44107E0,1.8587917E-2,1.7881905E1],"split_indices":[3,12,15,7,20,0,19,17,10,4,12,18,3,22,14,0,0,0,0,0,0,0,0,0,0,0,0,0,0,0,0],"split_type":[0,0,0,0,0,0,0,0,0,0,0,0,0,0,0,0,0,0,0,0,0,0,0,0,0,0,0,0,0,0,0],"sum_hessian":[3.032E3,1.655E3,1.377E3,3.11E2,1.344E3,6.7E2,7.07E2,2.88E2,2.3E1,7.33E2,6.11E2,5.98E2,7.2E1,6.4E2,6.7E1,2.57E2,3.1E1,4E0,1.9E1,5.92E2,1.41E2,5.77E2,3.4E1,2.6E1,5.72E2,3.7E1,3.5E1,5.92E2,4.8E1,2.6E1,4.1E1],"tree_param":{"num_deleted":"0","num_feature":"29","num_nodes":"31","size_leaf_vector":"1"}},{"base_weights":[-1.4801682E0,-3.6240047E1,5.0775974E1,3.9280296E1,-5.969822E1,8.542332E1,-2.294725E1,-8.8475075E1,8.3871925E1,-4.1024067E1,-1.4438948E2,8.9236435E1,-3.7128143E2,-5.1553253E2,-1.1189427E1,7.932833E-1,-1.1655684E1,3.5530403E0,2.8731153E1,-7.9544625E0,-1.3010367E0,-9.281347E0,3.517426E0,2.3614366E0,6.619031E0,-2.6822432E1,1.3878826E0,-4.686209E0,-2.7827154E1,1.664564E0,-5.6795573E0],"categories":[],"categories_nodes":[],"categories_segments":[],"categories_sizes":[],"default_left":[0,0,0,0,0,0,0,0,0,0,0,0,0,0,0,0,0,0,0,0,0,0,0,0,0,0,0,0,0,0,0],"id":43,"left_children":[1,3,5,7,9,11,13,15,17,19,21,23,25,27,29,-1,-1,-1,-1,-1,-1,-1,-1,-1,-1,-1,-1,-1,-1,-1,-1],"loss_changes":[5.4928695E6,3.219515E6,3.0875715E6,2.46275E6,2.186087E6,1.464622E6,2.2356312E6,1.6939688E6,1.97103E6,2.0099094E6,2.2268715E6,1.4726565E6,4.7624762E5,1.0352575E5,1.730089E6,0E0,0E0,0E0,0E0,0E0,0E0,0E0,0E0,0E0,0E0,0E0,0E0,0E0,0E0,0E0,0E0],"parents":[2147483647,0,0,1,1,2,2,3,3,4,4,5,5,6,6,7,7,8,8,9,9,10,10,11,11,12,12,13,13,14,14],"right_children":[2,4,6,8,10,12,14,16,18,20,22,24,26,28,30,-1,-1,-1,-1,-1,-1,-1,-1,-1,-1,-1,-1,-1,-1,-1,-1],"split_conditions":[1E0,2.3E1,2.9E1,-2.7E0,1E0,2.15E1,6.5E0,1.73E1,1.89E1,1.32E1,5.01E-1,1.22E1,2.03E-1,1.1E-1,5.3E0,7.932833E-1,-1.1655684E1,3.5530403E0,2.8731153E1,-7.9544625E0,-1.3010367E0,-9.281347E0,3.517426E0,2.3614366E0,6.619031E0,-2.6822432E1,1.3878826E0,-4.686209E0,-2.7827154E1,1.664564E0,-5.6795573E0],"split_indices":[23,0,0,20,24,14,14,15,14,15,7,14,6,19,8,0,0,0,0,0,0,0,0,0,0,0,0,0,0,0,0],"split_type":[0,0,0,0,0,0,0,0,0,0,0,0,0,0,0,0,0,0,0,0,0,0,0,0,0,0,0,0,0,0,0],"sum_hessian":[3.022E3,1.815E3,1.207E3,4.3E2,1.385E3,8.21E2,3.86E2,1.11E2,3.19E2,1.136E3,2.49E2,8.15E2,6E0,8E0,3.78E2,6.5E1,4.6E1,3.12E2,7E0,1.27E2,1.009E3,2.09E2,4E1,4.14E2,4.01E2,4E0,2E0,1E0,7E0,2.64E2,1.14E2],"tree_param":{"num_deleted":"0","num_feature":"29","num_nodes":"31","size_leaf_vector":"1"}},{"base_weights":[-4.721554E0,-2.1264578E1,8.728231E1,-1.2023448E2,-8.062095E0,9.246798E1,-5.2700104E2,-1.9456746E2,-6.0229404E1,-8.0373055E1,1.038168E1,9.5326355E1,-3.0273823E1,-3.2990383E1,-3.2145326E0,1.9382902E1,-1.0316294E1,4.3009205E0,-6.4189277E0,-4.784149E0,1.2175233E1,1.5595839E0,-2.6058815E0,3.2323074E0,8.6719675E0],"categories":[],"categories_nodes":[],"categories_segments":[],"categories_sizes":[],"default_left":[0,0,0,0,0,0,0,0,0,0,0,0,0,0,0,0,0,0,0,0,0,0,0,0,0],"id":44,"left_children":[1,3,5,7,9,11,13,15,17,19,21,23,-1,-1,-1,-1,-1,-1,-1,-1,-1,-1,-1,-1,-1],"loss_changes":[4.593797E6,3.3414372E6,1.5140475E6,1.330849E6,3.0123E6,9.69428E5,2.033845E5,9.97353E5,1.6854428E6,2.2992712E6,2.3427248E6,1.0816022E6,0E0,0E0,0E0,0E0,0E0,0E0,0E0,0E0,0E0,0E0,0E0,0E0,0E0],"parents":[2147483647,0,0,1,1,2,2,3,3,4,4,5,5,6,6,7,7,8,8,9,9,10,10,11,11],"right_children":[2,4,6,8,10,12,14,16,18,20,22,24,-1,-1,-1,-1,-1,-1,-1,-1,-1,-1,-1,-1,-1],"split_conditions":[2.401E3,1.35E1,3.5E0,5E-1,-2.2E0,1.46E1,2.64E3,2E1,2.6E1,4.82E-1,5.82E-1,2.779E3,-3.0273823E1,-3.2990383E1,-3.2145326E0,1.9382902E1,-1.0316294E1,4.3009205E0,-6.4189277E0,-4.784149E0,1.2175233E1,1.5595839E0,-2.6058815E0,3.2323074E0,8.6719675E0],"split_indices":[3,15,12,21,22,16,3,0,0,7,5,3,0,0,0,0,0,0,0,0,0,0,0,0,0],"split_type":[0,0,0,0,0,0,0,0,0,0,0,0,0,0,0,0,0,0,0,0,0,0,0,0,0],"sum_hessian":[3.016E3,2.557E3,4.59E2,3E2,2.257E3,4.56E2,3E0,1.33E2,1.67E2,4.58E2,1.799E3,4.55E2,1E0,2E0,1E0,2E0,1.31E2,5.3E1,1.14E2,4.38E2,2E1,1.35E3,4.49E2,3.28E2,1.27E2],"tree_param":{"num_deleted":"0","num_feature":"29","num_nodes":"25","size_leaf_vector":"1"}},{"base_weights":[2.2724543E0,-4.3304165E1,4.435516E1,-1.8907732E1,-1.07496506E2,4.7371758E1,-3.5024182E2,-2.070467E2,-4.208071E0,6.5639435E1,-1.472425E2,-2.641061E2,5.1191345E1,-1.3540863E1,-2.3048548E1,-1.3523552E1,-1.2692003E-1,-2.1323295E0,2.6977947E0,-1.7100683E1,5.970956E0,-8.932528E0,-1.7416528E0,-1.6768724E1,1.2601319E-1,2.0705885E1,2.3429928E0,-6.464321E0,8.342395E0],"categories":[],"categories_nodes":[],"categories_segments":[],"categories_sizes":[],"default_left":[0,0,0,0,0,0,0,0,0,0,0,0,0,0,0,0,0,0,0,0,0,0,0,0,0,0,0,0,0],"id":45,"left_children":[1,3,5,7,9,11,13,15,17,19,21,23,25,27,-1,-1,-1,-1,-1,-1,-1,-1,-1,-1,-1,-1,-1,-1,-1],"loss_changes":[5.776981E6,2.2624962E6,1.8806645E6,2.9002212E6,2.7484855E6,1.8635302E6,4.4114912E5,9.8509425E5,2.1799085E6,1.685102E6,1.137679E6,3.6188375E5,2.396777E6,1.0508795E5,0E0,0E0,0E0,0E0,0E0,0E0,0E0,0E0,0E0,0E0,0E0,0E0,0E0,0E0,0E0],"parents":[2147483647,0,0,1,1,2,2,3,3,4,4,5,5,6,6,7,7,8,8,9,9,10,10,11,11,12,12,13,13],"right_children":[2,4,6,8,10,12,14,16,18,20,22,24,26,28,-1,-1,-1,-1,-1,-1,-1,-1,-1,-1,-1,-1,-1,-1,-1],"split_conditions":[1.643E3,2.9E1,3.7E1,6.09E2,4.4E1,-3.1E0,1.02E1,4.55E-1,1E-1,8E-1,1.495E3,1E0,2E1,1.967E3,-2.3048548E1,-1.3523552E1,-1.2692003E-1,-2.1323295E0,2.6977947E0,-1.7100683E1,5.970956E0,-8.932528E0,-1.7416528E0,-1.6768724E1,1.2601319E-1,2.0705885E1,2.3429928E0,-6.464321E0,8.342395E0],"split_indices":[3,0,0,3,1,20,9,6,19,12,3,28,0,3,0,0,0,0,0,0,0,0,0,0,0,0,0,0,0],"split_type":[0,0,0,0,0,0,0,0,0,0,0,0,0,0,0,0,0,0,0,0,0,0,0,0,0,0,0,0,0],"sum_hessian":[3.01E3,1.445E3,1.565E3,1.048E3,3.97E2,1.554E3,1.1E1,7.5E1,9.73E2,7.4E1,3.23E2,1.8E1,1.536E3,3E0,8E0,5.7E1,1.8E1,5.86E2,3.87E2,8E0,6.6E1,2.52E2,7.1E1,1.4E1,4E0,1.7E1,1.519E3,2E0,1E0],"tree_param":{"num_deleted":"0","num_feature":"29","num_nodes":"29","size_leaf_vector":"1"}},{"base_weights":[4.1594787E0,-2.473189E1,4.543284E1,-6.8952995E1,1.5649772E1,3.9488636E1,2.6435184E2,4.9338417E1,-9.058809E1,-2.2050959E1,7.7346054E1,1.0128624E2,1.6443462E1,3.0958228E2,-2.957555E1,4.117393E0,-1.4518455E1,-5.0113597E0,8.097796E0,1.1713494E0,-6.079216E0,7.353708E0,-9.697189E-1,-1.3527389E-2,7.6494555E0,1.0209478E0,-2.127004E1,1.6787151E1,-1.253501E1],"categories":[],"categories_nodes":[],"categories_segments":[],"categories_sizes":[],"default_left":[0,0,0,0,0,0,0,0,0,0,0,0,0,0,0,0,0,0,0,0,0,0,0,0,0,0,0,0,0],"id":46,"left_children":[1,3,5,7,9,11,13,15,17,19,21,23,25,27,-1,-1,-1,-1,-1,-1,-1,-1,-1,-1,-1,-1,-1,-1,-1],"loss_changes":[3.6345E6,3.202878E6,1.622691E6,2.195183E6,2.1834888E6,1.7400535E6,1.460586E6,1.5153139E6,1.7786655E6,2.6418402E6,2.4042605E6,1.7432998E6,1.5755276E6,5.532075E5,0E0,0E0,0E0,0E0,0E0,0E0,0E0,0E0,0E0,0E0,0E0,0E0,0E0,0E0,0E0],"parents":[2147483647,0,0,1,1,2,2,3,3,4,4,5,5,6,6,7,7,8,8,9,9,10,10,11,11,12,12,13,13],"right_children":[2,4,6,8,10,12,14,16,18,20,22,24,26,28,-1,-1,-1,-1,-1,-1,-1,-1,-1,-1,-1,-1,-1,-1,-1],"split_conditions":[1.8E0,1.02E1,9.6E0,2.2E1,2.55E-1,6.7E1,1.48E1,4.7E0,7.2E1,1.49E1,2.7E1,-2E-1,7.5E0,5.55E-1,-2.957555E1,4.117393E0,-1.4518455E1,-5.0113597E0,8.097796E0,1.1713494E0,-6.079216E0,7.353708E0,-9.697189E-1,-1.3527389E-2,7.6494555E0,1.0209478E0,-2.127004E1,1.6787151E1,-1.253501E1],"split_indices":[17,11,16,0,7,1,16,13,2,14,0,20,13,6,0,0,0,0,0,0,0,0,0,0,0,0,0,0,0],"split_type":[0,0,0,0,0,0,0,0,0,0,0,0,0,0,0,0,0,0,0,0,0,0,0,0,0,0,0,0,0],"sum_hessian":[3.046E3,1.792E3,1.254E3,8.55E2,9.37E2,1.222E3,3.2E1,1.32E2,7.23E2,5.82E2,3.55E2,3.31E2,8.91E2,3.1E1,1E0,1.21E2,1.1E1,6.97E2,2.6E1,4E2,1.82E2,2.06E2,1.49E2,1.12E2,2.19E2,8.84E2,7E0,3E1,1E0],"tree_param":{"num_deleted":"0","num_feature":"29","num_nodes":"29","size_leaf_vector":"1"}},{"base_weights":[3.7700064E0,-1.6852411E1,7.0433266E1,-4.224188E1,3.0419367E1,4.1566562E2,6.241872E1,-3.055909E1,-1.25633125E2,2.1441917E2,1.6130436E1,5.4921204E2,1.0155294E2,-7.933858E1,7.98671E1,-2.9034734E0,1.3458515E0,4.9779797E0,-9.855956E0,2.2238602E1,5.402946E0,-9.204625E0,1.6131756E0,7.9560976E0,2.8615442E1,1.3788077E1,-8.228808E0,-1.4943214E1,3.3571517E0,7.289081E0,2.8362007E0],"categories":[],"categories_nodes":[],"categories_segments":[],"categories_sizes":[],"default_left":[0,0,0,0,0,0,0,0,0,0,0,0,0,0,0,0,0,0,0,0,0,0,0,0,0,0,0,0,0,0,0],"id":47,"left_children":[1,3,5,7,9,11,13,15,17,19,21,23,25,27,29,-1,-1,-1,-1,-1,-1,-1,-1,-1,-1,-1,-1,-1,-1,-1,-1],"loss_changes":[4.14883E6,2.767758E6,1.94684E6,1.4575242E6,2.1156448E6,6.1540375E5,1.7327948E6,2.0839899E6,2.98168E6,1.372961E6,2.425368E6,8.0415E3,3.2355562E5,2.4961155E6,9.4057025E5,0E0,0E0,0E0,0E0,0E0,0E0,0E0,0E0,0E0,0E0,0E0,0E0,0E0,0E0,0E0,0E0],"parents":[2147483647,0,0,1,1,2,2,3,3,4,4,5,5,6,6,7,7,8,8,9,9,10,10,11,11,12,12,13,13,14,14],"right_children":[2,4,6,8,10,12,14,16,18,20,22,24,26,28,30,-1,-1,-1,-1,-1,-1,-1,-1,-1,-1,-1,-1,-1,-1,-1,-1],"split_conditions":[2.189E3,2.02E1,6.5E1,1.66E1,3.6E1,1.39E1,5.3E0,1.6E0,5.8E0,2.27E1,8.72E2,4E-1,2E0,-8E-1,2.16E-1,-2.9034734E0,1.3458515E0,4.9779797E0,-9.855956E0,2.2238602E1,5.402946E0,-9.204625E0,1.6131756E0,7.9560976E0,2.8615442E1,1.3788077E1,-8.228808E0,-1.4943214E1,3.3571517E0,7.289081E0,2.8362007E0],"split_indices":[3,15,1,4,1,14,10,17,11,15,3,13,8,21,7,0,0,0,0,0,0,0,0,0,0,0,0,0,0,0,0],"split_type":[0,0,0,0,0,0,0,0,0,0,0,0,0,0,0,0,0,0,0,0,0,0,0,0,0,0,0,0,0,0,0],"sum_hessian":[3.016E3,2.304E3,7.12E2,1.499E3,8.05E2,1.5E1,6.97E2,1.316E3,1.83E2,5.7E1,7.48E2,1E1,5E0,7.6E1,6.21E2,8.9E2,4.26E2,4.4E1,1.39E2,1.7E1,4E1,5.5E1,6.93E2,1E0,9E0,3E0,2E0,3E1,4.6E1,1.6E2,4.61E2],"tree_param":{"num_deleted":"0","num_feature":"29","num_nodes":"31","size_leaf_vector":"1"}},{"base_weights":[3.838821E0,-8.357995E0,1.1204823E2,8.960338E0,-8.248171E1,1.161931E2,-2.8907068E1,-7.7288265E0,7.5696724E1,-1.1474211E2,1.05798775E2,1.0095308E2,3.2907776E2,1.4565247E0,-1.9748653E0,6.6009874E0,3.4428835E-1,-1.0712916E0,-8.287266E0,-1.4759851E1,7.2193475E0,7.542091E0,1.1960787E0,1.4353846E0,2.2787863E1],"categories":[],"categories_nodes":[],"categories_segments":[],"categories_sizes":[],"default_left":[0,0,0,0,0,0,0,0,0,0,0,0,0,0,0,0,0,0,0,0,0,0,0,0,0],"id":48,"left_children":[1,3,5,7,9,11,-1,13,15,17,19,21,23,-1,-1,-1,-1,-1,-1,-1,-1,-1,-1,-1,-1],"loss_changes":[3.9999618E6,3.4975358E6,9.454255E5,2.4609128E6,3.1463258E6,9.59555E5,0E0,2.071416E6,1.7121242E6,2.0953575E6,1.2186234E6,1.0993335E6,7.47931E5,0E0,0E0,0E0,0E0,0E0,0E0,0E0,0E0,0E0,0E0,0E0,0E0],"parents":[2147483647,0,0,1,1,2,2,3,3,4,4,5,5,7,7,8,8,9,9,10,10,11,11,12,12],"right_children":[2,4,6,8,10,12,-1,14,16,18,20,22,24,-1,-1,-1,-1,-1,-1,-1,-1,-1,-1,-1,-1],"split_conditions":[2.8E0,1E0,1.48E1,2.2E0,5.01E-1,7.5E0,-2.8907068E1,3.61E-1,2.5E-1,2.5E1,8.4E0,4.6E0,3.8E0,1.4565247E0,-1.9748653E0,6.6009874E0,3.4428835E-1,-1.0712916E0,-8.287266E0,-1.4759851E1,7.2193475E0,7.542091E0,1.1960787E0,1.4353846E0,2.2787863E1],"split_indices":[23,24,16,17,7,23,0,6,7,0,8,22,17,0,0,0,0,0,0,0,0,0,0,0,0],"split_type":[0,0,0,0,0,0,0,0,0,0,0,0,0,0,0,0,0,0,0,0,0,0,0,0,0],"sum_hessian":[3.029E3,2.723E3,3.06E2,2.208E3,5.15E2,3.05E2,1E0,1.767E3,4.41E2,4.4E2,7.5E1,2.86E2,1.9E1,8.18E2,9.49E2,2.42E2,1.99E2,1.56E2,2.84E2,6E0,6.9E1,1.73E2,1.13E2,6E0,1.3E1],"tree_param":{"num_deleted":"0","num_feature":"29","num_nodes":"25","size_leaf_vector":"1"}},{"base_weights":[8.60864E-1,-1.4064875E1,7.77024E1,6.0932724E1,-3.2955544E1,1.6749213E2,4.397113E1,-1.5911336E2,7.4530334E1,-1.6343533E1,-1.0185591E2,4.4842746E2,1.0830459E2,-2.4514553E1,1.08517204E2,4.3925114E0,-1.5335799E1,1.1611649E1,2.8255975E0,-3.447004E0,5.710739E-1,-6.293527E0,8.19681E0,-2.0816242E1,2.5332912E1,1.3592092E0,1.2405917E1,2.0279388E1,-2.2424848E0,1.1812268E1,2.9070613E0],"categories":[],"categories_nodes":[],"categories_segments":[],"categories_sizes":[],"default_left":[0,0,0,0,0,0,0,0,0,0,0,0,0,0,0,0,0,0,0,0,0,0,0,0,0,0,0,0,0,0,0],"id":49,"left_children":[1,3,5,7,9,11,13,15,17,19,21,23,25,27,29,-1,-1,-1,-1,-1,-1,-1,-1,-1,-1,-1,-1,-1,-1,-1,-1],"loss_changes":[3.469369E6,3.5906475E6,1.4827662E6,1.5378299E6,2.3149522E6,2.1795678E6,1.5896132E6,1.1205192E6,1.35366E6,2.3840682E6,2.5291142E6,1.369104E6,1.263531E6,1.5487739E6,1.176634E6,0E0,0E0,0E0,0E0,0E0,0E0,0E0,0E0,0E0,0E0,0E0,0E0,0E0,0E0,0E0,0E0],"parents":[2147483647,0,0,1,1,2,2,3,3,4,4,5,5,6,6,7,7,8,8,9,9,10,10,11,11,12,12,13,13,14,14],"right_children":[2,4,6,8,10,12,14,16,18,20,22,24,26,28,30,-1,-1,-1,-1,-1,-1,-1,-1,-1,-1,-1,-1,-1,-1,-1,-1],"split_conditions":[2.2E0,2.3E1,6.7E1,6.09E2,1E0,5.45E-1,2.556E3,1.65E1,8.7E0,2.1E0,6.12E-1,1E0,2.01E-1,1.3E0,2.5E1,4.3925114E0,-1.5335799E1,1.1611649E1,2.8255975E0,-3.447004E0,5.710739E-1,-6.293527E0,8.19681E0,-2.0816242E1,2.5332912E1,1.3592092E0,1.2405917E1,2.0279388E1,-2.2424848E0,1.1812268E1,2.9070613E0],"split_indices":[23,0,1,3,24,5,3,15,9,18,7,2,19,8,0,0,0,0,0,0,0,0,0,0,0,0,0,0,0,0,0],"split_type":[0,0,0,0,0,0,0,0,0,0,0,0,0,0,0,0,0,0,0,0,0,0,0,0,0,0,0,0,0,0,0],"sum_hessian":[3.023E3,2.532E3,4.91E2,5.09E2,2.023E3,1.33E2,3.58E2,2.9E1,4.8E2,1.631E3,3.92E2,2.2E1,1.11E2,1.74E2,1.84E2,1.1E1,1.8E1,4.8E1,4.32E2,5.63E2,1.068E3,3.6E2,3.2E1,1E0,2.1E1,7.1E1,4E1,7E0,1.67E2,5.1E1,1.33E2],"tree_param":{"num_deleted":"0","num_feature":"29","num_nodes":"31","size_leaf_vector":"1"}},{"base_weights":[-4.7500267E0,-2.4362072E1,5.8134445E1,-3.8508837E0,-7.699101E1,2.7756152E2,4.623206E1,-9.263809E1,2.0035532E1,-3.7334222E2,-6.747594E1,-1.6653198E2,3.3643747E2,-1.0404117E2,6.077821E1,1.433612E1,-5.4551063E0,-1.0318226E1,1.364722E0,-2.583423E0,-2.3856113E1,5.3926873E0,-4.338497E0,-1.8417074E1,4.5394087E0,2.2888313E1,2.608237E0,-2.3741472E0,-2.1277308E1,-3.1010303E0,3.8535614E0],"categories":[],"categories_nodes":[],"categories_segments":[],"categories_sizes":[],"default_left":[0,0,0,0,0,0,0,0,0,0,0,0,0,0,0,0,0,0,0,0,0,0,0,0,0,0,0,0,0,0,0],"id":50,"left_children":[1,3,5,7,9,11,13,15,17,19,21,23,25,27,29,-1,-1,-1,-1,-1,-1,-1,-1,-1,-1,-1,-1,-1,-1,-1,-1],"loss_changes":[3.7506272E6,2.501943E6,1.8754305E6,3.5414848E6,1.807682E6,1.02344525E6,1.5080346E6,2.2422958E6,2.1683695E6,6.43014E5,2.1439135E6,2.930893E5,1.1143062E6,1.0890025E6,1.2592588E6,0E0,0E0,0E0,0E0,0E0,0E0,0E0,0E0,0E0,0E0,0E0,0E0,0E0,0E0,0E0,0E0],"parents":[2147483647,0,0,1,1,2,2,3,3,4,4,5,5,6,6,7,7,8,8,9,9,10,10,11,11,12,12,13,13,14,14],"right_children":[2,4,6,8,10,12,14,16,18,20,22,24,26,28,30,-1,-1,-1,-1,-1,-1,-1,-1,-1,-1,-1,-1,-1,-1,-1,-1],"split_conditions":[2.189E3,2.9E1,6.7E1,-1E-1,7E-1,1.03E1,4E-1,9.9E-2,5.95E2,5.62E-1,4.3E1,1.6E0,1.43E1,4.34E-1,3.5E0,1.433612E1,-5.4551063E0,-1.0318226E1,1.364722E0,-2.583423E0,-2.3856113E1,5.3926873E0,-4.338497E0,-1.8417074E1,4.5394087E0,2.2888313E1,2.608237E0,-2.3741472E0,-2.1277308E1,-3.1010303E0,3.8535614E0],"split_indices":[3,0,1,23,12,14,13,7,3,5,1,12,14,6,18,0,0,0,0,0,0,0,0,0,0,0,0,0,0,0,0],"split_type":[0,0,0,0,0,0,0,0,0,0,0,0,0,0,0,0,0,0,0,0,0,0,0,0,0,0,0,0,0,0,0],"sum_hessian":[3.039E3,2.317E3,7.22E2,1.668E3,6.49E2,3.6E1,6.86E2,3.53E2,1.315E3,1.9E1,6.3E2,4E0,3.2E1,6E1,6.26E2,1.4E1,3.39E2,4E1,1.275E3,5E0,1.4E1,6.2E1,5.68E2,2E0,2E0,2.2E1,1E1,5.2E1,8E0,7.3E1,5.53E2],"tree_param":{"num_deleted":"0","num_feature":"29","num_nodes":"31","size_leaf_vector":"1"}},{"base_weights":[2.6664085E0,6.898705E1,-1.3011973E1,-1.5101437E2,8.66727E1,-3.6698174E1,4.0834953E1,9.936205E0,-2.5663345E2,-5.1342064E1,1.1686247E2,-8.931793E-1,-8.348868E1,1.9716965E2,2.3973858E1,1.1975561E1,-6.2405286E0,-1.4957201E1,2.5980394E0,3.0866501E0,-1.0559524E1,6.278644E0,-1.33379135E1,-2.194572E0,3.214274E0,-3.3532383E0,-1.1869235E1,1.2762E1,-3.0819476E0,-2.5411512E1,1.5179733E0],"categories":[],"categories_nodes":[],"categories_segments":[],"categories_sizes":[],"default_left":[0,0,0,0,0,0,0,0,0,0,0,0,0,0,0,0,0,0,0,0,0,0,0,