{"learner":{"attributes":{"scikit_learn":"{\"_estimator_type\": \"regressor\"}"},"feature_names":["Age","G","GS","MP","PER","TS%","3PAr","FTr","ORB%","DRB%","TRB%","AST%","STL%","BLK%","TOV%","USG%","OWS","DWS","WS","WS/48","OBPM","DBPM","BPM","VORP","Pos_C","Pos_PF","Pos_PG","Pos_SF","Pos_SG"],"feature_types":["float","float","float","float","float","float","float","float","float","float","float","float","float","float","float","float","float","float","float","float","float","float","float","float","float","float","float","float","float"],"gradient_booster":{"model":{"gbtree_model_param":{"num_parallel_tree":"1","num_trees":"400"},"iteration_indptr":[0,1,2,3,4,5,6,7,8,9,10,11,12,13,14,15,16,17,18,19,20,21,22,23,24,25,26,27,28,29,30,31,32,33,34,35,36,37,38,39,40,41,42,43,44,45,46,47,48,49,50,51,52,53,54,55,56,57,58,59,60,61,62,63,64,65,66,67,68,69,70,71,72,73,74,75,76,77,78,79,80,81,82,83,84,85,86,87,88,89,90,91,92,93,94,95,96,97,98,99,100,101,102,103,104,105,106,107,108,109,110,111,112,113,114,115,116,117,118,119,120,121,122,123,124,125,126,127,128,129,130,131,132,133,134,135,136,137,138,139,140,141,142,143,144,145,146,147,148,149,150,151,152,153,154,155,156,157,158,159,160,161,162,163,164,165,166,167,168,169,170,171,172,173,174,175,176,177,178,179,180,181,182,183,184,185,186,187,188,189,190,191,192,193,194,195,196,197,198,199,200,201,202,203,204,205,206,207,208,209,210,211,212,213,214,215,216,217,218,219,220,221,222,223,224,225,226,227,228,229,230,231,232,233,234,235,236,237,238,239,240,241,242,243,244,245,246,247,248,249,250,251,252,253,254,255,256,257,258,259,260,261,262,263,264,265,266,267,268,269,270,271,272,273,274,275,276,277,278,279,280,281,282,283,284,285,286,287,288,289,290,291,292,293,294,295,296,297,298,299,300,301,302,303,304,305,306,307,308,309,310,311,312,313,314,315,316,317,318,319,320,321,322,323,324,325,326,327,328,329,330,331,332,333,334,335,336,337,338,339,340,341,342,343,344,345,346,347,348,349,350,351,352,353,354,355,356,357,358,359,360,361,362,363,364,365,366,367,368,369,370,371,372,373,374,375,376,377,378,379,380,381,382,383,384,385,386,387,388,389,390,391,392,393,394,395,396,397,398,399,400],"tree_info":[0,0,0,0,0,0,0,0,0,0,0,0,0,0,0,0,0,0,0,0,0,0,0,0,0,0,0,0,0,0,0,0,0,0,0,0,0,0,0,0,0,0,0,0,0,0,0,0,0,0,0,0,0,0,0,0,0,0,0,0,0,0,0,0,0,0,0,0,0,0,0,0,0,0,0,0,0,0,0,0,0,0,0,0,0,0,0,0,0,0,0,0,0,0,0,0,0,0,0,0,0,0,0,0,0,0,0,0,0,0,0,0,0,0,0,0,0,0,0,0,0,0,0,0,0,0,0,0,0,0,0,0,0,0,0,0,0,0,0,0,0,0,0,0,0,0,0,0,0,0,0,0,0,0,0,0,0,0,0,0,0,0,0,0,0,0,0,0,0,0,0,0,0,0,0,0,0,0,0,0,0,0,0,0,0,0,0,0,0,0,0,0,0,0,0,0,0,0,0,0,0,0,0,0,0,0,0,0,0,0,0,0,0,0,0,0,0,0,0,0,0,0,0,0,0,0,0,0,0,0,0,0,0,0,0,0,0,0,0,0,0,0,0,0,0,0,0,0,0,0,0,0,0,0,0,0,0,0,0,0,0,0,0,0,0,0,0,0,0,0,0,0,0,0,0,0,0,0,0,0,0,0,0,0,0,0,0,0,0,0,0,0,0,0,0,0,0,0,0,0,0,0,0,0,0,0,0,0,0,0,0,0,0,0,0,0,0,0,0,0,0,0,0,0,0,0,0,0,0,0,0,0,0,0,0,0,0,0,0,0,0,0,0,0,0,0,0,0,0,0,0,0,0,0,0,0,0,0,0,0,0,0,0,0,0,0,0,0,0,0,0,0,0,0,0,0,0,0,0,0,0,0,0,0,0,0,0,0,0,0,0,0,0,0,0,0,0,0,0,0],"trees":[{"base_weights":[1.9084575E-2,-7.1180755E-1,3.3945363E0,-1.4981514E0,3.0646396E-1,2.5103848E0,7.31617E0,-2.146981E0,-1.1840458E0,-3.7476618E-2,8.459423E-1,1.7166616E0,3.0935297E0,-1.2204428E-1,7.432341E0,-1.3304125E-1,-9.332814E-2,-7.235937E-2,-4.227138E-2,-1.910973E-2,9.185226E-3,2.0973798E-2,6.315639E-2,1.1425473E-1,6.828716E-2,1.4075325E-1,2.2002208E-1,2.6379016E-1,3.9864427E-1],"categories":[],"categories_nodes":[],"categories_segments":[],"categories_sizes":[],"default_left":[0,0,0,0,0,0,0,0,0,0,0,0,0,0,0,0,0,0,0,0,0,0,0,0,0,0,0,0,0],"id":0,"left_children":[1,3,5,7,9,11,13,15,17,19,21,23,25,-1,27,-1,-1,-1,-1,-1,-1,-1,-1,-1,-1,-1,-1,-1,-1],"loss_changes":[8.0253965E3,2.1415615E3,1.9892109E3,3.0499365E2,2.1638127E2,2.1408301E2,1.382915E2,6.578223E1,8.95741E1,5.4432972E1,8.0243774E1,3.7372314E1,8.6601074E1,0E0,8.033545E1,0E0,0E0,0E0,0E0,0E0,0E0,0E0,0E0,0E0,0E0,0E0,0E0,0E0,0E0],"parents":[2147483647,0,0,1,1,2,2,3,3,4,4,5,5,6,6,7,7,8,8,9,9,10,10,11,11,12,12,14,14],"right_children":[2,4,6,8,10,12,14,16,18,20,22,24,26,-1,28,-1,-1,-1,-1,-1,-1,-1,-1,-1,-1,-1,-1,-1,-1],"split_conditions":[2.1E0,-4E-1,5.4E0,-2.4E0,1.64E1,3E0,7.1E0,-3.6E0,1.33E1,2E-1,1.882E3,2.6E1,2.96E1,-1.2204428E-1,5.3E0,-1.3304125E-1,-9.332814E-2,-7.235937E-2,-4.227138E-2,-1.910973E-2,9.185226E-3,2.0973798E-2,6.315639E-2,1.1425473E-1,6.828716E-2,1.4075325E-1,2.2002208E-1,2.6379016E-1,3.9864427E-1],"split_indices":[22,22,22,22,4,22,9,22,4,22,3,0,15,0,20,0,0,0,0,0,0,0,0,0,0,0,0,0,0],"split_type":[0,0,0,0,0,0,0,0,0,0,0,0,0,0,0,0,0,0,0,0,0,0,0,0,0,0,0,0,0],"sum_hessian":[3.251E3,2.673E3,5.78E2,1.508E3,1.165E3,4.73E2,1.05E2,4.9E2,1.018E3,7.12E2,4.53E2,2.02E2,2.71E2,1E0,1.04E2,1.7E2,3.2E2,5.71E2,4.47E2,2.78E2,4.34E2,2.25E2,2.28E2,7.5E1,1.27E2,2.26E2,4.5E1,2.3E1,8.1E1],"tree_param":{"num_deleted":"0","num_feature":"29","num_nodes":"29","size_leaf_vector":"1"}},{"base_weights":[-2.914639E-3,-8.266031E-1,2.6248972E0,-1.4469322E0,1.341372E-1,2.0161715E0,6.66927E0,-2.1362832E0,-1.1608683E0,-4.3590225E-2,6.7704695E-1,1.338909E0,2.8103278E0,-1.1899316E-1,6.7824287E0,-1.6561955E-1,-1.005819E-1,-7.3669255E-2,-4.536145E-2,-1.4285832E-2,1.1498544E-2,1.970225E-2,7.6445945E-2,1.8313645E-1,5.942927E-2,1.0315567E-1,1.5536626E-1,2.6078567E-1,3.7330222E-1],"categories":[],"categories_nodes":[],"categories_segments":[],"categories_sizes":[],"default_left":[0,0,0,0,0,0,0,0,0,0,0,0,0,0,0,0,0,0,0,0,0,0,0,0,0,0,0,0,0],"id":1,"left_children":[1,3,5,7,9,11,13,15,17,19,21,23,25,-1,27,-1,-1,-1,-1,-1,-1,-1,-1,-1,-1,-1,-1,-1,-1],"loss_changes":[7.101724E3,1.4889403E3,1.9142319E3,2.968672E2,9.468616E1,3.630525E2,1.2058838E2,5.8425415E1,8.387488E1,4.908062E1,5.7739243E1,1.2489685E2,6.3050537E1,0E0,6.92334E1,0E0,0E0,0E0,0E0,0E0,0E0,0E0,0E0,0E0,0E0,0E0,0E0,0E0,0E0],"parents":[2147483647,0,0,1,1,2,2,3,3,4,4,5,5,6,6,7,7,8,8,9,9,10,10,11,11,12,12,14,14],"right_children":[2,4,6,8,10,12,14,16,18,20,22,24,26,-1,28,-1,-1,-1,-1,-1,-1,-1,-1,-1,-1,-1,-1,-1,-1],"split_conditions":[1.5E0,-4E-1,5.4E0,-2.5E0,1.7E1,2.8E0,7.1E0,7.1E0,2E-1,4E-1,1.46E1,2.2E1,2.1E1,-1.1899316E-1,5.1E0,-1.6561955E-1,-1.005819E-1,-7.3669255E-2,-4.536145E-2,-1.4285832E-2,1.1498544E-2,1.970225E-2,7.6445945E-2,1.8313645E-1,5.942927E-2,1.0315567E-1,1.5536626E-1,2.6078567E-1,3.7330222E-1],"split_indices":[22,22,22,22,4,22,9,4,23,22,11,0,15,0,23,0,0,0,0,0,0,0,0,0,0,0,0,0,0],"split_type":[0,0,0,0,0,0,0,0,0,0,0,0,0,0,0,0,0,0,0,0,0,0,0,0,0,0,0,0,0],"sum_hessian":[3.279E3,2.497E3,7.82E2,1.517E3,9.8E2,6.81E2,1.01E2,4.43E2,1.074E3,7.39E2,2.41E2,3.69E2,3.12E2,1E0,1E2,4E1,4.03E2,4.79E2,5.95E2,3.92E2,3.47E2,1.82E2,5.9E1,2.1E1,3.48E2,9.1E1,2.21E2,3.3E1,6.7E1],"tree_param":{"num_deleted":"0","num_feature":"29","num_nodes":"29","size_leaf_vector":"1"}},{"base_weights":[-9.465692E-3,-6.581776E-1,3.1066647E0,-1.3163149E0,2.8395447E-1,2.3059664E0,6.3976808E0,-1.9804688E0,-1.0216786E0,-8.1502855E-2,7.1130747E-1,1.7868452E0,3.0431683E0,-1.3273115E0,6.553026E0,-1.2790374E-1,-8.856696E-2,-6.5260686E-2,-3.4305234E-2,-1.8717678E-2,1.4925541E-2,1.5459235E-2,5.212307E-2,7.4246556E-2,1.1920829E-1,1.8300946E-1,1.2789693E-1,-1.1601835E-1,1.646998E-2,2.8798732E-1,3.93138E-1],"categories":[],"categories_nodes":[],"categories_segments":[],"categories_sizes":[],"default_left":[0,0,0,0,0,0,0,0,0,0,0,0,0,0,0,0,0,0,0,0,0,0,0,0,0,0,0,0,0,0,0],"id":2,"left_children":[1,3,5,7,9,11,13,15,17,19,21,23,25,27,29,-1,-1,-1,-1,-1,-1,-1,-1,-1,-1,-1,-1,-1,-1,-1,-1],"loss_changes":[6.6284263E3,1.6831954E3,1.474085E3,3.106797E2,1.7451024E2,1.6907227E2,1.4070264E2,5.465808E1,1.0462244E2,6.721798E1,6.8257416E1,4.5151367E1,4.6624634E1,5.699946E0,6.692236E1,0E0,0E0,0E0,0E0,0E0,0E0,0E0,0E0,0E0,0E0,0E0,0E0,0E0,0E0,0E0,0E0],"parents":[2147483647,0,0,1,1,2,2,3,3,4,4,5,5,6,6,7,7,8,8,9,9,10,10,11,11,12,12,13,13,14,14],"right_children":[2,4,6,8,10,12,14,16,18,20,22,24,26,28,30,-1,-1,-1,-1,-1,-1,-1,-1,-1,-1,-1,-1,-1,-1,-1,-1],"split_conditions":[2.1E0,-3E-1,5.4E0,-1E-1,8E-1,3E0,-1E0,-3.9E0,1.33E1,1.4E0,1.63E1,2.07E1,2.6E1,2.8E1,2.7E1,-1.2790374E-1,-8.856696E-2,-6.5260686E-2,-3.4305234E-2,-1.8717678E-2,1.4925541E-2,1.5459235E-2,5.212307E-2,7.4246556E-2,1.1920829E-1,1.8300946E-1,1.2789693E-1,-1.1601835E-1,1.646998E-2,2.8798732E-1,3.93138E-1],"split_indices":[22,22,22,23,22,23,21,22,4,13,4,4,0,0,4,0,0,0,0,0,0,0,0,0,0,0,0,0,0,0,0],"split_type":[0,0,0,0,0,0,0,0,0,0,0,0,0,0,0,0,0,0,0,0,0,0,0,0,0,0,0,0,0,0,0],"sum_hessian":[3.277E3,2.713E3,5.64E2,1.597E3,1.116E3,4.55E2,1.09E2,4.89E2,1.108E3,6.02E2,5.14E2,2.69E2,1.86E2,2E0,1.07E2,1.27E2,3.62E2,5.99E2,5.09E2,3.4E2,2.62E2,2.33E2,2.81E2,1.81E2,8.8E1,7.9E1,1.07E2,1E0,1E0,7E1,3.7E1],"tree_param":{"num_deleted":"0","num_feature":"29","num_nodes":"31","size_leaf_vector":"1"}},{"base_weights":[1.26291E-2,-7.442219E-1,2.4318333E0,-1.3308494E0,7.183818E-2,1.8541871E0,6.409949E0,-1.8857414E0,-1.0565816E0,-1.55518E-1,5.6767035E-1,1.2566714E0,2.6955416E0,5.7704887E0,4.035966E-1,-1.5612216E-1,-8.908449E-2,-6.305562E-2,-3.7314933E-2,-2.4242176E-2,1.2513025E-3,5.511817E-2,1.5308514E-2,1.5855478E-1,5.6353718E-2,8.349965E-2,1.490168E-1,1.605823E-2,2.9198942E-1],"categories":[],"categories_nodes":[],"categories_segments":[],"categories_sizes":[],"default_left":[0,0,0,0,0,0,0,0,0,0,0,0,0,0,0,0,0,0,0,0,0,0,0,0,0,0,0,0,0],"id":3,"left_children":[1,3,5,7,9,11,13,15,17,19,21,23,25,27,-1,-1,-1,-1,-1,-1,-1,-1,-1,-1,-1,-1,-1,-1,-1],"loss_changes":[6.023894E3,1.1997762E3,1.7897021E3,2.1989893E2,1.18342575E2,3.4147998E2,5.8635498E1,5.6332275E1,6.1125122E1,4.282172E1,4.5803833E1,9.6411804E1,7.797095E1,2.6447021E1,0E0,0E0,0E0,0E0,0E0,0E0,0E0,0E0,0E0,0E0,0E0,0E0,0E0,0E0,0E0],"parents":[2147483647,0,0,1,1,2,2,3,3,4,4,5,5,6,6,7,7,8,8,9,9,10,10,11,11,12,12,13,13],"right_children":[2,4,6,8,10,12,14,16,18,20,22,24,26,28,-1,-1,-1,-1,-1,-1,-1,-1,-1,-1,-1,-1,-1,-1,-1],"split_conditions":[1.5E0,-5E-1,5.6E0,-1E-1,1.3E0,3E0,9E0,7.1E0,3E-1,2.8E0,2.5E1,2.2E1,4.5E1,-1.2E0,4.035966E-1,-1.5612216E-1,-8.908449E-2,-6.305562E-2,-3.7314933E-2,-2.4242176E-2,1.2513025E-3,5.511817E-2,1.5308514E-2,1.5855478E-1,5.6353718E-2,8.349965E-2,1.490168E-1,1.605823E-2,2.9198942E-1],"split_indices":[22,22,22,23,23,22,22,4,23,8,0,0,2,21,0,0,0,0,0,0,0,0,0,0,0,0,0,0,0],"split_type":[0,0,0,0,0,0,0,0,0,0,0,0,0,0,0,0,0,0,0,0,0,0,0,0,0,0,0,0,0],"sum_hessian":[3.288E3,2.505E3,7.83E2,1.457E3,1.048E3,6.85E2,9.8E1,4.8E2,9.77E2,7.19E2,3.29E2,4.02E2,2.83E2,7.4E1,2.4E1,3.5E1,4.45E2,5.87E2,3.9E2,2.54E2,4.65E2,1.07E2,2.22E2,2.4E1,3.78E2,6.3E1,2.2E2,1E0,7.3E1],"tree_param":{"num_deleted":"0","num_feature":"29","num_nodes":"29","size_leaf_vector":"1"}},{"base_weights":[6.6335704E-3,-6.8667454E-1,2.2725146E0,-1.2508278E0,7.8698926E-2,1.7319891E0,5.907662E0,-1.782156E0,-9.984987E-1,-2.2163878E-1,4.229923E-1,1.2148986E0,2.498303E0,-5.6715965E-1,6.1159077E0,-1.1439537E-1,-8.092693E-2,-6.1966676E-2,-3.8428146E-2,-2.7090186E-2,-1.0907802E-3,4.4178158E-2,9.778864E-3,1.5235208E-1,5.4783672E-2,1.1224564E-1,1.8389456E-1,-1.2041762E-1,4.246777E-2,2.3222183E-1,3.373117E-1],"categories":[],"categories_nodes":[],"categories_segments":[],"categories_sizes":[],"default_left":[0,0,0,0,0,0,0,0,0,0,0,0,0,0,0,0,0,0,0,0,0,0,0,0,0,0,0,0,0,0,0],"id":4,"left_children":[1,3,5,7,9,11,13,15,17,19,21,23,25,27,29,-1,-1,-1,-1,-1,-1,-1,-1,-1,-1,-1,-1,-1,-1,-1,-1],"loss_changes":[5.1495757E3,1.0838861E3,1.498803E3,1.9195093E2,1.1032271E2,2.624546E2,1.3695581E2,3.469287E1,5.3427307E1,3.645472E1,5.188333E1,8.447333E1,7.2146484E1,1.2477856E1,5.7708252E1,0E0,0E0,0E0,0E0,0E0,0E0,0E0,0E0,0E0,0E0,0E0,0E0,0E0,0E0,0E0,0E0],"parents":[2147483647,0,0,1,1,2,2,3,3,4,4,5,5,6,6,7,7,8,8,9,9,10,10,11,11,12,12,13,13,14,14],"right_children":[2,4,6,8,10,12,14,16,18,20,22,24,26,28,30,-1,-1,-1,-1,-1,-1,-1,-1,-1,-1,-1,-1,-1,-1,-1,-1],"split_conditions":[1.5E0,-5E-1,5.4E0,-2.5E0,1.1E0,3E0,-1E-1,-4E0,2E-1,2.01E-1,2.5E1,2.2E1,2.96E1,2.8E1,5.1E0,-1.1439537E-1,-8.092693E-2,-6.1966676E-2,-3.8428146E-2,-2.7090186E-2,-1.0907802E-3,4.4178158E-2,9.778864E-3,1.5235208E-1,5.4783672E-2,1.1224564E-1,1.8389456E-1,-1.2041762E-1,4.246777E-2,2.3222183E-1,3.373117E-1],"split_indices":[22,22,22,22,23,22,21,22,23,7,0,0,15,0,23,0,0,0,0,0,0,0,0,0,0,0,0,0,0,0,0],"split_type":[0,0,0,0,0,0,0,0,0,0,0,0,0,0,0,0,0,0,0,0,0,0,0,0,0,0,0,0,0,0,0],"sum_hessian":[3.276E3,2.509E3,7.67E2,1.444E3,1.065E3,6.69E2,9.8E1,4.63E2,9.81E2,5.69E2,4.96E2,4.01E2,2.68E2,3E0,9.5E1,1.1E2,3.53E2,4.77E2,5.04E2,2.18E2,3.51E2,1.63E2,3.33E2,2.3E1,3.78E2,2.23E2,4.5E1,1E0,2E0,3.1E1,6.4E1],"tree_param":{"num_deleted":"0","num_feature":"29","num_nodes":"31","size_leaf_vector":"1"}},{"base_weights":[-3.5128307E-3,-6.311696E-1,2.237253E0,-1.3923612E0,-7.2024874E-2,1.6369234E0,4.903595E0,-1.9354966E0,-1.2085038E0,-5.293154E-1,2.865379E-1,1.2238331E0,2.448578E0,2.2593944E0,5.5620146E0,-1.0304866E-1,-5.7496678E-2,-6.2352367E-2,6.035724E-4,1.7528212E-2,-3.0865053E-2,-2.6739307E-4,4.0528946E-2,4.34544E-2,8.873078E-2,1.684657E-1,1.1353226E-1,6.7553334E-2,1.6017684E-1,1.7606005E-1,3.1291994E-1],"categories":[],"categories_nodes":[],"categories_segments":[],"categories_sizes":[],"default_left":[0,0,0,0,0,0,0,0,0,0,0,0,0,0,0,0,0,0,0,0,0,0,0,0,0,0,0,0,0,0,0],"id":5,"left_children":[1,3,5,7,9,11,13,15,17,19,21,23,25,27,29,-1,-1,-1,-1,-1,-1,-1,-1,-1,-1,-1,-1,-1,-1,-1,-1],"loss_changes":[4.6341987E3,1.095436E3,1.1460664E3,1.0650781E2,2.4364319E2,1.9482251E2,2.1724414E2,2.4638184E1,3.845105E1,5.076956E1,1.2742009E2,7.5244934E1,2.4787598E1,1.9684357E1,1.2718799E2,0E0,0E0,0E0,0E0,0E0,0E0,0E0,0E0,0E0,0E0,0E0,0E0,0E0,0E0,0E0,0E0],"parents":[2147483647,0,0,1,1,2,2,3,3,4,4,5,5,6,6,7,7,8,8,9,9,10,10,11,11,12,12,13,13,14,14],"right_children":[2,4,6,8,10,12,14,16,18,20,22,24,26,28,30,-1,-1,-1,-1,-1,-1,-1,-1,-1,-1,-1,-1,-1,-1,-1,-1],"split_conditions":[1.8E0,3E-1,2.35E1,-3E-1,8E-1,2.9E0,8.5E-2,1.23E1,1.34E-1,4.1E1,1.64E1,1.88E1,2.4E1,3.8E0,7E-1,-1.0304866E-1,-5.7496678E-2,-6.2352367E-2,6.035724E-4,1.7528212E-2,-3.0865053E-2,-2.6739307E-4,4.0528946E-2,4.34544E-2,8.873078E-2,1.684657E-1,1.1353226E-1,6.7553334E-2,1.6017684E-1,1.7606005E-1,3.1291994E-1],"split_indices":[23,23,4,23,23,23,6,4,19,1,4,4,0,23,21,0,0,0,0,0,0,0,0,0,0,0,0,0,0,0,0],"split_type":[0,0,0,0,0,0,0,0,0,0,0,0,0,0,0,0,0,0,0,0,0,0,0,0,0,0,0,0,0,0,0],"sum_hessian":[3.293E3,2.573E3,7.2E2,1.089E3,1.484E3,5.89E2,1.31E2,2.73E2,8.16E2,6.52E2,8.32E2,3.92E2,1.97E2,2.7E1,1.04E2,2.34E2,3.9E1,7.91E2,2.5E1,5.9E1,5.93E2,5.35E2,2.97E2,2.4E2,1.52E2,2.9E1,1.68E2,1.5E1,1.2E1,2.8E1,7.6E1],"tree_param":{"num_deleted":"0","num_feature":"29","num_nodes":"31","size_leaf_vector":"1"}},{"base_weights":[-7.266614E-3,-6.4379233E-1,2.0618649E0,-1.2228162E0,-6.977995E-2,1.5604762E0,5.4840345E0,-1.7684784E0,-1.0394264E0,-3.40452E-1,3.2138467E-1,1.1915979E0,2.465121E0,-1.4882013E0,5.6447916E0,-9.406313E-2,-4.993227E-2,-5.9250426E-2,-3.589937E-2,1.2850257E-2,-2.3250809E-2,2.9173186E-2,-1.2201254E-3,4.0052414E-2,8.514004E-2,1.5209873E-1,1.0339045E-1,-1.2180867E-1,1.0193581E-2,2.611141E-1,3.6505127E-1],"categories":[],"categories_nodes":[],"categories_segments":[],"categories_sizes":[],"default_left":[0,0,0,0,0,0,0,0,0,0,0,0,0,0,0,0,0,0,0,0,0,0,0,0,0,0,0,0,0,0,0],"id":6,"left_children":[1,3,5,7,9,11,13,15,17,19,21,23,25,27,29,-1,-1,-1,-1,-1,-1,-1,-1,-1,-1,-1,-1,-1,-1,-1,-1],"loss_changes":[4.3107324E3,8.318291E2,1.3126365E3,1.22847534E2,1.3330309E2,2.2164539E2,1.1824219E2,2.5210693E1,4.2903137E1,5.548928E1,4.668538E1,9.446796E1,3.817273E1,5.30878E0,2.9050537E1,0E0,0E0,0E0,0E0,0E0,0E0,0E0,0E0,0E0,0E0,0E0,0E0,0E0,0E0,0E0,0E0],"parents":[2147483647,0,0,1,1,2,2,3,3,4,4,5,5,6,6,7,7,8,8,9,9,10,10,11,11,12,12,13,13,14,14],"right_children":[2,4,6,8,10,12,14,16,18,20,22,24,26,28,30,-1,-1,-1,-1,-1,-1,-1,-1,-1,-1,-1,-1,-1,-1,-1,-1],"split_conditions":[1.5E0,-9E-1,5.6E0,-3E0,4E-1,3E0,-1E0,2E0,1.33E1,2.3E1,3.67E-1,1.88E1,2.6E1,2.8E1,2.78E-1,-9.406313E-2,-4.993227E-2,-5.9250426E-2,-3.589937E-2,1.2850257E-2,-2.3250809E-2,2.9173186E-2,-1.2201254E-3,4.0052414E-2,8.514004E-2,1.5209873E-1,1.0339045E-1,-1.2180867E-1,1.0193581E-2,2.611141E-1,3.6505127E-1],"split_indices":[22,22,22,22,22,23,21,12,4,0,6,4,0,0,19,0,0,0,0,0,0,0,0,0,0,0,0,0,0,0,0],"split_type":[0,0,0,0,0,0,0,0,0,0,0,0,0,0,0,0,0,0,0,0,0,0,0,0,0,0,0,0,0,0,0],"sum_hessian":[3.271E3,2.502E3,7.69E2,1.245E3,1.257E3,6.72E2,9.7E1,3.11E2,9.34E2,7.43E2,5.14E2,4.79E2,1.93E2,2E0,9.5E1,2.7E2,4.1E1,6.41E2,2.93E2,1.28E2,6.15E2,2.92E2,2.22E2,2.73E2,2.06E2,7.6E1,1.17E2,1E0,1E0,7.9E1,1.6E1],"tree_param":{"num_deleted":"0","num_feature":"29","num_nodes":"31","size_leaf_vector":"1"}},{"base_weights":[1.0352452E-2,-4.9760768E-1,2.4080117E0,-1.0638976E0,2.2349583E-1,1.8060007E0,5.1402154E0,-1.8835077E0,-9.53303E-1,-4.5404833E-2,5.685096E-1,1.1588067E0,2.1716964E0,-1.4509963E0,5.28368E0,-1.3322164E-1,-8.3562374E-2,-5.608798E-2,-3.3308443E-2,-1.3533306E-2,1.2099674E-2,-7.7052205E-3,3.4344636E-2,3.374763E-2,9.426622E-2,9.387154E-2,1.4130907E-1,-1.1876346E-1,9.938741E-3,2.3123112E-1,3.114866E-1],"categories":[],"categories_nodes":[],"categories_segments":[],"categories_sizes":[],"default_left":[0,0,0,0,0,0,0,0,0,0,0,0,0,0,0,0,0,0,0,0,0,0,0,0,0,0,0,0,0,0,0],"id":7,"left_children":[1,3,5,7,9,11,13,15,17,19,21,23,25,27,29,-1,-1,-1,-1,-1,-1,-1,-1,-1,-1,-1,-1,-1,-1,-1,-1],"loss_changes":[4.0337156E3,1.1162683E3,9.430652E2,1.369812E2,1.1163345E2,1.10141235E2,1.0601001E2,2.554956E1,6.46001E1,4.3894287E1,4.5188217E1,5.989348E1,5.304956E1,5.04666E0,3.4786865E1,0E0,0E0,0E0,0E0,0E0,0E0,0E0,0E0,0E0,0E0,0E0,0E0,0E0,0E0,0E0,0E0],"parents":[2147483647,0,0,1,1,2,2,3,3,4,4,5,5,6,6,7,7,8,8,9,9,10,10,11,11,12,12,13,13,14,14],"right_children":[2,4,6,8,10,12,14,16,18,20,22,24,26,28,30,-1,-1,-1,-1,-1,-1,-1,-1,-1,-1,-1,-1,-1,-1,-1,-1],"split_conditions":[2.1E0,-4E-1,5.6E0,-3.6E0,8E-1,2.1E1,-1E0,7.1E0,-1.3E0,1.4E0,5E0,3.2E0,4.1E0,2.8E1,2.7E1,-1.3322164E-1,-8.3562374E-2,-5.608798E-2,-3.3308443E-2,-1.3533306E-2,1.2099674E-2,-7.7052205E-3,3.4344636E-2,3.374763E-2,9.426622E-2,9.387154E-2,1.4130907E-1,-1.1876346E-1,9.938741E-3,2.3123112E-1,3.114866E-1],"split_indices":[22,22,22,22,22,15,21,4,22,13,2,17,22,0,4,0,0,0,0,0,0,0,0,0,0,0,0,0,0,0,0],"split_type":[0,0,0,0,0,0,0,0,0,0,0,0,0,0,0,0,0,0,0,0,0,0,0,0,0,0,0,0,0,0,0],"sum_hessian":[3.31E3,2.732E3,5.78E2,1.53E3,1.202E3,4.75E2,1.03E2,1.8E2,1.35E3,6.76E2,5.26E2,1.73E2,3.02E2,2E0,1.01E2,3.6E1,1.44E2,8.49E2,5.01E2,3.79E2,2.97E2,7.4E1,4.52E2,1.05E2,6.8E1,2.11E2,9.1E1,1E0,1E0,6.3E1,3.8E1],"tree_param":{"num_deleted":"0","num_feature":"29","num_nodes":"31","size_leaf_vector":"1"}},{"base_weights":[4.886369E-3,-5.5304044E-1,1.9887047E0,-1.0142776E0,1.1255179E-1,1.479828E0,4.76977E0,-1.6512519E0,-8.526363E-1,2.6523203E-2,1.1794062E0,1.089047E0,2.2036147E0,-1.4147214E0,4.8950768E0,-1.13627754E-1,-7.5055264E-2,-5.1749557E-2,-2.8515885E-2,-1.0017692E-2,1.12386765E-2,4.5301892E-2,1.19194984E-1,6.885214E-2,3.154279E-2,1.4167647E-1,8.808531E-2,-1.15794376E-1,9.690273E-3,2.1176875E-1,2.9937366E-1],"categories":[],"categories_nodes":[],"categories_segments":[],"categories_sizes":[],"default_left":[0,0,0,0,0,0,0,0,0,0,0,0,0,0,0,0,0,0,0,0,0,0,0,0,0,0,0,0,0,0,0],"id":8,"left_children":[1,3,5,7,9,11,13,15,17,19,21,23,25,27,29,-1,-1,-1,-1,-1,-1,-1,-1,-1,-1,-1,-1,-1,-1,-1,-1],"loss_changes":[3.6657986E3,7.936984E2,1.02180615E3,1.5581409E2,9.716372E1,1.7183105E2,9.372046E1,2.5320862E1,6.2218018E1,4.416889E1,2.3852478E1,5.217804E1,5.4856445E1,4.797481E0,5.3913086E1,0E0,0E0,0E0,0E0,0E0,0E0,0E0,0E0,0E0,0E0,0E0,0E0,0E0,0E0,0E0,0E0],"parents":[2147483647,0,0,1,1,2,2,3,3,4,4,5,5,6,6,7,7,8,8,9,9,10,10,11,11,12,12,13,13,14,14],"right_children":[2,4,6,8,10,12,14,16,18,20,22,24,26,28,30,-1,-1,-1,-1,-1,-1,-1,-1,-1,-1,-1,-1,-1,-1,-1,-1],"split_conditions":[1.8E0,-4E-1,5.4E0,-3E0,1.98E1,2.9E0,-1E0,1E0,1.33E1,4E-1,2.7E1,2.8E1,2.6E1,2.8E1,2.7E1,-1.13627754E-1,-7.5055264E-2,-5.1749557E-2,-2.8515885E-2,-1.0017692E-2,1.12386765E-2,4.5301892E-2,1.19194984E-1,6.885214E-2,3.154279E-2,1.4167647E-1,8.808531E-2,-1.15794376E-1,9.690273E-3,2.1176875E-1,2.9937366E-1],"split_indices":[23,22,22,22,4,23,21,12,4,22,15,0,0,0,4,0,0,0,0,0,0,0,0,0,0,0,0,0,0,0,0],"split_type":[0,0,0,0,0,0,0,0,0,0,0,0,0,0,0,0,0,0,0,0,0,0,0,0,0,0,0,0,0,0,0],"sum_hessian":[3.31E3,2.584E3,7.26E2,1.526E3,1.058E3,6.15E2,1.11E2,3.07E2,1.219E3,9.8E2,7.8E1,4.01E2,2.14E2,2E0,1.09E2,5.7E1,2.5E2,7.39E2,4.8E2,4.57E2,5.23E2,6.5E1,1.3E1,2.45E2,1.56E2,8.6E1,1.28E2,1E0,1E0,7.1E1,3.8E1],"tree_param":{"num_deleted":"0","num_feature":"29","num_nodes":"31","size_leaf_vector":"1"}},{"base_weights":[1.4176748E-2,-4.4673103E-1,2.1586869E0,-9.473756E-1,1.9642425E-1,1.6481127E0,4.710346E0,-1.4215571E0,-7.2609186E-1,-3.339835E-2,5.412289E-1,1.2538172E0,2.178623E0,-1.3793534E0,4.854588E0,-6.246338E-2,-9.619149E-2,-4.709505E-2,-2.2554096E-2,-8.871916E-3,2.5924606E-2,-1.2435458E-2,3.4912195E-2,5.412584E-2,1.2515853E-1,1.3964002E-1,9.432342E-2,-1.1289952E-1,9.448016E-3,1.6024458E-1,2.5636268E-1],"categories":[],"categories_nodes":[],"categories_segments":[],"categories_sizes":[],"default_left":[0,0,0,0,0,0,0,0,0,0,0,0,0,0,0,0,0,0,0,0,0,0,0,0,0,0,0,0,0,0,0],"id":9,"left_children":[1,3,5,7,9,11,13,15,17,19,21,23,25,27,29,-1,-1,-1,-1,-1,-1,-1,-1,-1,-1,-1,-1,-1,-1,-1,-1],"loss_changes":[3.2350793E3,8.676331E2,7.465647E2,1.579347E2,9.352588E1,9.85105E1,9.1021484E1,3.9220703E1,6.1001953E1,5.6453438E1,5.8716797E1,5.7214417E1,3.1515564E1,4.5606055E0,2.5850342E1,0E0,0E0,0E0,0E0,0E0,0E0,0E0,0E0,0E0,0E0,0E0,0E0,0E0,0E0,0E0,0E0],"parents":[2147483647,0,0,1,1,2,2,3,3,4,4,5,5,6,6,7,7,8,8,9,9,10,10,11,11,12,12,13,13,14,14],"right_children":[2,4,6,8,10,12,14,16,18,20,22,24,26,28,30,-1,-1,-1,-1,-1,-1,-1,-1,-1,-1,-1,-1,-1,-1,-1,-1],"split_conditions":[2.1E0,-4E-1,5.9E0,-1E-1,1.63E1,3E0,-1E0,5.29E-1,1.33E1,1.3E0,8E-1,2.93E1,2.5E1,2.8E1,1.05E1,-6.246338E-2,-9.619149E-2,-4.709505E-2,-2.2554096E-2,-8.871916E-3,2.5924606E-2,-1.2435458E-2,3.4912195E-2,5.412584E-2,1.2515853E-1,1.3964002E-1,9.432342E-2,-1.1289952E-1,9.448016E-3,1.6024458E-1,2.5636268E-1],"split_indices":[22,22,22,23,4,23,21,5,4,21,23,15,0,0,14,0,0,0,0,0,0,0,0,0,0,0,0,0,0,0,0],"split_type":[0,0,0,0,0,0,0,0,0,0,0,0,0,0,0,0,0,0,0,0,0,0,0,0,0,0,0,0,0,0,0],"sum_hessian":[3.271E3,2.693E3,5.78E2,1.514E3,1.179E3,4.83E2,9.5E1,4.8E2,1.034E3,7.08E2,4.71E2,2.79E2,2.04E2,2E0,9.3E1,3.6E2,1.2E2,5.78E2,4.56E2,5.62E2,1.46E2,7.8E1,3.93E2,2.47E2,3.2E1,6.3E1,1.41E2,1E0,1E0,1.5E1,7.8E1],"tree_param":{"num_deleted":"0","num_feature":"29","num_nodes":"31","size_leaf_vector":"1"}},{"base_weights":[-8.769241E-3,-5.5164695E-1,1.7573574E0,-1.0384927E0,-7.966543E-2,1.3349786E0,4.510436E0,-1.5078632E0,-9.109068E-1,-3.2350317E-1,2.2451966E-1,1.0073079E0,2.0082452E0,4.041368E0,5.726122E0,-1.1603264E-1,-6.8616E-2,-3.378863E-2,-5.6173176E-2,-2.272045E-2,-6.813885E-4,-5.883006E-2,1.4161879E-2,3.503349E-2,6.9856666E-2,8.3744176E-2,1.18209206E-1,1.1854795E-1,2.141923E-1,1.0403265E-1,2.9716083E-1],"categories":[],"categories_nodes":[],"categories_segments":[],"categories_sizes":[],"default_left":[0,0,0,0,0,0,0,0,0,0,0,0,0,0,0,0,0,0,0,0,0,0,0,0,0,0,0,0,0,0,0],"id":10,"left_children":[1,3,5,7,9,11,13,15,17,19,21,23,25,27,29,-1,-1,-1,-1,-1,-1,-1,-1,-1,-1,-1,-1,-1,-1,-1,-1],"loss_changes":[3.1400505E3,5.755217E2,8.893672E2,7.246484E1,9.449334E1,1.4556506E2,3.5023193E1,2.5679382E1,4.782074E1,2.8672897E1,4.6980843E1,5.3051025E1,2.1907288E1,2.1031006E1,8.210999E0,0E0,0E0,0E0,0E0,0E0,0E0,0E0,0E0,0E0,0E0,0E0,0E0,0E0,0E0,0E0,0E0],"parents":[2147483647,0,0,1,1,2,2,3,3,4,4,5,5,6,6,7,7,8,8,9,9,10,10,11,11,12,12,13,13,14,14],"right_children":[2,4,6,8,10,12,14,16,18,20,22,24,26,28,30,-1,-1,-1,-1,-1,-1,-1,-1,-1,-1,-1,-1,-1,-1,-1,-1],"split_conditions":[1.5E0,-9E-1,5.6E0,-3E-1,3E-1,2.9E0,9E0,7.1E0,6.5E-2,1.75E1,7.37E2,1.88E1,3.37E-1,2E0,2.26E-1,-1.1603264E-1,-6.8616E-2,-3.378863E-2,-5.6173176E-2,-2.272045E-2,-6.813885E-4,-5.883006E-2,1.4161879E-2,3.503349E-2,6.9856666E-2,8.3744176E-2,1.18209206E-1,1.1854795E-1,2.141923E-1,1.0403265E-1,2.9716083E-1],"split_indices":[22,22,22,23,22,23,22,4,19,9,3,4,7,17,19,0,0,0,0,0,0,0,0,0,0,0,0,0,0,0,0],"split_type":[0,0,0,0,0,0,0,0,0,0,0,0,0,0,0,0,0,0,0,0,0,0,0,0,0,0,0,0,0,0,0],"sum_hessian":[3.273E3,2.504E3,7.69E2,1.232E3,1.272E3,6.68E2,1.01E2,2.61E2,9.71E2,7.06E2,5.66E2,4.51E2,2.17E2,7.6E1,2.5E1,3.5E1,2.26E2,4.63E2,5.08E2,4.96E2,2.1E2,2.2E1,5.44E2,2.54E2,1.97E2,1.15E2,1.02E2,1.1E1,6.5E1,2E0,2.3E1],"tree_param":{"num_deleted":"0","num_feature":"29","num_nodes":"31","size_leaf_vector":"1"}},{"base_weights":[-3.8503122E-3,-5.066688E-1,1.6303147E0,-1.0239483E0,-1.092453E-1,1.2071227E0,4.139529E0,-1.6464647E0,-9.312288E-1,-3.6829865E-1,1.8709208E-1,8.481752E-1,1.7877586E0,-1.4239014E0,4.254674E0,-9.8080605E-2,-6.3169815E-2,-4.7676604E-2,6.3143045E-2,-3.4243736E-2,-9.280092E-3,2.3234903E-3,3.7094425E-2,5.3911913E-2,2.749364E-2,8.196076E-2,1.3309467E-1,6.2481165E-3,-1.1304072E-1,1.8846437E-1,2.8296027E-1],"categories":[],"categories_nodes":[],"categories_segments":[],"categories_sizes":[],"default_left":[0,0,0,0,0,0,0,0,0,0,0,0,0,0,0,0,0,0,0,0,0,0,0,0,0,0,0,0,0,0,0],"id":11,"left_children":[1,3,5,7,9,11,13,15,17,19,21,23,25,27,29,-1,-1,-1,-1,-1,-1,-1,-1,-1,-1,-1,-1,-1,-1,-1,-1],"loss_changes":[2.6959639E3,5.1568585E2,8.147742E2,6.138098E1,1.0907832E2,1.364563E2,7.7164795E1,1.4422974E1,4.774164E1,4.371366E1,5.1690617E1,2.7613373E1,2.8358032E1,4.171309E0,5.2978516E1,0E0,0E0,0E0,0E0,0E0,0E0,0E0,0E0,0E0,0E0,0E0,0E0,0E0,0E0,0E0,0E0],"parents":[2147483647,0,0,1,1,2,2,3,3,4,4,5,5,6,6,7,7,8,8,9,9,10,10,11,11,12,12,13,13,14,14],"right_children":[2,4,6,8,10,12,14,16,18,20,22,24,26,28,30,-1,-1,-1,-1,-1,-1,-1,-1,-1,-1,-1,-1,-1,-1,-1,-1],"split_conditions":[1.5E0,3E-1,5.4E0,-5E-1,9E-1,2.7E0,-1E0,1.87E1,6.5E0,8.6E0,2.38E1,6.7E1,3.06E1,6.8E1,9E0,-9.8080605E-2,-6.3169815E-2,-4.7676604E-2,6.3143045E-2,-3.4243736E-2,-9.280092E-3,2.3234903E-3,3.7094425E-2,5.3911913E-2,2.749364E-2,8.196076E-2,1.3309467E-1,6.2481165E-3,-1.1304072E-1,1.8846437E-1,2.8296027E-1],"split_indices":[22,23,22,23,23,23,21,15,13,11,15,1,15,1,22,0,0,0,0,0,0,0,0,0,0,0,0,0,0,0,0],"split_type":[0,0,0,0,0,0,0,0,0,0,0,0,0,0,0,0,0,0,0,0,0,0,0,0,0,0,0,0,0,0,0],"sum_hessian":[3.279E3,2.508E3,7.71E2,1.089E3,1.419E3,6.61E2,1.1E2,1.39E2,9.5E2,7.57E2,6.62E2,4.1E2,2.51E2,2E0,1.08E2,7.4E1,6.5E1,9.41E2,9E0,2.76E2,4.81E2,5.29E2,1.33E2,2.3E2,1.8E2,2.17E2,3.4E1,1E0,1E0,8.3E1,2.5E1],"tree_param":{"num_deleted":"0","num_feature":"29","num_nodes":"31","size_leaf_vector":"1"}},{"base_weights":[-5.8513274E-3,-4.559944E-1,1.6057569E0,-8.239047E-1,7.633302E-2,1.2099515E0,3.9012136E0,-1.2071984E0,-6.4003193E-1,-3.8451154E-3,1.1988819E0,7.8797305E-1,1.799286E0,-1.388304E0,4.0174017E0,-7.398996E-2,-4.4442635E-2,-1.8458284E-2,-3.846414E-2,4.05575E-3,-2.1072863E-2,3.2826304E-2,8.769157E-2,5.48737E-2,2.262993E-2,3.2202836E-2,9.7814314E-2,-1.1021471E-1,6.0919137E-3,1.0042081E-2,2.064945E-1],"categories":[],"categories_nodes":[],"categories_segments":[],"categories_sizes":[],"default_left":[0,0,0,0,0,0,0,0,0,0,0,0,0,0,0,0,0,0,0,0,0,0,0,0,0,0,0,0,0,0,0],"id":12,"left_children":[1,3,5,7,9,11,13,15,17,19,21,23,25,27,29,-1,-1,-1,-1,-1,-1,-1,-1,-1,-1,-1,-1,-1,-1,-1,-1],"loss_changes":[2.3823987E3,5.0280652E2,6.467129E2,1.06211914E2,9.450869E1,1.510271E2,7.010791E1,4.129431E1,3.5705933E1,3.484043E1,1.9917168E1,3.6767014E1,4.4989685E1,3.965351E0,4.3390503E1,0E0,0E0,0E0,0E0,0E0,0E0,0E0,0E0,0E0,0E0,0E0,0E0,0E0,0E0,0E0,0E0],"parents":[2147483647,0,0,1,1,2,2,3,3,4,4,5,5,6,6,7,7,8,8,9,9,10,10,11,11,12,12,13,13,14,14],"right_children":[2,4,6,8,10,12,14,16,18,20,22,24,26,28,30,-1,-1,-1,-1,-1,-1,-1,-1,-1,-1,-1,-1,-1,-1,-1,-1],"split_conditions":[1.8E0,-4E-1,5.4E0,-1E-1,2E1,2.9E0,-1E0,9.4E0,2.4E1,7.9E1,2.1E-2,2.7E1,3.8E1,2.8E1,2.02E-1,-7.398996E-2,-4.4442635E-2,-1.8458284E-2,-3.846414E-2,4.05575E-3,-2.1072863E-2,3.2826304E-2,8.769157E-2,5.48737E-2,2.262993E-2,3.2202836E-2,9.7814314E-2,-1.1021471E-1,6.0919137E-3,1.0042081E-2,2.064945E-1],"split_indices":[23,22,22,23,4,22,21,11,0,1,6,0,2,0,7,0,0,0,0,0,0,0,0,0,0,0,0,0,0,0,0],"split_type":[0,0,0,0,0,0,0,0,0,0,0,0,0,0,0,0,0,0,0,0,0,0,0,0,0,0,0,0,0,0,0],"sum_hessian":[3.282E3,2.566E3,7.16E2,1.517E3,1.049E3,6.12E2,1.04E2,4.9E2,1.027E3,9.8E2,6.9E1,3.58E2,2.54E2,2E0,1.02E2,2.62E2,2.28E2,3.33E2,6.94E2,8.15E2,1.65E2,3.6E1,3.3E1,1.85E2,1.73E2,3.1E1,2.23E2,1E0,1E0,3E0,9.9E1],"tree_param":{"num_deleted":"0","num_feature":"29","num_nodes":"31","size_leaf_vector":"1"}},{"base_weights":[-6.448124E-3,-3.0094776E-1,2.251141E0,-7.4245596E-1,2.9116324E-1,1.6811723E0,3.943351E0,-9.5852524E-1,-4.65912E-1,-1.2165279E-2,5.583123E-1,2.4161782E0,1.4876721E0,2.8691933E0,4.705782E0,-7.5309865E-2,-4.2934097E-2,-5.486317E-3,-3.066267E-2,-2.2890842E-2,7.854244E-3,4.2370386E-2,1.2705483E-2,1.3372236E-1,5.3476643E-2,4.0417623E-2,8.566787E-2,1.6283159E-1,8.950233E-5,2.5651539E-2,2.428588E-1],"categories":[],"categories_nodes":[],"categories_segments":[],"categories_sizes":[],"default_left":[0,0,0,0,0,0,0,0,0,0,0,0,0,0,0,0,0,0,0,0,0,0,0,0,0,0,0,0,0,0,0],"id":13,"left_children":[1,3,5,7,9,11,13,15,17,19,21,23,25,27,29,-1,-1,-1,-1,-1,-1,-1,-1,-1,-1,-1,-1,-1,-1,-1,-1],"loss_changes":[2.1893938E3,7.6173816E2,3.5988306E2,9.928058E1,1.00894035E2,3.7081482E1,6.430054E1,4.9888428E1,3.8453705E1,4.4121037E1,5.8003326E1,1.7311829E1,3.3723602E1,4.6653748E1,3.1784912E1,0E0,0E0,0E0,0E0,0E0,0E0,0E0,0E0,0E0,0E0,0E0,0E0,0E0,0E0,0E0,0E0],"parents":[2147483647,0,0,1,1,2,2,3,3,4,4,5,5,6,6,7,7,8,8,9,9,10,10,11,11,12,12,13,13,14,14],"right_children":[2,4,6,8,10,12,14,16,18,20,22,24,26,28,30,-1,-1,-1,-1,-1,-1,-1,-1,-1,-1,-1,-1,-1,-1,-1,-1],"split_conditions":[3E0,-2E-1,5.3E0,2E-1,1.3E0,2.4E1,1.1E0,-5E-1,2.4E1,9E-1,2.7E1,3.28E1,2.1E1,2.34E-1,6.8E-2,-7.5309865E-2,-4.2934097E-2,-5.486317E-3,-3.066267E-2,-2.2890842E-2,7.854244E-3,4.2370386E-2,1.2705483E-2,1.3372236E-1,5.3476643E-2,4.0417623E-2,8.566787E-2,1.6283159E-1,8.950233E-5,2.5651539E-2,2.428588E-1],"split_indices":[22,22,20,23,23,0,21,23,0,13,0,11,15,19,6,0,0,0,0,0,0,0,0,0,0,0,0,0,0,0,0],"split_type":[0,0,0,0,0,0,0,0,0,0,0,0,0,0,0,0,0,0,0,0,0,0,0,0,0,0,0,0,0,0,0],"sum_hessian":[3.291E3,2.912E3,3.79E2,1.668E3,1.244E3,2.85E2,9.4E1,9.35E2,7.33E2,5.83E2,6.61E2,5.7E1,2.28E2,4.1E1,5.3E1,1.42E2,7.93E2,2.15E2,5.18E2,1.6E2,4.23E2,3.38E2,3.23E2,4.7E1,1E1,5.8E1,1.7E2,3.6E1,5E0,2E0,5.1E1],"tree_param":{"num_deleted":"0","num_feature":"29","num_nodes":"31","size_leaf_vector":"1"}},{"base_weights":[1.2676617E-2,-3.4458697E-1,1.73056E0,-7.0019895E-1,1.9926041E-1,1.2947724E0,3.8957236E0,-9.2891467E-1,-3.9705795E-1,-2.321527E-3,5.007011E-1,1.7732219E0,9.8460054E-1,3.040486E0,4.4999547E0,-4.7231082E-2,6.430379E-2,1.3787824E-3,-2.901024E-2,1.1730978E-3,-9.1204815E-2,8.816398E-3,3.6789116E-2,7.7025525E-2,1.343566E-1,2.3221223E-2,6.402622E-2,1.2357255E-2,1.5869872E-1,1.8113619E-1,2.7433297E-1],"categories":[],"categories_nodes":[],"categories_segments":[],"categories_sizes":[],"default_left":[0,0,0,0,0,0,0,0,0,0,0,0,0,0,0,0,0,0,0,0,0,0,0,0,0,0,0,0,0,0,0],"id":14,"left_children":[1,3,5,7,9,11,13,15,17,19,21,23,25,27,29,-1,-1,-1,-1,-1,-1,-1,-1,-1,-1,-1,-1,-1,-1,-1,-1],"loss_changes":[2.0105856E3,5.2463666E2,5.271189E2,1.1333746E2,6.520201E1,6.8151184E1,3.4893433E1,3.370935E1,5.499961E1,3.0292568E1,3.2659492E1,3.4993042E1,4.3737885E1,1.4876465E1,2.5998535E1,0E0,0E0,0E0,0E0,0E0,0E0,0E0,0E0,0E0,0E0,0E0,0E0,0E0,0E0,0E0,0E0],"parents":[2147483647,0,0,1,1,2,2,3,3,4,4,5,5,6,6,7,7,8,8,9,9,10,10,11,11,12,12,13,13,14,14],"right_children":[2,4,6,8,10,12,14,16,18,20,22,24,26,28,30,-1,-1,-1,-1,-1,-1,-1,-1,-1,-1,-1,-1,-1,-1,-1,-1],"split_conditions":[2.1E0,-2E-1,5.6E0,2E-1,1.64E1,2.6E1,1.3E1,6.8E0,2.4E1,2.3E0,1.3E0,4.3E0,2.1E1,1.1E0,8.8E0,-4.7231082E-2,6.430379E-2,1.3787824E-3,-2.901024E-2,1.1730978E-3,-9.1204815E-2,8.816398E-3,3.6789116E-2,7.7025525E-2,1.343566E-1,2.3221223E-2,6.402622E-2,1.2357255E-2,1.5869872E-1,1.8113619E-1,2.7433297E-1],"split_indices":[22,22,22,23,4,0,14,13,0,20,23,22,15,12,16,0,0,0,0,0,0,0,0,0,0,0,0,0,0,0,0],"split_type":[0,0,0,0,0,0,0,0,0,0,0,0,0,0,0,0,0,0,0,0,0,0,0,0,0,0,0,0,0,0,0],"sum_hessian":[3.274E3,2.711E3,5.63E2,1.639E3,1.072E3,4.7E2,9.3E1,9.33E2,7.06E2,6.43E2,4.29E2,1.83E2,2.87E2,4.1E1,5.2E1,9.27E2,6E0,2.13E2,4.93E2,6.35E2,8E0,1.81E2,2.48E2,1.48E2,3.5E1,1.05E2,1.82E2,2E0,3.9E1,3E1,2.2E1],"tree_param":{"num_deleted":"0","num_feature":"29","num_nodes":"31","size_leaf_vector":"1"}},{"base_weights":[-1.207246E-3,-3.8862008E-1,1.4156654E0,-8.6019605E-1,-5.4098126E-2,1.0631521E0,3.3463516E0,-1.392308E0,-7.8042656E-1,-1.08154446E-1,1.033035E0,7.16474E-1,1.5150782E0,-1.1142905E-1,3.4186065E0,-1.1488523E-1,-6.193158E-2,-5.292644E-2,-3.2335367E-2,-1.5452467E-2,3.4193855E-3,3.747547E-2,8.663632E-2,5.1175572E-2,1.9429965E-2,1.20377615E-1,6.585417E-2,-6.273067E-3,1.7433296E-1],"categories":[],"categories_nodes":[],"categories_segments":[],"categories_sizes":[],"default_left":[0,0,0,0,0,0,0,0,0,0,0,0,0,0,0,0,0,0,0,0,0,0,0,0,0,0,0,0,0],"id":15,"left_children":[1,3,5,7,9,11,13,15,17,19,21,23,25,-1,27,-1,-1,-1,-1,-1,-1,-1,-1,-1,-1,-1,-1,-1,-1],"loss_changes":[1.8125175E3,4.0900574E2,4.789823E2,4.458557E1,8.931915E1,9.307489E1,5.1525513E1,1.6494171E1,3.4197388E1,5.1341034E1,1.2984695E1,3.4031326E1,4.277246E1,0E0,2.648523E1,0E0,0E0,0E0,0E0,0E0,0E0,0E0,0E0,0E0,0E0,0E0,0E0,0E0,0E0],"parents":[2147483647,0,0,1,1,2,2,3,3,4,4,5,5,6,6,7,7,8,8,9,9,10,10,11,11,12,12,14,14],"right_children":[2,4,6,8,10,12,14,16,18,20,22,24,26,-1,28,-1,-1,-1,-1,-1,-1,-1,-1,-1,-1,-1,-1,-1,-1],"split_conditions":[1.8E0,3E-1,5.4E0,-5E-1,2E1,2.9E0,7.1E0,5E0,7.2E0,8E-1,2.5E0,2.7E1,2.4E1,-1.1142905E-1,1.5E-1,-1.1488523E-1,-6.193158E-2,-5.292644E-2,-3.2335367E-2,-1.5452467E-2,3.4193855E-3,3.747547E-2,8.663632E-2,5.1175572E-2,1.9429965E-2,1.20377615E-1,6.585417E-2,-6.273067E-3,1.7433296E-1],"split_indices":[23,23,22,23,4,22,9,11,11,23,20,0,0,0,19,0,0,0,0,0,0,0,0,0,0,0,0,0,0],"split_type":[0,0,0,0,0,0,0,0,0,0,0,0,0,0,0,0,0,0,0,0,0,0,0,0,0,0,0,0,0],"sum_hessian":[3.3E3,2.592E3,7.08E2,1.075E3,1.517E3,6E2,1.08E2,1.38E2,9.37E2,1.446E3,7.1E1,3.41E2,2.59E2,1E0,1.07E2,1.8E1,1.2E2,3.02E2,6.35E2,6.76E2,7.7E2,5.2E1,1.9E1,1.75E2,1.66E2,4.5E1,2.14E2,2E0,1.05E2],"tree_param":{"num_deleted":"0","num_feature":"29","num_nodes":"29","size_leaf_vector":"1"}},{"base_weights":[7.9697715E-3,-3.88898E-1,1.3297933E0,-6.6945523E-1,9.304632E-2,1.0313418E0,3.259415E0,-8.708773E-1,-4.0119186E-1,-3.586684E-2,4.6260366E-1,7.0028985E-1,1.5296897E0,-1.08643316E-1,3.3362346E0,-5.452323E-2,-3.181335E-2,8.180928E-4,-2.8965032E-2,2.2105856E-2,-6.222148E-3,1.0078152E-2,6.25579E-2,1.0090537E-1,3.0835232E-2,1.3370599E-1,6.753751E-2,1.433847E-1,2.2397327E-1],"categories":[],"categories_nodes":[],"categories_segments":[],"categories_sizes":[],"default_left":[0,0,0,0,0,0,0,0,0,0,0,0,0,0,0,0,0,0,0,0,0,0,0,0,0,0,0,0,0],"id":16,"left_children":[1,3,5,7,9,11,13,15,17,19,21,23,25,-1,27,-1,-1,-1,-1,-1,-1,-1,-1,-1,-1,-1,-1,-1,-1],"loss_changes":[1.703858E3,3.378243E2,4.2856238E2,8.497052E1,4.3846134E1,1.0633008E2,4.897986E1,4.572339E1,5.050669E1,2.8971848E1,4.873886E1,4.2044373E1,4.942694E1,0E0,4.0183716E1,0E0,0E0,0E0,0E0,0E0,0E0,0E0,0E0,0E0,0E0,0E0,0E0,0E0,0E0],"parents":[2147483647,0,0,1,1,2,2,3,3,4,4,5,5,6,6,7,7,8,8,9,9,10,10,11,11,12,12,14,14],"right_children":[2,4,6,8,10,12,14,16,18,20,22,24,26,-1,28,-1,-1,-1,-1,-1,-1,-1,-1,-1,-1,-1,-1,-1,-1],"split_conditions":[1.5E0,-3E-1,5.6E0,-1.5E0,1.7E1,2.7E0,7.1E0,9.3E0,2.4E1,5.23E-1,1.46E1,2.2E1,2.3E1,-1.08643316E-1,9E0,-5.452323E-2,-3.181335E-2,8.180928E-4,-2.8965032E-2,2.2105856E-2,-6.222148E-3,1.0078152E-2,6.25579E-2,1.0090537E-1,3.0835232E-2,1.3370599E-1,6.753751E-2,1.433847E-1,2.2397327E-1],"split_indices":[22,22,22,22,4,23,9,11,0,5,11,0,0,0,22,0,0,0,0,0,0,0,0,0,0,0,0,0,0],"split_type":[0,0,0,0,0,0,0,0,0,0,0,0,0,0,0,0,0,0,0,0,0,0,0,0,0,0,0,0,0],"sum_hessian":[3.246E3,2.497E3,7.49E2,1.578E3,9.19E2,6.5E2,9.9E1,9E2,6.78E2,6.82E2,2.37E2,3.92E2,2.58E2,1E0,9.8E1,4.63E2,4.37E2,2.03E2,4.75E2,1.06E2,5.76E2,1.79E2,5.8E1,2.2E1,3.7E2,3.3E1,2.25E2,7.2E1,2.6E1],"tree_param":{"num_deleted":"0","num_feature":"29","num_nodes":"29","size_leaf_vector":"1"}},{"base_weights":[4.5695137E-3,-3.5121426E-1,1.2878002E0,-7.502172E-1,-5.9133046E-3,9.7792417E-1,3.035513E0,-1.147188E0,-6.5782875E-1,5.374424E-1,-1.0435919E-1,6.8451405E-1,1.3772242E0,1.1279048E0,3.2900398E0,-1.00485705E-1,-5.009755E-2,-5.225558E-2,-2.8336808E-2,-1.2620712E-3,4.4905446E-2,-2.0025736E-2,3.5438638E-3,4.7729235E-2,1.956082E-2,1.1474879E-1,6.1729897E-2,8.5122585E-2,-7.7312544E-2,-1.3456381E-2,1.7058346E-1],"categories":[],"categories_nodes":[],"categories_segments":[],"categories_sizes":[],"default_left":[0,0,0,0,0,0,0,0,0,0,0,0,0,0,0,0,0,0,0,0,0,0,0,0,0,0,0,0,0,0,0],"id":17,"left_children":[1,3,5,7,9,11,13,15,17,19,21,23,25,27,29,-1,-1,-1,-1,-1,-1,-1,-1,-1,-1,-1,-1,-1,-1,-1,-1],"loss_changes":[1.4869877E3,3.5132462E2,3.7992456E2,4.2632507E1,7.323196E1,6.958685E1,4.7756165E1,2.5796448E1,3.3345734E1,4.2640324E1,6.017729E1,2.7271225E1,3.0414062E1,2.4142408E1,4.1177734E1,0E0,0E0,0E0,0E0,0E0,0E0,0E0,0E0,0E0,0E0,0E0,0E0,0E0,0E0,0E0,0E0],"parents":[2147483647,0,0,1,1,2,2,3,3,4,4,5,5,6,6,7,7,8,8,9,9,10,10,11,11,12,12,13,13,14,14],"right_children":[2,4,6,8,10,12,14,16,18,20,22,24,26,28,30,-1,-1,-1,-1,-1,-1,-1,-1,-1,-1,-1,-1,-1,-1,-1,-1],"split_conditions":[1.8E0,-1E0,5.4E0,-3.4E0,2.3E1,2.9E0,2E0,9E-1,5.6E0,1.09E1,-1E-1,2.7E1,2.3E1,6.7E1,1.56E-1,-1.00485705E-1,-5.009755E-2,-5.225558E-2,-2.8336808E-2,-1.2620712E-3,4.4905446E-2,-2.0025736E-2,3.5438638E-3,4.7729235E-2,1.956082E-2,1.1474879E-1,6.1729897E-2,8.5122585E-2,-7.7312544E-2,-1.3456381E-2,1.7058346E-1],"split_indices":[23,22,22,22,0,22,17,12,10,14,22,0,0,1,19,0,0,0,0,0,0,0,0,0,0,0,0,0,0,0,0],"split_type":[0,0,0,0,0,0,0,0,0,0,0,0,0,0,0,0,0,0,0,0,0,0,0,0,0,0,0,0,0,0,0],"sum_hessian":[3.255E3,2.549E3,7.06E2,1.182E3,1.367E3,6.01E2,1.05E2,2.21E2,9.61E2,2.09E2,1.158E3,3.48E2,2.53E2,1.3E1,9.2E1,3E1,1.91E2,1.81E2,7.8E2,8.2E1,1.27E2,4.3E2,7.28E2,1.8E2,1.68E2,3.2E1,2.21E2,1.1E1,2E0,3E0,8.9E1],"tree_param":{"num_deleted":"0","num_feature":"29","num_nodes":"31","size_leaf_vector":"1"}},{"base_weights":[1.1885212E-2,-3.3032113E-1,1.2246745E0,-6.1782295E-1,6.0783837E-2,9.270154E-1,3.1226633E0,-7.626304E-1,-3.219104E-1,-3.9726486E-3,9.773232E-1,6.05569E-1,1.3229506E0,1.7421569E0,3.6231072E0,-5.5793345E-2,-3.2318898E-2,1.8229833E-2,-2.1873577E-2,-1.4968504E-2,5.8605536E-3,5.432285E-2,-5.7478327E-2,4.330803E-2,1.5316376E-2,5.157735E-2,8.7672375E-2,-1.0399442E-1,9.803735E-2,1.2537408E-1,2.1253538E-1],"categories":[],"categories_nodes":[],"categories_segments":[],"categories_sizes":[],"default_left":[0,0,0,0,0,0,0,0,0,0,0,0,0,0,0,0,0,0,0,0,0,0,0,0,0,0,0,0,0,0,0],"id":18,"left_children":[1,3,5,7,9,11,13,15,17,19,21,23,25,27,29,-1,-1,-1,-1,-1,-1,-1,-1,-1,-1,-1,-1,-1,-1,-1,-1],"loss_changes":[1.3691543E3,2.8935443E2,4.072616E2,6.3301453E1,6.475677E1,7.925293E1,6.1392822E1,4.013806E1,3.895358E1,3.6548397E1,1.7961273E1,2.6949615E1,3.344226E1,2.7471054E1,3.9053345E1,0E0,0E0,0E0,0E0,0E0,0E0,0E0,0E0,0E0,0E0,0E0,0E0,0E0,0E0,0E0,0E0],"parents":[2147483647,0,0,1,1,2,2,3,3,4,4,5,5,6,6,7,7,8,8,9,9,10,10,11,11,12,12,13,13,14,14],"right_children":[2,4,6,8,10,12,14,16,18,20,22,24,26,28,30,-1,-1,-1,-1,-1,-1,-1,-1,-1,-1,-1,-1,-1,-1,-1,-1],"split_conditions":[1.8E0,6E-1,5.3E0,1.33E1,2E1,2.9E0,2.6E0,-3E-1,4E-1,1.01E1,1.8E1,2.7E1,3.7E-1,7.1E0,1.3E1,-5.5793345E-2,-3.2318898E-2,1.8229833E-2,-2.1873577E-2,-1.4968504E-2,5.8605536E-3,5.432285E-2,-5.7478327E-2,4.330803E-2,1.5316376E-2,5.157735E-2,8.7672375E-2,-1.0399442E-1,9.803735E-2,1.2537408E-1,2.1253538E-1],"split_indices":[23,23,20,4,4,22,17,23,16,14,14,0,7,9,14,0,0,0,0,0,0,0,0,0,0,0,0,0,0,0,0],"split_type":[0,0,0,0,0,0,0,0,0,0,0,0,0,0,0,0,0,0,0,0,0,0,0,0,0,0,0,0,0,0,0],"sum_hessian":[3.297E3,2.572E3,7.25E2,1.482E3,1.09E3,6.28E2,9.7E1,9.94E2,4.88E2,1.019E3,7.1E1,3.48E2,2.8E2,2.7E1,7E1,2.44E2,7.5E2,7E1,4.18E2,2.96E2,7.23E2,6.8E1,3E0,1.85E2,1.63E2,1.69E2,1.11E2,1E0,2.6E1,2.7E1,4.3E1],"tree_param":{"num_deleted":"0","num_feature":"29","num_nodes":"31","size_leaf_vector":"1"}},{"base_weights":[1.1360287E-2,-3.3649576E-1,1.1413091E0,-7.097564E-1,-4.9541272E-2,9.0245444E-1,2.922692E0,-1.2041713E0,-6.378514E-1,-1.6356617E-1,4.035101E-1,5.8154756E-1,1.2727665E0,-1.4927235E0,3.0400052E0,-6.430846E-2,4.790773E-3,-8.844287E-2,-3.0448858E-2,-2.3713887E-3,-2.756292E-2,-9.9185355E-2,2.2679064E-2,1.16795026E-1,2.3637995E-2,7.124883E-2,2.4959426E-2,-1.0139456E-1,-1.0559702E-2,1.7684577E-1,1.1465495E-1],"categories":[],"categories_nodes":[],"categories_segments":[],"categories_sizes":[],"default_left":[0,0,0,0,0,0,0,0,0,0,0,0,0,0,0,0,0,0,0,0,0,0,0,0,0,0,0,0,0,0,0],"id":19,"left_children":[1,3,5,7,9,11,13,15,17,19,21,23,25,27,29,-1,-1,-1,-1,-1,-1,-1,-1,-1,-1,-1,-1,-1,-1,-1,-1],"loss_changes":[1.2774344E3,2.6613022E2,3.2286353E2,3.7626892E1,7.269875E1,7.959277E1,5.115674E1,1.4620285E1,2.978366E1,5.0583035E1,3.472699E1,6.836581E1,3.614331E1,1.6292205E0,2.4550232E1,0E0,0E0,0E0,0E0,0E0,0E0,0E0,0E0,0E0,0E0,0E0,0E0,0E0,0E0,0E0,0E0],"parents":[2147483647,0,0,1,1,2,2,3,3,4,4,5,5,6,6,7,7,8,8,9,9,10,10,11,11,12,12,13,13,14,14],"right_children":[2,4,6,8,10,12,14,16,18,20,22,24,26,28,30,-1,-1,-1,-1,-1,-1,-1,-1,-1,-1,-1,-1,-1,-1,-1,-1],"split_conditions":[1.5E0,-1.2E0,5.9E0,-5E-1,1.7E1,2.8E0,-1E0,1.09E1,6.9E0,3E1,6E-1,2.2E1,6.23E-1,2.8E1,2.8E1,-6.430846E-2,4.790773E-3,-8.844287E-2,-3.0448858E-2,-2.3713887E-3,-2.756292E-2,-9.9185355E-2,2.2679064E-2,1.16795026E-1,2.3637995E-2,7.124883E-2,2.4959426E-2,-1.0139456E-1,-1.0559702E-2,1.7684577E-1,1.1465495E-1],"split_indices":[22,22,22,23,4,22,21,8,14,0,12,0,5,0,0,0,0,0,0,0,0,0,0,0,0,0,0,0,0,0,0],"split_type":[0,0,0,0,0,0,0,0,0,0,0,0,0,0,0,0,0,0,0,0,0,0,0,0,0,0,0,0,0,0,0],"sum_hessian":[3.248E3,2.484E3,7.64E2,1.079E3,1.405E3,6.75E2,8.9E1,1.35E2,9.44E2,1.123E3,2.82E2,3.63E2,3.12E2,2E0,8.7E1,1.27E2,8E0,2.2E1,9.22E2,8.65E2,2.58E2,5E0,2.77E2,2E1,3.43E2,2.6E2,5.2E1,1E0,1E0,5E1,3.7E1],"tree_param":{"num_deleted":"0","num_feature":"29","num_nodes":"31","size_leaf_vector":"1"}},{"base_weights":[1.1034346E-2,-2.0391177E-1,1.6357288E0,-6.737411E-1,7.644063E-2,1.183021E0,2.9224563E0,-1.1791368E0,-5.9427315E-1,-1.18160345E-1,4.136534E-1,1.4744514E0,6.9892716E-1,1.7684661E0,3.2884195E0,-7.442084E-2,-2.5834067E-2,-5.062869E-2,-2.5309086E-2,1.5907759E-2,-1.0457263E-2,3.150834E-2,3.5248E-3,-1.4505669E-2,7.965641E-2,7.146094E-3,7.585252E-2,9.711871E-2,-1.0614395E-2,1.2103193E-1,1.9459759E-1],"categories":[],"categories_nodes":[],"categories_segments":[],"categories_sizes":[],"default_left":[0,0,0,0,0,0,0,0,0,0,0,0,0,0,0,0,0,0,0,0,0,0,0,0,0,0,0,0,0,0,0],"id":20,"left_children":[1,3,5,7,9,11,13,15,17,19,21,23,25,27,29,-1,-1,-1,-1,-1,-1,-1,-1,-1,-1,-1,-1,-1,-1,-1,-1],"loss_changes":[1.1447333E3,3.813745E2,2.1964465E2,4.27554E1,1.19087074E2,3.9177185E1,3.599402E1,2.9144058E1,3.401471E1,4.5759087E1,4.928958E1,3.75282E1,4.9365185E1,9.368553E0,2.9335266E1,0E0,0E0,0E0,0E0,0E0,0E0,0E0,0E0,0E0,0E0,0E0,0E0,0E0,0E0,0E0,0E0],"parents":[2147483647,0,0,1,1,2,2,3,3,4,4,5,5,6,6,7,7,8,8,9,9,10,10,11,11,12,12,13,13,14,14],"right_children":[2,4,6,8,10,12,14,16,18,20,22,24,26,28,30,-1,-1,-1,-1,-1,-1,-1,-1,-1,-1,-1,-1,-1,-1,-1,-1],"split_conditions":[2.9E0,-1.2E0,5.3E0,5.2E0,1.3E0,5.86E-1,2.6E0,1.06E1,-4E-1,2.3E1,2.8E1,5.23E-1,4.1E0,1.63E1,1.31E1,-7.442084E-2,-2.5834067E-2,-5.062869E-2,-2.5309086E-2,1.5907759E-2,-1.0457263E-2,3.150834E-2,3.5248E-3,-1.4505669E-2,7.965641E-2,7.146094E-3,7.585252E-2,9.711871E-2,-1.0614395E-2,1.2103193E-1,1.9459759E-1],"split_indices":[22,22,20,11,23,5,17,8,23,0,0,5,22,14,14,0,0,0,0,0,0,0,0,0,0,0,0,0,0,0,0],"split_type":[0,0,0,0,0,0,0,0,0,0,0,0,0,0,0,0,0,0,0,0,0,0,0,0,0,0,0,0,0,0,0],"sum_hessian":[3.276E3,2.894E3,3.82E2,1.081E3,1.813E3,2.84E2,9.8E1,1.45E2,9.36E2,1.15E3,6.63E2,1.76E2,1.08E2,2.5E1,7.3E1,9.8E1,4.7E1,1.61E2,7.75E2,1.98E2,9.52E2,4.06E2,2.57E2,1.1E1,1.65E2,6.5E1,4.3E1,2.3E1,2E0,3.2E1,4.1E1],"tree_param":{"num_deleted":"0","num_feature":"29","num_nodes":"31","size_leaf_vector":"1"}},{"base_weights":[-1.3931093E-3,-2.5917616E-1,1.1981894E0,-5.340191E-1,9.242411E-2,8.9865077E-1,2.7179532E0,-7.24458E-1,-3.6290887E-1,-1.1967342E-2,5.856937E-1,7.0138824E-1,1.4063377E0,1.5724157E0,3.1268163E0,-4.217742E-2,-1.3280684E-2,-7.08312E-2,-1.6284125E-2,-5.866977E-3,1.849074E-2,5.973779E-2,1.6151965E-2,5.9992887E-2,2.7637372E-2,-1.4021869E-2,7.645237E-2,-1.0128766E-1,8.943602E-2,-9.842038E-3,1.614484E-1],"categories":[],"categories_nodes":[],"categories_segments":[],"categories_sizes":[],"default_left":[0,0,0,0,0,0,0,0,0,0,0,0,0,0,0,0,0,0,0,0,0,0,0,0,0,0,0,0,0,0,0],"id":21,"left_children":[1,3,5,7,9,11,13,15,17,19,21,23,25,27,29,-1,-1,-1,-1,-1,-1,-1,-1,-1,-1,-1,-1,-1,-1,-1,-1],"loss_changes":[1.0139731E3,2.6086688E2,2.6158966E2,4.910492E1,6.1026367E1,4.7685303E1,3.957837E1,3.890103E1,3.0919434E1,3.94278E1,3.272843E1,2.541748E1,2.8371582E1,2.4637627E1,2.4062256E1,0E0,0E0,0E0,0E0,0E0,0E0,0E0,0E0,0E0,0E0,0E0,0E0,0E0,0E0,0E0,0E0],"parents":[2147483647,0,0,1,1,2,2,3,3,4,4,5,5,6,6,7,7,8,8,9,9,10,10,11,11,12,12,13,13,14,14],"right_children":[2,4,6,8,10,12,14,16,18,20,22,24,26,28,30,-1,-1,-1,-1,-1,-1,-1,-1,-1,-1,-1,-1,-1,-1,-1,-1],"split_conditions":[1.88E1,-4E-1,5.3E0,1.19E1,2E0,3.9E0,2.6E0,1.88E1,7E-1,1.2E0,2.5E1,5.51E-1,5E0,7.1E0,6.8E-2,-4.217742E-2,-1.3280684E-2,-7.08312E-2,-1.6284125E-2,-5.866977E-3,1.849074E-2,5.973779E-2,1.6151965E-2,5.9992887E-2,2.7637372E-2,-1.4021869E-2,7.645237E-2,-1.0128766E-1,8.943602E-2,-9.842038E-3,1.614484E-1],"split_indices":[4,22,20,4,23,22,17,15,12,21,0,5,2,9,6,0,0,0,0,0,0,0,0,0,0,0,0,0,0,0,0],"split_type":[0,0,0,0,0,0,0,0,0,0,0,0,0,0,0,0,0,0,0,0,0,0,0,0,0,0,0,0,0,0,0],"sum_hessian":[3.277E3,2.698E3,5.79E2,1.514E3,1.184E3,4.85E2,9.4E1,7.15E2,7.99E2,9.78E2,2.06E2,3.51E2,1.34E2,2.6E1,6.8E1,5.67E2,1.48E2,2.6E1,7.73E2,7.67E2,2.11E2,6.1E1,1.45E2,7.9E1,2.72E2,9E0,1.25E2,1E0,2.5E1,2E0,6.6E1],"tree_param":{"num_deleted":"0","num_feature":"29","num_nodes":"31","size_leaf_vector":"1"}},{"base_weights":[2.0638617E-2,-2.6142275E-1,1.0420437E0,-6.380353E-1,-4.687393E-2,7.90305E-1,2.5596056E0,-1.6261257E0,-5.9446067E-1,-1.4766309E-1,3.6168236E-1,4.409762E-1,1.0264491E0,1.6078496E0,3.061996E0,-9.690186E-2,-1.8554172E-2,2.2824308E-2,-3.1500846E-2,-1.3310291E-2,3.851762E-3,-3.9422023E-3,2.871472E-2,7.635735E-2,1.426062E-2,4.0638153E-2,7.810545E-2,9.513907E-2,-3.3013526E-2,-9.513974E-3,1.5841316E-1],"categories":[],"categories_nodes":[],"categories_segments":[],"categories_sizes":[],"default_left":[0,0,0,0,0,0,0,0,0,0,0,0,0,0,0,0,0,0,0,0,0,0,0,0,0,0,0,0,0,0,0],"id":22,"left_children":[1,3,5,7,9,11,13,15,17,19,21,23,25,27,29,-1,-1,-1,-1,-1,-1,-1,-1,-1,-1,-1,-1,-1,-1,-1,-1],"loss_changes":[9.4927026E2,2.086003E2,2.7036383E2,3.9376465E1,6.7832466E1,5.01149E1,4.337018E1,1.4547844E1,3.3881165E1,3.5207134E1,3.057883E1,4.1691765E1,4.05094E1,2.6007164E1,2.3067566E1,0E0,0E0,0E0,0E0,0E0,0E0,0E0,0E0,0E0,0E0,0E0,0E0,0E0,0E0,0E0,0E0],"parents":[2147483647,0,0,1,1,2,2,3,3,4,4,5,5,6,6,7,7,8,8,9,9,10,10,11,11,12,12,13,13,14,14],"right_children":[2,4,6,8,10,12,14,16,18,20,22,24,26,28,30,-1,-1,-1,-1,-1,-1,-1,-1,-1,-1,-1,-1,-1,-1,-1,-1],"split_conditions":[1.8E0,2E-1,5.3E0,7.1E0,1.7E1,2.78E-1,9E-1,2E-1,4.48E-1,5E-1,1E-2,2.3E1,3.9E0,2.34E-1,6.8E-2,-9.690186E-2,-1.8554172E-2,2.2824308E-2,-3.1500846E-2,-1.3310291E-2,3.851762E-3,-3.9422023E-3,2.871472E-2,7.635735E-2,1.426062E-2,4.0638153E-2,7.810545E-2,9.513907E-2,-3.3013526E-2,-9.513974E-3,1.5841316E-1],"split_indices":[23,23,20,4,4,7,21,21,5,21,6,0,22,19,6,0,0,0,0,0,0,0,0,0,0,0,0,0,0,0,0],"split_type":[0,0,0,0,0,0,0,0,0,0,0,0,0,0,0,0,0,0,0,0,0,0,0,0,0,0,0,0,0,0,0],"sum_hessian":[3.293E3,2.581E3,7.12E2,9.36E2,1.645E3,6.12E2,1E2,3.8E1,8.98E2,1.32E3,3.25E2,2.48E2,3.64E2,3.6E1,6.4E1,3E1,8E0,2.9E1,8.69E2,8.64E2,4.56E2,1.06E2,2.19E2,3E1,2.18E2,2.62E2,1.02E2,3.2E1,4E0,2E0,6.2E1],"tree_param":{"num_deleted":"0","num_feature":"29","num_nodes":"31","size_leaf_vector":"1"}},{"base_weights":[-5.309507E-3,-3.1359315E-1,8.091531E-1,-4.909848E-1,7.255085E-2,5.6231594E-1,2.0730968E0,-7.4645627E-1,-3.8833168E-1,-3.2718465E-2,5.0530857E-1,1.7967024E-1,8.206912E-1,8.7614506E-1,2.4534042E0,-5.7868607E-2,-3.0677754E-2,-3.0576784E-2,-1.1350673E-2,-6.0754786E-3,2.1393975E-2,2.1617353E-2,1.0739229E-1,-1.8327298E-2,1.8087639E-2,1.0808617E-1,3.7012722E-2,1.6654284E-1,3.2035425E-2,4.1412275E-2,1.3591984E-1],"categories":[],"categories_nodes":[],"categories_segments":[],"categories_sizes":[],"default_left":[0,0,0,0,0,0,0,0,0,0,0,0,0,0,0,0,0,0,0,0,0,0,0,0,0,0,0,0,0,0,0],"id":23,"left_children":[1,3,5,7,9,11,13,15,17,19,21,23,25,27,29,-1,-1,-1,-1,-1,-1,-1,-1,-1,-1,-1,-1,-1,-1,-1,-1],"loss_changes":[8.248185E2,1.6326805E2,2.8024762E2,4.253546E1,3.4229168E1,7.45954E1,6.47663E1,2.4793335E1,4.188121E1,2.4794674E1,1.6688156E1,3.0566263E1,4.704837E1,1.924926E1,4.555127E1,0E0,0E0,0E0,0E0,0E0,0E0,0E0,0E0,0E0,0E0,0E0,0E0,0E0,0E0,0E0,0E0],"parents":[2147483647,0,0,1,1,2,2,3,3,4,4,5,5,6,6,7,7,8,8,9,9,10,10,11,11,12,12,13,13,14,14],"right_children":[2,4,6,8,10,12,14,16,18,20,22,24,26,28,30,-1,-1,-1,-1,-1,-1,-1,-1,-1,-1,-1,-1,-1,-1,-1,-1],"split_conditions":[1.7E1,8E-1,2.35E1,7.2E0,1.4E0,1.2E1,9E-2,8.54E2,6.6E0,1.63E1,4.6E0,1.4E1,2.2E1,2.1E1,1.9E0,-5.7868607E-2,-3.0677754E-2,-3.0576784E-2,-1.1350673E-2,-6.0754786E-3,2.1393975E-2,2.1617353E-2,1.0739229E-1,-1.8327298E-2,1.8087639E-2,1.0808617E-1,3.7012722E-2,1.6654284E-1,3.2035425E-2,4.1412275E-2,1.3591984E-1],"split_indices":[4,23,4,11,21,11,6,3,10,4,17,2,0,0,17,0,0,0,0,0,0,0,0,0,0,0,0,0,0,0,0],"split_type":[0,0,0,0,0,0,0,0,0,0,0,0,0,0,0,0,0,0,0,0,0,0,0,0,0,0,0,0,0,0,0],"sum_hessian":[3.283E3,2.382E3,9.01E2,1.632E3,7.5E2,7.55E2,1.46E2,4.66E2,1.166E3,6.04E2,1.46E2,3.05E2,4.5E2,3.6E1,1.1E2,1.12E2,3.54E2,4.88E2,6.78E2,5.07E2,9.7E1,1.41E2,5E0,7.6E1,2.29E2,2.4E1,4.26E2,2E0,3.4E1,1.6E1,9.4E1],"tree_param":{"num_deleted":"0","num_feature":"29","num_nodes":"31","size_leaf_vector":"1"}},{"base_weights":[1.3196305E-2,-2.867005E-1,8.0384886E-1,-4.932021E-1,4.878254E-2,5.7626057E-1,2.0125623E0,-9.625852E-1,-4.3019146E-1,-6.339166E-2,4.3244287E-1,2.1244931E-1,8.5156345E-1,1.5959193E0,3.0826893E0,-6.271501E-2,-1.3646423E-2,-4.2272106E-2,-1.8548032E-2,1.1808471E-2,-9.249969E-3,1.9087842E-2,1.0291761E-1,-8.745609E-3,2.102281E-2,2.0119695E-2,5.1395774E-2,9.798917E-2,3.1046627E-2,1.6608265E-1,8.067227E-3],"categories":[],"categories_nodes":[],"categories_segments":[],"categories_sizes":[],"default_left":[0,0,0,0,0,0,0,0,0,0,0,0,0,0,0,0,0,0,0,0,0,0,0,0,0,0,0,0,0,0,0],"id":24,"left_children":[1,3,5,7,9,11,13,15,17,19,21,23,25,27,29,-1,-1,-1,-1,-1,-1,-1,-1,-1,-1,-1,-1,-1,-1,-1,-1],"loss_changes":[7.8033606E2,1.6532082E2,2.4779572E2,4.3269897E1,3.9190895E1,7.623984E1,5.883838E1,3.466353E1,3.1759048E1,2.5726093E1,1.619086E1,2.6662914E1,3.3964355E1,3.6033203E1,2.6689758E1,0E0,0E0,0E0,0E0,0E0,0E0,0E0,0E0,0E0,0E0,0E0,0E0,0E0,0E0,0E0,0E0],"parents":[2147483647,0,0,1,1,2,2,3,3,4,4,5,5,6,6,7,7,8,8,9,9,10,10,11,11,12,12,13,13,14,14],"right_children":[2,4,6,8,10,12,14,16,18,20,22,24,26,28,30,-1,-1,-1,-1,-1,-1,-1,-1,-1,-1,-1,-1,-1,-1,-1,-1],"split_conditions":[1.7E1,-4E-1,2.35E1,5.2E0,1.3E0,1.26E1,2.7E1,1.7E0,-4E-1,2.5E1,4.6E0,1.401E3,5.2E1,6.23E-1,5.7E0,-6.271501E-2,-1.3646423E-2,-4.2272106E-2,-1.8548032E-2,1.1808471E-2,-9.249969E-3,1.9087842E-2,1.0291761E-1,-8.745609E-3,2.102281E-2,2.0119695E-2,5.1395774E-2,9.798917E-2,3.1046627E-2,1.6608265E-1,8.067227E-3],"split_indices":[4,22,4,11,21,11,4,17,23,0,17,3,2,5,13,0,0,0,0,0,0,0,0,0,0,0,0,0,0,0,0],"split_type":[0,0,0,0,0,0,0,0,0,0,0,0,0,0,0,0,0,0,0,0,0,0,0,0,0,0,0,0,0,0,0],"sum_hessian":[3.289E3,2.385E3,9.04E2,1.476E3,9.09E2,7.62E2,1.42E2,1.73E2,1.303E3,7.04E2,2.05E2,3.29E2,4.33E2,1.04E2,3.8E1,1.21E2,5.2E1,1.61E2,1.142E3,2.03E2,5.01E2,2E2,5E0,1.15E2,2.14E2,1.23E2,3.1E2,7.5E1,2.9E1,3.5E1,3E0],"tree_param":{"num_deleted":"0","num_feature":"29","num_nodes":"31","size_leaf_vector":"1"}},{"base_weights":[5.8025704E-3,-3.2737088E-1,6.721442E-1,-5.627086E-1,-1.5429386E-1,4.4342497E-1,1.604107E0,-1.358289E0,-5.2806884E-1,2.6644972E-1,-2.4395809E-1,2.3191696E-1,6.8151414E-1,9.4542325E-1,2.1079984E0,-1.9908264E-2,-9.508854E-2,2.0088915E-2,-2.8162887E-2,-8.9714705E-4,4.9224373E-2,-2.5299424E-2,-6.1537307E-3,1.6357709E-2,-1.6108181E-2,3.5904706E-2,-5.2015472E-2,3.1474017E-2,9.024422E-2,6.742742E-2,1.24734335E-1],"categories":[],"categories_nodes":[],"categories_segments":[],"categories_sizes":[],"default_left":[0,0,0,0,0,0,0,0,0,0,0,0,0,0,0,0,0,0,0,0,0,0,0,0,0,0,0,0,0,0,0],"id":25,"left_children":[1,3,5,7,9,11,13,15,17,19,21,23,25,27,29,-1,-1,-1,-1,-1,-1,-1,-1,-1,-1,-1,-1,-1,-1,-1,-1],"loss_changes":[7.279601E2,8.895233E1,2.3227017E2,2.4802124E1,4.7637043E1,4.410643E1,6.936664E1,1.9071556E1,2.9314667E1,4.5351105E1,3.2879875E1,2.4748556E1,2.6759537E1,2.4660225E1,3.216986E1,0E0,0E0,0E0,0E0,0E0,0E0,0E0,0E0,0E0,0E0,0E0,0E0,0E0,0E0,0E0,0E0],"parents":[2147483647,0,0,1,1,2,2,3,3,4,4,5,5,6,6,7,7,8,8,9,9,10,10,11,11,12,12,13,13,14,14],"right_children":[2,4,6,8,10,12,14,16,18,20,22,24,26,28,30,-1,-1,-1,-1,-1,-1,-1,-1,-1,-1,-1,-1,-1,-1,-1,-1],"split_conditions":[8E-1,2E-1,4.1E0,7.1E0,2.3E1,2.15E1,6.1E0,6.1E0,4.52E-1,1.52E1,6.5E0,2E1,5.48E-1,3.1E1,8E-1,-1.9908264E-2,-9.508854E-2,2.0088915E-2,-2.8162887E-2,-8.9714705E-4,4.9224373E-2,-2.5299424E-2,-6.1537307E-3,1.6357709E-2,-1.6108181E-2,3.5904706E-2,-5.2015472E-2,3.1474017E-2,9.024422E-2,6.742742E-2,1.24734335E-1],"split_indices":[22,23,22,4,0,15,16,4,5,11,10,15,6,15,21,0,0,0,0,0,0,0,0,0,0,0,0,0,0,0,0],"split_type":[0,0,0,0,0,0,0,0,0,0,0,0,0,0,0,0,0,0,0,0,0,0,0,0,0,0,0,0,0,0,0],"sum_hessian":[3.277E3,2.185E3,1.092E3,9.25E2,1.26E3,8.78E2,2.14E2,3.7E1,8.88E2,2.21E2,1.039E3,4.66E2,4.12E2,9.4E1,1.2E2,1.4E1,2.3E1,3.2E1,8.56E2,1.59E2,6.2E1,3.27E2,7.12E2,3.98E2,6.8E1,4.04E2,8E0,7E1,2.4E1,4.2E1,7.8E1],"tree_param":{"num_deleted":"0","num_feature":"29","num_nodes":"31","size_leaf_vector":"1"}},{"base_weights":[1.9910876E-2,-2.9057163E-1,6.852114E-1,-5.23704E-1,-1.2585919E-1,5.278035E-1,2.1166258E0,-1.3330578E0,-4.8752755E-1,-3.419016E-1,6.468804E-3,1.0029463E-1,7.069093E-1,1.3878084E0,2.6158147E0,-7.898519E-2,1.4338992E-2,3.0220425E-2,-2.6060162E-2,-6.653315E-3,-4.456095E-2,-1.3356537E-2,7.83901E-3,3.3105467E-2,-1.4139216E-3,7.596108E-2,3.2335695E-2,8.47255E-2,-4.1852638E-2,1.5553343E-1,8.719613E-2],"categories":[],"categories_nodes":[],"categories_segments":[],"categories_sizes":[],"default_left":[0,0,0,0,0,0,0,0,0,0,0,0,0,0,0,0,0,0,0,0,0,0,0,0,0,0,0,0,0,0,0],"id":26,"left_children":[1,3,5,7,9,11,13,15,17,19,21,23,25,27,29,-1,-1,-1,-1,-1,-1,-1,-1,-1,-1,-1,-1,-1,-1,-1,-1],"loss_changes":[6.771099E2,8.5757645E1,2.3388742E2,2.643367E1,3.748168E1,7.1980804E1,3.3842957E1,1.6034561E1,3.2931473E1,5.70104E1,3.3517735E1,2.0172075E1,3.1436554E1,3.1442604E1,2.04628E1,0E0,0E0,0E0,0E0,0E0,0E0,0E0,0E0,0E0,0E0,0E0,0E0,0E0,0E0,0E0,0E0],"parents":[2147483647,0,0,1,1,2,2,3,3,4,4,5,5,6,6,7,7,8,8,9,9,10,10,11,11,12,12,13,13,14,14],"right_children":[2,4,6,8,10,12,14,16,18,20,22,24,26,28,30,-1,-1,-1,-1,-1,-1,-1,-1,-1,-1,-1,-1,-1,-1,-1,-1],"split_conditions":[1.3E0,2E-1,5.3E0,7.1E0,2.8E0,1.63E1,1.1E0,3.2E1,4.48E-1,3E1,1.1E1,1.749E3,2.2E1,2.34E-1,2.8E1,-7.898519E-2,1.4338992E-2,3.0220425E-2,-2.6060162E-2,-6.653315E-3,-4.456095E-2,-1.3356537E-2,7.83901E-3,3.3105467E-2,-1.4139216E-3,7.596108E-2,3.2335695E-2,8.47255E-2,-4.1852638E-2,1.5553343E-1,8.719613E-2],"split_indices":[23,23,20,4,8,4,21,2,5,0,14,3,0,19,0,0,0,0,0,0,0,0,0,0,0,0,0,0,0,0,0],"split_type":[0,0,0,0,0,0,0,0,0,0,0,0,0,0,0,0,0,0,0,0,0,0,0,0,0,0,0,0,0,0,0],"sum_hessian":[3.276E3,2.234E3,1.042E3,9.24E2,1.31E3,9.4E2,1.02E2,3.8E1,8.86E2,4.97E2,8.13E2,2.78E2,6.62E2,4.3E1,5.9E1,3.3E1,5E0,2.6E1,8.6E2,3.61E2,1.36E2,2.88E2,5.25E2,5.1E1,2.27E2,4.4E1,6.18E2,3.8E1,5E0,3.6E1,2.3E1],"tree_param":{"num_deleted":"0","num_feature":"29","num_nodes":"31","size_leaf_vector":"1"}},{"base_weights":[4.717042E-3,-1.5165034E-1,1.1511353E0,-3.6599E-1,1.764499E-1,8.933832E-1,1.9025702E0,-6.545302E-1,-2.5248337E-1,7.007126E-1,1.039087E-1,1.1651511E0,4.6764296E-1,1.2867393E0,2.4462845E0,-5.207009E-2,-2.4221404E-2,-1.9313095E-2,1.0749971E-3,1.3338497E-1,3.0370472E-2,-5.89624E-3,1.298081E-2,-5.035022E-2,6.164835E-2,2.8705094E-3,5.3870328E-2,7.942639E-2,-2.2924623E-2,4.2959135E-2,1.4018546E-1],"categories":[],"categories_nodes":[],"categories_segments":[],"categories_sizes":[],"default_left":[0,0,0,0,0,0,0,0,0,0,0,0,0,0,0,0,0,0,0,0,0,0,0,0,0,0,0,0,0,0,0],"id":27,"left_children":[1,3,5,7,9,11,13,15,17,19,21,23,25,27,29,-1,-1,-1,-1,-1,-1,-1,-1,-1,-1,-1,-1,-1,-1,-1,-1],"loss_changes":[5.8994794E2,2.0372548E2,7.480548E1,5.721492E1,4.347227E1,3.370308E1,3.0335876E1,3.20045E1,4.615452E1,2.3889755E1,3.481354E1,2.7756805E1,2.9205109E1,2.6536179E1,2.7089111E1,0E0,0E0,0E0,0E0,0E0,0E0,0E0,0E0,0E0,0E0,0E0,0E0,0E0,0E0,0E0,0E0],"parents":[2147483647,0,0,1,1,2,2,3,3,4,4,5,5,6,6,7,7,8,8,9,9,10,10,11,11,12,12,13,13,14,14],"right_children":[2,4,6,8,10,12,14,16,18,20,22,24,26,28,30,-1,-1,-1,-1,-1,-1,-1,-1,-1,-1,-1,-1,-1,-1,-1,-1],"split_conditions":[2.9E0,8E-1,5.1E0,7.1E0,2.3E1,5.86E-1,1.3E1,1.5E0,1.47E1,-1.5E0,8E-1,5.1E-1,4.1E0,4.36E-1,2.4E0,-5.207009E-2,-2.4221404E-2,-1.9313095E-2,1.0749971E-3,1.3338497E-1,3.0370472E-2,-5.89624E-3,1.298081E-2,-5.035022E-2,6.164835E-2,2.8705094E-3,5.3870328E-2,7.942639E-2,-2.2924623E-2,4.2959135E-2,1.4018546E-1],"split_indices":[22,23,20,11,0,5,14,18,9,21,22,5,22,6,17,0,0,0,0,0,0,0,0,0,0,0,0,0,0,0,0],"split_type":[0,0,0,0,0,0,0,0,0,0,0,0,0,0,0,0,0,0,0,0,0,0,0,0,0,0,0,0,0,0,0],"sum_hessian":[3.289E3,2.895E3,3.94E2,1.751E3,1.144E3,2.95E2,9.9E1,4.93E2,1.258E3,1.38E2,1.006E3,1.79E2,1.16E2,4.8E1,5.1E1,1.49E2,3.44E2,8.45E2,4.13E2,5E0,1.33E2,4.15E2,5.91E2,5E0,1.74E2,7E1,4.6E1,4.1E1,7E0,1E1,4.1E1],"tree_param":{"num_deleted":"0","num_feature":"29","num_nodes":"31","size_leaf_vector":"1"}},{"base_weights":[1.5316958E-2,-1.7544284E-1,9.180643E-1,-3.8748807E-1,8.6043596E-2,6.915485E-1,1.8525889E0,-5.0928164E-1,-2.0032957E-1,5.2816427E-1,1.1990671E-2,1.0510992E0,4.6041542E-1,-1.6291746E0,1.931421E0,-7.4892156E-2,-2.409023E-2,-1.591324E-2,2.2558182E-2,-3.7944708E-2,3.227625E-2,-9.427536E-3,7.683251E-3,1.1720481E-1,4.765346E-2,3.6646497E-2,-1.895347E-3,-9.9807866E-2,-2.2380233E-2,8.607266E-2,1.6747668E-1],"categories":[],"categories_nodes":[],"categories_segments":[],"categories_sizes":[],"default_left":[0,0,0,0,0,0,0,0,0,0,0,0,0,0,0,0,0,0,0,0,0,0,0,0,0,0,0,0,0,0,0],"id":28,"left_children":[1,3,5,7,9,11,13,15,17,19,21,23,25,27,29,-1,-1,-1,-1,-1,-1,-1,-1,-1,-1,-1,-1,-1,-1,-1,-1],"loss_changes":[5.6465857E2,1.5012823E2,1.1980243E2,3.397606E1,3.970769E1,3.7910126E1,3.361328E1,2.3860641E1,4.5552486E1,2.6772594E1,2.957701E1,2.0581345E1,3.8459194E1,4.073577E-1,2.6689545E1,0E0,0E0,0E0,0E0,0E0,0E0,0E0,0E0,0E0,0E0,0E0,0E0,0E0,0E0,0E0,0E0],"parents":[2147483647,0,0,1,1,2,2,3,3,4,4,5,5,6,6,7,7,8,8,9,9,10,10,11,11,12,12,13,13,14,14],"right_children":[2,4,6,8,10,12,14,16,18,20,22,24,26,28,30,-1,-1,-1,-1,-1,-1,-1,-1,-1,-1,-1,-1,-1,-1,-1,-1],"split_conditions":[2.1E0,6E-1,5.4E0,1.12E1,2.3E1,2.6E1,-1E0,6E-1,1.61E1,8.3E0,4E-1,2.1E1,5.84E-1,2.8E1,2.7E0,-7.4892156E-2,-2.409023E-2,-1.591324E-2,2.2558182E-2,-3.7944708E-2,3.227625E-2,-9.427536E-3,7.683251E-3,1.1720481E-1,4.765346E-2,3.6646497E-2,-1.895347E-3,-9.9807866E-2,-2.2380233E-2,8.607266E-2,1.6747668E-1],"split_indices":[22,23,22,11,0,0,21,12,9,14,22,0,5,0,21,0,0,0,0,0,0,0,0,0,0,0,0,0,0,0,0],"split_type":[0,0,0,0,0,0,0,0,0,0,0,0,0,0,0,0,0,0,0,0,0,0,0,0,0,0,0,0,0,0,0],"sum_hessian":[3.277E3,2.706E3,5.71E2,1.494E3,1.212E3,4.61E2,1.1E2,9.04E2,5.9E2,1.73E2,1.039E3,1.79E2,2.82E2,2E0,1.08E2,2.3E1,8.81E2,5E2,9E1,1.4E1,1.59E2,4.3E2,6.09E2,1.1E1,1.68E2,1.82E2,1E2,1E0,1E0,9.6E1,1.2E1],"tree_param":{"num_deleted":"0","num_feature":"29","num_nodes":"31","size_leaf_vector":"1"}},{"base_weights":[-1.2193544E-2,-2.7118117E-1,5.3650814E-1,-4.745418E-1,-1.3146341E-1,3.8364682E-1,1.5155635E0,-3.4756294E-1,-6.782418E-1,-1.9982502E-2,-5.172627E-1,4.064786E-2,5.3844976E-1,1.320819E0,3.0763454E0,-3.7933357E-2,-1.2005032E-2,-5.3527296E-2,-2.1677209E-2,-1.3965398E-2,4.9260594E-3,-5.2752E-2,-1.0442816E-2,-2.8997173E-3,3.6226705E-2,4.9933754E-2,2.0532904E-2,2.978361E-2,7.781648E-2,7.266925E-2,1.998416E-1],"categories":[],"categories_nodes":[],"categories_segments":[],"categories_sizes":[],"default_left":[0,0,0,0,0,0,0,0,0,0,0,0,0,0,0,0,0,0,0,0,0,0,0,0,0,0,0,0,0,0,0],"id":29,"left_children":[1,3,5,7,9,11,13,15,17,19,21,23,25,27,29,-1,-1,-1,-1,-1,-1,-1,-1,-1,-1,-1,-1,-1,-1,-1,-1],"loss_changes":[4.6710892E2,6.338405E1,1.5715985E2,2.3276093E1,5.6976936E1,4.8455902E1,3.9098145E1,2.4645996E1,3.2942444E1,3.1649742E1,4.9038277E1,1.9268131E1,3.658322E1,2.0932755E1,1.6599762E1,0E0,0E0,0E0,0E0,0E0,0E0,0E0,0E0,0E0,0E0,0E0,0E0,0E0,0E0,0E0,0E0],"parents":[2147483647,0,0,1,1,2,2,3,3,4,4,5,5,6,6,7,7,8,8,9,9,10,10,11,11,12,12,13,13,14,14],"right_children":[2,4,6,8,10,12,14,16,18,20,22,24,26,28,30,-1,-1,-1,-1,-1,-1,-1,-1,-1,-1,-1,-1,-1,-1,-1,-1],"split_conditions":[1.3E0,-1.5E0,2.35E1,5.28E-1,3E1,1.63E1,2.78E-1,-3.8E0,-2.4E0,1.03E1,2.3E0,3.21E-1,2.4E1,8.5E-2,1.3E1,-3.7933357E-2,-1.2005032E-2,-5.3527296E-2,-2.1677209E-2,-1.3965398E-2,4.9260594E-3,-5.2752E-2,-1.0442816E-2,-2.8997173E-3,3.6226705E-2,4.9933754E-2,2.0532904E-2,2.978361E-2,7.781648E-2,7.266925E-2,1.998416E-1],"split_indices":[23,22,4,5,0,4,19,22,22,14,8,7,0,6,14,0,0,0,0,0,0,0,0,0,0,0,0,0,0,0,0],"split_type":[0,0,0,0,0,0,0,0,0,0,0,0,0,0,0,0,0,0,0,0,0,0,0,0,0,0,0,0,0,0,0],"sum_hessian":[3.285E3,2.232E3,1.053E3,9.08E2,1.324E3,9.12E2,1.41E2,5.61E2,3.47E2,1.028E3,2.96E2,2.84E2,6.28E2,1.27E2,1.4E1,1.15E2,4.46E2,1.32E2,2.15E2,3.22E2,7.06E2,1.07E2,1.89E2,2.49E2,3.5E1,1.35E2,4.93E2,3.2E1,9.5E1,6E0,8E0],"tree_param":{"num_deleted":"0","num_feature":"29","num_nodes":"31","size_leaf_vector":"1"}},{"base_weights":[5.53046E-3,-1.7978549E-1,6.7882854E-1,-4.3616623E-1,-3.04738E-2,5.249903E-1,1.7310605E0,-7.4487144E-1,-2.9830006E-1,-6.241335E-2,7.150783E-1,2.6472616E-1,7.147235E-1,9.942168E-1,2.2038782E0,-5.153642E-2,-2.2398163E-2,-2.4237333E-2,-2.354744E-3,-1.7326167E-2,3.0916787E-4,1.4650424E-2,5.705295E-2,-2.6587669E-2,1.828538E-2,1.7336454E-2,4.6535406E-2,6.710275E-2,-7.501793E-2,1.3147809E-1,7.04865E-2],"categories":[],"categories_nodes":[],"categories_segments":[],"categories_sizes":[],"default_left":[0,0,0,0,0,0,0,0,0,0,0,0,0,0,0,0,0,0,0,0,0,0,0,0,0,0,0,0,0,0,0],"id":30,"left_children":[1,3,5,7,9,11,13,15,17,19,21,23,25,27,29,-1,-1,-1,-1,-1,-1,-1,-1,-1,-1,-1,-1,-1,-1,-1,-1],"loss_changes":[4.0987616E2,9.859765E1,1.1385953E2,4.012468E1,3.883535E1,3.042688E1,2.9164215E1,2.4321259E1,3.0748646E1,3.0463467E1,1.1711838E1,2.1347464E1,2.813153E1,3.4118782E1,1.4548035E1,0E0,0E0,0E0,0E0,0E0,0E0,0E0,0E0,0E0,0E0,0E0,0E0,0E0,0E0,0E0,0E0],"parents":[2147483647,0,0,1,1,2,2,3,3,4,4,5,5,6,6,7,7,8,8,9,9,10,10,11,11,12,12,13,13,14,14],"right_children":[2,4,6,8,10,12,14,16,18,20,22,24,26,28,30,-1,-1,-1,-1,-1,-1,-1,-1,-1,-1,-1,-1,-1,-1,-1,-1],"split_conditions":[1.8E0,1.24E1,5.3E0,7.1E0,2E1,2.79E-1,1.1E0,-1E-1,2.7E0,5E0,2.1E-2,5E-1,2E-1,2.34E-1,2.8E1,-5.153642E-2,-2.2398163E-2,-2.4237333E-2,-2.354744E-3,-1.7326167E-2,3.0916787E-4,1.4650424E-2,5.705295E-2,-2.6587669E-2,1.828538E-2,1.7336454E-2,4.6535406E-2,6.710275E-2,-7.501793E-2,1.3147809E-1,7.04865E-2],"split_indices":[23,4,20,11,4,7,21,21,8,2,6,13,21,19,0,0,0,0,0,0,0,0,0,0,0,0,0,0,0,0,0],"split_type":[0,0,0,0,0,0,0,0,0,0,0,0,0,0,0,0,0,0,0,0,0,0,0,0,0,0,0,0,0,0,0],"sum_hessian":[3.283E3,2.575E3,7.08E2,9.47E2,1.628E3,6.19E2,8.9E1,2.91E2,6.56E2,1.562E3,6.6E1,2.62E2,3.57E2,3.6E1,5.3E1,1.47E2,1.44E2,3.76E2,2.8E2,3.03E2,1.259E3,3.4E1,3.2E1,2.9E1,2.33E2,1.33E2,2.24E2,3.2E1,4E0,3.3E1,2E1],"tree_param":{"num_deleted":"0","num_feature":"29","num_nodes":"31","size_leaf_vector":"1"}},{"base_weights":[4.3938896E-3,-1.5514654E-1,7.5461274E-1,-3.0454987E-1,1.14401445E-1,5.906099E-1,1.5617751E0,-4.9077448E-1,-1.6908056E-1,6.184358E-1,4.183773E-2,9.2824084E-1,3.6965266E-1,7.033809E-1,1.8828218E0,-3.1524245E-2,-1.3373834E-2,-1.848369E-2,3.1022462E-3,2.0815663E-2,7.351705E-2,4.5406665E-3,-2.4805179E-2,5.1769424E-2,7.1997503E-3,2.8438529E-2,-9.814927E-3,6.213174E-2,-1.214891E-2,5.7076093E-2,1.2565647E-1],"categories":[],"categories_nodes":[],"categories_segments":[],"categories_sizes":[],"default_left":[0,0,0,0,0,0,0,0,0,0,0,0,0,0,0,0,0,0,0,0,0,0,0,0,0,0,0,0,0,0,0],"id":31,"left_children":[1,3,5,7,9,11,13,15,17,19,21,23,25,27,29,-1,-1,-1,-1,-1,-1,-1,-1,-1,-1,-1,-1,-1,-1,-1,-1],"loss_changes":[3.9449643E2,1.0949239E2,7.559146E1,4.4040314E1,3.5451492E1,3.561502E1,2.5407394E1,2.2792389E1,4.703422E1,2.0394966E1,2.2412806E1,1.5816635E1,3.3130123E1,1.4591109E1,2.9838486E1,0E0,0E0,0E0,0E0,0E0,0E0,0E0,0E0,0E0,0E0,0E0,0E0,0E0,0E0,0E0,0E0],"parents":[2147483647,0,0,1,1,2,2,3,3,4,4,5,5,6,6,7,7,8,8,9,9,10,10,11,11,12,12,13,13,14,14],"right_children":[2,4,6,8,10,12,14,16,18,20,22,24,26,28,30,-1,-1,-1,-1,-1,-1,-1,-1,-1,-1,-1,-1,-1,-1,-1,-1],"split_conditions":[2.1E0,8E-1,5.3E0,8.6E0,2.3E1,2.6E1,2.6E0,1E-1,2.25E-1,1.51E1,3.3E1,6.39E-1,5.94E-1,4.32E-1,1.32E1,-3.1524245E-2,-1.3373834E-2,-1.848369E-2,3.1022462E-3,2.0815663E-2,7.351705E-2,4.5406665E-3,-2.4805179E-2,5.1769424E-2,7.1997503E-3,2.8438529E-2,-9.814927E-3,6.213174E-2,-1.214891E-2,5.7076093E-2,1.2565647E-1],"split_indices":[22,23,20,11,0,0,17,21,7,14,0,5,5,6,14,0,0,0,0,0,0,0,0,0,0,0,0,0,0,0,0],"split_type":[0,0,0,0,0,0,0,0,0,0,0,0,0,0,0,0,0,0,0,0,0,0,0,0,0,0,0,0,0,0,0],"sum_hessian":[3.294E3,2.717E3,5.77E2,1.748E3,9.69E2,4.81E2,9.6E1,7.35E2,1.013E3,1.21E2,8.48E2,1.89E2,2.92E2,2.7E1,6.9E1,4.51E2,2.84E2,5.42E2,4.71E2,9.9E1,2.2E1,7.78E2,7E1,1.66E2,2.3E1,2.16E2,7.6E1,1.7E1,1E1,3.3E1,3.6E1],"tree_param":{"num_deleted":"0","num_feature":"29","num_nodes":"31","size_leaf_vector":"1"}},{"base_weights":[1.6533226E-2,-1.4707288E-1,7.2850066E-1,-3.6578944E-1,-2.5355202E-4,5.802487E-1,1.5276347E0,-1.2137752E0,-3.3247048E-1,-4.12085E-2,6.313841E-1,2.0744382E-1,7.655096E-1,-9.707891E-2,1.5851963E0,-1.6043982E-2,-8.9783445E-2,-1.8004516E-2,2.9963685E-2,1.1169636E-1,-2.5168168E-3,-4.9704008E-2,3.559928E-2,-9.972172E-2,1.4242376E-2,1.9826997E-2,5.4689087E-2,8.267894E-2,-1.8340027E-2],"categories":[],"categories_nodes":[],"categories_segments":[],"categories_sizes":[],"default_left":[0,0,0,0,0,0,0,0,0,0,0,0,0,0,0,0,0,0,0,0,0,0,0,0,0,0,0,0,0],"id":32,"left_children":[1,3,5,7,9,11,13,15,17,19,21,23,25,-1,27,-1,-1,-1,-1,-1,-1,-1,-1,-1,-1,-1,-1,-1,-1],"loss_changes":[3.8088748E2,8.538523E1,7.150067E1,2.9771744E1,4.1208965E1,3.554843E1,2.204866E1,2.0206615E1,2.669674E1,3.117998E1,1.3416203E1,3.005312E1,4.1353516E1,0E0,1.3153839E1,0E0,0E0,0E0,0E0,0E0,0E0,0E0,0E0,0E0,0E0,0E0,0E0,0E0,0E0],"parents":[2147483647,0,0,1,1,2,2,3,3,4,4,5,5,6,6,7,7,8,8,9,9,10,10,11,11,12,12,14,14],"right_children":[2,4,6,8,10,12,14,16,18,20,22,24,26,-1,28,-1,-1,-1,-1,-1,-1,-1,-1,-1,-1,-1,-1,-1,-1],"split_conditions":[2E0,3E-1,5.3E0,7.1E0,1.98E1,2.09E1,7.1E0,6.1E0,1.34E-1,-2.5E0,0E0,1.3E0,2E-1,-9.707891E-2,5.7E0,-1.6043982E-2,-8.9783445E-2,-1.8004516E-2,2.9963685E-2,1.1169636E-1,-2.5168168E-3,-4.9704008E-2,3.559928E-2,-9.972172E-2,1.4242376E-2,1.9826997E-2,5.4689087E-2,8.267894E-2,-1.8340027E-2],"split_indices":[23,23,20,4,4,15,9,4,19,21,20,17,21,0,13,0,0,0,0,0,0,0,0,0,0,0,0,0,0],"split_type":[0,0,0,0,0,0,0,0,0,0,0,0,0,0,0,0,0,0,0,0,0,0,0,0,0,0,0,0,0],"sum_hessian":[3.268E3,2.658E3,6.1E2,1.067E3,1.591E3,5.16E2,9.4E1,3.9E1,1.028E3,1.495E3,9.6E1,1.72E2,3.44E2,1E0,9.3E1,1.6E1,2.3E1,9.99E2,2.9E1,5E0,1.49E3,4E0,9.2E1,5E0,1.67E2,1.63E2,1.81E2,9E1,3E0],"tree_param":{"num_deleted":"0","num_feature":"29","num_nodes":"29","size_leaf_vector":"1"}},{"base_weights":[9.2485575E-3,-1.2522341E-1,7.351181E-1,-3.9527223E-1,1.3395342E-2,6.425754E-1,1.9859157E0,-7.9580843E-1,-3.256203E-1,-2.5381215E-2,6.111964E-1,1.2418288E0,5.071011E-1,2.2162259E0,-3.5304546E-1,-4.8047896E-2,1.8387465E-2,-1.7071446E-2,7.626713E-2,-6.8967275E-2,-5.956892E-4,3.4435995E-2,-4.3658596E-2,1.4941362E-2,7.4002296E-2,1.5068717E-2,4.7114342E-2,1.352125E-1,4.3607425E-2,3.5728443E-2,-4.7355328E-2],"categories":[],"categories_nodes":[],"categories_segments":[],"categories_sizes":[],"default_left":[0,0,0,0,0,0,0,0,0,0,0,0,0,0,0,0,0,0,0,0,0,0,0,0,0,0,0,0,0,0,0],"id":33,"left_children":[1,3,5,7,9,11,13,15,17,19,21,23,25,27,29,-1,-1,-1,-1,-1,-1,-1,-1,-1,-1,-1,-1,-1,-1,-1,-1],"loss_changes":[3.216164E2,1.04071335E2,5.8336273E1,2.6048798E1,4.262158E1,3.8419495E1,1.963646E1,2.7063759E1,2.4076096E1,3.147441E1,1.34895935E1,1.9325958E1,3.4990585E1,1.8631638E1,3.2136853E0,0E0,0E0,0E0,0E0,0E0,0E0,0E0,0E0,0E0,0E0,0E0,0E0,0E0,0E0,0E0,0E0],"parents":[2147483647,0,0,1,1,2,2,3,3,4,4,5,5,6,6,7,7,8,8,9,9,10,10,11,11,12,12,13,13,14,14],"right_children":[2,4,6,8,10,12,14,16,18,20,22,24,26,28,30,-1,-1,-1,-1,-1,-1,-1,-1,-1,-1,-1,-1,-1,-1,-1,-1],"split_conditions":[2.2E0,2E-1,2.7E1,5.2E0,2E1,2.4E1,5.7E0,1.48E1,6.6E0,6E-1,1.74E1,6E0,2.1E0,2.8E1,5.7E1,-4.8047896E-2,1.8387465E-2,-1.7071446E-2,7.626713E-2,-6.8967275E-2,-5.956892E-4,3.4435995E-2,-4.3658596E-2,1.4941362E-2,7.4002296E-2,1.5068717E-2,4.7114342E-2,1.352125E-1,4.3607425E-2,3.5728443E-2,-4.7355328E-2],"split_indices":[23,23,4,11,4,0,13,4,13,12,14,18,12,0,1,0,0,0,0,0,0,0,0,0,0,0,0,0,0,0,0],"split_type":[0,0,0,0,0,0,0,0,0,0,0,0,0,0,0,0,0,0,0,0,0,0,0,0,0,0,0,0,0,0,0],"sum_hessian":[3.293E3,2.779E3,5.14E2,9.42E2,1.837E3,4.8E2,3.4E1,1.38E2,8.04E2,1.726E3,1.11E2,8.7E1,3.93E2,3.1E1,3E0,1.21E2,1.7E1,7.98E2,6E0,1.6E1,1.71E3,1.06E2,5E0,1.8E1,6.9E1,2.68E2,1.25E2,2.2E1,9E0,1E0,2E0],"tree_param":{"num_deleted":"0","num_feature":"29","num_nodes":"31","size_leaf_vector":"1"}},{"base_weights":[3.135962E-3,-1.4112192E-1,6.760849E-1,-2.9116786E-1,9.072031E-2,5.078699E-1,1.4767559E0,-4.3125105E-1,-1.395303E-1,8.4384E-3,4.225377E-1,9.315891E-1,3.7788504E-1,1.9995526E0,1.0302807E0,-1.476686E-2,-3.8532965E-2,-1.3901025E-2,3.323314E-3,-5.1563527E-3,1.2019982E-2,1.23956315E-2,3.8915906E-2,5.6544285E-2,1.3114477E-2,1.4843158E-2,6.5878E-2,1.0782149E-1,-4.577682E-2,-9.5028654E-2,5.5906244E-2],"categories":[],"categories_nodes":[],"categories_segments":[],"categories_sizes":[],"default_left":[0,0,0,0,0,0,0,0,0,0,0,0,0,0,0,0,0,0,0,0,0,0,0,0,0,0,0,0,0,0,0],"id":34,"left_children":[1,3,5,7,9,11,13,15,17,19,21,23,25,27,29,-1,-1,-1,-1,-1,-1,-1,-1,-1,-1,-1,-1,-1,-1,-1,-1],"loss_changes":[3.184148E2,9.398606E1,7.7232544E1,3.477652E1,2.8991766E1,2.6084984E1,2.1281479E1,3.907538E1,2.2527473E1,2.2073582E1,1.2916088E1,1.4642952E1,2.7702385E1,2.2553253E1,1.6542744E1,0E0,0E0,0E0,0E0,0E0,0E0,0E0,0E0,0E0,0E0,0E0,0E0,0E0,0E0,0E0,0E0],"parents":[2147483647,0,0,1,1,2,2,3,3,4,4,5,5,6,6,7,7,8,8,9,9,10,10,11,11,12,12,13,13,14,14],"right_children":[2,4,6,8,10,12,14,16,18,20,22,24,26,28,30,-1,-1,-1,-1,-1,-1,-1,-1,-1,-1,-1,-1,-1,-1,-1,-1],"split_conditions":[1.88E1,-2E-1,5.3E0,1.24E1,1.4E0,2.4E1,2.7E1,5.41E-1,1.717E3,2.18E1,1.8E0,1.26E1,3.15E1,5.7E0,7.1E0,-1.476686E-2,-3.8532965E-2,-1.3901025E-2,3.323314E-3,-5.1563527E-3,1.2019982E-2,1.23956315E-2,3.8915906E-2,5.6544285E-2,1.3114477E-2,1.4843158E-2,6.5878E-2,1.0782149E-1,-4.577682E-2,-9.5028654E-2,5.5906244E-2],"split_indices":[4,22,20,4,21,0,0,5,3,15,23,8,15,13,9,0,0,0,0,0,0,0,0,0,0,0,0,0,0,0,0],"split_type":[0,0,0,0,0,0,0,0,0,0,0,0,0,0,0,0,0,0,0,0,0,0,0,0,0,0,0,0,0,0,0],"sum_hessian":[3.278E3,2.7E3,5.78E2,1.639E3,1.061E3,4.79E2,9.9E1,8.51E2,7.88E2,8.51E2,2.1E2,1.11E2,3.68E2,4.4E1,5.5E1,6.09E2,2.42E2,4.71E2,3.17E2,5.75E2,2.76E2,1.42E2,6.8E1,8.5E1,2.6E1,3.4E2,2.8E1,4.2E1,2E0,1E0,5.4E1],"tree_param":{"num_deleted":"0","num_feature":"29","num_nodes":"31","size_leaf_vector":"1"}},{"base_weights":[-1.1018339E-2,-1.7068447E-1,5.142955E-1,-2.8412142E-1,5.4651707E-2,3.135063E-1,1.0507953E0,-5.3287166E-1,-2.094307E-1,2.3849505E-1,-1.229347E-1,9.284602E-2,5.0517124E-1,5.851827E-1,1.3468193E0,-2.8568566E-2,5.759388E-2,-2.1627551E-2,-3.413935E-3,6.5304944E-3,3.812029E-2,-1.160344E-2,1.1621071E-2,2.1752207E-2,-2.8628062E-3,-7.855754E-3,3.5559755E-2,7.244665E-3,6.41183E-2,3.7697025E-2,8.154506E-2],"categories":[],"categories_nodes":[],"categories_segments":[],"categories_sizes":[],"default_left":[0,0,0,0,0,0,0,0,0,0,0,0,0,0,0,0,0,0,0,0,0,0,0,0,0,0,0,0,0,0,0],"id":35,"left_children":[1,3,5,7,9,11,13,15,17,19,21,23,25,27,29,-1,-1,-1,-1,-1,-1,-1,-1,-1,-1,-1,-1,-1,-1,-1,-1],"loss_changes":[2.7670697E2,6.4686005E1,8.250986E1,3.1157425E1,2.771489E1,2.3679382E1,2.8018845E1,2.5824707E1,4.0786533E1,2.347018E1,1.6807531E1,1.3482452E1,4.1045753E1,2.5292074E1,2.0160522E1,0E0,0E0,0E0,0E0,0E0,0E0,0E0,0E0,0E0,0E0,0E0,0E0,0E0,0E0,0E0,0E0],"parents":[2147483647,0,0,1,1,2,2,3,3,4,4,5,5,6,6,7,7,8,8,9,9,10,10,11,11,12,12,13,13,14,14],"right_children":[2,4,6,8,10,12,14,16,18,20,22,24,26,28,30,-1,-1,-1,-1,-1,-1,-1,-1,-1,-1,-1,-1,-1,-1,-1,-1],"split_conditions":[1.77E1,8E-1,4.1E0,6.6E0,2.7E1,1.19E1,5.9E0,6.43E-1,6.5E0,2E0,1.3E0,2.4E1,7E-1,2.96E1,8E-1,-2.8568566E-2,5.759388E-2,-2.1627551E-2,-3.413935E-3,6.5304944E-3,3.812029E-2,-1.160344E-2,1.1621071E-2,2.1752207E-2,-2.8628062E-3,-7.855754E-3,3.5559755E-2,7.244665E-3,6.41183E-2,3.7697025E-2,8.154506E-2],"split_indices":[4,23,22,11,0,11,16,5,10,23,21,0,13,15,21,0,0,0,0,0,0,0,0,0,0,0,0,0,0,0,0],"split_type":[0,0,0,0,0,0,0,0,0,0,0,0,0,0,0,0,0,0,0,0,0,0,0,0,0,0,0,0,0,0,0],"sum_hessian":[3.297E3,2.529E3,7.68E2,1.682E3,8.47E2,5.6E2,2.08E2,3.87E2,1.295E3,4.16E2,4.31E2,2.61E2,2.99E2,8.2E1,1.26E2,3.79E2,8E0,5.01E2,7.94E2,3.46E2,7E1,3.3E2,1.01E2,7.9E1,1.82E2,7.1E1,2.28E2,5.1E1,3.1E1,4.2E1,8.4E1],"tree_param":{"num_deleted":"0","num_feature":"29","num_nodes":"31","size_leaf_vector":"1"}},{"base_weights":[-6.940949E-3,-1.833691E-1,4.5548394E-1,-2.857711E-1,4.4192683E-2,2.879932E-1,1.0406854E0,-5.6476927E-1,-2.3167469E-1,2.8318658E-1,-8.512592E-2,6.461625E-2,4.8216566E-1,5.691034E-1,1.3542607E0,3.4460567E-2,-3.083239E-2,2.4023307E-2,-1.3458966E-2,2.440616E-2,-7.862939E-3,-9.211371E-4,-4.407303E-2,-4.1738427E-3,3.1192902E-2,1.0538403E-1,2.1377636E-2,4.8761185E-2,-2.0608409E-4,-7.856484E-2,7.085813E-2],"categories":[],"categories_nodes":[],"categories_segments":[],"categories_sizes":[],"default_left":[0,0,0,0,0,0,0,0,0,0,0,0,0,0,0,0,0,0,0,0,0,0,0,0,0,0,0,0,0,0,0],"id":36,"left_children":[1,3,5,7,9,11,13,15,17,19,21,23,25,27,29,-1,-1,-1,-1,-1,-1,-1,-1,-1,-1,-1,-1,-1,-1,-1,-1],"loss_changes":[2.6735522E2,5.5286835E1,8.840459E1,2.4560974E1,2.2802094E1,3.0547264E1,2.8952484E1,1.7664482E1,3.67735E1,2.3454971E1,2.5427307E1,2.7299809E1,3.2566727E1,1.9093483E1,2.4309494E1,0E0,0E0,0E0,0E0,0E0,0E0,0E0,0E0,0E0,0E0,0E0,0E0,0E0,0E0,0E0,0E0],"parents":[2147483647,0,0,1,1,2,2,3,3,4,4,5,5,6,6,7,7,8,8,9,9,10,10,11,11,12,12,13,13,14,14],"right_children":[2,4,6,8,10,12,14,16,18,20,22,24,26,28,30,-1,-1,-1,-1,-1,-1,-1,-1,-1,-1,-1,-1,-1,-1,-1,-1],"split_conditions":[1.7E1,8E-1,4.1E0,-3E-1,6.9E1,1.2E1,6.1E0,4.14E-1,4.69E-1,5.73E-1,3.3E1,2.62E1,5E-1,6.8E1,7.6E0,3.4460567E-2,-3.083239E-2,2.4023307E-2,-1.3458966E-2,2.440616E-2,-7.862939E-3,-9.211371E-4,-4.407303E-2,-4.1738427E-3,3.1192902E-2,1.0538403E-1,2.1377636E-2,4.8761185E-2,-2.0608409E-4,-7.856484E-2,7.085813E-2],"split_indices":[4,23,22,23,1,11,16,5,5,5,0,9,17,1,9,0,0,0,0,0,0,0,0,0,0,0,0,0,0,0,0],"split_type":[0,0,0,0,0,0,0,0,0,0,0,0,0,0,0,0,0,0,0,0,0,0,0,0,0,0,0,0,0,0,0],"sum_hessian":[3.275E3,2.371E3,9.04E2,1.635E3,7.36E2,7.04E2,2E2,2.64E2,1.371E3,2.58E2,4.78E2,3.28E2,3.76E2,8.1E1,1.19E2,1E1,2.54E2,6.8E1,1.303E3,1.76E2,8.2E1,4.42E2,3.6E1,2.6E2,6.8E1,1.1E1,3.65E2,4.7E1,3.4E1,2E0,1.17E2],"tree_param":{"num_deleted":"0","num_feature":"29","num_nodes":"31","size_leaf_vector":"1"}},{"base_weights":[2.0369899E-2,-8.052809E-2,6.732741E-1,-2.0062028E-1,8.280034E-2,3.044342E-1,9.5053303E-1,-1.1432343E0,-1.7800888E-1,-2.894461E-1,1.5318318E-1,4.8181424E-1,-1.14793494E-1,1.0414141E-1,1.0930961E0,-7.239636E-3,-7.7232204E-2,-5.3487945E-2,-7.8351665E-3,-3.1390868E-4,-4.1282695E-2,1.46413315E-2,-3.0520363E-3,1.04174234E-1,2.0148588E-2,8.70773E-3,-4.0245786E-2,1.4567616E-2,-7.5659335E-2,2.828092E-2,6.343412E-2],"categories":[],"categories_nodes":[],"categories_segments":[],"categories_sizes":[],"default_left":[0,0,0,0,0,0,0,0,0,0,0,0,0,0,0,0,0,0,0,0,0,0,0,0,0,0,0,0,0,0,0],"id":37,"left_children":[1,3,5,7,9,11,13,15,17,19,21,23,25,27,29,-1,-1,-1,-1,-1,-1,-1,-1,-1,-1,-1,-1,-1,-1,-1,-1],"loss_changes":[2.1507584E2,5.5486336E1,4.440007E1,3.4538017E1,3.1457846E1,1.4109844E1,2.993155E1,1.50061455E1,3.0098145E1,2.8995655E1,3.0202076E1,1.5955616E1,1.1506521E1,1.1643785E1,1.9010025E1,0E0,0E0,0E0,0E0,0E0,0E0,0E0,0E0,0E0,0E0,0E0,0E0,0E0,0E0,0E0,0E0],"parents":[2147483647,0,0,1,1,2,2,3,3,4,4,5,5,6,6,7,7,8,8,9,9,10,10,11,11,12,12,13,13,14,14],"right_children":[2,4,6,8,10,12,14,16,18,20,22,24,26,28,30,-1,-1,-1,-1,-1,-1,-1,-1,-1,-1,-1,-1,-1,-1,-1,-1],"split_conditions":[1.98E1,-2E-1,9.5E-2,7.1E0,5E0,1.29E1,1.05E1,5.9E0,8.5E-2,1E0,5.71E-1,2.1E1,2.3E0,3.29E1,1.4E0,-7.239636E-3,-7.7232204E-2,-5.3487945E-2,-7.8351665E-3,-3.1390868E-4,-4.1282695E-2,1.46413315E-2,-3.0520363E-3,1.04174234E-1,2.0148588E-2,8.70773E-3,-4.0245786E-2,1.4567616E-2,-7.5659335E-2,2.828092E-2,6.343412E-2],"split_indices":[4,22,6,4,2,8,9,4,7,20,5,0,23,15,12,0,0,0,0,0,0,0,0,0,0,0,0,0,0,0,0],"split_type":[0,0,0,0,0,0,0,0,0,0,0,0,0,0,0,0,0,0,0,0,0,0,0,0,0,0,0,0,0,0,0],"sum_hessian":[3.263E3,2.827E3,4.36E2,1.629E3,1.198E3,1.88E2,2.48E2,3.7E1,1.592E3,1.9E2,1.008E3,1.32E2,5.6E1,3.6E1,2.12E2,1.1E1,2.6E1,3.6E1,1.556E3,1.25E2,6.5E1,6.1E2,3.98E2,5E0,1.27E2,4E1,1.6E1,3.3E1,3E0,5.4E1,1.58E2],"tree_param":{"num_deleted":"0","num_feature":"29","num_nodes":"31","size_leaf_vector":"1"}},{"base_weights":[-5.5883443E-3,-1.0390868E-1,7.1535844E-1,-2.992579E-1,1.2194487E-2,6.1126345E-1,1.674478E0,-3.221202E-1,8.6572635E-1,9.177692E-2,-2.5115594E-1,-1.2788668E-1,7.2100234E-1,9.650214E-1,2.4091508E0,-1.9677682E-2,-3.24939E-3,7.8536734E-2,4.1007833E-3,-4.2426526E-3,1.16572445E-2,1.5979593E-1,-1.3348631E-2,-5.3324956E-2,1.1219735E-2,3.9420277E-2,-1.2367336E-2,7.040488E-2,-6.114391E-3,4.7971644E-2,1.4464663E-1],"categories":[],"categories_nodes":[],"categories_segments":[],"categories_sizes":[],"default_left":[0,0,0,0,0,0,0,0,0,0,0,0,0,0,0,0,0,0,0,0,0,0,0,0,0,0,0,0,0,0,0],"id":38,"left_children":[1,3,5,7,9,11,13,15,17,19,21,23,25,27,29,-1,-1,-1,-1,-1,-1,-1,-1,-1,-1,-1,-1,-1,-1,-1,-1],"loss_changes":[2.3271472E2,6.552809E1,3.8313217E1,2.8963875E1,3.8020027E1,2.9049728E1,1.7481422E1,1.9389244E1,1.147415E1,3.4802742E1,2.3806635E1,1.5780133E1,2.0493927E1,1.0289171E1,9.848671E0,0E0,0E0,0E0,0E0,0E0,0E0,0E0,0E0,0E0,0E0,0E0,0E0,0E0,0E0,0E0,0E0],"parents":[2147483647,0,0,1,1,2,2,3,3,4,4,5,5,6,6,7,7,8,8,9,9,10,10,11,11,12,12,13,13,14,14],"right_children":[2,4,6,8,10,12,14,16,18,20,22,24,26,28,30,-1,-1,-1,-1,-1,-1,-1,-1,-1,-1,-1,-1,-1,-1,-1,-1],"split_conditions":[2.9E0,3E-1,2.7E1,5.4E0,3E1,1.05E1,1E1,1.717E3,8E0,1.04E1,-2.6E0,4.3E0,1.27E1,4.2E0,1.3E1,-1.9677682E-2,-3.24939E-3,7.8536734E-2,4.1007833E-3,-4.2426526E-3,1.16572445E-2,1.5979593E-1,-1.3348631E-2,-5.3324956E-2,1.1219735E-2,3.9420277E-2,-1.2367336E-2,7.040488E-2,-6.114391E-3,4.7971644E-2,1.4464663E-1],"split_indices":[22,23,4,13,0,9,16,3,2,11,21,16,8,17,14,0,0,0,0,0,0,0,0,0,0,0,0,0,0,0,0],"split_type":[0,0,0,0,0,0,0,0,0,0,0,0,0,0,0,0,0,0,0,0,0,0,0,0,0,0,0,0,0,0,0],"sum_hessian":[3.281E3,2.888E3,3.93E2,1.076E3,1.812E3,3.56E2,3.7E1,1.056E3,2E1,1.392E3,4.2E2,4.6E1,3.1E2,2E1,1.7E1,8.26E2,2.3E2,1E1,1E1,6.19E2,7.73E2,1E0,4.19E2,1.2E1,3.4E1,2.9E2,2E1,1.4E1,6E0,5E0,1.2E1],"tree_param":{"num_deleted":"0","num_feature":"29","num_nodes":"31","size_leaf_vector":"1"}},{"base_weights":[2.6857713E-3,-9.264479E-2,6.084484E-1,-2.929834E-1,4.6147974E-3,5.501161E-1,2.1308095E0,-9.817757E-1,-2.6137766E-1,8.328484E-2,-2.3835671E-1,6.509991E-1,-7.94832E-2,7.920686E-1,2.8548472E0,-1.0294993E-2,-7.452236E-2,2.0003974E-2,-1.621614E-2,2.604421E-3,4.6381265E-2,-4.1372433E-2,-5.950455E-3,-3.28189E-2,3.5220332E-2,1.14659555E-2,-3.7895776E-2,5.0182182E-2,-1.1934531E-2,3.9936114E-2,1.6345191E-1],"categories":[],"categories_nodes":[],"categories_segments":[],"categories_sizes":[],"default_left":[0,0,0,0,0,0,0,0,0,0,0,0,0,0,0,0,0,0,0,0,0,0,0,0,0,0,0,0,0,0,0],"id":39,"left_children":[1,3,5,7,9,11,13,15,17,19,21,23,25,27,29,-1,-1,-1,-1,-1,-1,-1,-1,-1,-1,-1,-1,-1,-1,-1,-1],"loss_changes":[1.881406E2,5.4851204E1,3.8167465E1,1.9771606E1,3.626109E1,2.7236542E1,1.3247543E1,1.5479752E1,3.6810627E1,3.769747E1,3.252384E1,2.622731E1,1.2743893E1,1.7661405E0,5.9052353E0,0E0,0E0,0E0,0E0,0E0,0E0,0E0,0E0,0E0,0E0,0E0,0E0,0E0,0E0,0E0,0E0],"parents":[2147483647,0,0,1,1,2,2,3,3,4,4,5,5,6,6,7,7,8,8,9,9,10,10,11,11,12,12,13,13,14,14],"right_children":[2,4,6,8,10,12,14,16,18,20,22,24,26,28,30,-1,-1,-1,-1,-1,-1,-1,-1,-1,-1,-1,-1,-1,-1,-1,-1],"split_conditions":[1.98E1,2E-1,2.78E-1,7.1E0,3E1,1.29E1,1.3E1,6.1E0,4.69E-1,2.9E0,5.7E0,1.1E0,2.3E0,6.52E-1,1.4E1,-1.0294993E-2,-7.452236E-2,2.0003974E-2,-1.621614E-2,2.604421E-3,4.6381265E-2,-4.1372433E-2,-5.950455E-3,-3.28189E-2,3.5220332E-2,1.14659555E-2,-3.7895776E-2,5.0182182E-2,-1.1934531E-2,3.9936114E-2,1.6345191E-1],"split_indices":[4,23,19,4,0,8,14,4,5,23,10,23,23,5,18,0,0,0,0,0,0,0,0,0,0,0,0,0,0,0,0],"split_type":[0,0,0,0,0,0,0,0,0,0,0,0,0,0,0,0,0,0,0,0,0,0,0,0,0,0,0,0,0,0,0],"sum_hessian":[3.256E3,2.814E3,4.42E2,9.19E2,1.895E3,4.27E2,1.5E1,3.9E1,8.8E2,1.432E3,4.63E2,3.68E2,5.9E1,6E0,9E0,1.6E1,2.3E1,7.6E1,8.04E2,1.382E3,5E1,7.7E1,3.86E2,1.4E1,3.54E2,4.1E1,1.8E1,5E0,1E0,2E0,7E0],"tree_param":{"num_deleted":"0","num_feature":"29","num_nodes":"31","size_leaf_vector":"1"}},{"base_weights":[7.3908367E-3,-7.522124E-2,6.6962516E-1,-2.0380685E-1,9.4249606E-2,-9.8603E-1,7.1904093E-1,-3.662797E-1,-8.861703E-2,4.1020986E-1,4.672669E-2,-2.7676898E-1,-2.1580443E0,9.5750225E-1,3.5882202E-1,-2.4217134E-2,-4.6123997E-3,-7.027077E-3,3.0858694E-2,-3.4467792E-4,3.2431018E-2,4.9024154E-2,1.3813545E-3,-4.1390087E-2,2.4060715E-2,-1.3922755E-1,-6.9631278E-3,3.5238616E-2,6.973647E-2,-3.8771536E-2,2.3432119E-2],"categories":[],"categories_nodes":[],"categories_segments":[],"categories_sizes":[],"default_left":[0,0,0,0,0,0,0,0,0,0,0,0,0,0,0,0,0,0,0,0,0,0,0,0,0,0,0,0,0,0,0],"id":40,"left_children":[1,3,5,7,9,11,13,15,17,19,21,23,25,27,29,-1,-1,-1,-1,-1,-1,-1,-1,-1,-1,-1,-1,-1,-1,-1,-1],"loss_changes":[1.800415E2,6.3781174E1,3.0571625E1,3.1109665E1,1.8945225E1,8.546626E0,3.0150314E1,2.2278893E1,3.5818382E1,1.6412373E1,1.9572887E1,3.7397392E0,4.671335E0,2.255362E1,1.817605E1,0E0,0E0,0E0,0E0,0E0,0E0,0E0,0E0,0E0,0E0,0E0,0E0,0E0,0E0,0E0,0E0],"parents":[2147483647,0,0,1,1,2,2,3,3,4,4,5,5,6,6,7,7,8,8,9,9,10,10,11,11,12,12,13,13,14,14],"right_children":[2,4,6,8,10,12,14,16,18,20,22,24,26,28,30,-1,-1,-1,-1,-1,-1,-1,-1,-1,-1,-1,-1,-1,-1,-1,-1],"split_conditions":[2.7E0,-2E-1,4.9E0,8.6E0,2.3E1,3.73E-1,2.8E1,1.6E0,2.6E0,1.09E1,3E1,1.7E0,2.8E1,2.73E1,1.24E1,-2.4217134E-2,-4.6123997E-3,-7.027077E-3,3.0858694E-2,-3.4467792E-4,3.2431018E-2,4.9024154E-2,1.3813545E-3,-4.1390087E-2,2.4060715E-2,-1.3922755E-1,-6.9631278E-3,3.5238616E-2,6.973647E-2,-3.8771536E-2,2.3432119E-2],"split_indices":[23,22,10,11,0,7,0,17,13,14,1,8,0,11,11,0,0,0,0,0,0,0,0,0,0,0,0,0,0,0,0],"split_type":[0,0,0,0,0,0,0,0,0,0,0,0,0,0,0,0,0,0,0,0,0,0,0,0,0,0,0,0,0,0,0],"sum_hessian":[3.289E3,2.925E3,3.64E2,1.663E3,1.262E3,1E1,3.54E2,6.89E2,9.74E2,1.64E2,1.098E3,7E0,3E0,2.12E2,1.42E2,4.81E2,2.08E2,9.08E2,6.6E1,6E1,1.04E2,2.1E1,1.077E3,4E0,3E0,2E0,1E0,1.36E2,7.6E1,1.2E1,1.3E2],"tree_param":{"num_deleted":"0","num_feature":"29","num_nodes":"31","size_leaf_vector":"1"}},{"base_weights":[-9.453934E-4,-1.0384937E-1,4.7184873E-1,-6.291299E-1,-6.905446E-2,3.174461E-1,1.0062528E0,8.071606E-1,-6.8803555E-1,-2.6436278E-1,-5.392235E-5,2.710345E-1,1.0692434E0,2.898055E-1,1.2470049E0,-4.9993624E-3,1.0250101E-1,-1.0655936E-1,-3.08985E-2,-7.826144E-2,-1.1362343E-2,-8.0470456E-4,5.235709E-2,7.296119E-2,1.2101496E-2,9.2275605E-2,7.550624E-3,5.3798404E-2,-6.648324E-3,8.280778E-2,3.974135E-2],"categories":[],"categories_nodes":[],"categories_segments":[],"categories_sizes":[],"default_left":[0,0,0,0,0,0,0,0,0,0,0,0,0,0,0,0,0,0,0,0,0,0,0,0,0,0,0,0,0,0,0],"id":41,"left_children":[1,3,5,7,9,11,13,15,17,19,21,23,25,27,29,-1,-1,-1,-1,-1,-1,-1,-1,-1,-1,-1,-1,-1,-1,-1,-1],"loss_changes":[1.5841252E2,4.8829475E1,4.7703354E1,1.4599884E1,3.381222E1,1.5516338E1,2.2061813E1,8.097177E0,1.4861427E1,3.1269558E1,3.117565E1,1.4396967E1,1.8253946E1,1.1443562E1,1.6629501E1,0E0,0E0,0E0,0E0,0E0,0E0,0E0,0E0,0E0,0E0,0E0,0E0,0E0,0E0,0E0,0E0],"parents":[2147483647,0,0,1,1,2,2,3,3,4,4,5,5,6,6,7,7,8,8,9,9,10,10,11,11,12,12,13,13,14,14],"right_children":[2,4,6,8,10,12,14,16,18,20,22,24,26,28,30,-1,-1,-1,-1,-1,-1,-1,-1,-1,-1,-1,-1,-1,-1,-1,-1],"split_conditions":[1.88E1,-3.6E0,2.96E1,3.5E1,1.01E1,1.2E1,1.17E1,1.8E-1,3.9E1,3E-1,3.1E0,3.2E1,4.8E0,3.1E1,2.7E1,-4.9993624E-3,1.0250101E-1,-1.0655936E-1,-3.08985E-2,-7.826144E-2,-1.1362343E-2,-8.0470456E-4,5.235709E-2,7.296119E-2,1.2101496E-2,9.2275605E-2,7.550624E-3,5.3798404E-2,-6.648324E-3,8.280778E-2,3.974135E-2],"split_indices":[4,22,15,1,14,18,9,7,1,17,23,1,8,15,0,0,0,0,0,0,0,0,0,0,0,0,0,0,0,0,0],"split_type":[0,0,0,0,0,0,0,0,0,0,0,0,0,0,0,0,0,0,0,0,0,0,0,0,0,0,0,0,0,0,0],"sum_hessian":[3.254E3,2.673E3,5.81E2,1.65E2,2.508E3,4.52E2,1.29E2,6E0,1.59E2,6.54E2,1.854E3,4.27E2,2.5E1,3.3E1,9.6E1,4E0,2E0,6E0,1.53E2,1.7E1,6.37E2,1.827E3,2.7E1,9E0,4.18E2,1.3E1,1.2E1,1.1E1,2.2E1,4.9E1,4.7E1],"tree_param":{"num_deleted":"0","num_feature":"29","num_nodes":"31","size_leaf_vector":"1"}},{"base_weights":[5.9342743E-3,-1.5019868E-1,3.146688E-1,-4.2142117E-1,-1.12301804E-1,2.2292896E-1,9.315519E-1,7.3716944E-1,-4.6918502E-1,3.66339E-1,-1.3301747E-1,-3.766676E-2,3.72631E-1,9.003644E-2,1.109076E0,6.3099645E-2,-1.1277664E-1,-3.1796817E-2,-4.165316E-3,4.661141E-2,-1.5825566E-2,-1.4859714E-2,-3.3347874E-3,1.09672956E-1,-3.4761694E-3,2.864546E-3,2.8494013E-2,5.4837592E-2,-1.3340788E-2,2.2781473E-2,6.840711E-2],"categories":[],"categories_nodes":[],"categories_segments":[],"categories_sizes":[],"default_left":[0,0,0,0,0,0,0,0,0,0,0,0,0,0,0,0,0,0,0,0,0,0,0,0,0,0,0,0,0,0,0],"id":42,"left_children":[1,3,5,7,9,11,13,15,17,19,21,23,25,27,29,-1,-1,-1,-1,-1,-1,-1,-1,-1,-1,-1,-1,-1,-1,-1,-1],"loss_changes":[1.5887825E2,2.2452278E1,6.2440514E1,1.5176659E1,1.9106049E1,3.7660343E1,2.126281E1,2.012351E1,1.654823E1,3.1208467E1,2.004766E1,2.5242373E1,3.809632E1,9.633093E0,1.9352371E1,0E0,0E0,0E0,0E0,0E0,0E0,0E0,0E0,0E0,0E0,0E0,0E0,0E0,0E0,0E0,0E0],"parents":[2147483647,0,0,1,1,2,2,3,3,4,4,5,5,6,6,7,7,8,8,9,9,10,10,11,11,12,12,13,13,14,14],"right_children":[2,4,6,8,10,12,14,16,18,20,22,24,26,28,30,-1,-1,-1,-1,-1,-1,-1,-1,-1,-1,-1,-1,-1,-1,-1,-1],"split_conditions":[1.62E1,-3E-1,2.35E1,4.14E-1,4.69E-1,1.727E3,5.74E-1,7.2E0,1.3E0,4E-1,1.192E3,-2.2E0,2.76E-1,7.7E0,2.4E0,6.3099645E-2,-1.1277664E-1,-3.1796817E-2,-4.165316E-3,4.661141E-2,-1.5825566E-2,-1.4859714E-2,-3.3347874E-3,1.09672956E-1,-3.4761694E-3,2.864546E-3,2.8494013E-2,5.4837592E-2,-1.3340788E-2,2.2781473E-2,6.840711E-2],"split_indices":[4,23,4,5,5,3,5,8,18,21,3,20,7,18,17,0,0,0,0,0,0,0,0,0,0,0,0,0,0,0,0],"split_type":[0,0,0,0,0,0,0,0,0,0,0,0,0,0,0,0,0,0,0,0,0,0,0,0,0,0,0,0,0,0,0],"sum_hessian":[3.294E3,2.188E3,1.106E3,2.67E2,1.921E3,9.64E2,1.42E2,1E1,2.57E2,7.9E1,1.842E3,3.52E2,6.12E2,2.5E1,1.17E2,9E0,1E0,1.79E2,7.8E1,4.3E1,3.6E1,5.29E2,1.313E3,4E0,3.48E2,2.36E2,3.76E2,6E0,1.9E1,3.4E1,8.3E1],"tree_param":{"num_deleted":"0","num_feature":"29","num_nodes":"31","size_leaf_vector":"1"}},{"base_weights":[3.12078E-2,-7.8368194E-2,4.200609E-1,-6.7753136E-1,-5.100174E-2,3.072584E-1,9.420158E-1,1.0157542E-1,-9.0258014E-1,-2.7582523E-1,1.1339355E-2,-1.6483982E-1,3.7141803E-1,4.170719E-1,1.3074151E0,-1.4137811E-2,5.9257753E-2,9.600921E-2,-4.7886536E-2,-6.8803444E-3,-3.391445E-2,-6.3807867E-3,7.3570474E-3,2.318879E-2,-2.253531E-2,7.7292994E-3,2.6365733E-2,3.7680984E-2,-4.1182343E-2,8.245736E-2,3.6992278E-2],"categories":[],"categories_nodes":[],"categories_segments":[],"categories_sizes":[],"default_left":[0,0,0,0,0,0,0,0,0,0,0,0,0,0,0,0,0,0,0,0,0,0,0,0,0,0,0,0,0,0,0],"id":43,"left_children":[1,3,5,7,9,11,13,15,17,19,21,23,25,27,29,-1,-1,-1,-1,-1,-1,-1,-1,-1,-1,-1,-1,-1,-1,-1,-1],"loss_changes":[1.401312E2,4.204007E1,4.227923E1,1.9729427E1,3.4411774E1,1.8113857E1,2.4006935E1,1.1162912E1,1.5382919E1,2.9556324E1,3.630641E1,1.314743E1,1.766526E1,2.3169014E1,1.3326645E1,0E0,0E0,0E0,0E0,0E0,0E0,0E0,0E0,0E0,0E0,0E0,0E0,0E0,0E0,0E0,0E0],"parents":[2147483647,0,0,1,1,2,2,3,3,4,4,5,5,6,6,7,7,8,8,9,9,10,10,11,11,12,12,13,13,14,14],"right_children":[2,4,6,8,10,12,14,16,18,20,22,24,26,28,30,-1,-1,-1,-1,-1,-1,-1,-1,-1,-1,-1,-1,-1,-1,-1,-1],"split_conditions":[1.8E0,-4E0,2.96E1,-4E-1,6E0,-5E-1,2E-1,-6E-1,2.7E1,3E1,9.4E0,2.5E1,2.1E1,5.91E-1,2.8E1,-1.4137811E-2,5.9257753E-2,9.600921E-2,-4.7886536E-2,-6.8803444E-3,-3.391445E-2,-6.3807867E-3,7.3570474E-3,2.318879E-2,-2.253531E-2,7.7292994E-3,2.6365733E-2,3.7680984E-2,-4.1182343E-2,8.245736E-2,3.6992278E-2],"split_indices":[23,22,15,18,10,21,21,18,1,0,11,0,15,5,0,0,0,0,0,0,0,0,0,0,0,0,0,0,0,0,0],"split_type":[0,0,0,0,0,0,0,0,0,0,0,0,0,0,0,0,0,0,0,0,0,0,0,0,0,0,0,0,0,0,0],"sum_hessian":[3.287E3,2.565E3,7.22E2,1.11E2,2.454E3,5.95E2,1.27E2,2.5E1,8.6E1,5.32E2,1.922E3,7.1E1,5.24E2,5.3E1,7.4E1,1.9E1,6E0,1E0,8.5E1,3.97E2,1.35E2,9.5E2,9.72E2,2.2E1,4.9E1,2.2E2,3.04E2,4.2E1,1.1E1,4.5E1,2.9E1],"tree_param":{"num_deleted":"0","num_feature":"29","num_nodes":"31","size_leaf_vector":"1"}},{"base_weights":[-9.420907E-3,-1.332958E-1,2.9915264E-1,-2.7985498E-1,-3.961007E-2,2.4324417E-1,1.1270239E0,-4.1012263E-1,-7.598313E-2,-1.18715696E-1,3.2907888E-1,8.011956E-1,1.7220648E-1,-8.679384E-2,1.2063131E0,-1.9362045E-2,-9.631265E-2,-1.7750112E-2,7.0473514E-3,-8.1157155E-2,-5.3500836E-3,-1.11336924E-1,1.8440729E-2,4.7499727E-2,-1.2812152E-2,6.1399564E-3,4.3124896E-2,2.1726952E-3,6.957508E-2],"categories":[],"categories_nodes":[],"categories_segments":[],"categories_sizes":[],"default_left":[0,0,0,0,0,0,0,0,0,0,0,0,0,0,0,0,0,0,0,0,0,0,0,0,0,0,0,0,0],"id":44,"left_children":[1,3,5,7,9,11,13,15,17,19,21,23,25,-1,27,-1,-1,-1,-1,-1,-1,-1,-1,-1,-1,-1,-1,-1,-1],"loss_changes":[1.2503404E2,3.2035915E1,4.309494E1,2.4136528E1,4.1599724E1,3.4701706E1,1.5486847E1,1.8507927E1,2.1597883E1,2.051562E1,2.6413668E1,1.5820656E1,2.6530455E1,0E0,1.242971E1,0E0,0E0,0E0,0E0,0E0,0E0,0E0,0E0,0E0,0E0,0E0,0E0,0E0,0E0],"parents":[2147483647,0,0,1,1,2,2,3,3,4,4,5,5,6,6,7,7,8,8,9,9,10,10,11,11,12,12,14,14],"right_children":[2,4,6,8,10,12,14,16,18,20,22,24,26,-1,28,-1,-1,-1,-1,-1,-1,-1,-1,-1,-1,-1,-1,-1,-1],"split_conditions":[1.1E0,8.6E0,1.19E1,1.6E0,1.75E1,2.3E1,7.1E0,2.48E1,2.1E-2,6.7E0,6E-1,8.1E1,3.15E1,-8.679384E-2,1.05E1,-1.9362045E-2,-9.631265E-2,-1.7750112E-2,7.0473514E-3,-8.1157155E-2,-5.3500836E-3,-1.11336924E-1,1.8440729E-2,4.7499727E-2,-1.2812152E-2,6.1399564E-3,4.3124896E-2,2.1726952E-3,6.957508E-2],"split_indices":[22,11,18,17,9,0,9,15,6,14,12,2,15,0,14,0,0,0,0,0,0,0,0,0,0,0,0,0,0],"split_type":[0,0,0,0,0,0,0,0,0,0,0,0,0,0,0,0,0,0,0,0,0,0,0,0,0,0,0,0,0],"sum_hessian":[3.269E3,2.333E3,9.36E2,9.09E2,1.424E3,8.78E2,5.8E1,5.54E2,3.55E2,1.173E3,2.51E2,9.8E1,7.8E2,1E0,5.7E1,5.47E2,7E0,1.55E2,2E2,8E0,1.165E3,3E0,2.48E2,8.6E1,1.2E1,7.29E2,5.1E1,8E0,4.9E1],"tree_param":{"num_deleted":"0","num_feature":"29","num_nodes":"29","size_leaf_vector":"1"}},{"base_weights":[-6.193226E-3,-1.5081468E-1,2.3722234E-1,-1.7127635E-1,4.6687064E-1,3.9646274E-1,-9.2810225E-3,-3.4926632E-1,-9.844408E-2,1.9850157E-1,2.3877335E0,3.0049887E-1,9.676004E-1,-1.5435928E-1,3.1942877E-1,-1.1654642E-2,-3.564127E-2,4.6816554E-2,-5.9661395E-3,4.46323E-3,5.7427537E-2,1.6847813E-1,-1.8591782E-2,1.9220503E-2,-4.7384338E-3,-8.4624E-2,5.045267E-2,-1.03328764E-1,-5.046533E-3,4.787485E-2,8.394214E-3],"categories":[],"categories_nodes":[],"categories_segments":[],"categories_sizes":[],"default_left":[0,0,0,0,0,0,0,0,0,0,0,0,0,0,0,0,0,0,0,0,0,0,0,0,0,0,0,0,0,0,0],"id":45,"left_children":[1,3,5,7,9,11,13,15,17,19,21,23,25,27,29,-1,-1,-1,-1,-1,-1,-1,-1,-1,-1,-1,-1,-1,-1,-1,-1],"loss_changes":[1.15044334E2,2.5989658E1,4.7814194E1,2.569799E1,3.354904E1,4.0267593E1,2.2892166E1,2.4161736E1,3.0574453E1,6.020525E0,2.2928326E1,2.1097717E1,1.3396225E1,3.3813057E1,1.4053519E1,0E0,0E0,0E0,0E0,0E0,0E0,0E0,0E0,0E0,0E0,0E0,0E0,0E0,0E0,0E0,0E0],"parents":[2147483647,0,0,1,1,2,2,3,3,4,4,5,5,6,6,7,7,8,8,9,9,10,10,11,11,12,12,13,13,14,14],"right_children":[2,4,6,8,10,12,14,16,18,20,22,24,26,28,30,-1,-1,-1,-1,-1,-1,-1,-1,-1,-1,-1,-1,-1,-1,-1,-1],"split_conditions":[1.1E0,3.1E1,2.8E1,6.5E0,2.72E1,4.3E0,1.2E0,3E1,2.9E1,9.4E0,1.5E0,8.1E1,7.1E0,1E0,1.4E0,-1.1654642E-2,-3.564127E-2,4.6816554E-2,-5.9661395E-3,4.46323E-3,5.7427537E-2,1.6847813E-1,-1.8591782E-2,1.9220503E-2,-4.7384338E-3,-8.4624E-2,5.045267E-2,-1.03328764E-1,-5.046533E-3,4.787485E-2,8.394214E-3],"split_indices":[23,11,0,10,15,22,21,0,1,10,12,1,9,16,12,0,0,0,0,0,0,0,0,0,0,0,0,0,0,0,0],"split_type":[0,0,0,0,0,0,0,0,0,0,0,0,0,0,0,0,0,0,0,0,0,0,0,0,0,0,0,0,0,0,0],"sum_hessian":[3.266E3,2.049E3,1.217E3,1.984E3,6.5E1,7.39E2,4.78E2,5.75E2,1.409E3,5.8E1,7E0,6.34E2,1.05E2,3.32E2,1.46E2,4.37E2,1.38E2,2.7E1,1.382E3,5.3E1,5E0,5E0,2E0,5.23E2,1.11E2,1E0,1.04E2,8E0,3.24E2,2.7E1,1.19E2],"tree_param":{"num_deleted":"0","num_feature":"29","num_nodes":"31","size_leaf_vector":"1"}},{"base_weights":[-1.2321134E-2,-6.912993E-2,5.7030076E-1,-2.1838033E-1,3.8734652E-2,1.3566412E-1,8.692705E-1,-2.705115E-1,2.024631E-1,2.1017991E-1,-6.168509E-2,2.994911E-1,-6.587259E-1,-8.4933646E-2,9.090063E-1,-1.00785345E-2,-2.7284265E-2,-1.353336E-2,2.6532248E-2,-3.1690978E-2,1.3490963E-2,5.606551E-2,-4.004789E-3,4.6981823E-2,8.396931E-3,1.0383367E-2,-4.7122654E-2,7.128828E-2,3.601158E-2],"categories":[],"categories_nodes":[],"categories_segments":[],"categories_sizes":[],"default_left":[0,0,0,0,0,0,0,0,0,0,0,0,0,0,0,0,0,0,0,0,0,0,0,0,0,0,0,0,0],"id":46,"left_children":[1,3,5,7,9,11,13,15,17,19,21,23,25,-1,27,-1,-1,-1,-1,-1,-1,-1,-1,-1,-1,-1,-1,-1,-1],"loss_changes":[1.0952776E2,4.854644E1,3.8085373E1,2.780769E1,3.015904E1,1.594453E1,1.929895E1,2.1251007E1,2.1881817E1,3.273813E1,2.4156437E1,8.347682E0,5.3579206E0,0E0,1.5751892E1,0E0,0E0,0E0,0E0,0E0,0E0,0E0,0E0,0E0,0E0,0E0,0E0,0E0,0E0],"parents":[2147483647,0,0,1,1,2,2,3,3,4,4,5,5,6,6,7,7,8,8,9,9,10,10,11,11,12,12,14,14],"right_children":[2,4,6,8,10,12,14,16,18,20,22,24,26,-1,28,-1,-1,-1,-1,-1,-1,-1,-1,-1,-1,-1,-1,-1,-1],"split_conditions":[2.13E1,1.33E1,9.5E-2,1E-1,2.5E1,2.1E0,7.5E0,3E1,1.1E1,4.2E1,3E1,3.1E0,3.41E-1,-8.4933646E-2,2.05E-1,-1.00785345E-2,-2.7284265E-2,-1.353336E-2,2.6532248E-2,-3.1690978E-2,1.3490963E-2,5.606551E-2,-4.004789E-3,4.6981823E-2,8.396931E-3,1.0383367E-2,-4.7122654E-2,7.128828E-2,3.601158E-2],"split_indices":[4,4,6,22,0,12,9,0,14,1,1,16,7,0,6,0,0,0,0,0,0,0,0,0,0,0,0,0,0],"split_type":[0,0,0,0,0,0,0,0,0,0,0,0,0,0,0,0,0,0,0,0,0,0,0,0,0,0,0,0,0],"sum_hessian":[3.307E3,3.014E3,2.93E2,1.264E3,1.75E3,1.2E2,1.73E2,1.125E3,1.39E2,6.46E2,1.104E3,1E2,2E1,2E0,1.71E2,9.01E2,2.24E2,5.7E1,8.2E1,4.2E1,6.04E2,1.6E1,1.088E3,1.6E1,8.4E1,5E0,1.5E1,4.4E1,1.27E2],"tree_param":{"num_deleted":"0","num_feature":"29","num_nodes":"29","size_leaf_vector":"1"}},{"base_weights":[-7.3337737E-3,-7.019813E-2,4.6384218E-1,-1.0202113E0,-5.8879722E-2,4.1193306E-1,1.7202654E0,-3.1092197E-1,-1.3027935E0,-1.9312589E-1,1.9810453E-2,-9.402799E-1,4.5188448E-1,3.910416E-1,2.345773E0,-3.7006717E-2,1.7607985E-2,-1.2423891E-1,-4.3048352E-2,-3.1949095E-3,-1.8816166E-2,-7.948683E-3,4.38639E-3,-9.023915E-2,-9.422601E-3,4.9868714E-2,1.8663576E-2,4.0634494E-2,-1.5075167E-2,2.4507863E-2,1.3742037E-1],"categories":[],"categories_nodes":[],"categories_segments":[],"categories_sizes":[],"default_left":[0,0,0,0,0,0,0,0,0,0,0,0,0,0,0,0,0,0,0,0,0,0,0,0,0,0,0,0,0,0,0],"id":47,"left_children":[1,3,5,7,9,11,13,15,17,19,21,23,25,27,29,-1,-1,-1,-1,-1,-1,-1,-1,-1,-1,-1,-1,-1,-1,-1,-1],"loss_changes":[9.7127495E1,3.104731E1,2.446621E1,6.4096375E0,3.0216454E1,2.0521381E1,1.1554298E1,3.3912764E0,1.039426E1,2.4999557E1,2.191909E1,6.8094177E0,1.5151207E1,1.997091E0,6.124195E0,0E0,0E0,0E0,0E0,0E0,0E0,0E0,0E0,0E0,0E0,0E0,0E0,0E0,0E0,0E0,0E0],"parents":[2147483647,0,0,1,1,2,2,3,3,4,4,5,5,6,6,7,7,8,8,9,9,10,10,11,11,12,12,13,13,14,14],"right_children":[2,4,6,8,10,12,14,16,18,20,22,24,26,28,30,-1,-1,-1,-1,-1,-1,-1,-1,-1,-1,-1,-1,-1,-1,-1,-1],"split_conditions":[2.9E0,6E-1,2.78E-1,1.9E0,-1.2E0,5.23E-1,1.3E1,7.9E-2,5.2E1,6.2E-2,1.01E1,1.2E0,5.46E-1,3.03E1,1.4E1,-3.7006717E-2,1.7607985E-2,-1.2423891E-1,-4.3048352E-2,-3.1949095E-3,-1.8816166E-2,-7.948683E-3,4.38639E-3,-9.023915E-2,-9.422601E-3,4.9868714E-2,1.8663576E-2,4.0634494E-2,-1.5075167E-2,2.4507863E-2,1.3742037E-1],"split_indices":[22,12,19,13,22,5,14,19,1,19,14,13,5,4,18,0,0,0,0,0,0,0,0,0,0,0,0,0,0,0,0],"split_type":[0,0,0,0,0,0,0,0,0,0,0,0,0,0,0,0,0,0,0,0,0,0,0,0,0,0,0,0,0,0,0],"sum_hessian":[3.277E3,2.892E3,3.85E2,3.3E1,2.859E3,3.71E2,1.4E1,1E1,2.3E1,1.056E3,1.803E3,1E1,3.61E2,5E0,9E0,6E0,4E0,5E0,1.8E1,6.2E2,4.36E2,4.96E2,1.307E3,4E0,6E0,4.4E1,3.17E2,3E0,2E0,2E0,7E0],"tree_param":{"num_deleted":"0","num_feature":"29","num_nodes":"31","size_leaf_vector":"1"}},{"base_weights":[-1.0182297E-2,-7.1044296E-2,4.8969883E-1,-1.7290887E-1,4.348494E-2,1.7745653E-2,6.394045E-1,-2.86814E-1,-1.9340347E-2,-1.04195485E-2,5.804735E-1,-4.3587694E-1,4.9205425E-1,8.936874E-1,3.070961E-1,-1.5885605E-2,1.9816848E-2,1.43631E-2,-1.0244408E-2,-3.863924E-3,2.1003561E-2,7.339046E-2,1.5002774E-2,4.09064E-2,-4.5833524E-2,4.6394635E-2,-2.9255152E-2,1.9602679E-2,5.4629248E-2,4.890278E-2,6.8078646E-3],"categories":[],"categories_nodes":[],"categories_segments":[],"categories_sizes":[],"default_left":[0,0,0,0,0,0,0,0,0,0,0,0,0,0,0,0,0,0,0,0,0,0,0,0,0,0,0,0,0,0,0],"id":48,"left_children":[1,3,5,7,9,11,13,15,17,19,21,23,25,27,29,-1,-1,-1,-1,-1,-1,-1,-1,-1,-1,-1,-1,-1,-1,-1,-1],"loss_changes":[1.0006812E2,3.421362E1,2.5212158E1,2.7142406E1,3.9980602E1,1.8933142E1,2.2625137E1,1.8933205E1,3.7719635E1,3.6182846E1,3.0911518E1,2.788124E1,2.0729973E1,1.48370285E1,1.3515301E1,0E0,0E0,0E0,0E0,0E0,0E0,0E0,0E0,0E0,0E0,0E0,0E0,0E0,0E0,0E0,0E0],"parents":[2147483647,0,0,1,1,2,2,3,3,4,4,5,5,6,6,7,7,8,8,9,9,10,10,11,11,12,12,13,13,14,14],"right_children":[2,4,6,8,10,12,14,16,18,20,22,24,26,28,30,-1,-1,-1,-1,-1,-1,-1,-1,-1,-1,-1,-1,-1,-1,-1,-1],"split_conditions":[2.7E0,1.12E1,1E-1,1.6E0,3.79E-1,3.09E-1,2.8E1,2.3E0,2.5E1,1.85E1,-9E-1,2.4E1,5.96E-1,1E-1,2.3E0,-1.5885605E-2,1.9816848E-2,1.43631E-2,-1.0244408E-2,-3.863924E-3,2.1003561E-2,7.339046E-2,1.5002774E-2,4.09064E-2,-4.5833524E-2,4.6394635E-2,-2.9255152E-2,1.9602679E-2,5.4629248E-2,4.890278E-2,6.8078646E-3],"split_indices":[23,11,21,17,7,6,0,12,0,9,20,0,5,6,8,0,0,0,0,0,0,0,0,0,0,0,0,0,0,0,0],"split_type":[0,0,0,0,0,0,0,0,0,0,0,0,0,0,0,0,0,0,0,0,0,0,0,0,0,0,0,0,0,0,0],"sum_hessian":[3.287E3,2.931E3,3.56E2,1.551E3,1.38E3,8.6E1,2.7E2,8.9E2,6.61E2,1.255E3,1.25E2,4.4E1,4.2E1,1.52E2,1.18E2,8.52E2,3.8E1,2.49E2,4.12E2,1.087E3,1.68E2,2.9E1,9.6E1,1.2E1,3.2E1,3E1,1.2E1,4.4E1,1.08E2,2.3E1,9.5E1],"tree_param":{"num_deleted":"0","num_feature":"29","num_nodes":"31","size_leaf_vector":"1"}},{"base_weights":[-5.3896694E-3,-5.9685744E-2,4.4688728E-1,-1.0569614E0,-4.7968928E-2,1.0778248E-1,6.401803E-1,-4.6925876E-1,-1.5532938E0,-2.0348062E-1,2.5935391E-2,-3.205382E-1,2.9016408E-1,2.5943813E-1,9.134905E-1,-3.602501E-2,2.6370047E-2,-9.023878E-2,1.528537E-2,-2.2203831E-2,-5.1720054E-3,-1.3231612E-2,4.0348712E-3,1.5307376E-2,-4.361379E-2,3.3621617E-2,-1.0701937E-2,2.0189136E-2,-5.039347E-2,5.8006275E-2,1.3110767E-2],"categories":[],"categories_nodes":[],"categories_segments":[],"categories_sizes":[],"default_left":[0,0,0,0,0,0,0,0,0,0,0,0,0,0,0,0,0,0,0,0,0,0,0,0,0,0,0,0,0,0,0],"id":49,"left_children":[1,3,5,7,9,11,13,15,17,19,21,23,25,27,29,-1,-1,-1,-1,-1,-1,-1,-1,-1,-1,-1,-1,-1,-1,-1,-1],"loss_changes":[8.064686E1,3.4209415E1,2.3003403E1,9.1887665E0,3.332344E1,1.0170205E1,2.3072594E1,4.63683E0,8.966827E0,2.2434837E1,3.130449E1,1.3751924E1,1.768333E1,1.7785213E1,2.0577332E1,0E0,0E0,0E0,0E0,0E0,0E0,0E0,0E0,0E0,0E0,0E0,0E0,0E0,0E0,0E0,0E0],"parents":[2147483647,0,0,1,1,2,2,3,3,4,4,5,5,6,6,7,7,8,8,9,9,10,10,11,11,12,12,13,13,14,14],"right_children":[2,4,6,8,10,12,14,16,18,20,22,24,26,28,30,-1,-1,-1,-1,-1,-1,-1,-1,-1,-1,-1,-1,-1,-1,-1,-1],"split_conditions":[2.06E1,6E-1,2E-1,2.2E1,1.24E1,1.01E1,1E-1,1.1E1,6.6E0,7.1E0,5E0,9.1E0,5.91E-1,1.63E1,7.5E1,-3.602501E-2,2.6370047E-2,-9.023878E-2,1.528537E-2,-2.2203831E-2,-5.1720054E-3,-1.3231612E-2,4.0348712E-3,1.5307376E-2,-4.361379E-2,3.3621617E-2,-1.0701937E-2,2.0189136E-2,-5.039347E-2,5.8006275E-2,1.3110767E-2],"split_indices":[4,12,21,2,4,14,6,2,18,11,2,14,5,14,2,0,0,0,0,0,0,0,0,0,0,0,0,0,0,0,0],"split_type":[0,0,0,0,0,0,0,0,0,0,0,0,0,0,0,0,0,0,0,0,0,0,0,0,0,0,0,0,0,0,0],"sum_hessian":[3.282E3,2.931E3,3.51E2,3.3E1,2.898E3,1.28E2,2.23E2,1.6E1,1.7E1,9.33E2,1.965E3,3.8E1,9E1,9.4E1,1.29E2,1.3E1,3E0,1.5E1,2E0,2.73E2,6.6E2,3.11E2,1.654E3,1.8E1,2E1,5.1E1,3.9E1,8.5E1,9E0,9.3E1,3.6E1],"tree_param":{"num_deleted":"0","num_feature":"29","num_nodes":"31","size_leaf_vector":"1"}},{"base_weights":[-7.3360894E-3,-1.13941975E-1,2.2346298E-1,-2.619514E-1,-3.5960037E-2,1.9469856E-1,1.4366399E0,-2.247122E-1,-1.0969734E0,-4.372072E-2,1.4193308E-1,1.1259704E-2,3.2205102E-1,-6.622035E-2,1.9412723E0,-4.4603474E-2,-9.033106E-3,-7.444664E-2,1.5700823E-2,-6.161053E-3,