{"learner":{"attributes":{"scikit_learn":"{\"_estimator_type\": \"regressor\"}"},"feature_names":["Age","G","GS","MP","PER","TS%","3PAr","FTr","ORB%","DRB%","TRB%","AST%","STL%","BLK%","TOV%","USG%","OWS","DWS","WS","WS/48","OBPM","DBPM","BPM","VORP","Pos_C","Pos_PF","Pos_PG","Pos_SF","Pos_SG"],"feature_types":["float","float","float","float","float","float","float","float","float","float","float","float","float","float","float","float","float","float","float","float","float","float","float","float","float","float","float","float","float"],"gradient_booster":{"model":{"gbtree_model_param":{"num_parallel_tree":"1","num_trees":"400"},"iteration_indptr":[0,1,2,3,4,5,6,7,8,9,10,11,12,13,14,15,16,17,18,19,20,21,22,23,24,25,26,27,28,29,30,31,32,33,34,35,36,37,38,39,40,41,42,43,44,45,46,47,48,49,50,51,52,53,54,55,56,57,58,59,60,61,62,63,64,65,66,67,68,69,70,71,72,73,74,75,76,77,78,79,80,81,82,83,84,85,86,87,88,89,90,91,92,93,94,95,96,97,98,99,100,101,102,103,104,105,106,107,108,109,110,111,112,113,114,115,116,117,118,119,120,121,122,123,124,125,126,127,128,129,130,131,132,133,134,135,136,137,138,139,140,141,142,143,144,145,146,147,148,149,150,151,152,153,154,155,156,157,158,159,160,161,162,163,164,165,166,167,168,169,170,171,172,173,174,175,176,177,178,179,180,181,182,183,184,185,186,187,188,189,190,191,192,193,194,195,196,197,198,199,200,201,202,203,204,205,206,207,208,209,210,211,212,213,214,215,216,217,218,219,220,221,222,223,224,225,226,227,228,229,230,231,232,233,234,235,236,237,238,239,240,241,242,243,244,245,246,247,248,249,250,251,252,253,254,255,256,257,258,259,260,261,262,263,264,265,266,267,268,269,270,271,272,273,274,275,276,277,278,279,280,281,282,283,284,285,286,287,288,289,290,291,292,293,294,295,296,297,298,299,300,301,302,303,304,305,306,307,308,309,310,311,312,313,314,315,316,317,318,319,320,321,322,323,324,325,326,327,328,329,330,331,332,333,334,335,336,337,338,339,340,341,342,343,344,345,346,347,348,349,350,351,352,353,354,355,356,357,358,359,360,361,362,363,364,365,366,367,368,369,370,371,372,373,374,375,376,377,378,379,380,381,382,383,384,385,386,387,388,389,390,391,392,393,394,395,396,397,398,399,400],"tree_info":[0,0,0,0,0,0,0,0,0,0,0,0,0,0,0,0,0,0,0,0,0,0,0,0,0,0,0,0,0,0,0,0,0,0,0,0,0,0,0,0,0,0,0,0,0,0,0,0,0,0,0,0,0,0,0,0,0,0,0,0,0,0,0,0,0,0,0,0,0,0,0,0,0,0,0,0,0,0,0,0,0,0,0,0,0,0,0,0,0,0,0,0,0,0,0,0,0,0,0,0,0,0,0,0,0,0,0,0,0,0,0,0,0,0,0,0,0,0,0,0,0,0,0,0,0,0,0,0,0,0,0,0,0,0,0,0,0,0,0,0,0,0,0,0,0,0,0,0,0,0,0,0,0,0,0,0,0,0,0,0,0,0,0,0,0,0,0,0,0,0,0,0,0,0,0,0,0,0,0,0,0,0,0,0,0,0,0,0,0,0,0,0,0,0,0,0,0,0,0,0,0,0,0,0,0,0,0,0,0,0,0,0,0,0,0,0,0,0,0,0,0,0,0,0,0,0,0,0,0,0,0,0,0,0,0,0,0,0,0,0,0,0,0,0,0,0,0,0,0,0,0,0,0,0,0,0,0,0,0,0,0,0,0,0,0,0,0,0,0,0,0,0,0,0,0,0,0,0,0,0,0,0,0,0,0,0,0,0,0,0,0,0,0,0,0,0,0,0,0,0,0,0,0,0,0,0,0,0,0,0,0,0,0,0,0,0,0,0,0,0,0,0,0,0,0,0,0,0,0,0,0,0,0,0,0,0,0,0,0,0,0,0,0,0,0,0,0,0,0,0,0,0,0,0,0,0,0,0,0,0,0,0,0,0,0,0,0,0,0,0,0,0,0,0,0,0,0,0,0,0,0,0,0,0,0,0,0,0,0,0,0,0,0,0,0,0,0,0,0,0],"trees":[{"base_weights":[7.2555044E-3,-1.8176537E0,4.84703E0,-3.4904652E0,-4.6625665E-1,3.3479688E0,8.555089E0,-3.9540668E0,-2.344519E0,-1.4695804E0,8.887892E-2,2.3500252E0,4.3758683E0,7.0402594E0,1.1068529E1,-2.3279631E-1,-1.6026041E-1,-1.2519595E-1,-4.0170774E-2,-8.3634414E-2,-4.162039E-3,9.686609E-2,-7.4836113E-3,1.505436E-1,8.842482E-2,3.044303E-1,2.033459E-1,3.9568505E-1,3.1584024E-1,1.5419166E-1,5.70809E-1],"categories":[],"categories_nodes":[],"categories_segments":[],"categories_sizes":[],"default_left":[0,0,0,0,0,0,0,0,0,0,0,0,0,0,0,0,0,0,0,0,0,0,0,0,0,0,0,0,0,0,0],"id":0,"left_children":[1,3,5,7,9,11,13,15,17,19,21,23,25,27,29,-1,-1,-1,-1,-1,-1,-1,-1,-1,-1,-1,-1,-1,-1,-1,-1],"loss_changes":[2.6514088E4,4.926552E3,4.540533E3,5.081797E2,6.7240625E2,5.91853E2,8.206289E2,3.487881E2,6.750781E1,1.209386E2,3.4334763E2,1.0996582E2,1.276333E2,4.479492E1,2.062959E2,0E0,0E0,0E0,0E0,0E0,0E0,0E0,0E0,0E0,0E0,0E0,0E0,0E0,0E0,0E0,0E0],"parents":[2147483647,0,0,1,1,2,2,3,3,4,4,5,5,6,6,7,7,8,8,9,9,10,10,11,11,12,12,13,13,14,14],"right_children":[2,4,6,8,10,12,14,16,18,20,22,24,26,28,30,-1,-1,-1,-1,-1,-1,-1,-1,-1,-1,-1,-1,-1,-1,-1,-1],"split_conditions":[1.7E1,1.27E1,2.15E1,1.81E1,1.41E1,1.88E1,2.46E1,1.08E1,1.15E1,1.32E1,2.2E1,2.6E1,2.3E1,2.6E1,-1E0,-2.3279631E-1,-1.6026041E-1,-1.2519595E-1,-4.0170774E-2,-8.3634414E-2,-4.162039E-3,9.686609E-2,-7.4836113E-3,1.505436E-1,8.842482E-2,3.044303E-1,2.033459E-1,3.9568505E-1,3.1584024E-1,1.5419166E-1,5.70809E-1],"split_indices":[4,4,4,15,4,4,4,4,10,10,0,0,0,0,21,0,0,0,0,0,0,0,0,0,0,0,0,0,0,0,0],"split_type":[0,0,0,0,0,0,0,0,0,0,0,0,0,0,0,0,0,0,0,0,0,0,0,0,0,0,0,0,0,0,0],"sum_hessian":[3E3,2.179E3,8.21E2,9.73E2,1.206E3,5.86E2,2.35E2,6.91E2,2.82E2,4.29E2,7.77E2,2.99E2,2.87E2,1.49E2,8.6E1,3.54E2,3.37E2,2.55E2,2.7E1,3.74E2,5.5E1,8.8E1,6.89E2,1.38E2,1.61E2,4.1E1,2.46E2,6.3E1,8.6E1,4E0,8.2E1],"tree_param":{"num_deleted":"0","num_feature":"29","num_nodes":"31","size_leaf_vector":"1"}},{"base_weights":[-9.833858E-4,-1.7564759E0,4.5792003E0,-3.1683905E0,-3.455354E-1,3.2869213E0,8.483726E0,-4.0923347E0,-2.5452504E0,-7.898624E-1,4.6083567E-1,2.245976E0,4.250965E0,7.2458134E0,1.0980738E1,-2.22216E-1,-1.2031484E-1,-1.1033672E-1,-1.7819463E-1,2.5445972E-2,-5.0483584E-2,7.2106265E-2,-5.0312993E-3,1.03290595E-1,2.1384144E-1,1.9007549E-1,2.5342524E-1,3.1759784E-1,4.0625644E-1,-6.0610007E-2,5.591923E-1],"categories":[],"categories_nodes":[],"categories_segments":[],"categories_sizes":[],"default_left":[0,0,0,0,0,0,0,0,0,0,0,0,0,0,0,0,0,0,0,0,0,0,0,0,0,0,0,0,0,0,0],"id":1,"left_children":[1,3,5,7,9,11,13,15,17,19,21,23,25,27,29,-1,-1,-1,-1,-1,-1,-1,-1,-1,-1,-1,-1,-1,-1,-1,-1],"loss_changes":[2.4346572E4,4.3596724E3,4.2054883E3,6.194502E2,3.9305246E2,6.246758E2,5.633799E2,2.4983496E2,2.1834131E2,2.0235132E2,2.1501813E2,1.0312622E2,1.0088721E2,5.9999023E1,1.7948096E2,0E0,0E0,0E0,0E0,0E0,0E0,0E0,0E0,0E0,0E0,0E0,0E0,0E0,0E0,0E0,0E0],"parents":[2147483647,0,0,1,1,2,2,3,3,4,4,5,5,6,6,7,7,8,8,9,9,10,10,11,11,12,12,13,13,14,14],"right_children":[2,4,6,8,10,12,14,16,18,20,22,24,26,28,30,-1,-1,-1,-1,-1,-1,-1,-1,-1,-1,-1,-1,-1,-1,-1,-1],"split_conditions":[1.7E1,1.31E1,2.19E1,1.08E1,1.55E1,1.88E1,2.58E1,1.84E1,3E1,-1.8E0,2.5E1,2.687E3,2.06E1,2.35E1,7.1E0,-2.22216E-1,-1.2031484E-1,-1.1033672E-1,-1.7819463E-1,2.5445972E-2,-5.0483584E-2,7.2106265E-2,-5.0312993E-3,1.03290595E-1,2.1384144E-1,1.9007549E-1,2.5342524E-1,3.1759784E-1,4.0625644E-1,-6.0610007E-2,5.591923E-1],"split_indices":[4,4,4,4,4,4,4,15,0,22,0,3,4,4,9,0,0,0,0,0,0,0,0,0,0,0,0,0,0,0,0],"split_type":[0,0,0,0,0,0,0,0,0,0,0,0,0,0,0,0,0,0,0,0,0,0,0,0,0,0,0,0,0,0,0],"sum_hessian":[3.026E3,2.188E3,8.38E2,1.093E3,1.095E3,6.31E2,2.07E2,4.38E2,6.55E2,7.06E2,3.89E2,3.05E2,3.26E2,1.41E2,6.6E1,3.61E2,7.7E1,4.94E2,1.61E2,1.02E2,6.04E2,1.41E2,2.48E2,2.82E2,2.3E1,2.14E2,1.12E2,7.4E1,6.7E1,1E0,6.5E1],"tree_param":{"num_deleted":"0","num_feature":"29","num_nodes":"31","size_leaf_vector":"1"}},{"base_weights":[-3.3133306E-2,-1.6458427E0,4.2957587E0,-2.9615018E0,-1.8438444E-1,2.9254148E0,7.677098E0,-3.9478385E0,-2.357058E0,-5.1094586E-1,9.8087364E-1,2.0671337E0,3.8034081E0,6.5816817E0,1.0563286E1,-1.7741556E-1,-2.4171825E-1,-1.0219699E-1,-1.6584697E-1,7.3599704E-3,-4.969966E-2,9.349081E-2,2.1466617E-2,6.755651E-2,1.2862644E-1,2.4093704E-1,1.6379662E-1,3.0904493E-1,4.4633767E-1,3.3624083E-1,5.461504E-1],"categories":[],"categories_nodes":[],"categories_segments":[],"categories_sizes":[],"default_left":[0,0,0,0,0,0,0,0,0,0,0,0,0,0,0,0,0,0,0,0,0,0,0,0,0,0,0,0,0,0,0],"id":2,"left_children":[1,3,5,7,9,11,13,15,17,19,21,23,25,27,29,-1,-1,-1,-1,-1,-1,-1,-1,-1,-1,-1,-1,-1,-1,-1,-1],"loss_changes":[2.1013635E4,4.216113E3,3.7631914E3,6.786924E2,3.9625067E2,4.314663E2,6.734463E2,1.3762744E2,2.0901953E2,2.5861148E2,1.10983E2,1.03997925E2,1.379209E2,1.0742139E2,1.353418E1,0E0,0E0,0E0,0E0,0E0,0E0,0E0,0E0,0E0,0E0,0E0,0E0,0E0,0E0,0E0,0E0],"parents":[2147483647,0,0,1,1,2,2,3,3,4,4,5,5,6,6,7,7,8,8,9,9,10,10,11,11,12,12,13,13,14,14],"right_children":[2,4,6,8,10,12,14,16,18,20,22,24,26,28,30,-1,-1,-1,-1,-1,-1,-1,-1,-1,-1,-1,-1,-1,-1,-1,-1],"split_conditions":[1.7E1,1.33E1,2.15E1,1.08E1,1.61E1,1.88E1,2.58E1,5.27E-1,3E1,2.75E-1,2.5E1,1.785E3,2.5E1,5.1E0,7E-1,-1.7741556E-1,-2.4171825E-1,-1.0219699E-1,-1.6584697E-1,7.3599704E-3,-4.969966E-2,9.349081E-2,2.1466617E-2,6.755651E-2,1.2862644E-1,2.4093704E-1,1.6379662E-1,3.0904493E-1,4.4633767E-1,3.3624083E-1,5.461504E-1],"split_indices":[4,4,4,4,4,4,4,5,0,6,0,3,0,23,21,0,0,0,0,0,0,0,0,0,0,0,0,0,0,0,0],"split_type":[0,0,0,0,0,0,0,0,0,0,0,0,0,0,0,0,0,0,0,0,0,0,0,0,0,0,0,0,0,0,0],"sum_hessian":[3.008E3,2.192E3,8.16E2,1.153E3,1.039E3,5.82E2,2.34E2,4.36E2,7.17E2,8.12E2,2.27E2,2.96E2,2.86E2,1.72E2,6.2E1,3.04E2,1.32E2,5.43E2,1.74E2,3.44E2,4.68E2,8.6E1,1.41E2,1.24E2,1.72E2,9.5E1,1.91E2,1.5E2,2.2E1,7E0,5.5E1],"tree_param":{"num_deleted":"0","num_feature":"29","num_nodes":"31","size_leaf_vector":"1"}},{"base_weights":[-1.8310934E-2,-1.5492479E0,4.0747E0,-3.0118403E0,-4.1616774E-1,2.9347615E0,7.5415964E0,-3.396949E0,-2.0232244E0,-1.1265283E0,1.459912E-1,2.0222416E0,3.8064876E0,6.398592E0,9.548234E0,-1.9010729E-1,-1.2453046E-1,-1.067616E-1,1.905898E-2,-3.9406464E-2,-8.986019E-2,7.126818E-2,-6.532161E-3,6.357394E-2,1.2869118E-1,2.1390878E-1,1.4797933E-1,3.0258483E-1,4.362029E-1,-6.7500785E-2,4.8603725E-1],"categories":[],"categories_nodes":[],"categories_segments":[],"categories_sizes":[],"default_left":[0,0,0,0,0,0,0,0,0,0,0,0,0,0,0,0,0,0,0,0,0,0,0,0,0,0,0,0,0,0,0],"id":3,"left_children":[1,3,5,7,9,11,13,15,17,19,21,23,25,27,29,-1,-1,-1,-1,-1,-1,-1,-1,-1,-1,-1,-1,-1,-1,-1,-1],"loss_changes":[1.9036586E4,3.662892E3,3.246212E3,3.6052637E2,4.981358E2,4.8867432E2,4.0679785E2,2.4503174E2,7.433606E1,1.2363635E2,2.4686737E2,1.238584E2,1.14370605E2,5.4495117E1,1.484878E2,0E0,0E0,0E0,0E0,0E0,0E0,0E0,0E0,0E0,0E0,0E0,0E0,0E0,0E0,0E0,0E0],"parents":[2147483647,0,0,1,1,2,2,3,3,4,4,5,5,6,6,7,7,8,8,9,9,10,10,11,11,12,12,13,13,14,14],"right_children":[2,4,6,8,10,12,14,16,18,20,22,24,26,28,30,-1,-1,-1,-1,-1,-1,-1,-1,-1,-1,-1,-1,-1,-1,-1,-1],"split_conditions":[1.7E1,1.27E1,2.19E1,1.81E1,1.45E1,1.88E1,5.1E0,1.14E1,3.67E-1,2.8E1,2.3E1,1.785E3,2.8E1,2.58E1,7.1E0,-1.9010729E-1,-1.2453046E-1,-1.067616E-1,1.905898E-2,-3.9406464E-2,-8.986019E-2,7.126818E-2,-6.532161E-3,6.357394E-2,1.2869118E-1,2.1390878E-1,1.4797933E-1,3.0258483E-1,4.362029E-1,-6.7500785E-2,4.8603725E-1],"split_indices":[4,4,4,15,4,4,23,4,7,0,0,3,0,4,9,0,0,0,0,0,0,0,0,0,0,0,0,0,0,0,0],"split_type":[0,0,0,0,0,0,0,0,0,0,0,0,0,0,0,0,0,0,0,0,0,0,0,0,0,0,0,0,0,0,0],"sum_hessian":[3.036E3,2.21E3,8.26E2,9.64E2,1.246E3,6.23E2,2.03E2,6.92E2,2.72E2,5.5E2,6.96E2,3.06E2,3.17E2,1.32E2,7.1E1,4.76E2,2.16E2,2.6E2,1.2E1,3.67E2,1.83E2,1.23E2,5.73E2,1.31E2,1.75E2,2.01E2,1.16E2,1.18E2,1.4E1,1E0,7E1],"tree_param":{"num_deleted":"0","num_feature":"29","num_nodes":"31","size_leaf_vector":"1"}},{"base_weights":[1.1944654E-2,-1.4502842E0,3.9595897E0,-2.664561E0,-1.7134301E-1,3.0946772E0,8.338512E0,-3.581035E0,-2.1574779E0,4.2020398E-1,-6.411344E-1,2.2571568E0,4.3752584E0,7.3196254E0,5.5056876E-1,-1.9332568E-1,-9.940224E-2,-7.741649E-2,-1.326696E-1,-1.0740482E-2,3.7120484E-2,3.9060164E-2,-4.2465787E-2,7.72902E-2,1.3673668E-1,-7.109199E-2,2.2229922E-1,-6.581326E-2,3.7100762E-1],"categories":[],"categories_nodes":[],"categories_segments":[],"categories_sizes":[],"default_left":[0,0,0,0,0,0,0,0,0,0,0,0,0,0,0,0,0,0,0,0,0,0,0,0,0,0,0,0,0],"id":4,"left_children":[1,3,5,7,9,11,13,15,17,19,21,23,25,27,-1,-1,-1,-1,-1,-1,-1,-1,-1,-1,-1,-1,-1,-1,-1],"loss_changes":[1.7426729E4,3.4207769E3,3.0647021E3,5.17417E2,2.9873795E2,7.226509E2,2.843291E2,1.7467432E2,2.1641382E2,9.755145E1,1.780299E2,1.3675903E2,1.1661279E2,9.6581055E1,0E0,0E0,0E0,0E0,0E0,0E0,0E0,0E0,0E0,0E0,0E0,0E0,0E0,0E0,0E0],"parents":[2147483647,0,0,1,1,2,2,3,3,4,4,5,5,6,6,7,7,8,8,9,9,10,10,11,11,12,12,13,13],"right_children":[2,4,6,8,10,12,14,16,18,20,22,24,26,28,-1,-1,-1,-1,-1,-1,-1,-1,-1,-1,-1,-1,-1,-1,-1],"split_conditions":[1.7E1,1.32E1,2.34E1,1.06E1,2.75E-1,1.98E1,2.7E1,1.87E1,3.75E-1,1.46E1,2.3E1,2.77E-1,-2E-1,7.1E0,5.5056876E-1,-1.9332568E-1,-9.940224E-2,-7.741649E-2,-1.326696E-1,-1.0740482E-2,3.7120484E-2,3.9060164E-2,-4.2465787E-2,7.72902E-2,1.3673668E-1,-7.109199E-2,2.2229922E-1,-6.581326E-2,3.7100762E-1],"split_indices":[4,4,4,4,6,4,4,15,6,4,0,7,20,9,0,0,0,0,0,0,0,0,0,0,0,0,0,0,0],"split_type":[0,0,0,0,0,0,0,0,0,0,0,0,0,0,0,0,0,0,0,0,0,0,0,0,0,0,0,0,0],"sum_hessian":[3.017E3,2.202E3,8.15E2,1.129E3,1.073E3,6.82E2,1.33E2,4E2,7.29E2,4.75E2,5.98E2,4.14E2,2.68E2,9.9E1,3.4E1,3.38E2,6.2E1,3.29E2,4E2,1.6E2,3.15E2,7.6E1,5.22E2,1.68E2,2.46E2,3E0,2.65E2,1E0,9.8E1],"tree_param":{"num_deleted":"0","num_feature":"29","num_nodes":"29","size_leaf_vector":"1"}},{"base_weights":[-6.6952817E-3,-1.447416E0,3.522342E0,-2.5084715E0,-2.2078069E-1,2.4797E0,6.701303E0,-3.2881386E0,-2.020123E0,5.165103E-1,-6.66341E-1,1.695477E0,3.3615441E0,6.052447E0,5.131683E-1,-1.7654544E-1,-9.703051E-2,-8.7875664E-2,-1.4315717E-1,1.2357966E-2,9.29671E-2,-3.21574E-3,-5.2716013E-2,7.6486066E-2,1.7853567E-1,1.9107471E-1,1.2917306E-1,2.5320503E-1,3.5036176E-1],"categories":[],"categories_nodes":[],"categories_segments":[],"categories_sizes":[],"default_left":[0,0,0,0,0,0,0,0,0,0,0,0,0,0,0,0,0,0,0,0,0,0,0,0,0,0,0,0,0],"id":5,"left_children":[1,3,5,7,9,11,13,15,17,19,21,23,25,27,-1,-1,-1,-1,-1,-1,-1,-1,-1,-1,-1,-1,-1,-1,-1],"loss_changes":[1.5451376E4,2.8081436E3,2.9034727E3,4.3388477E2,3.295088E2,4.541897E2,4.3942676E2,1.3839795E2,1.5303711E2,1.362604E2,1.4591571E2,1.0457196E2,1.0178589E2,1.4003516E2,0E0,0E0,0E0,0E0,0E0,0E0,0E0,0E0,0E0,0E0,0E0,0E0,0E0,0E0,0E0],"parents":[2147483647,0,0,1,1,2,2,3,3,4,4,5,5,6,6,7,7,8,8,9,9,10,10,11,11,12,12,13,13],"right_children":[2,4,6,8,10,12,14,16,18,20,22,24,26,28,-1,-1,-1,-1,-1,-1,-1,-1,-1,-1,-1,-1,-1,-1,-1],"split_conditions":[1.68E1,1.33E1,2.17E1,1.08E1,2.5E1,1.88E1,2.7E1,1.87E1,3E1,1.62E1,2.75E-1,2.687E3,2.8E1,2.36E1,5.131683E-1,-1.7654544E-1,-9.703051E-2,-8.7875664E-2,-1.4315717E-1,1.2357966E-2,9.29671E-2,-3.21574E-3,-5.2716013E-2,7.6486066E-2,1.7853567E-1,1.9107471E-1,1.2917306E-1,2.5320503E-1,3.5036176E-1],"split_indices":[4,4,4,4,0,4,4,15,0,4,6,3,0,4,0,0,0,0,0,0,0,0,0,0,0,0,0,0,0],"split_type":[0,0,0,0,0,0,0,0,0,0,0,0,0,0,0,0,0,0,0,0,0,0,0,0,0,0,0,0,0],"sum_hessian":[3.037E3,2.157E3,8.8E2,1.156E3,1.001E3,6.64E2,2.16E2,4.43E2,7.13E2,3.77E2,6.24E2,3.53E2,3.11E2,1.85E2,3.1E1,3.74E2,6.9E1,5.46E2,1.67E2,3.15E2,6.2E1,2.45E2,3.79E2,3.26E2,2.7E1,1.93E2,1.18E2,9.4E1,9.1E1],"tree_param":{"num_deleted":"0","num_feature":"29","num_nodes":"29","size_leaf_vector":"1"}},{"base_weights":[-3.972872E-3,-1.3580902E0,3.5575235E0,-2.6102002E0,-3.8221458E-1,2.5666707E0,6.5855002E0,-2.9565554E0,-1.6911305E0,-1.1334391E0,2.9831834E-2,2.003719E0,3.7074416E0,5.936286E0,9.656973E0,-1.6537207E-1,-1.1035611E-1,-8.9965664E-2,3.6532473E-2,-5.8618106E-2,1.6768058E-1,3.4939293E-2,-1.955336E-2,8.081867E-2,1.4769618E-1,-7.559134E-2,1.8960105E-1,2.4504064E-1,3.3288E-1,4.9817058E-1,2.4339171E-1],"categories":[],"categories_nodes":[],"categories_segments":[],"categories_sizes":[],"default_left":[0,0,0,0,0,0,0,0,0,0,0,0,0,0,0,0,0,0,0,0,0,0,0,0,0,0,0,0,0,0,0],"id":6,"left_children":[1,3,5,7,9,11,13,15,17,19,21,23,25,27,29,-1,-1,-1,-1,-1,-1,-1,-1,-1,-1,-1,-1,-1,-1,-1,-1],"loss_changes":[1.4530755E4,2.6664177E3,2.473329E3,2.9931836E2,3.801481E2,3.9522998E2,3.4945898E2,1.7493555E2,7.048132E1,7.99043E1,2.2383359E2,1.5054578E2,9.667041E1,9.5092285E1,1.3974609E0,0E0,0E0,0E0,0E0,0E0,0E0,0E0,0E0,0E0,0E0,0E0,0E0,0E0,0E0,0E0,0E0],"parents":[2147483647,0,0,1,1,2,2,3,3,4,4,5,5,6,6,7,7,8,8,9,9,10,10,11,11,12,12,13,13,14,14],"right_children":[2,4,6,8,10,12,14,16,18,20,22,24,26,28,30,-1,-1,-1,-1,-1,-1,-1,-1,-1,-1,-1,-1,-1,-1,-1,-1],"split_conditions":[1.7E1,1.27E1,2.19E1,1.81E1,1.41E1,1.98E1,2.7E1,1.14E1,3.75E-1,6.9E0,2.5E1,7E1,-2E-1,2.35E1,5E-1,-1.6537207E-1,-1.1035611E-1,-8.9965664E-2,3.6532473E-2,-5.8618106E-2,1.6768058E-1,3.4939293E-2,-1.955336E-2,8.081867E-2,1.4769618E-1,-7.559134E-2,1.8960105E-1,2.4504064E-1,3.3288E-1,4.9817058E-1,2.4339171E-1],"split_indices":[4,4,4,15,4,4,4,4,7,18,0,2,20,4,6,0,0,0,0,0,0,0,0,0,0,0,0,0,0,0,0],"split_type":[0,0,0,0,0,0,0,0,0,0,0,0,0,0,0,0,0,0,0,0,0,0,0,0,0,0,0,0,0,0,0],"sum_hessian":[3.011E3,2.182E3,8.29E2,9.55E2,1.227E3,6.26E2,2.03E2,6.92E2,2.63E2,4.34E2,7.93E2,4.21E2,2.05E2,1.7E2,3.3E1,4.69E2,2.23E2,2.52E2,1.1E1,4.31E2,3E0,3.06E2,4.87E2,3.01E2,1.2E2,3E0,2.02E2,7.3E1,9.7E1,3E1,3E0],"tree_param":{"num_deleted":"0","num_feature":"29","num_nodes":"31","size_leaf_vector":"1"}},{"base_weights":[3.011981E-3,-1.4952525E0,2.874802E0,-2.5403442E0,-6.2105936E-1,1.7165498E0,5.4936037E0,-2.8065107E0,-1.3705437E0,-9.1852605E-1,2.8796342E-1,1.122482E0,2.5236895E0,4.2797136E0,7.23483E0,-1.6253577E-1,-1.1512116E-1,-7.259839E-2,1.1959516E-1,-6.6535525E-2,-2.4282603E-2,-1.2524805E-2,4.181645E-2,9.118083E-2,3.5900947E-2,1.8469964E-1,1.0844395E-1,2.3582552E-1,1.7004594E-1,3.2269728E-1,4.5472643E-1],"categories":[],"categories_nodes":[],"categories_segments":[],"categories_sizes":[],"default_left":[0,0,0,0,0,0,0,0,0,0,0,0,0,0,0,0,0,0,0,0,0,0,0,0,0,0,0,0,0,0,0],"id":7,"left_children":[1,3,5,7,9,11,13,15,17,19,21,23,25,27,29,-1,-1,-1,-1,-1,-1,-1,-1,-1,-1,-1,-1,-1,-1,-1,-1],"loss_changes":[1.311463E4,1.8283877E3,3.1602988E3,2.8011523E2,2.9554562E2,3.45281E2,6.454072E2,1.586626E2,5.5859467E1,1.4619666E2,7.993312E1,1.1779541E2,1.19465576E2,5.7276123E1,1.300918E2,0E0,0E0,0E0,0E0,0E0,0E0,0E0,0E0,0E0,0E0,0E0,0E0,0E0,0E0,0E0,0E0],"parents":[2147483647,0,0,1,1,2,2,3,3,4,4,5,5,6,6,7,7,8,8,9,9,10,10,11,11,12,12,13,13,14,14],"right_children":[2,4,6,8,10,12,14,16,18,20,22,24,26,28,30,-1,-1,-1,-1,-1,-1,-1,-1,-1,-1,-1,-1,-1,-1,-1,-1],"split_conditions":[1.62E1,1.25E1,2.06E1,1.93E1,1.22E1,1.81E1,2.35E1,1.08E1,1.89E1,1.41E1,1.69E1,2.5E1,2.4E1,2.8E1,2.69E1,-1.6253577E-1,-1.1512116E-1,-7.259839E-2,1.1959516E-1,-6.6535525E-2,-2.4282603E-2,-1.2524805E-2,4.181645E-2,9.118083E-2,3.5900947E-2,1.8469964E-1,1.0844395E-1,2.3582552E-1,1.7004594E-1,3.2269728E-1,4.5472643E-1],"split_indices":[4,4,4,15,10,4,4,4,14,4,15,0,0,0,4,0,0,0,0,0,0,0,0,0,0,0,0,0,0,0,0],"split_type":[0,0,0,0,0,0,0,0,0,0,0,0,0,0,0,0,0,0,0,0,0,0,0,0,0,0,0,0,0,0,0],"sum_hessian":[3.046E3,2.002E3,1.044E3,9.11E2,1.091E3,7.25E2,3.19E2,7.41E2,1.7E2,8.22E2,2.69E2,4.19E2,3.06E2,1.9E2,1.29E2,3.91E2,3.5E2,1.67E2,3E0,4.2E2,4.02E2,1.36E2,1.33E2,1.52E2,2.67E2,6.9E1,2.37E2,1.24E2,6.6E1,9.4E1,3.5E1],"tree_param":{"num_deleted":"0","num_feature":"29","num_nodes":"31","size_leaf_vector":"1"}},{"base_weights":[-2.067246E-3,-1.1915861E0,3.215273E0,-2.335458E0,-2.9495013E-1,2.2339401E0,5.675833E0,-3.4145472E0,-2.0927448E0,-9.238405E-1,9.087939E-2,1.5984046E0,2.8993368E0,4.7176156E0,7.300031E0,-1.368372E-1,-2.1340358E-1,-8.983303E-2,-1.4213675E-1,-2.99323E-2,-7.831871E-2,8.162771E-2,-4.9446872E-3,1.0914906E-1,5.5925906E-2,8.607033E-2,1.6015504E-1,2.5664324E-1,1.9303927E-1,-8.931642E-2,3.714734E-1],"categories":[],"categories_nodes":[],"categories_segments":[],"categories_sizes":[],"default_left":[0,0,0,0,0,0,0,0,0,0,0,0,0,0,0,0,0,0,0,0,0,0,0,0,0,0,0,0,0,0,0],"id":8,"left_children":[1,3,5,7,9,11,13,15,17,19,21,23,25,27,29,-1,-1,-1,-1,-1,-1,-1,-1,-1,-1,-1,-1,-1,-1,-1,-1],"loss_changes":[1.1668793E4,2.2823787E3,1.9745596E3,2.4900098E2,3.0314694E2,2.448667E2,3.2974365E2,9.129639E1,1.7276294E2,9.8312775E1,2.2690202E2,8.28396E1,9.717822E1,3.355298E1,1.1324072E2,0E0,0E0,0E0,0E0,0E0,0E0,0E0,0E0,0E0,0E0,0E0,0E0,0E0,0E0,0E0,0E0],"parents":[2147483647,0,0,1,1,2,2,3,3,4,4,5,5,6,6,7,7,8,8,9,9,10,10,11,11,12,12,13,13,14,14],"right_children":[2,4,6,8,10,12,14,16,18,20,22,24,26,28,30,-1,-1,-1,-1,-1,-1,-1,-1,-1,-1,-1,-1,-1,-1,-1,-1],"split_conditions":[1.7E1,1.27E1,2.15E1,9.1E0,1.42E1,1.88E1,2.47E1,2.6E1,5.19E-1,2.8E1,2.2E1,2.6E1,3.6E1,2.8E1,4.5E0,-1.368372E-1,-2.1340358E-1,-8.983303E-2,-1.4213675E-1,-2.99323E-2,-7.831871E-2,8.162771E-2,-4.9446872E-3,1.0914906E-1,5.5925906E-2,8.607033E-2,1.6015504E-1,2.5664324E-1,1.9303927E-1,-8.931642E-2,3.714734E-1],"split_indices":[4,4,4,4,4,4,4,0,6,0,0,0,2,0,10,0,0,0,0,0,0,0,0,0,0,0,0,0,0,0,0],"split_type":[0,0,0,0,0,0,0,0,0,0,0,0,0,0,0,0,0,0,0,0,0,0,0,0,0,0,0,0,0,0,0],"sum_hessian":[3.047E3,2.225E3,8.22E2,9.77E2,1.248E3,5.89E2,2.33E2,1.77E2,8E2,4.74E2,7.74E2,3.03E2,2.86E2,1.49E2,8.4E1,1.01E2,7.6E1,5.76E2,2.24E2,3.16E2,1.58E2,8.4E1,6.9E2,1.35E2,1.68E2,6E1,2.26E2,9.7E1,5.2E1,1E0,8.3E1],"tree_param":{"num_deleted":"0","num_feature":"29","num_nodes":"31","size_leaf_vector":"1"}},{"base_weights":[-1.3712662E-2,-1.2822642E0,2.611247E0,-2.3240898E0,-5.401558E-1,1.5542195E0,4.876165E0,-2.5879261E0,-1.3349836E0,-7.736808E-1,3.4809875E-1,8.18241E-1,1.9311606E0,4.081686E0,7.207271E0,-1.400095E-1,-7.447868E-2,-4.1617464E-2,-1.0218626E-1,-1.3618785E-2,-5.4402154E-2,-1.0971877E-2,4.3246754E-2,3.4341183E-2,1.6801281E-1,1.4886093E-1,7.240504E-2,1.7788805E-1,2.535619E-1,-4.6234097E-2,3.7167183E-1],"categories":[],"categories_nodes":[],"categories_segments":[],"categories_sizes":[],"default_left":[0,0,0,0,0,0,0,0,0,0,0,0,0,0,0,0,0,0,0,0,0,0,0,0,0,0,0,0,0,0,0],"id":9,"left_children":[1,3,5,7,9,11,13,15,17,19,21,23,25,27,29,-1,-1,-1,-1,-1,-1,-1,-1,-1,-1,-1,-1,-1,-1,-1,-1],"loss_changes":[1.0036328E4,1.5697795E3,2.3434082E3,2.170581E2,2.4669574E2,1.8456909E2,5.4841016E2,1.5110059E2,6.2421722E1,1.4799713E2,7.293398E1,7.419296E1,2.195404E2,1.037937E2,1.5032886E2,0E0,0E0,0E0,0E0,0E0,0E0,0E0,0E0,0E0,0E0,0E0,0E0,0E0,0E0,0E0,0E0],"parents":[2147483647,0,0,1,1,2,2,3,3,4,4,5,5,6,6,7,7,8,8,9,9,10,10,11,11,12,12,13,13,14,14],"right_children":[2,4,6,8,10,12,14,16,18,20,22,24,26,28,30,-1,-1,-1,-1,-1,-1,-1,-1,-1,-1,-1,-1,-1,-1,-1,-1],"split_conditions":[1.63E1,1.23E1,2.06E1,1.87E1,7.8E0,1.6E0,2.48E1,1.13E1,1E0,2.5E1,1.63E1,1.98E1,2.5E1,5.9E0,-1E0,-1.400095E-1,-7.447868E-2,-4.1617464E-2,-1.0218626E-1,-1.3618785E-2,-5.4402154E-2,-1.0971877E-2,4.3246754E-2,3.4341183E-2,1.6801281E-1,1.4886093E-1,7.240504E-2,1.7788805E-1,2.535619E-1,-4.6234097E-2,3.7167183E-1],"split_indices":[4,4,4,15,8,17,4,10,28,0,15,10,0,16,21,0,0,0,0,0,0,0,0,0,0,0,0,0,0,0,0],"split_type":[0,0,0,0,0,0,0,0,0,0,0,0,0,0,0,0,0,0,0,0,0,0,0,0,0,0,0,0,0,0,0],"sum_hessian":[3.012E3,2.031E3,9.81E2,8.44E2,1.187E3,6.7E2,3.11E2,6.65E2,1.79E2,9.4E2,2.47E2,2.28E2,4.42E2,2.34E2,7.7E1,5.56E2,1.09E2,1.06E2,7.3E1,3.63E2,5.77E2,1.18E2,1.29E2,2.18E2,1E1,1.38E2,3.04E2,1.56E2,7.8E1,2E0,7.5E1],"tree_param":{"num_deleted":"0","num_feature":"29","num_nodes":"31","size_leaf_vector":"1"}},{"base_weights":[1.6025646E-3,-1.3079599E0,2.473824E0,-2.1975143E0,-5.796822E-1,1.4604E0,4.738477E0,-3.1140494E0,-1.9643116E0,-7.542666E-1,5.209271E-1,9.736271E-1,2.1821663E0,4.077565E0,7.3908386E0,-2.2144456E-1,-1.3806318E-1,-1.0606567E-1,-4.2337805E-2,-2.5773013E-2,-6.3959196E-2,5.3081937E-2,-1.382599E-2,2.8201899E-2,7.989432E-2,5.8012344E-2,1.329353E-1,1.8984668E-1,2.9464552E-1,-8.592763E-2,3.7827414E-1],"categories":[],"categories_nodes":[],"categories_segments":[],"categories_sizes":[],"default_left":[0,0,0,0,0,0,0,0,0,0,0,0,0,0,0,0,0,0,0,0,0,0,0,0,0,0,0,0,0,0,0],"id":10,"left_children":[1,3,5,7,9,11,13,15,17,19,21,23,25,27,29,-1,-1,-1,-1,-1,-1,-1,-1,-1,-1,-1,-1,-1,-1,-1,-1],"loss_changes":[9.751435E3,1.2743284E3,2.3868208E3,1.8325488E2,2.0868277E2,2.5154028E2,5.3432227E2,7.033728E1,1.22604004E2,1.1667157E2,6.454069E1,1.0981241E2,1.3814099E2,1.1008008E2,1.13228516E2,0E0,0E0,0E0,0E0,0E0,0E0,0E0,0E0,0E0,0E0,0E0,0E0,0E0,0E0,0E0,0E0],"parents":[2147483647,0,0,1,1,2,2,3,3,4,4,5,5,6,6,7,7,8,8,9,9,10,10,11,11,12,12,13,13,14,14],"right_children":[2,4,6,8,10,12,14,16,18,20,22,24,26,28,30,-1,-1,-1,-1,-1,-1,-1,-1,-1,-1,-1,-1,-1,-1,-1,-1],"split_conditions":[1.61E1,1.24E1,2.06E1,9.1E0,2.02E1,1.81E1,2.58E1,1.2E1,2.02E1,4.36E-1,4E1,3.11E-1,4.2E1,5.3E0,7.1E0,-2.2144456E-1,-1.3806318E-1,-1.0606567E-1,-4.2337805E-2,-2.5773013E-2,-6.3959196E-2,5.3081937E-2,-1.382599E-2,2.8201899E-2,7.989432E-2,5.8012344E-2,1.329353E-1,1.8984668E-1,2.9464552E-1,-8.592763E-2,3.7827414E-1],"split_indices":[4,4,4,4,9,4,4,15,15,6,2,7,2,20,9,0,0,0,0,0,0,0,0,0,0,0,0,0,0,0,0],"split_type":[0,0,0,0,0,0,0,0,0,0,0,0,0,0,0,0,0,0,0,0,0,0,0,0,0,0,0,0,0,0,0],"sum_hessian":[3.01E3,1.968E3,1.042E3,8.85E2,1.083E3,7.21E2,3.21E2,1.77E2,7.08E2,9.35E2,1.48E2,4.32E2,2.89E2,2.59E2,6.2E1,3.5E1,1.42E2,6.2E2,8.8E1,6.44E2,2.91E2,8.8E1,6E1,2.62E2,1.7E2,9.3E1,1.96E2,2.27E2,3.2E1,1E0,6.1E1],"tree_param":{"num_deleted":"0","num_feature":"29","num_nodes":"31","size_leaf_vector":"1"}},{"base_weights":[1.0223041E-2,-6.92068E-1,2.605962E0,-1.2585714E0,6.426983E-1,2.0409172E0,6.355358E0,-2.0535011E0,-5.6437725E-1,-4.9089602E-1,1.2509537E0,5.825163E-1,2.8576238E0,3.935359E0,7.150594E0,-1.3590111E-1,-7.813566E-2,-4.914508E-2,-4.435295E-3,-7.08998E-2,7.0417733E-3,4.2427924E-2,1.315916E-1,-1.04818224E-4,1.4117907E-1,1.8283884E-1,1.0279713E-1,-8.377943E-2,2.1332827E-1,2.6483878E-1,3.9854607E-1],"categories":[],"categories_nodes":[],"categories_segments":[],"categories_sizes":[],"default_left":[0,0,0,0,0,0,0,0,0,0,0,0,0,0,0,0,0,0,0,0,0,0,0,0,0,0,0,0,0,0,0],"id":11,"left_children":[1,3,5,7,9,11,13,15,17,19,21,23,25,27,29,-1,-1,-1,-1,-1,-1,-1,-1,-1,-1,-1,-1,-1,-1,-1,-1],"loss_changes":[5.521739E3,1.8034698E3,1.3535112E3,9.22614E2,4.9085916E2,6.677256E2,1.3351562E2,2.5014087E2,1.7808945E2,1.4603357E2,2.5503687E2,2.6596738E2,2.2312183E2,4.9891785E1,5.2065186E1,0E0,0E0,0E0,0E0,0E0,0E0,0E0,0E0,0E0,0E0,0E0,0E0,0E0,0E0,0E0,0E0],"parents":[2147483647,0,0,1,1,2,2,3,3,4,4,5,5,6,6,7,7,8,8,9,9,10,10,11,11,12,12,13,13,14,14],"right_children":[2,4,6,8,10,12,14,16,18,20,22,24,26,28,30,-1,-1,-1,-1,-1,-1,-1,-1,-1,-1,-1,-1,-1,-1,-1,-1],"split_conditions":[1.8E0,1.18E1,5.3E0,1.81E1,1.59E1,2.1E1,2.6E0,-1.5E0,1.702E3,5.47E-1,6E-1,1.64E1,2.49E-1,7.1E0,5.92E-1,-1.3590111E-1,-7.813566E-2,-4.914508E-2,-4.435295E-3,-7.08998E-2,7.0417733E-3,4.2427924E-2,1.315916E-1,-1.04818224E-4,1.4117907E-1,1.8283884E-1,1.0279713E-1,-8.377943E-2,2.1332827E-1,2.6483878E-1,3.9854607E-1],"split_indices":[23,10,20,15,15,15,17,22,3,5,20,10,6,9,5,0,0,0,0,0,0,0,0,0,0,0,0,0,0,0,0],"split_type":[0,0,0,0,0,0,0,0,0,0,0,0,0,0,0,0,0,0,0,0,0,0,0,0,0,0,0,0,0,0,0],"sum_hessian":[3.027E3,2.383E3,6.44E2,1.673E3,7.1E2,5.61E2,8.3E1,7.79E2,8.94E2,2.48E2,4.62E2,2.02E2,3.59E2,2.2E1,6.1E1,3.29E2,4.5E2,4.75E2,4.19E2,1E2,1.48E2,3.59E2,1.03E2,1.61E2,4.1E1,1.78E2,1.81E2,1E0,2.1E1,2.1E1,4E1],"tree_param":{"num_deleted":"0","num_feature":"29","num_nodes":"31","size_leaf_vector":"1"}},{"base_weights":[-5.994834E-3,-1.1475495E0,2.250128E0,-1.9151344E0,-4.35585E-1,1.3719698E0,4.170582E0,-2.70571E0,-1.6956689E0,-1.21039964E-1,-1.001779E0,9.1983646E-1,2.0200787E0,3.7742467E0,7.4791036E0,-1.19900875E-1,-1.9502531E-1,-6.135437E-2,-1.0166847E-1,-1.7378785E-2,2.964376E-2,-5.47131E-2,1.3552262E-2,2.568226E-2,7.5162545E-2,5.9394456E-2,1.2106589E-1,1.6611324E-1,2.2846203E-1,3.8824955E-1,1.0159512E-1],"categories":[],"categories_nodes":[],"categories_segments":[],"categories_sizes":[],"default_left":[0,0,0,0,0,0,0,0,0,0,0,0,0,0,0,0,0,0,0,0,0,0,0,0,0,0,0,0,0,0,0],"id":12,"left_children":[1,3,5,7,9,11,13,15,17,19,21,23,25,27,29,-1,-1,-1,-1,-1,-1,-1,-1,-1,-1,-1,-1,-1,-1,-1,-1],"loss_changes":[7.7805547E3,1.0954312E3,1.7060376E3,1.628435E2,1.8545213E2,2.0267786E2,3.8875977E2,6.7113525E1,1.1745093E2,1.08725075E2,4.4086487E1,9.70997E1,9.262109E1,8.758618E1,3.561267E1,0E0,0E0,0E0,0E0,0E0,0E0,0E0,0E0,0E0,0E0,0E0,0E0,0E0,0E0,0E0,0E0],"parents":[2147483647,0,0,1,1,2,2,3,3,4,4,5,5,6,6,7,7,8,8,9,9,10,10,11,11,12,12,13,13,14,14],"right_children":[2,4,6,8,10,12,14,16,18,20,22,24,26,28,30,-1,-1,-1,-1,-1,-1,-1,-1,-1,-1,-1,-1,-1,-1,-1,-1],"split_conditions":[1.62E1,1.27E1,2.06E1,9.3E0,3.91E-1,1.81E1,2.7E1,5.26E-1,3.75E-1,1.96E1,3.14E-1,3.1E-1,4.2E1,2.34E1,5.7E0,-1.19900875E-1,-1.9502531E-1,-6.135437E-2,-1.0166847E-1,-1.7378785E-2,2.964376E-2,-5.47131E-2,1.3552262E-2,2.568226E-2,7.5162545E-2,5.9394456E-2,1.2106589E-1,1.6611324E-1,2.2846203E-1,3.8824955E-1,1.0159512E-1],"split_indices":[4,4,4,4,6,4,4,5,6,9,7,7,2,4,13,0,0,0,0,0,0,0,0,0,0,0,0,0,0,0,0],"split_type":[0,0,0,0,0,0,0,0,0,0,0,0,0,0,0,0,0,0,0,0,0,0,0,0,0,0,0,0,0,0,0],"sum_hessian":[3.019E3,2.005E3,1.014E3,9.64E2,1.041E3,6.97E2,3.17E2,2.07E2,7.57E2,6.7E2,3.71E2,4.12E2,2.85E2,2.85E2,3.2E1,1.67E2,4E1,3.19E2,4.38E2,5.09E2,1.61E2,3.46E2,2.5E1,2.44E2,1.68E2,9.4E1,1.91E2,1.85E2,1E2,3E1,2E0],"tree_param":{"num_deleted":"0","num_feature":"29","num_nodes":"31","size_leaf_vector":"1"}},{"base_weights":[2.1783933E-2,-6.379454E-1,2.3156998E0,-1.2876723E0,4.3033537E-1,1.3087693E0,4.2040167E0,-7.349672E-1,-1.9290962E0,-3.8605362E-1,9.617031E-1,1.7480133E0,-3.1865034E-1,3.2910895E0,5.776346E0,-6.43736E-2,-6.918171E-3,-1.3101138E-1,-7.591582E-2,-3.223656E-2,1.1566545E-1,1.8019043E-2,8.136936E-2,4.7819708E-2,1.2429712E-1,-8.478923E-2,2.5647053E-2,9.030528E-2,1.8960282E-1,2.002106E-1,3.2447097E-1],"categories":[],"categories_nodes":[],"categories_segments":[],"categories_sizes":[],"default_left":[0,0,0,0,0,0,0,0,0,0,0,0,0,0,0,0,0,0,0,0,0,0,0,0,0,0,0,0,0,0,0],"id":13,"left_children":[1,3,5,7,9,11,13,15,17,19,21,23,25,27,29,-1,-1,-1,-1,-1,-1,-1,-1,-1,-1,-1,-1,-1,-1,-1,-1],"loss_changes":[4.5869688E3,1.6344438E3,1.2817485E3,5.175969E2,3.8688953E2,3.172284E2,3.1831396E2,2.5956747E2,1.8822388E2,2.4728062E2,2.1557053E2,2.014939E2,1.0966508E2,1.0548413E2,8.142627E1,0E0,0E0,0E0,0E0,0E0,0E0,0E0,0E0,0E0,0E0,0E0,0E0,0E0,0E0,0E0,0E0],"parents":[2147483647,0,0,1,1,2,2,3,3,4,4,5,5,6,6,7,7,8,8,9,9,10,10,11,11,12,12,13,13,14,14],"right_children":[2,4,6,8,10,12,14,16,18,20,22,24,26,28,30,-1,-1,-1,-1,-1,-1,-1,-1,-1,-1,-1,-1,-1,-1,-1,-1],"split_conditions":[1.41E-1,2.03E1,2.4E1,4.03E-1,2.5E0,3.46E-1,5.3E0,8.9E-2,2E-1,1.61E1,2.37E1,9E-1,2.18E-1,1.14E1,1.17E1,-6.43736E-2,-6.918171E-3,-1.3101138E-1,-7.591582E-2,-3.223656E-2,1.1566545E-1,1.8019043E-2,8.136936E-2,4.7819708E-2,1.2429712E-1,-8.478923E-2,2.5647053E-2,9.030528E-2,1.8960282E-1,2.002106E-1,3.2447097E-1],"split_indices":[19,15,15,6,18,6,20,19,23,10,15,20,7,9,14,0,0,0,0,0,0,0,0,0,0,0,0,0,0,0,0],"split_type":[0,0,0,0,0,0,0,0,0,0,0,0,0,0,0,0,0,0,0,0,0,0,0,0,0,0,0,0,0,0,0],"sum_hessian":[3.029E3,2.353E3,6.76E2,1.463E3,8.9E2,4.42E2,2.34E2,7.87E2,6.76E2,3.51E2,5.39E2,3.48E2,9.4E1,1.5E2,8.4E1,4.08E2,3.79E2,2.5E2,4.26E2,3.21E2,3E1,2.84E2,2.55E2,1.69E2,1.79E2,3.5E1,5.9E1,3.9E1,1.11E2,2.6E1,5.8E1],"tree_param":{"num_deleted":"0","num_feature":"29","num_nodes":"31","size_leaf_vector":"1"}},{"base_weights":[1.7825404E-2,-8.760098E-1,2.401725E0,-1.5976865E0,-1.158881E-1,1.6350034E0,4.3116016E0,-2.0048652E0,-1.1378546E0,9.994513E-1,-2.4677943E-1,2.5117257E0,1.3521386E0,3.8815E0,6.6707134E0,-1.1377938E-1,-4.3622278E-2,-7.095991E-2,-2.7461251E-2,7.5764335E-3,8.5989326E-2,-2.2438286E-2,2.0841619E-2,6.124214E-2,1.5645017E-1,5.967771E-2,1.3415734E-1,2.3331971E-1,1.6531345E-1,3.4604004E-1,1.50117E-1],"categories":[],"categories_nodes":[],"categories_segments":[],"categories_sizes":[],"default_left":[0,0,0,0,0,0,0,0,0,0,0,0,0,0,0,0,0,0,0,0,0,0,0,0,0,0,0,0,0,0,0],"id":14,"left_children":[1,3,5,7,9,11,13,15,17,19,21,23,25,27,29,-1,-1,-1,-1,-1,-1,-1,-1,-1,-1,-1,-1,-1,-1,-1,-1],"loss_changes":[6.454208E3,1.2082972E3,1.202498E3,2.0929297E2,1.5703804E2,1.4316821E2,2.135669E2,1.8134448E2,8.7489136E1,6.8758514E1,1.29134E2,1.09761536E2,9.157117E1,7.5773926E1,1.1330811E1,0E0,0E0,0E0,0E0,0E0,0E0,0E0,0E0,0E0,0E0,0E0,0E0,0E0,0E0,0E0,0E0],"parents":[2147483647,0,0,1,1,2,2,3,3,4,4,5,5,6,6,7,7,8,8,9,9,10,10,11,11,12,12,13,13,14,14],"right_children":[2,4,6,8,10,12,14,16,18,20,22,24,26,28,30,-1,-1,-1,-1,-1,-1,-1,-1,-1,-1,-1,-1,-1,-1,-1,-1],"split_conditions":[1.7E1,1.32E1,2.15E1,1.14E1,2.2E1,2.4E1,2.7E1,1.84E1,1.5E1,1.46E1,1.88E1,4.1E0,2.687E3,2.6E1,6.49E-1,-1.1377938E-1,-4.3622278E-2,-7.095991E-2,-2.7461251E-2,7.5764335E-3,8.5989326E-2,-2.2438286E-2,2.0841619E-2,6.124214E-2,1.5645017E-1,5.967771E-2,1.3415734E-1,2.3331971E-1,1.6531345E-1,3.4604004E-1,1.50117E-1],"split_indices":[4,4,4,4,0,0,4,15,9,4,9,18,3,0,5,0,0,0,0,0,0,0,0,0,0,0,0,0,0,0,0],"split_type":[0,0,0,0,0,0,0,0,0,0,0,0,0,0,0,0,0,0,0,0,0,0,0,0,0,0,0,0,0,0,0],"sum_hessian":[3.027E3,2.202E3,8.25E2,1.129E3,1.073E3,5.9E2,2.35E2,5.97E2,5.32E2,1.12E2,9.61E2,1.42E2,4.48E2,2.01E2,3.4E1,4.81E2,1.16E2,3.59E2,1.73E2,5.2E1,6E1,7.37E2,2.24E2,4.7E1,9.5E1,4.02E2,4.6E1,8.2E1,1.19E2,3.1E1,3E0],"tree_param":{"num_deleted":"0","num_feature":"29","num_nodes":"31","size_leaf_vector":"1"}},{"base_weights":[-6.902961E-4,-1.0251153E0,1.9878418E0,-1.9621038E0,-4.662702E-1,1.3287876E0,4.1447024E0,-1.6997178E0,-2.6716197E0,-8.4940535E-1,-4.2767316E-2,8.8661444E-1,2.0957215E0,3.6853127E0,6.756369E0,-6.558741E-2,-1.08770244E-1,-1.439716E-1,-8.522191E-2,-2.8827319E-2,-6.9749154E-2,5.7732876E-2,-8.65177E-3,2.4232108E-2,7.0771866E-2,9.5880985E-2,1.7358707E-1,1.8863183E-1,5.8320523E-3,3.5352352E-1,1.2772329E-1],"categories":[],"categories_nodes":[],"categories_segments":[],"categories_sizes":[],"default_left":[0,0,0,0,0,0,0,0,0,0,0,0,0,0,0,0,0,0,0,0,0,0,0,0,0,0,0,0,0,0,0],"id":15,"left_children":[1,3,5,7,9,11,13,15,17,19,21,23,25,27,29,-1,-1,-1,-1,-1,-1,-1,-1,-1,-1,-1,-1,-1,-1,-1,-1],"loss_changes":[6.2070503E3,1.0521082E3,1.467154E3,1.3527026E2,2.0457202E2,2.6774036E2,2.654458E2,9.883447E1,3.549182E1,9.7744934E1,9.3791534E1,1.0687552E2,6.441333E1,6.437891E1,2.8132568E1,0E0,0E0,0E0,0E0,0E0,0E0,0E0,0E0,0E0,0E0,0E0,0E0,0E0,0E0,0E0,0E0],"parents":[2147483647,0,0,1,1,2,2,3,3,4,4,5,5,6,6,7,7,8,8,9,9,10,10,11,11,12,12,13,13,14,14],"right_children":[2,4,6,8,10,12,14,16,18,20,22,24,26,28,30,-1,-1,-1,-1,-1,-1,-1,-1,-1,-1,-1,-1,-1,-1,-1,-1],"split_conditions":[1.62E1,1.19E1,2.15E1,5.42E-1,1.41E1,1.88E1,2.7E1,2.6E1,1.05E-1,2.8E1,2.2E1,3.1E-1,2.76E1,7.1E0,5.44E-1,-6.558741E-2,-1.08770244E-1,-1.439716E-1,-8.522191E-2,-2.8827319E-2,-6.9749154E-2,5.7732876E-2,-8.65177E-3,2.4232108E-2,7.0771866E-2,9.5880985E-2,1.7358707E-1,1.8863183E-1,5.8320523E-3,3.5352352E-1,1.2772329E-1],"split_indices":[4,4,4,5,4,4,4,0,19,0,0,7,9,20,6,0,0,0,0,0,0,0,0,0,0,0,0,0,0,0,0],"split_type":[0,0,0,0,0,0,0,0,0,0,0,0,0,0,0,0,0,0,0,0,0,0,0,0,0,0,0,0,0,0,0],"sum_hessian":[3.045E3,2.01E3,1.035E3,7.5E2,1.26E3,7.94E2,2.41E2,5.5E2,2E2,6.61E2,5.99E2,5.05E2,2.89E2,2.07E2,3.4E1,3.05E2,2.45E2,1.63E2,3.7E1,4.42E2,2.19E2,5.8E1,5.41E2,2.88E2,2.17E2,2.58E2,3.1E1,2.02E2,5E0,3.1E1,3E0],"tree_param":{"num_deleted":"0","num_feature":"29","num_nodes":"31","size_leaf_vector":"1"}},{"base_weights":[-8.917476E-3,-8.391565E-1,2.2064242E0,-1.5091858E0,-8.651707E-2,1.5941299E0,4.0906796E0,-2.4300675E0,-1.3137274E0,4.3195605E-1,-3.9311916E-1,3.2294416E0,1.4376305E0,3.58603E0,6.203307E0,-1.337019E-1,-5.8013488E-2,-5.6573268E-2,-9.852875E-2,8.575133E-3,7.048841E-2,2.6074657E-3,-3.435195E-2,1.24186635E-1,2.5646824E-1,3.638773E-2,8.9110985E-2,2.2944306E-1,1.4099552E-1,3.2110012E-1,1.396787E-1],"categories":[],"categories_nodes":[],"categories_segments":[],"categories_sizes":[],"default_left":[0,0,0,0,0,0,0,0,0,0,0,0,0,0,0,0,0,0,0,0,0,0,0,0,0,0,0,0,0,0,0],"id":16,"left_children":[1,3,5,7,9,11,13,15,17,19,21,23,25,27,29,-1,-1,-1,-1,-1,-1,-1,-1,-1,-1,-1,-1,-1,-1,-1,-1],"loss_changes":[5.4920522E3,1.0951884E3,9.326062E2,2.036206E2,1.629499E2,1.530072E2,1.8991553E2,5.885608E1,1.1150281E2,9.67892E1,8.431818E1,6.2349854E1,1.3666626E2,1.12291016E2,9.6501465E0,0E0,0E0,0E0,0E0,0E0,0E0,0E0,0E0,0E0,0E0,0E0,0E0,0E0,0E0,0E0,0E0],"parents":[2147483647,0,0,1,1,2,2,3,3,4,4,5,5,6,6,7,7,8,8,9,9,10,10,11,11,12,12,13,13,14,14],"right_children":[2,4,6,8,10,12,14,16,18,20,22,24,26,28,30,-1,-1,-1,-1,-1,-1,-1,-1,-1,-1,-1,-1,-1,-1,-1,-1],"split_conditions":[1.7E1,1.33E1,2.19E1,9.3E0,2.5E1,2.2E1,2.69E1,1.56E1,5.51E-1,3.65E-1,2.75E-1,2.1E0,4E1,2.6E1,6.49E-1,-1.337019E-1,-5.8013488E-2,-5.6573268E-2,-9.852875E-2,8.575133E-3,7.048841E-2,2.6074657E-3,-3.435195E-2,1.24186635E-1,2.5646824E-1,3.638773E-2,8.9110985E-2,2.2944306E-1,1.4099552E-1,3.2110012E-1,1.396787E-1],"split_indices":[4,4,4,4,0,0,4,11,6,7,6,23,2,0,5,0,0,0,0,0,0,0,0,0,0,0,0,0,0,0,0],"split_type":[0,0,0,0,0,0,0,0,0,0,0,0,0,0,0,0,0,0,0,0,0,0,0,0,0,0,0,0,0,0,0],"sum_hessian":[2.984E3,2.171E3,8.13E2,1.148E3,1.023E3,6.15E2,1.98E2,1.99E2,9.49E2,3.8E2,6.43E2,5.2E1,5.63E2,1.62E2,3.6E1,1.66E2,3.3E1,7.45E2,2.04E2,3.01E2,7.9E1,2.56E2,3.87E2,3.9E1,1.3E1,1.85E2,3.78E2,6.8E1,9.4E1,3.3E1,3E0],"tree_param":{"num_deleted":"0","num_feature":"29","num_nodes":"31","size_leaf_vector":"1"}},{"base_weights":[2.2692032E-2,-8.9841205E-1,1.7417128E0,-1.4033875E0,-1.8197161E-1,1.1607268E0,3.7224634E0,-1.7496918E0,-1.0391493E0,5.299909E-2,-7.9208666E-1,7.837316E-1,1.8500232E0,3.320212E0,6.026488E0,-9.9719964E-2,-3.5386775E-2,-3.9562505E-2,-7.952789E-2,-6.2130163E-3,5.2113403E-2,-5.1817633E-2,2.8176934E-2,6.1686803E-2,1.8892542E-2,1.3487367E-1,7.00408E-2,1.344865E-1,1.938868E-1,3.1603435E-1,1.1199122E-1],"categories":[],"categories_nodes":[],"categories_segments":[],"categories_sizes":[],"default_left":[0,0,0,0,0,0,0,0,0,0,0,0,0,0,0,0,0,0,0,0,0,0,0,0,0,0,0,0,0,0,0],"id":17,"left_children":[1,3,5,7,9,11,13,15,17,19,21,23,25,27,29,-1,-1,-1,-1,-1,-1,-1,-1,-1,-1,-1,-1,-1,-1,-1,-1],"loss_changes":[4.751756E3,7.066725E2,1.2005544E3,1.427351E2,1.1601953E2,2.0929773E2,1.9964185E2,1.4800354E2,7.54267E1,1.0271349E2,7.508899E1,9.560678E1,1.0509607E2,6.1277832E1,2.3719849E1,0E0,0E0,0E0,0E0,0E0,0E0,0E0,0E0,0E0,0E0,0E0,0E0,0E0,0E0,0E0,0E0],"parents":[2147483647,0,0,1,1,2,2,3,3,4,4,5,5,6,6,7,7,8,8,9,9,10,10,11,11,12,12,13,13,14,14],"right_children":[2,4,6,8,10,12,14,16,18,20,22,24,26,28,30,-1,-1,-1,-1,-1,-1,-1,-1,-1,-1,-1,-1,-1,-1,-1,-1],"split_conditions":[1.61E1,1.33E1,2.15E1,1.14E1,5.72E-1,1.88E1,2.7E1,1.85E1,2.9E1,2.07E1,9.7E0,2.6E1,2.5E1,8.1E-2,5.7E0,-9.9719964E-2,-3.5386775E-2,-3.9562505E-2,-7.952789E-2,-6.2130163E-3,5.2113403E-2,-5.1817633E-2,2.8176934E-2,6.1686803E-2,1.8892542E-2,1.3487367E-1,7.00408E-2,1.344865E-1,1.938868E-1,3.1603435E-1,1.1199122E-1],"split_indices":[4,4,4,4,5,4,4,15,0,9,8,0,0,6,13,0,0,0,0,0,0,0,0,0,0,0,0,0,0,0,0],"split_type":[0,0,0,0,0,0,0,0,0,0,0,0,0,0,0,0,0,0,0,0,0,0,0,0,0,0,0,0,0,0,0],"sum_hessian":[2.999E3,1.953E3,1.046E3,1.145E3,8.08E2,8.1E2,2.36E2,5.85E2,5.6E2,5.84E2,2.24E2,5.25E2,2.85E2,2.03E2,3.3E1,4.73E2,1.12E2,3.88E2,1.72E2,4.96E2,8.8E1,1.9E2,3.4E1,2.48E2,2.77E2,9.7E1,1.88E2,9.8E1,1.05E2,3E1,3E0],"tree_param":{"num_deleted":"0","num_feature":"29","num_nodes":"31","size_leaf_vector":"1"}},{"base_weights":[1.1173234E-2,-8.279353E-1,1.7697828E0,-1.5399238E0,-3.3780053E-1,1.0784125E0,3.201158E0,-1.9675384E0,-1.2396423E0,1.6346213E-1,-6.460778E-1,7.36706E-1,1.4995936E0,2.4703853E0,4.30091E0,-1.2502736E-1,-7.340081E-2,-6.724517E-2,3.0826356E-3,-2.124035E-3,5.559036E-2,-4.8863236E-2,-1.4849226E-2,1.4334491E-2,6.0513057E-2,1.2090721E-1,6.153294E-2,-1.0642641E-1,1.2526213E-1,1.8833628E-1,2.8460982E-1],"categories":[],"categories_nodes":[],"categories_segments":[],"categories_sizes":[],"default_left":[0,0,0,0,0,0,0,0,0,0,0,0,0,0,0,0,0,0,0,0,0,0,0,0,0,0,0,0,0,0,0],"id":18,"left_children":[1,3,5,7,9,11,13,15,17,19,21,23,25,27,29,-1,-1,-1,-1,-1,-1,-1,-1,-1,-1,-1,-1,-1,-1,-1,-1],"loss_changes":[4.481582E3,7.1696277E2,9.673557E2,1.0516406E2,1.8847511E2,9.431445E1,2.4574512E2,8.791919E1,6.7885925E1,9.0864E1,8.6999146E1,7.8076584E1,7.014502E1,3.6431885E1,7.220288E1,0E0,0E0,0E0,0E0,0E0,0E0,0E0,0E0,0E0,0E0,0E0,0E0,0E0,0E0,0E0,0E0],"parents":[2147483647,0,0,1,1,2,2,3,3,4,4,5,5,6,6,7,7,8,8,9,9,10,10,11,11,12,12,13,13,14,14],"right_children":[2,4,6,8,10,12,14,16,18,20,22,24,26,28,30,-1,-1,-1,-1,-1,-1,-1,-1,-1,-1,-1,-1,-1,-1,-1,-1],"split_conditions":[1.64E1,1.23E1,2.06E1,1.5E1,2.5E1,1.81E1,2.36E1,8.2E0,1.17E1,3.65E-1,2.35E-1,1.26E1,2.4E1,-8E-1,2.73E1,-1.2502736E-1,-7.340081E-2,-6.724517E-2,3.0826356E-3,-2.124035E-3,5.559036E-2,-4.8863236E-2,-1.4849226E-2,1.4334491E-2,6.0513057E-2,1.2090721E-1,6.153294E-2,-1.0642641E-1,1.2526213E-1,1.8833628E-1,2.8460982E-1],"split_indices":[4,4,4,15,0,4,4,10,10,7,7,14,0,20,4,0,0,0,0,0,0,0,0,0,0,0,0,0,0,0,0],"split_type":[0,0,0,0,0,0,0,0,0,0,0,0,0,0,0,0,0,0,0,0,0,0,0,0,0,0,0,0,0,0,0],"sum_hessian":[3.035E3,2.055E3,9.8E2,8.37E2,1.218E3,6.62E2,3.18E2,3.43E2,4.94E2,4.64E2,7.54E2,3.67E2,2.95E2,1.93E2,1.25E2,1.64E2,1.79E2,4.57E2,3.7E1,3.82E2,8.2E1,3.86E2,3.68E2,1.89E2,1.78E2,6.5E1,2.3E2,1E0,1.92E2,9.3E1,3.2E1],"tree_param":{"num_deleted":"0","num_feature":"29","num_nodes":"31","size_leaf_vector":"1"}},{"base_weights":[1.7036013E-2,-7.9676986E-1,1.6842479E0,-1.373208E0,-2.6399934E-1,1.014101E0,3.0758216E0,-1.6097082E0,-7.7871954E-1,-4.2699385E-1,4.9137095E-1,4.2071065E-1,1.3172429E0,2.3426163E0,4.1432605E0,-4.9515158E-2,-9.277348E-2,-2.0929253E-2,-6.390288E-2,-9.13111E-3,-4.3867763E-2,-6.7113295E-2,3.2375824E-2,1.5276424E-2,1.2294654E-1,1.051541E-1,4.58585E-2,2.8707808E-2,1.22866206E-1,1.355922E-1,2.3447311E-1],"categories":[],"categories_nodes":[],"categories_segments":[],"categories_sizes":[],"default_left":[0,0,0,0,0,0,0,0,0,0,0,0,0,0,0,0,0,0,0,0,0,0,0,0,0,0,0,0,0,0,0],"id":19,"left_children":[1,3,5,7,9,11,13,15,17,19,21,23,25,27,29,-1,-1,-1,-1,-1,-1,-1,-1,-1,-1,-1,-1,-1,-1,-1,-1],"loss_changes":[4.0784866E3,6.1999817E2,9.1638354E2,1.3512512E2,1.2961018E2,1.1942676E2,2.4074268E2,1.0365515E2,4.945746E1,9.503784E1,5.4409904E1,5.2540756E1,1.3671838E2,3.7537354E1,8.814038E1,0E0,0E0,0E0,0E0,0E0,0E0,0E0,0E0,0E0,0E0,0E0,0E0,0E0,0E0,0E0,0E0],"parents":[2147483647,0,0,1,1,2,2,3,3,4,4,5,5,6,6,7,7,8,8,9,9,10,10,11,11,12,12,13,13,14,14],"right_children":[2,4,6,8,10,12,14,16,18,20,22,24,26,28,30,-1,-1,-1,-1,-1,-1,-1,-1,-1,-1,-1,-1,-1,-1,-1,-1],"split_conditions":[1.63E1,1.27E1,2.06E1,1.81E1,1.96E1,1.6E0,2.35E1,3.1E-1,1.6E0,2.8E1,7E-1,1.95E1,2.5E1,3.6E0,2.6E0,-4.9515158E-2,-9.277348E-2,-2.0929253E-2,-6.390288E-2,-9.13111E-3,-4.3867763E-2,-6.7113295E-2,3.2375824E-2,1.5276424E-2,1.2294654E-1,1.051541E-1,4.58585E-2,2.8707808E-2,1.22866206E-1,1.355922E-1,2.3447311E-1],"split_indices":[4,4,4,15,9,17,4,6,12,0,12,10,0,18,17,0,0,0,0,0,0,0,0,0,0,0,0,0,0,0,0],"split_type":[0,0,0,0,0,0,0,0,0,0,0,0,0,0,0,0,0,0,0,0,0,0,0,0,0,0,0,0,0,0,0],"sum_hessian":[3.004E3,2.019E3,9.85E2,9.69E2,1.05E3,6.66E2,3.19E2,6.92E2,2.77E2,8.64E2,1.86E2,2.26E2,4.4E2,1.91E2,1.28E2,1.98E2,4.94E2,1.62E2,1.15E2,5.61E2,3.03E2,1.4E1,1.72E2,2.15E2,1.1E1,1.47E2,2.93E2,1.2E1,1.79E2,3.7E1,9.1E1],"tree_param":{"num_deleted":"0","num_feature":"29","num_nodes":"31","size_leaf_vector":"1"}},{"base_weights":[-7.4650655E-3,-6.252168E-1,1.8507223E0,-1.2041392E0,-2.3866313E-2,1.4161606E0,3.7943273E0,-1.6725259E0,-9.467015E-1,6.132396E-1,-1.6768003E-1,2.2196622E0,1.155602E0,2.0414276E0,4.1485586E0,-6.683177E-2,-1.2433461E-1,-3.7680354E-2,-7.891253E-2,1.2187362E-2,7.117345E-2,-1.6237658E-2,2.0228451E-2,4.8206072E-2,1.3495004E-1,4.1384768E-2,9.330063E-2,-9.2285E-2,1.2298433E-1,1.2257054E-1,2.2659598E-1],"categories":[],"categories_nodes":[],"categories_segments":[],"categories_sizes":[],"default_left":[0,0,0,0,0,0,0,0,0,0,0,0,0,0,0,0,0,0,0,0,0,0,0,0,0,0,0,0,0,0,0],"id":20,"left_children":[1,3,5,7,9,11,13,15,17,19,21,23,25,27,29,-1,-1,-1,-1,-1,-1,-1,-1,-1,-1,-1,-1,-1,-1,-1,-1],"loss_changes":[3.4643665E3,7.8849774E2,6.3062256E2,1.3756628E2,1.0198935E2,1.2660962E2,7.659863E1,1.0825232E2,8.990625E1,6.1024612E1,8.174691E1,8.767224E1,1.0747528E2,4.518548E1,6.24104E1,0E0,0E0,0E0,0E0,0E0,0E0,0E0,0E0,0E0,0E0,0E0,0E0,0E0,0E0,0E0,0E0],"parents":[2147483647,0,0,1,1,2,2,3,3,4,4,5,5,6,6,7,7,8,8,9,9,10,10,11,11,12,12,13,13,14,14],"right_children":[2,4,6,8,10,12,14,16,18,20,22,24,26,28,30,-1,-1,-1,-1,-1,-1,-1,-1,-1,-1,-1,-1,-1,-1,-1,-1],"split_conditions":[1.74E1,1.33E1,2.34E1,1.06E1,2.3E1,2.4E1,2E0,5.27E-1,3E1,1.42E1,2.6E0,4.1E0,2.05E1,6.4E0,1.3E0,-6.683177E-2,-1.2433461E-1,-3.7680354E-2,-7.891253E-2,1.2187362E-2,7.117345E-2,-1.6237658E-2,2.0228451E-2,4.8206072E-2,1.3495004E-1,4.1384768E-2,9.330063E-2,-9.2285E-2,1.2298433E-1,1.2257054E-1,2.2659598E-1],"split_indices":[4,4,4,4,0,0,17,5,0,14,13,18,4,10,12,0,0,0,0,0,0,0,0,0,0,0,0,0,0,0,0],"split_type":[0,0,0,0,0,0,0,0,0,0,0,0,0,0,0,0,0,0,0,0,0,0,0,0,0,0,0,0,0,0,0],"sum_hessian":[3.016E3,2.264E3,7.52E2,1.153E3,1.111E3,6.16E2,1.36E2,4.07E2,7.46E2,2.04E2,9.07E2,1.49E2,4.67E2,2.4E1,1.12E2,2.9E2,1.17E2,5.73E2,1.73E2,1.41E2,6.3E1,7.12E2,1.95E2,4.2E1,1.07E2,3.21E2,1.46E2,2E0,2.2E1,2.2E1,9E1],"tree_param":{"num_deleted":"0","num_feature":"29","num_nodes":"31","size_leaf_vector":"1"}},{"base_weights":[1.5917273E-2,-7.113121E-1,1.4596025E0,-1.2991065E0,-2.770796E-1,1.0054798E0,3.0567071E0,-6.879701E-1,-1.5309969E0,-8.903231E-2,-7.9866683E-1,6.656248E-1,1.5535709E0,2.6893563E0,5.1767697E0,-1.1691425E-2,-6.332495E-2,-1.261804E-1,-6.884306E-2,-1.172992E-2,3.029794E-2,-5.359946E-2,-6.3872696E-3,2.1859339E-2,6.9104016E-2,6.556808E-2,1.3599537E-1,1.3888313E-1,-2.6289735E-2,2.691648E-1,6.929601E-2],"categories":[],"categories_nodes":[],"categories_segments":[],"categories_sizes":[],"default_left":[0,0,0,0,0,0,0,0,0,0,0,0,0,0,0,0,0,0,0,0,0,0,0,0,0,0,0,0,0,0,0],"id":21,"left_children":[1,3,5,7,9,11,13,15,17,19,21,23,25,27,29,-1,-1,-1,-1,-1,-1,-1,-1,-1,-1,-1,-1,-1,-1,-1,-1],"loss_changes":[3.1780066E3,5.134371E2,7.323618E2,1.2011438E2,1.13607185E2,1.463067E2,1.6053052E2,6.1971817E1,9.123047E1,8.643773E1,5.616005E1,7.9591965E1,8.174744E1,5.625647E1,1.7592285E1,0E0,0E0,0E0,0E0,0E0,0E0,0E0,0E0,0E0,0E0,0E0,0E0,0E0,0E0,0E0,0E0],"parents":[2147483647,0,0,1,1,2,2,3,3,4,4,5,5,6,6,7,7,8,8,9,9,10,10,11,11,12,12,13,13,14,14],"right_children":[2,4,6,8,10,12,14,16,18,20,22,24,26,28,30,-1,-1,-1,-1,-1,-1,-1,-1,-1,-1,-1,-1,-1,-1,-1,-1],"split_conditions":[1.62E1,1.23E1,2.17E1,3.1E-1,2.9E1,1.88E1,2.7E1,2.6E1,8.5E0,8.7E0,1.09E1,1.51E1,2.59E1,7.1E0,5.44E-1,-1.1691425E-2,-6.332495E-2,-1.261804E-1,-6.884306E-2,-1.172992E-2,3.029794E-2,-5.359946E-2,-6.3872696E-3,2.1859339E-2,6.9104016E-2,6.556808E-2,1.3599537E-1,1.3888313E-1,-2.6289735E-2,2.691648E-1,6.929601E-2],"split_indices":[4,4,4,6,0,4,4,0,4,8,10,14,9,20,6,0,0,0,0,0,0,0,0,0,0,0,0,0,0,0,0],"split_type":[0,0,0,0,0,0,0,0,0,0,0,0,0,0,0,0,0,0,0,0,0,0,0,0,0,0,0,0,0,0,0],"sum_hessian":[3.025E3,2.012E3,1.013E3,8.54E2,1.158E3,7.9E2,2.23E2,2.36E2,6.18E2,8.52E2,3.06E2,4.89E2,3.01E2,1.92E2,3.1E1,1.33E2,1.03E2,8.1E1,5.37E2,7.05E2,1.47E2,2.17E2,8.9E1,3.72E2,1.17E2,2.51E2,5E1,1.87E2,5E0,2.9E1,2E0],"tree_param":{"num_deleted":"0","num_feature":"29","num_nodes":"31","size_leaf_vector":"1"}},{"base_weights":[-2.7382012E-2,-5.853995E-1,1.8234677E0,-1.1554667E0,-5.1686797E-2,1.4368258E0,3.3708193E0,-9.8854816E-1,-1.8254341E0,3.8431266E-1,-3.0590448E-1,7.7773654E-1,1.713776E0,3.68803E0,1.8381255E0,-4.150827E-2,-8.3968E-2,-1.2558666E-1,-6.455435E-2,3.8907228E-3,5.513655E-2,1.7184085E-1,-1.6507853E-2,1.18583396E-1,2.4877854E-2,9.8935924E-2,4.253549E-2,1.100024E-1,2.0384566E-1,1.19362764E-1,3.2968522E-4],"categories":[],"categories_nodes":[],"categories_segments":[],"categories_sizes":[],"default_left":[0,0,0,0,0,0,0,0,0,0,0,0,0,0,0,0,0,0,0,0,0,0,0,0,0,0,0,0,0,0,0],"id":22,"left_children":[1,3,5,7,9,11,13,15,17,19,21,23,25,27,29,-1,-1,-1,-1,-1,-1,-1,-1,-1,-1,-1,-1,-1,-1,-1,-1],"loss_changes":[3.1387334E3,7.103689E2,4.163396E2,1.24451416E2,1.3389995E2,1.0179944E2,6.128711E1,9.7733765E1,7.890289E1,9.79005E1,7.039267E1,7.429313E1,8.9095825E1,5.757544E1,2.6133736E1,0E0,0E0,0E0,0E0,0E0,0E0,0E0,0E0,0E0,0E0,0E0,0E0,0E0,0E0,0E0,0E0],"parents":[2147483647,0,0,1,1,2,2,3,3,4,4,5,5,6,6,7,7,8,8,9,9,10,10,11,11,12,12,13,13,14,14],"right_children":[2,4,6,8,10,12,14,16,18,20,22,24,26,28,30,-1,-1,-1,-1,-1,-1,-1,-1,-1,-1,-1,-1,-1,-1,-1,-1],"split_conditions":[1.77E1,1.32E1,2.34E1,5.72E-1,2.5E1,4.3E1,3E1,3E1,3E-1,2.079E3,2.7E1,6E0,3E1,2.2E0,3.87E-1,-4.150827E-2,-8.3968E-2,-1.2558666E-1,-6.455435E-2,3.8907228E-3,5.513655E-2,1.7184085E-1,-1.6507853E-2,1.18583396E-1,2.4877854E-2,9.8935924E-2,4.253549E-2,1.100024E-1,2.0384566E-1,1.19362764E-1,3.2968522E-4],"split_indices":[4,4,4,6,0,2,0,0,23,3,1,11,0,17,6,0,0,0,0,0,0,0,0,0,0,0,0,0,0,0,0],"split_type":[0,0,0,0,0,0,0,0,0,0,0,0,0,0,0,0,0,0,0,0,0,0,0,0,0,0,0,0,0,0,0],"sum_hessian":[3.037E3,2.334E3,7.03E2,1.128E3,1.206E3,5.64E2,1.39E2,9.05E2,2.23E2,4.44E2,7.62E2,1.68E2,3.96E2,1.14E2,2.5E1,7.38E2,1.67E2,9.6E1,1.27E2,3.12E2,1.32E2,4E0,7.58E2,2.4E1,1.44E2,3.02E2,9.4E1,2.5E1,8.9E1,1.9E1,6E0],"tree_param":{"num_deleted":"0","num_feature":"29","num_nodes":"31","size_leaf_vector":"1"}},{"base_weights":[7.535211E-3,-6.6715914E-1,1.3138094E0,-1.2690648E0,-3.0577114E-1,7.809565E-1,2.5426745E0,-1.0610956E0,-2.0233054E0,1.21177256E-1,-5.726326E-1,1.8853643E0,6.5572155E-1,2.1565495E0,3.713319E0,-5.6573447E-2,2.8729925E-2,-1.1259375E-1,-4.750779E-2,-1.08593084E-1,9.217196E-3,-4.213701E-2,-1.0969017E-2,4.1090395E-2,1.4489825E-1,4.1583788E-2,-6.4170226E-3,2.2204423E-1,1.0181773E-1,7.700558E-2,2.0686562E-1],"categories":[],"categories_nodes":[],"categories_segments":[],"categories_sizes":[],"default_left":[0,0,0,0,0,0,0,0,0,0,0,0,0,0,0,0,0,0,0,0,0,0,0,0,0,0,0,0,0,0,0],"id":23,"left_children":[1,3,5,7,9,11,13,15,17,19,21,23,25,27,29,-1,-1,-1,-1,-1,-1,-1,-1,-1,-1,-1,-1,-1,-1,-1,-1],"loss_changes":[2.6730867E3,4.3465485E2,6.7442725E2,1.1549719E2,1.4260345E2,9.862393E1,1.3302075E2,6.8564575E1,3.735199E1,7.021498E1,7.328552E1,7.623636E1,8.978012E1,5.6028687E1,6.3656372E1,0E0,0E0,0E0,0E0,0E0,0E0,0E0,0E0,0E0,0E0,0E0,0E0,0E0,0E0,0E0,0E0],"parents":[2147483647,0,0,1,1,2,2,3,3,4,4,5,5,6,6,7,7,8,8,9,9,10,10,11,11,12,12,13,13,14,14],"right_children":[2,4,6,8,10,12,14,16,18,20,22,24,26,28,30,-1,-1,-1,-1,-1,-1,-1,-1,-1,-1,-1,-1,-1,-1,-1,-1],"split_conditions":[1.62E1,1.19E1,2.06E1,5.72E-1,2.5E1,2.2E1,5.1E0,4E0,9E-1,2E-1,9.2E0,8E-1,3.83E-1,2.1E1,1.08E1,-5.6573447E-2,2.8729925E-2,-1.1259375E-1,-4.750779E-2,-1.08593084E-1,9.217196E-3,-4.213701E-2,-1.0969017E-2,4.1090395E-2,1.4489825E-1,4.1583788E-2,-6.4170226E-3,2.2204423E-1,1.0181773E-1,7.700558E-2,2.0686562E-1],"split_indices":[4,4,4,6,0,0,23,13,21,13,10,23,6,0,14,0,0,0,0,0,0,0,0,0,0,0,0,0,0,0,0],"split_type":[0,0,0,0,0,0,0,0,0,0,0,0,0,0,0,0,0,0,0,0,0,0,0,0,0,0,0,0,0,0,0],"sum_hessian":[3.031E3,1.999E3,1.032E3,7.49E2,1.25E3,7.21E2,3.11E2,5.89E2,1.6E2,4.81E2,7.69E2,7.2E1,6.49E2,2.36E2,7.5E1,5.65E2,2.4E1,1.31E2,2.9E1,1.2E1,4.69E2,4.35E2,3.34E2,3.6E1,3.6E1,5.3E2,1.19E2,1E1,2.26E2,1.3E1,6.2E1],"tree_param":{"num_deleted":"0","num_feature":"29","num_nodes":"31","size_leaf_vector":"1"}},{"base_weights":[1.91003E-2,-6.310206E-1,1.2498453E0,-1.2686186E0,-3.100546E-1,8.1763095E-1,2.6481695E0,-2.9472873E0,-1.1648577E0,9.069779E-2,-5.565939E-1,1.6655508E0,6.480922E-1,2.344227E0,4.364492E0,-8.562139E-2,-1.7604588E-1,-3.7453372E-2,-7.871551E-2,-2.7541593E-3,4.6264973E-2,-5.701999E-2,-2.0645095E-2,5.6541767E-2,1.4626783E-1,7.7129984E-3,4.6712212E-2,1.5048175E-1,9.28513E-2,2.3088709E-1,5.920291E-2],"categories":[],"categories_nodes":[],"categories_segments":[],"categories_sizes":[],"default_left":[0,0,0,0,0,0,0,0,0,0,0,0,0,0,0,0,0,0,0,0,0,0,0,0,0,0,0,0,0,0,0],"id":24,"left_children":[1,3,5,7,9,11,13,15,17,19,21,23,25,27,29,-1,-1,-1,-1,-1,-1,-1,-1,-1,-1,-1,-1,-1,-1,-1,-1],"loss_changes":[2.425992E3,4.056269E2,6.312207E2,1.1222241E2,1.3056686E2,1.1421234E2,1.18619385E2,2.0888062E1,1.05565125E2,6.137216E1,6.814969E1,8.6285706E1,9.453433E1,6.3138794E1,2.352826E1,0E0,0E0,0E0,0E0,0E0,0E0,0E0,0E0,0E0,0E0,0E0,0E0,0E0,0E0,0E0,0E0],"parents":[2147483647,0,0,1,1,2,2,3,3,4,4,5,5,6,6,7,7,8,8,9,9,10,10,11,11,12,12,13,13,14,14],"right_children":[2,4,6,8,10,12,14,16,18,20,22,24,26,28,30,-1,-1,-1,-1,-1,-1,-1,-1,-1,-1,-1,-1,-1,-1,-1,-1],"split_conditions":[1.62E1,1.17E1,2.15E1,7.1E0,2.5E1,2.3E1,2.7E1,4.37E-1,2.6E1,3.73E-1,5E0,5.6E0,4.2E1,2.6E1,5.7E0,-8.562139E-2,-1.7604588E-1,-3.7453372E-2,-7.871551E-2,-2.7541593E-3,4.6264973E-2,-5.701999E-2,-2.0645095E-2,5.6541767E-2,1.4626783E-1,7.7129984E-3,4.6712212E-2,1.5048175E-1,9.28513E-2,2.3088709E-1,5.920291E-2],"split_indices":[4,4,4,4,0,0,4,5,0,7,2,18,2,0,13,0,0,0,0,0,0,0,0,0,0,0,0,0,0,0,0],"split_type":[0,0,0,0,0,0,0,0,0,0,0,0,0,0,0,0,0,0,0,0,0,0,0,0,0,0,0,0,0,0,0],"sum_hessian":[3.03E3,1.983E3,1.047E3,6.63E2,1.32E3,8.01E2,2.46E2,3.7E1,6.26E2,5.03E2,8.17E2,1.32E2,6.69E2,2.11E2,3.5E1,1.3E1,2.4E1,3.12E2,3.14E2,4.29E2,7.4E1,1.6E2,6.57E2,9.4E1,3.8E1,2.46E2,4.23E2,8.7E1,1.24E2,3.2E1,3E0],"tree_param":{"num_deleted":"0","num_feature":"29","num_nodes":"31","size_leaf_vector":"1"}},{"base_weights":[1.0259675E-2,-4.739186E-1,1.507988E0,-8.5612935E-1,1.703847E-1,1.1796731E0,3.1112335E0,-7.048361E-1,-1.433459E0,1.1743942E0,5.0259694E-2,4.358276E-1,1.4651725E0,2.0700192E0,3.7120929E0,-2.824297E-2,-6.588955E-2,-1.23231865E-1,-5.6696396E-2,3.555773E-2,1.0463051E-1,1.2228574E-2,-2.3595132E-2,-3.12948E-2,3.9729368E-2,1.20917976E-1,5.9052657E-2,1.1834878E-1,-4.7859974E-2,1.9998817E-1,9.830329E-2],"categories":[],"categories_nodes":[],"categories_segments":[],"categories_sizes":[],"default_left":[0,0,0,0,0,0,0,0,0,0,0,0,0,0,0,0,0,0,0,0,0,0,0,0,0,0,0,0,0,0,0],"id":25,"left_children":[1,3,5,7,9,11,13,15,17,19,21,23,25,27,29,-1,-1,-1,-1,-1,-1,-1,-1,-1,-1,-1,-1,-1,-1,-1,-1],"loss_changes":[2.193621E3,5.630954E2,3.8531665E2,1.243313E2,1.02697845E2,1.299674E2,7.05188E1,9.69812E1,8.893964E1,3.7219055E1,7.742967E1,6.601277E1,1.1738739E2,4.541533E1,3.1314087E1,0E0,0E0,0E0,0E0,0E0,0E0,0E0,0E0,0E0,0E0,0E0,0E0,0E0,0E0,0E0,0E0],"parents":[2147483647,0,0,1,1,2,2,3,3,4,4,5,5,6,6,7,7,8,8,9,9,10,10,11,11,12,12,13,13,14,14],"right_children":[2,4,6,8,10,12,14,16,18,20,22,24,26,28,30,-1,-1,-1,-1,-1,-1,-1,-1,-1,-1,-1,-1,-1,-1,-1,-1],"split_conditions":[1.75E1,1.42E1,2.36E1,5.44E-1,2.2E1,1.661E3,9E-1,3E1,6.2E0,1.41E1,4.05E-1,4.6E0,2.4E1,2.32E-1,3.1E1,-2.824297E-2,-6.588955E-2,-1.23231865E-1,-5.6696396E-2,3.555773E-2,1.0463051E-1,1.2228574E-2,-2.3595132E-2,-3.12948E-2,3.9729368E-2,1.20917976E-1,5.9052657E-2,1.1834878E-1,-4.7859974E-2,1.9998817E-1,9.830329E-2],"split_indices":[4,4,4,6,0,3,21,0,11,14,6,8,0,19,0,0,0,0,0,0,0,0,0,0,0,0,0,0,0,0,0],"split_type":[0,0,0,0,0,0,0,0,0,0,0,0,0,0,0,0,0,0,0,0,0,0,0,0,0,0,0,0,0,0,0],"sum_hessian":[3.023E3,2.285E3,7.38E2,1.434E3,8.51E2,6.14E2,1.24E2,1.138E3,2.96E2,9E1,7.61E2,1.71E2,4.43E2,4.7E1,7.7E1,9.28E2,2.1E2,6.5E1,2.31E2,6.1E1,2.9E1,5.55E2,2.06E2,4.3E1,1.28E2,1E2,3.43E2,4.3E1,4E0,6.5E1,1.2E1],"tree_param":{"num_deleted":"0","num_feature":"29","num_nodes":"31","size_leaf_vector":"1"}},{"base_weights":[2.578138E-2,-4.2589346E-1,1.5580245E0,-8.288907E-1,1.7690466E-1,1.2583241E0,2.8978086E0,-1.2121723E0,-5.8580506E-1,5.425595E-1,-1.4303151E-1,9.226208E-1,1.6885316E0,3.2489126E0,1.2848746E0,7.832252E-2,-6.310149E-2,-6.419189E-3,-3.7856616E-2,3.2408424E-2,-4.827995E-2,7.96635E-3,-2.3045655E-2,1.268218E-1,3.8838215E-2,1.11261524E-1,6.398929E-2,-1.159863E-1,1.6635077E-1,3.009486E-2,1.6167451E-1],"categories":[],"categories_nodes":[],"categories_segments":[],"categories_sizes":[],"default_left":[0,0,0,0,0,0,0,0,0,0,0,0,0,0,0,0,0,0,0,0,0,0,0,0,0,0,0,0,0,0,0],"id":26,"left_children":[1,3,5,7,9,11,13,15,17,19,21,23,25,27,29,-1,-1,-1,-1,-1,-1,-1,-1,-1,-1,-1,-1,-1,-1,-1,-1],"loss_changes":[2.091424E3,5.6713586E2,2.726089E2,1.2963513E2,1.09576706E2,7.989618E1,6.6614136E1,7.706299E1,6.714313E1,7.022902E1,4.813054E1,7.311771E1,5.1118042E1,5.208008E1,2.999442E1,0E0,0E0,0E0,0E0,0E0,0E0,0E0,0E0,0E0,0E0,0E0,0E0,0E0,0E0,0E0,0E0],"parents":[2147483647,0,0,1,1,2,2,3,3,4,4,5,5,6,6,7,7,8,8,9,9,10,10,11,11,12,12,13,13,14,14],"right_children":[2,4,6,8,10,12,14,16,18,20,22,24,26,28,30,-1,-1,-1,-1,-1,-1,-1,-1,-1,-1,-1,-1,-1,-1,-1,-1],"split_conditions":[1.77E1,1.41E1,2.36E1,1.12E1,2.6E1,2.01E1,3E1,2.8E1,1E-1,4.88E-1,3.06E-1,2.2E1,2.6E1,7.1E0,1E0,7.832252E-2,-6.310149E-2,-6.419189E-3,-3.7856616E-2,3.2408424E-2,-4.827995E-2,7.96635E-3,-2.3045655E-2,1.268218E-1,3.8838215E-2,1.11261524E-1,6.398929E-2,-1.159863E-1,1.6635077E-1,3.009486E-2,1.6167451E-1],"split_indices":[4,4,4,4,0,4,0,1,23,6,6,0,0,9,27,0,0,0,0,0,0,0,0,0,0,0,0,0,0,0,0],"split_type":[0,0,0,0,0,0,0,0,0,0,0,0,0,0,0,0,0,0,0,0,0,0,0,0,0,0,0,0,0,0,0],"sum_hessian":[3.02E3,2.333E3,6.87E2,1.398E3,9.35E2,5.63E2,1.24E2,5.41E2,8.57E2,4.36E2,4.99E2,3.18E2,2.45E2,1.01E2,2.3E1,9E0,5.32E2,2.34E2,6.23E2,4.08E2,2.8E1,2.56E2,2.43E2,2.5E1,2.93E2,1.04E2,1.41E2,1E0,1E2,1.8E1,5E0],"tree_param":{"num_deleted":"0","num_feature":"29","num_nodes":"31","size_leaf_vector":"1"}},{"base_weights":[-6.020833E-3,-5.723978E-1,1.0662678E0,-9.9830014E-1,-2.5480562E-1,7.6955926E-1,2.3950968E0,-8.246792E-1,-1.5716479E0,-7.859416E-2,-7.451266E-1,3.9907363E-1,1.1469516E0,1.8704183E0,3.1644075E0,-8.020129E-2,-3.541907E-2,-8.146211E-2,4.771499E-2,-1.0826007E-2,3.871947E-2,2.0812936E-1,-4.0425077E-2,5.162763E-3,5.7008624E-2,2.5729984E-2,7.013974E-2,1.4583598E-1,7.5217985E-2,6.854221E-2,1.7914873E-1],"categories":[],"categories_nodes":[],"categories_segments":[],"categories_sizes":[],"default_left":[0,0,0,0,0,0,0,0,0,0,0,0,0,0,0,0,0,0,0,0,0,0,0,0,0,0,0,0,0,0,0],"id":27,"left_children":[1,3,5,7,9,11,13,15,17,19,21,23,25,27,29,-1,-1,-1,-1,-1,-1,-1,-1,-1,-1,-1,-1,-1,-1,-1,-1],"loss_changes":[1.8432181E3,2.6837842E2,4.117511E2,8.3118225E1,9.835124E1,1.1964627E2,7.1176636E1,5.8049225E1,3.0068848E1,9.887485E1,9.698427E1,9.524762E1,6.803589E1,4.0041077E1,5.2143555E1,0E0,0E0,0E0,0E0,0E0,0E0,0E0,0E0,0E0,0E0,0E0,0E0,0E0,0E0,0E0,0E0],"parents":[2147483647,0,0,1,1,2,2,3,3,4,4,5,5,6,6,7,7,8,8,9,9,10,10,11,11,12,12,13,13,14,14],"right_children":[2,4,6,8,10,12,14,16,18,20,22,24,26,28,30,-1,-1,-1,-1,-1,-1,-1,-1,-1,-1,-1,-1,-1,-1,-1,-1],"split_conditions":[1.61E1,1.23E1,2.2E1,5.65E-1,2.9E1,1.81E1,1.3E1,8.5E0,2.06E1,2.04E1,2.7E1,1.46E1,4.3E1,2.5E1,6.5E-2,-8.020129E-2,-3.541907E-2,-8.146211E-2,4.771499E-2,-1.0826007E-2,3.871947E-2,2.0812936E-1,-4.0425077E-2,5.162763E-3,5.7008624E-2,2.5729984E-2,7.013974E-2,1.4583598E-1,7.5217985E-2,6.854221E-2,1.7914873E-1],"split_indices":[4,4,4,6,0,4,14,4,9,9,1,14,2,0,6,0,0,0,0,0,0,0,0,0,0,0,0,0,0,0,0],"split_type":[0,0,0,0,0,0,0,0,0,0,0,0,0,0,0,0,0,0,0,0,0,0,0,0,0,0,0,0,0,0,0],"sum_hessian":[3.033E3,1.985E3,1.048E3,8.47E2,1.138E3,8.58E2,1.9E2,6.52E2,1.95E2,8.38E2,3E2,4.34E2,4.24E2,1.15E2,7.5E1,8.3E1,5.69E2,1.91E2,4E0,7.22E2,1.16E2,3E0,2.97E2,3.11E2,1.23E2,1.23E2,3.01E2,2.8E1,8.7E1,1.5E1,6E1],"tree_param":{"num_deleted":"0","num_feature":"29","num_nodes":"31","size_leaf_vector":"1"}},{"base_weights":[1.6505565E-2,-4.643705E-1,9.082469E-1,-7.716215E-1,2.211386E-1,3.0508602E-1,1.8346761E0,-1.2784883E0,-5.827522E-1,-1.5084543E0,3.2941818E-1,1.8288057E-1,1.7802893E0,1.4937444E0,3.129498E0,-1.27883395E-2,-7.5511254E-2,-4.292292E-2,-1.293039E-2,-9.370004E-2,1.3683327E-2,-1.12462E-2,3.0142212E-2,2.5638351E-3,8.394031E-2,-5.5368852E-2,1.1044862E-1,9.124613E-2,1.7709225E-2,-1.0281716E-2,1.6473477E-1],"categories":[],"categories_nodes":[],"categories_segments":[],"categories_sizes":[],"default_left":[0,0,0,0,0,0,0,0,0,0,0,0,0,0,0,0,0,0,0,0,0,0,0,0,0,0,0,0,0,0,0],"id":28,"left_children":[1,3,5,7,9,11,13,15,17,19,21,23,25,27,29,-1,-1,-1,-1,-1,-1,-1,-1,-1,-1,-1,-1,-1,-1,-1,-1],"loss_changes":[1.2950203E3,4.1341376E2,5.906358E2,1.2897119E2,1.143629E2,1.15412834E2,1.7940833E2,8.6593506E1,8.8163574E1,2.3964973E1,8.698612E1,1.16854454E2,6.3102966E1,1.24649536E2,4.805963E1,0E0,0E0,0E0,0E0,0E0,0E0,0E0,0E0,0E0,0E0,0E0,0E0,0E0,0E0,0E0,0E0],"parents":[2147483647,0,0,1,1,2,2,3,3,4,4,5,5,6,6,7,7,8,8,9,9,10,10,11,11,12,12,13,13,14,14],"right_children":[2,4,6,8,10,12,14,16,18,20,22,24,26,28,30,-1,-1,-1,-1,-1,-1,-1,-1,-1,-1,-1,-1,-1,-1,-1,-1],"split_conditions":[2.14E1,1.21E1,2.3E0,1.5E1,1.16E1,2.95E1,5.4E0,3.1E-1,8.7E-2,1.5E-2,2.4E0,1.59E1,5E-1,3E1,1.67E-1,-1.27883395E-2,-7.5511254E-2,-4.292292E-2,-1.293039E-2,-9.370004E-2,1.3683327E-2,-1.12462E-2,3.0142212E-2,2.5638351E-3,8.394031E-2,-5.5368852E-2,1.1044862E-1,9.124613E-2,1.7709225E-2,-1.0281716E-2,1.6473477E-1],"split_indices":[15,10,17,15,15,15,22,6,19,6,13,10,13,0,19,0,0,0,0,0,0,0,0,0,0,0,0,0,0,0,0],"split_type":[0,0,0,0,0,0,0,0,0,0,0,0,0,0,0,0,0,0,0,0,0,0,0,0,0,0,0,0,0,0,0],"sum_hessian":[3.018E3,1.961E3,1.057E3,1.354E3,6.07E2,6.41E2,4.16E2,3.66E2,9.88E2,3.5E1,5.72E2,5.93E2,4.8E1,3.31E2,8.5E1,6.8E1,2.98E2,5.33E2,4.55E2,2.9E1,6E0,1.89E2,3.83E2,5.46E2,4.7E1,6E0,4.2E1,2.56E2,7.5E1,4E0,8.1E1],"tree_param":{"num_deleted":"0","num_feature":"29","num_nodes":"31","size_leaf_vector":"1"}},{"base_weights":[-2.1017514E-2,-4.24024E-1,1.2344471E0,-9.07679E-1,-1.047709E-1,9.633914E-1,2.6223555E0,-2.355624E0,-8.387163E-1,2.3578222E-1,-3.0764976E-1,8.181652E-1,1.9457208E0,2.0096827E0,3.3589475E0,-3.5346195E-2,-1.3669436E-1,-2.8980536E-2,-5.77916E-2,-5.2437343E-4,4.2869568E-2,-4.5694303E-2,-8.213251E-3,-2.0579485E-2,4.5858536E-2,1.3388932E-1,4.220603E-2,1.6730762E-1,7.115855E-2,1.9944517E-2,1.7962222E-1],"categories":[],"categories_nodes":[],"categories_segments":[],"categories_sizes":[],"default_left":[0,0,0,0,0,0,0,0,0,0,0,0,0,0,0,0,0,0,0,0,0,0,0,0,0,0,0,0,0,0,0],"id":29,"left_children":[1,3,5,7,9,11,13,15,17,19,21,23,25,27,29,-1,-1,-1,-1,-1,-1,-1,-1,-1,-1,-1,-1,-1,-1,-1,-1],"loss_changes":[1.5366191E3,3.5488977E2,2.7510962E2,8.9291016E1,9.58327E1,8.67146E1,4.7404297E1,2.3636673E1,7.114349E1,7.9306244E1,7.538775E1,6.6245636E1,6.144864E1,4.854004E1,3.519873E1,0E0,0E0,0E0,0E0,0E0,0E0,0E0,0E0,0E0,0E0,0E0,0E0,0E0,0E0,0E0,0E0],"parents":[2147483647,0,0,1,1,2,2,3,3,4,4,5,5,6,6,7,7,8,8,9,9,10,10,11,11,12,12,13,13,14,14],"right_children":[2,4,6,8,10,12,14,16,18,20,22,24,26,28,30,-1,-1,-1,-1,-1,-1,-1,-1,-1,-1,-1,-1,-1,-1,-1,-1],"split_conditions":[1.75E1,1.25E1,2.36E1,7.1E0,2.5E1,2.68E1,1.3E1,-3.8E-2,5.26E-1,2.079E3,5E0,4.4E1,2.8E1,2.5E1,4.4E1,-3.5346195E-2,-1.3669436E-1,-2.8980536E-2,-5.77916E-2,-5.2437343E-4,4.2869568E-2,-4.5694303E-2,-8.213251E-3,-2.0579485E-2,4.5858536E-2,1.3388932E-1,4.220603E-2,1.6730762E-1,7.115855E-2,1.9944517E-2,1.7962222E-1],"split_indices":[4,4,4,4,0,9,14,19,5,3,2,1,0,0,2,0,0,0,0,0,0,0,0,0,0,0,0,0,0,0,0],"split_type":[0,0,0,0,0,0,0,0,0,0,0,0,0,0,0,0,0,0,0,0,0,0,0,0,0,0,0,0,0,0,0],"sum_hessian":[3.035E3,2.298E3,7.37E2,9.13E2,1.385E3,6.18E2,1.19E2,4E1,8.73E2,5.17E2,8.68E2,5.4E2,7.8E1,6.7E1,5.2E1,8E0,3.2E1,4.82E2,3.91E2,3.71E2,1.46E2,1.65E2,7.03E2,4E1,5E2,4.6E1,3.2E1,1.9E1,4.8E1,4E0,4.8E1],"tree_param":{"num_deleted":"0","num_feature":"29","num_nodes":"31","size_leaf_vector":"1"}},{"base_weights":[-8.109818E-3,-5.1322687E-1,9.469756E-1,-8.6665595E-1,-2.0890109E-1,6.767496E-1,2.0563533E0,-2.1597044E0,-8.0957544E-1,-7.535189E-1,-7.7745706E-2,1.4724191E0,5.088695E-1,1.5419922E0,2.703652E0,-1.3187426E-2,-1.2896578E-1,-2.7341334E-2,-5.6260865E-2,6.375818E-3,-5.6252033E-2,-1.156315E-2,1.65983E-2,1.5486593E-2,9.321257E-2,1.969715E-2,8.388662E-2,6.0840894E-2,1.2602554E-1,1.7038478E-1,9.697635E-2],"categories":[],"categories_nodes":[],"categories_segments":[],"categories_sizes":[],"default_left":[0,0,0,0,0,0,0,0,0,0,0,0,0,0,0,0,0,0,0,0,0,0,0,0,0,0,0,0,0,0,0],"id":30,"left_children":[1,3,5,7,9,11,13,15,17,19,21,23,25,27,29,-1,-1,-1,-1,-1,-1,-1,-1,-1,-1,-1,-1,-1,-1,-1,-1],"loss_changes":[1.455977E3,2.121377E2,3.1158142E2,6.563806E1,7.579959E1,1.1158902E2,6.375183E1,2.9551147E1,7.203534E1,6.7572174E1,5.398021E1,6.593698E1,9.283511E1,3.3842926E1,4.127069E1,0E0,0E0,0E0,0E0,0E0,0E0,0E0,0E0,0E0,0E0,0E0,0E0,0E0,0E0,0E0,0E0],"parents":[2147483647,0,0,1,1,2,2,3,3,4,4,5,5,6,6,7,7,8,8,9,9,10,10,11,11,12,12,13,13,14,14],"right_children":[2,4,6,8,10,12,14,16,18,20,22,24,26,28,30,-1,-1,-1,-1,-1,-1,-1,-1,-1,-1,-1,-1,-1,-1,-1,-1],"split_conditions":[1.61E1,1.25E1,2.19E1,7.1E0,5E0,2.3E1,2.95E1,-5.5E0,5.26E-1,1.79E-1,2.14E1,1.07E1,2.703E3,1.12E1,2.7E1,-1.3187426E-2,-1.2896578E-1,-2.7341334E-2,-5.6260865E-2,6.375818E-3,-5.6252033E-2,-1.156315E-2,1.65983E-2,1.5486593E-2,9.321257E-2,1.969715E-2,8.388662E-2,6.0840894E-2,1.2602554E-1,1.7038478E-1,9.697635E-2],"split_indices":[4,4,4,4,2,0,15,20,5,6,15,14,3,18,0,0,0,0,0,0,0,0,0,0,0,0,0,0,0,0,0],"split_type":[0,0,0,0,0,0,0,0,0,0,0,0,0,0,0,0,0,0,0,0,0,0,0,0,0,0,0,0,0,0,0],"sum_hessian":[3.016E3,1.973E3,1.043E3,9.12E2,1.061E3,8.4E2,2.03E2,3.7E1,8.75E2,2.05E2,8.56E2,1.45E2,6.95E2,1.15E2,8.8E1,7E0,3E1,4.79E2,3.96E2,6.1E1,1.44E2,6.23E2,2.33E2,3.7E1,1.08E2,6.34E2,6.1E1,8.8E1,2.7E1,4.4E1,4.4E1],"tree_param":{"num_deleted":"0","num_feature":"29","num_nodes":"31","size_leaf_vector":"1"}},{"base_weights":[-3.4007225E-2,-2.7157655E-1,1.1879838E0,2.4349187E-2,-7.078678E-1,8.937521E-1,2.4336553E0,-1.477214E-1,8.166729E-1,-7.663046E-1,1.4891689E0,1.8040066E0,6.5486187E-1,9.179577E-1,2.8840356E0,-1.656781E-2,1.9861966E-2,2.8938336E-2,1.15281336E-1,-7.544337E-2,-3.2404196E-2,1.12635694E-1,-3.0291988E-2,-6.514466E-2,9.6840076E-2,3.847312E-2,-6.5531455E-2,7.007398E-2,-1.3863401E-1,1.729846E-1,5.4808408E-2],"categories":[],"categories_nodes":[],"categories_segments":[],"categories_sizes":[],"default_left":[0,0,0,0,0,0,0,0,0,0,0,0,0,0,0,0,0,0,0,0,0,0,0,0,0,0,0,0,0,0,0],"id":31,"left_children":[1,3,5,7,9,11,13,15,17,19,21,23,25,27,29,-1,-1,-1,-1,-1,-1,-1,-1,-1,-1,-1,-1,-1,-1,-1,-1],"loss_changes":[8.8285754E2,3.2873083E2,1.792503E2,2.070781E2,1.3325226E2,8.623389E1,6.1520813E1,1.2502368E2,9.466229E1,8.707184E1,4.4554882E1,3.676764E1,7.308731E1,4.4929443E1,7.030975E1,0E0,0E0,0E0,0E0,0E0,0E0,0E0,0E0,0E0,0E0,0E0,0E0,0E0,0E0,0E0,0E0],"parents":[2147483647,0,0,1,1,2,2,3,3,4,4,5,5,6,6,7,7,8,8,9,9,10,10,11,11,12,12,13,13,14,14],"right_children":[2,4,6,8,10,12,14,16,18,20,22,24,26,28,30,-1,-1,-1,-1,-1,-1,-1,-1,-1,-1,-1,-1,-1,-1,-1,-1],"split_conditions":[6.4E0,3.83E-1,4.9E0,1E0,3.79E-1,2.4E1,1.08E1,1.49E1,1.69E1,6.3E0,2E0,4E-1,5.09E-1,1.03E1,3E1,-1.656781E-2,1.9861966E-2,2.8938336E-2,1.15281336E-1,-7.544337E-2,-3.2404196E-2,1.12635694E-1,-3.0291988E-2,-6.514466E-2,9.6840076E-2,3.847312E-2,-6.5531455E-2,7.007398E-2,-1.3863401E-1,1.729846E-1,5.4808408E-2],"split_indices":[18,6,20,20,7,0,14,10,10,11,12,13,6,16,0,0,0,0,0,0,0,0,0,0,0,0,0,0,0,0,0],"split_type":[0,0,0,0,0,0,0,0,0,0,0,0,0,0,0,0,0,0,0,0,0,0,0,0,0,0,0,0,0,0,0],"sum_hessian":[3.039E3,2.545E3,4.94E2,1.517E3,1.028E3,4.01E2,9.3E1,1.247E3,2.7E2,1.002E3,2.6E1,8.2E1,3.19E2,2.2E1,7.1E1,9.33E2,3.14E2,2.34E2,3.6E1,1.36E2,8.66E2,1.9E1,7E0,3E0,7.9E1,3.02E2,1.7E1,2E1,2E0,5.3E1,1.8E1],"tree_param":{"num_deleted":"0","num_feature":"29","num_nodes":"31","size_leaf_vector":"1"}},{"base_weights":[-3.4857477E-4,-3.4041822E-1,1.1345241E0,-6.429279E-1,1.1192179E-1,8.127591E-1,1.9479231E0,-5.029533E-1,-1.1532277E0,3.570108E-1,-2.1740913E-1,1.7656422E-1,1.0728486E0,1.76504E0,3.469042E0,-1.8770812E-2,-5.6479383E-2,-1.08104706E-1,-4.4756528E-2,1.4061092E-2,6.420398E-2,-2.8437742E-3,-6.651876E-2,2.608859E-2,-3.9196126E-2,6.544127E-2,1.667998E-2,9.595721E-2,1.48583725E-2,4.339315E-2,2.1391223E-1],"categories":[],"categories_nodes":[],"categories_segments":[],"categories_sizes":[],"default_left":[0,0,0,0,0,0,0,0,0,0,0,0,0,0,0,0,0,0,0,0,0,0,0,0,0,0,0,0,0,0,0],"id":32,"left_children":[1,3,5,7,9,11,13,15,17,19,21,23,25,27,29,-1,-1,-1,-1,-1,-1,-1,-1,-1,-1,-1,-1,-1,-1,-1,-1],"loss_changes":[1.1616669E3,3.1698697E2,1.8005286E2,9.856348E1,7.506222E1,8.237894E1,4.840161E1,8.67677E1,7.5659546E1,3.7088318E1,7.0855736E1,4.8817852E1,6.131714E1,3.9468018E1,3.8384674E1,0E0,0E0,0E0,0E0,0E0,0E0,0E0,0E0,0E0,0E0,0E0,0E0,0E0,0E0,0E0,0E0],"parents":[2147483647,0,0,1,1,2,2,3,3,4,4,5,5,6,6,7,7,8,8,9,9,10,10,11,11,12,12,13,13,14,14],"right_children":[2,4,6,8,10,12,14,16,18,20,22,24,26,28,30,-1,-1,-1,-1,-1,-1,-1,-1,-1,-1,-1,-1,-1,-1,-1,-1],"split_conditions":[1.77E1,1.41E1,2.19E1,3E1,2.7E1,3.7E1,2.83E1,5.51E-1,8.9E0,2.64E1,1.9E0,2.4E0,3E1,4.2E-1,1.6E0,-1.8770812E-2,-5.6479383E-2,-1.08104706E-1,-4.4756528E-2,1.4061092E-2,6.420398E-2,-2.8437742E-3,-6.651876E-2,2.608859E-2,-3.9196126E-2,6.544127E-2,1.667998E-2,9.595721E-2,1.48583725E-2,4.339315E-2,2.1391223E-1],"split_indices":[4,4,4,0,0,2,4,6,9,15,22,22,0,6,13,0,0,0,0,0,0,0,0,0,0,0,0,0,0,0,0],"split_type":[0,0,0,0,0,0,0,0,0,0,0,0,0,0,0,0,0,0,0,0,0,0,0,0,0,0,0,0,0,0,0],"sum_hessian":[3.008E3,2.315E3,6.93E2,1.387E3,9.28E2,4.98E2,1.95E2,1.09E3,2.97E2,5.32E2,3.96E2,1.45E2,3.53E2,1.76E2,1.9E1,9.07E2,1.83E2,5.9E1,2.38E2,4.93E2,3.9E1,3.47E2,4.9E1,1.07E2,3.8E1,2.67E2,8.6E1,1.59E2,1.7E1,5E0,1.4E1],"tree_param":{"num_deleted":"0","num_feature":"29","num_nodes":"31","size_leaf_vector":"1"}},{"base_weights":[-9.830913E-3,-3.7155378E-1,9.504066E-1,-9.9702305E-1,-2.1355012E-1,6.652541E-1,1.8424592E0,-3.6402777E-2,-1.2316791E0,9.0581305E-2,-4.044561E-1,-1.4117694E-1,8.2711756E-1,2.1125839E0,7.091459E-1,-1.4220406E-2,1.2396009E-1,-8.596517E-2,-4.4421673E-2,-3.3444595E-3,4.4348344E-2,-3.5998713E-2,-9.592825E-3,1.4296849E-1,-1.4343924E-2,5.1570058E-2,5.7751415E-3,2.020876E-2,1.1362701E-1,1.4919357E-2,1.3014768E-1],"categories":[],"categories_nodes":[],"categories_segments":[],"categories_sizes":[],"default_left":[0,0,0,0,0,0,0,0,0,0,0,0,0,0,0,0,0,0,0,0,0,0,0,0,0,0,0,0,0,0,0],"id":33,"left_children":[1,3,5,7,9,11,13,15,17,19,21,23,25,27,29,-1,-1,-1,-1,-1,-1,-1,-1,-1,-1,-1,-1,-1,-1,-1,-1],"loss_changes":[1.0510563E3,2.170076E2,2.093935E2,9.981415E1,1.0199089E2,8.222122E1,5.9729126E1,5.560684E1,5.8057983E1,8.5085434E1,7.224017E1,4.716182E1,7.605539E1,4.3078064E1,3.033924E1,0E0,0E0,0E0,0E0,0E0,0E0,0E0,0E0,0E0,0E0,0E0,0E0,0E0,0E0,0E0,0E0],"parents":[2147483647,0,0,1,1,2,2,3,3,4,4,5,5,6,6,7,7,8,8,9,9,10,10,11,11,12,12,13,13,14,14],"right_children":[2,4,6,8,10,12,14,16,18,20,22,24,26,28,30,-1,-1,-1,-1,-1,-1,-1,-1,-1,-1,-1,-1,-1,-1,-1,-1],"split_conditions":[1.7E1,1.08E1,2.2E1,7.22E2,2.5E1,1.4E1,3E1,2.05E1,1.39E1,3.67E-1,2.03E-1,-2E0,3E1,1.51E-1,1E0,-1.4220406E-2,1.2396009E-1,-8.596517E-2,-4.4421673E-2,-3.3444595E-3,4.4348344E-2,-3.5998713E-2,-9.592825E-3,1.4296849E-1,-1.4343924E-2,5.1570058E-2,5.7751415E-3,2.020876E-2,1.1362701E-1,1.4919357E-2,1.3014768E-1],"split_indices":[4,4,4,3,0,2,0,15,15,7,7,20,0,19,27,0,0,0,0,0,0,0,0,0,0,0,0,0,0,0,0],"split_type":[0,0,0,0,0,0,0,0,0,0,0,0,0,0,0,0,0,0,0,0,0,0,0,0,0,0,0,0,0,0,0],"sum_hessian":[3.024E3,2.197E3,8.27E2,4.42E2,1.755E3,6.28E2,1.99E2,8.7E1,3.55E2,6.77E2,1.078E3,1.05E2,5.23E2,1.6E2,3.9E1,8E1,7E0,1.45E2,2.1E2,5.66E2,1.11E2,4.33E2,6.45E2,4E0,1.01E2,4.06E2,1.17E2,1.4E1,1.46E2,3.3E1,6E0],"tree_param":{"num_deleted":"0","num_feature":"29","num_nodes":"31","size_leaf_vector":"1"}},{"base_weights":[3.5633247E-2,-2.722205E-1,1.0608805E0,-5.9847474E-1,4.8985496E-2,8.3155173E-1,2.0971813E0,-1.4050741E0,-5.0879425E-1,1.2550758E0,-1.0285887E-2,2.2590217E-1,1.0774143E0,2.464576E0,1.0305669E0,-4.621157E-2,-1.1592013E-1,-2.769543E-2,4.430145E-2,9.678927E-2,2.3872947E-2,8.88789E-3,-1.8205514E-2,3.3737503E-3,9.762325E-2,6.470799E-2,2.1151526E-2,-1.1753259E-1,1.271233E-1,7.2166E-3,8.218574E-2],"categories":[],"categories_nodes":[],"categories_segments":[],"categories_sizes":[],"default_left":[0,0,0,0,0,0,0,0,0,0,0,0,0,0,0,0,0,0,0,0,0,0,0,0,0,0,0,0,0,0,0],"id":34,"left_children":[1,3,5,7,9,11,13,15,17,19,21,23,25,27,29,-1,-1,-1,-1,-1,-1,-1,-1,-1,-1,-1,-1,-1,-1,-1,-1],"loss_changes":[9.553738E2,2.4399162E2,1.6437598E2,8.2833466E1,8.393822E1,8.522897E1,4.683551E1,4.8361496E1,6.5997284E1,2.8188957E1,7.4583305E1,4.554851E1,5.7321136E1,4.0856873E1,1.8238121E1,0E0,0E0,0E0,0E0,0E0,0E0,0E0,0E0,0E0,0E0,0E0,0E0,0E0,0E0,0E0,0E0],"parents":[2147483647,0,0,1,1,2,2,3,3,4,4,5,5,6,6,7,7,8,8,9,9,10,10,11,11,12,12,13,13,14,14],"right_children":[2,4,6,8,10,12,14,16,18,20,22,24,26,28,30,-1,-1,-1,-1,-1,-1,-1,-1,-1,-1,-1,-1,-1,-1,-1,-1],"split_conditions":[1.77E1,1.33E1,2.36E1,8.5E0,2E-1,4.4E1,2.9E1,2.8E1,3.9E0,3.4E1,2.8E1,2.08E1,3E1,7.1E0,7.2E0,-4.621157E-2,-1.1592013E-1,-2.769543E-2,4.430145E-2,9.678927E-2,2.3872947E-2,8.88789E-3,-1.8205514E-2,3.3737503E-3,9.762325E-2,6.470799E-2,2.1151526E-2,-1.1753259E-1,1.271233E-1,7.2166E-3,8.218574E-2],"split_indices":[4,4,4,4,16,2,0,0,13,2,0,10,0,9,22,0,0,0,0,0,0,0,0,0,0,0,0,0,0,0,0],"split_type":[0,0,0,0,0,0,0,0,0,0,0,0,0,0,0,0,0,0,0,0,0,0,0,0,0,0,0,0,0,0,0],"sum_hessian":[3.025E3,2.327E3,6.98E2,1.154E3,1.173E3,5.73E2,1.25E2,1.14E2,1.04E3,5.4E1,1.119E3,1.66E2,4.07E2,9.2E1,3.3E1,7.6E1,3.8E1,1.008E3,3.2E1,2.8E1,2.6E1,7.31E2,3.88E2,1.53E2,1.3E1,3.05E2,1.02E2,1E0,9.1E1,1.4E1,1.9E1],"tree_param":{"num_deleted":"0","num_feature":"29","num_nodes":"31","size_leaf_vector":"1"}},{"base_weights":[-3.0909736E-2,-3.2169446E-1,9.709165E-1,-6.3584524E-1,-3.0417537E-2,8.286006E-1,2.4902072E0,-1.0674833E0,-4.8866326E-1,2.8158122E-1,-2.1847653E-1,1.658222E0,6.696049E-1,-4.8621288E-1,2.8429904E0,-6.510291E-2,-9.760112E-3,-2.985566E-2,2.2613535E-2,1.2415563E-3,4.086579E-2,2.0246792E-1,-1.20325675E-2,3.705269E-2,1.0597372E-1,8.8644953E-4,4.5040805E-2,7.214148E-2,-1.1468511E-1,-2.4575265E-2,1.4931002E-1],"categories":[],"categories_nodes":[],"categories_segments":[],"categories_sizes":[],"default_left":[0,0,0,0,0,0,0,0,0,0,0,0,0,0,0,0,0,0,0,0,0,0,0,0,0,0,0,0,0,0,0],"id":35,"left_children":[1,3,5,7,9,11,13,15,17,19,21,23,25,27,29,-1,-1,-1,-1,-1,-1,-1,-1,-1,-1,-1,-1,-1,-1,-1,-1],"loss_changes":[8.844557E2,2.1529161E2,1.4561444E2,7.1393585E1,7.176135E1,8.146295E1,6.228409E1,5.8470398E1,8.65995E1,6.325266E1,7.318364E1,4.073398E1,7.9414E1,2.7716486E1,2.6299469E1,0E0,0E0,0E0,0E0,0E0,0E0,0E0,0E0,0E0,0E0,0E0,0E0,0E0,0E0,0E0,0E0],"parents":[2147483647,0,0,1,1,2,2,3,3,4,4,5,5,6,6,7,7,8,8,9,9,10,10,11,11,12,12,13,13,14,14],"right_children":[2,4,6,8,10,12,14,16,18,20,22,24,26,28,30,-1,-1,-1,-1,-1,-1,-1,-1,-1,-1,-1,-1,-1,-1,-1,-1],"split_conditions":[1.77E1,1.32E1,5.5E0,1.4E1,2.5E1,2.3E1,1.08E1,7E-1,1.17E1,2.041E3,2.7E1,3E-1,2.09E1,7.6E1,9.1E0,-6.510291E-2,-9.760112E-3,-2.985566E-2,2.2613535E-2,1.2415563E-3,4.086579E-2,2.0246792E-1,-1.20325675E-2,3.705269E-2,1.0597372E-1,8.8644953E-4,4.5040805E-2,7.214148E-2,-1.1468511E-1,-2.4575265E-2,1.4931002E-1],"split_indices":[4,4,23,15,0,0,14,23,10,3,1,7,15,2,18,0,0,0,0,0,0,0,0,0,0,0,0,0,0,0,0],"split_type":[0,0,0,0,0,0,0,0,0,0,0,0,0,0,0,0,0,0,0,0,0,0,0,0,0,0,0,0,0,0,0],"sum_hessian":[3.034E3,2.352E3,6.82E2,1.131E3,1.221E3,6.25E2,5.7E1,2.86E2,8.45E2,4.59E2,7.62E2,9.9E1,5.26E2,6E0,5.1E1,2.25E2,6.1E1,7.58E2,8.7E1,3.11E2,1.48E2,3E0,7.59E2,3.4E1,6.5E1,1.38E2,3.88E2,3E0,3E0,2E0,4.9E1],"tree_param":{"num_deleted":"0","num_feature":"29","num_nodes":"31","size_leaf_vector":"1"}},{"base_weights":[2.3611903E-2,-2.1644644E-1,1.1695923E0,-5.0526065E-1,1.7292227E-1,9.4784755E-1,1.929069E0,-1.4739817E0,-4.2901647E-1,1.0238389E0,7.5518884E-2,9.795326E-1,-1.2406911E-1,1.4455792E0,2.8236475E0,-9.658816E-2,-3.617227E-2,-2.8012061E-2,-1.1981427E-3,3.694694E-2,1.5354371E-1,-3.2256443E-2,8.558686E-3,5.868618E-2,1.6434746E-2,3.7566965E-4,8.2847446E-2,1.7383046E-1,9.4133485E-3],"categories":[],"categories_nodes":[],"categories_segments":[],"categories_sizes":[],"default_left":[0,0,0,0,0,0,0,0,0,0,0,0,0,0,0,0,0,0,0,0,0,0,0,0,0,0,0,0,0],"id":36,"left_children":[1,3,5,7,9,11,13,15,17,19,21,23,-1,25,27,-1,-1,-1,-1,-1,-1,-1,-1,-1,-1,-1,-1,-1,-1],"loss_changes":[8.291359E2,2.8032574E2,8.608154E1,1.0506036E2,8.794353E1,4.6544647E1,4.652301E1,3.4334946E1,7.057387E1,6.1299667E1,6.5872925E1,5.0548096E1,0E0,2.3696716E1,6.817758E1,0E0,0E0,0E0,0E0,0E0,0E0,0E0,0E0,0E0,0E0,0E0,0E0,0E0,0E0],"parents":[2147483647,0,0,1,1,2,2,3,3,4,4,5,5,6,6,7,7,8,8,9,9,10,10,11,11,13,13,14,14],"right_children":[2,4,6,8,10,12,14,16,18,20,22,24,-1,26,28,-1,-1,-1,-1,-1,-1,-1,-1,-1,-1,-1,-1,-1,-1],"split_conditions":[1.88E1,1.42E1,2.95E1,1.18E1,2.2E1,3.4E0,1.97E1,8.1E0,1.8E0,2.99E1,3E0,3E1,-1.2406911E-1,5E-1,4.41E1,-9.658816E-2,-3.617227E-2,-2.8012061E-2,-1.1981427E-3,3.694694E-2,1.5354371E-1,-3.2256443E-2,8.558686E-3,5.868618E-2,1.6434746E-2,3.7566965E-4,8.2847446E-2,1.7383046E-1,9.4133485E-3],"split_indices":[4,4,15,15,0,21,9,11,17,11,2,0,0,13,11,0,0,0,0,0,0,0,0,0,0,0,0,0,0],"split_type":[0,0,0,0,0,0,0,0,0,0,0,0,0,0,0,0,0,0,0,0,0,0,0,0,0,0,0,0,0],"sum_hessian":[3.012E3,2.491E3,5.21E2,1.43E3,1.061E3,4.05E2,1.16E2,1.03E2,1.327E3,1.08E2,9.53E2,4.02E2,3E0,7.7E1,3.9E1,6.3E1,4E1,1.002E3,3.25E2,9.6E1,1.2E1,1.11E2,8.42E2,3.09E2,9.3E1,1E1,6.7E1,3.1E1,8E0],"tree_param":{"num_deleted":"0","num_feature":"29","num_nodes":"29","size_leaf_vector":"1"}},{"base_weights":[-9.566009E-3,-2.2852555E-1,1.0365924E0,-4.9524814E-1,1.0774225E-1,3.6336172E0,9.735769E-1,-1.9339563E0,-4.555969E-1,1.5300614E-1,-1.7034509E0,1.5725971E0,4.881118E0,8.0856353E-1,1.8395915E0,-4.5432154E-2,-1.2592769E-1,1.6338099E-2,-2.6180867E-2,7.061895E-2,5.155736E-3,8.576591E-2,-1.10113434E-1,1.1183949E-1,8.140406E-3,7.182646E-2,2.6078972E-1,2.9886166E-2,7.5023375E-2,1.2582527E-1,5.7555594E-2],"categories":[],"categories_nodes":[],"categories_segments":[],"categories_sizes":[],"default_left":[0,0,0,0,0,0,0,0,0,0,0,0,0,0,0,0,0,0,0,0,0,0,0,0,0,0,0,0,0,0,0],"id":37,"left_children":[1,3,5,7,9,11,13,15,17,19,21,23,25,27,29,-1,-1,-1,-1,-1,-1,-1,-1,-1,-1,-1,-1,-1,-1,-1,-1],"loss_changes":[6.9087195E2,2.2374077E2,8.18891E1,7.84707E1,9.076837E1,2.3177444E1,7.153653E1,1.9889175E1,7.227933E1,6.758716E1,4.9821846E1,5.2540607E0,5.771179E-1,6.1977905E1,3.48526E1,0E0,0E0,0E0,0E0,0E0,0E0,0E0,0E0,0E0,0E0,0E0,0E0,0E0,0E0,0E0,0E0],"parents":[2147483647,0,0,1,1,2,2,3,3,4,4,5,5,6,6,7,7,8,8,9,9,10,10,11,11,12,12,13,13,14,14],"right_children":[2,4,6,8,10,12,14,16,18,20,22,24,26,28,30,-1,-1,-1,-1,-1,-1,-1,-1,-1,-1,-1,-1,-1,-1,-1,-1],"split_conditions":[1.88E1,1.41E1,2.1E1,7.1E0,5.91E-1,6.1E1,5.3E0,2.97E-1,4.74E-1,-2.1E0,1E0,2E1,2E1,2.59E1,2.7E1,-4.5432154E-2,-1.2592769E-1,1.6338099E-2,-2.6180867E-2,7.061895E-2,5.155736E-3,8.576591E-2,-1.10113434E-1,1.1183949E-1,8.140406E-3,7.182646E-2,2.6078972E-1,2.9886166E-2,7.5023375E-2,1.2582527E-1,5.7555594E-2],"split_indices":[4,4,0,4,6,1,20,6,5,20,20,0,2,9,0,0,0,0,0,0,0,0,0,0,0,0,0,0,0,0,0],"split_type":[0,0,0,0,0,0,0,0,0,0,0,0,0,0,0,0,0,0,0,0,0,0,0,0,0,0,0,0,0,0,0],"sum_hessian":[3.014E3,2.493E3,5.21E2,1.39E3,1.103E3,1.1E1,5.1E2,3.6E1,1.354E3,1.077E3,2.6E1,5E0,6E0,4.3E2,8E1,1.4E1,2.2E1,1.08E2,1.246E3,4E1,1.037E3,3E0,2.3E1,3E0,2E0,1E0,5E0,3.31E2,9.9E1,3.9E1,4.1E1],"tree_param":{"num_deleted":"0","num_feature":"29","num_nodes":"31","size_leaf_vector":"1"}},{"base_weights":[-3.496232E-2,-3.6729848E-1,6.431054E-1,-6.9099456E-1,-1.786939E-1,3.2090142E-1,1.2031937E0,-7.433046E-1,7.881911E-1,5.1303864E-1,-2.5907052E-1,-7.112349E-1,3.992125E-1,9.9878347E-1,2.0596833E0,-2.355579E-2,-5.1168352E-2,9.764484E-2,-6.353139E-2,8.107125E-3,6.389039E-2,-1.0736143E-2,-7.124737E-2,-4.8993606E-2,1.14363246E-1,2.3240227E-2,-4.657855E-2,6.951293E-2,2.8067743E-2,1.19268574E-1,5.7123948E-2],"categories":[],"categories_nodes":[],"categories_segments":[],"categories_sizes":[],"default_left":[0,0,0,0,0,0,0,0,0,0,0,0,0,0,0,0,0,0,0,0,0,0,0,0,0,0,0,0,0,0,0],"id":38,"left_children":[1,3,5,7,9,11,13,15,17,19,21,23,25,27,29,-1,-1,-1,-1,-1,-1,-1,-1,-1,-1,-1,-1,-1,-1,-1,-1],"loss_changes":[6.8168384E2,1.2380914E2,1.7917422E2,5.8385925E1,7.152219E1,5.1447876E1,6.1495117E1,5.4555817E1,6.482728E1,3.5752316E1,5.9205223E1,3.8489113E1,5.18461E1,4.9736053E1,1.7886627E1,0E0,0E0,0E0,0E0,0E0,0E0,0E0,0E0,0E0,0E0,0E0,0E0,0E0,0E0,0E0,0E0],"parents":[2147483647,0,0,1,1,2,2,3,3,4,4,5,5,6,6,7,7,8,8,9,9,10,10,11,11,12,12,13,13,14,14],"right_children":[2,4,6,8,10,12,14,16,18,20,22,24,26,28,30,-1,-1,-1,-1,-1,-1,-1,-1,-1,-1,-1,-1,-1,-1,-1,-1],"split_conditions":[1.63E1,1.19E1,2.02E1,4E0,2.2E1,4.2E1,1.1E1,4E-1,4.53E-1,1.47E1,1.8E0,1.23E1,5.8E0,2.7E1,7.4E0,-2.355579E-2,-5.1168352E-2,9.764484E-2,-6.353139E-2,8.107125E-3,6.389039E-2,-1.0736143E-2,-7.124737E-2,-4.8993606E-2,1.14363246E-1,2.3240227E-2,-4.657855E-2,6.951293E-2,2.8067743E-2,1.19268574E-1,5.7123948E-2],"split_indices":[4,4,4,13,0,1,18,16,7,4,20,8,16,0,8,0,0,0,0,0,0,0,0,0,0,0,0,0,0,0,0],"split_type":[0,0,0,0,0,0,0,0,0,0,0,0,0,0,0,0,0,0,0,0,0,0,0,0,0,0,0,0,0,0,0],"sum_hessian":[3.023E3,2.029E3,9.94E2,7.46E2,1.283E3,6.32E2,3.62E2,7.21E2,2.5E1,1.33E2,1.15E3,4.4E1,5.88E2,2.94E2,6.8E1,3.67E2,3.54E2,1.6E1,9E0,9.2E1,4.1E1,1.109E3,4.1E1,4.1E1,3E0,5.61E2,2.7E1,1.54E2,1.4E2,4.9E1,1.9E1],"tree_param":{"num_deleted":"0","num_feature":"29","num_nodes":"31","size_leaf_vector":"1"}},{"base_weights":[2.7346075E-2,-1.893596E-1,8.7846696E-1,-4.08107E-1,1.15021765E-1,6.9313204E-1,1.612606E0,-2.8305438E-1,-8.5851866E-1,1.132506E0,7.2595164E-2,5.5082726E-1,1.4945794E0,-1.4194579E0,1.7009729E0,-1.7718678E-2,2.4304768E-2,-7.628803E-2,-2.9933503E-2,7.701255E-2,-5.0487794E-2,6.640634E-3,-3.0578637E-2,-1.7500421E-1,2.943638E-2,1.0286391E-1,-4.9718022E-3,2.1587897E-2,-1.0902246E-1,3.4769826E-2,9.673243E-2],"categories":[],"categories_nodes":[],"categories_segments":[],"categories_sizes":[],"default_left":[0,0,0,0,0,0,0,0,0,0,0,0,0,0,0,0,0,0,0,0,0,0,0,0,0,0,0,0,0,0,0],"id":39,"left_children":[1,3,5,7,9,11,13,15,17,19,21,23,25,27,29,-1,-1,-1,-1,-1,-1,-1,-1,-1,-1,-1,-1,-1,-1,-1,-1],"loss_changes":[5.534945E2,1.593126E2,8.1743805E1,7.816162E1,4.3129353E1,5.483304E1,3.5102356E1,6.001921E1,5.1447876E1,3.6495125E1,3.971456E1,6.592938E1,6.5681946E1,6.576462E0,2.6617126E1,0E0,0E0,0E0,0E0,0E0,0E0,0E0,0E0,0E0,0E0,0E0,0E0,0E0,0E0,0E0,0E0],"parents":[2147483647,0,0,1,1,2,2,3,3,4,4,5,5,6,6,7,7,8,8,9,9,10,10,11,11,12,12,13,13,14,14],"right_children":[2,4,6,8,10,12,14,16,18,20,22,24,26,28,30,-1,-1,-1,-1,-1,-1,-1,-1,-1,-1,-1,-1,-1,-1,-1,-1],"split_conditions":[1.81E1,1.41E1,2.36E1,3E1,-2.1E0,2.68E1,6.4E0,1.32E1,9.7E0,2.3E0,3.3E1,1.9E0,1.6E1,2.7E1,3.6E-2,-1.7718678E-2,2.4304768E-2,-7.628803E-2,-2.9933503E-2,7.701255E-2,-5.0487794E-2,6.640634E-3,-3.0578637E-2,-1.7500421E-1,2.943638E-2,1.0286391E-1,-4.9718022E-3,2.1587897E-2,-1.0902246E-1,3.4769826E-2,9.673243E-2],"split_indices":[4,4,4,0,20,9,10,10,9,12,0,18,14,0,6,0,0,0,0,0,0,0,0,0,0,0,0,0,0,0,0],"split_type":[0,0,0,0,0,0,0,0,0,0,0,0,0,0,0,0,0,0,0,0,0,0,0,0,0,0,0,0,0,0,0],"sum_hessian":[2.999E3,2.391E3,6.08E2,1.391E3,1E3,4.87E2,1.21E2,1.09E3,3.01E2,3.9E1,9.61E2,4.15E2,7.2E1,3E0,1.18E2,9.98E2,9.2E1,8.3E1,2.18E2,3.3E1,6E0,8.84E2,7.7E1,3E0,4.12E2,5.3E1,1.9E1,1E0,2E0,2.3E1,9.5E1],"tree_param":{"num_deleted":"0","num_feature":"29","num_nodes":"31","size_leaf_vector":"1"}},{"base_weights":[-5.3987745E-3,-3.25694E-1,5.5541396E-1,-7.586201E-1,-2.0883466E-1,2.7558464E-1,1.0482898E0,-4.9907565E-1,-1.4021064E0,-3.255715E-1,2.140398E-1,-8.250161E-2,5.534003E-1,9.636308E-1,2.7819996E0,-5.3187247E-2,-1.0049462E-2,-9.6997336E-2,-4.6319794E-2,-1.4168384E-2,-7.223726E-2,1.9640991E-1,8.96552E-3,2.1792334E-2,-2.5292113E-2,-1.726959E-2,3.703941E-2,-1.1061909E-1,5.015985E-2,2.689333E-2,1.6923808E-1],"categories":[],"categories_nodes":[],"categories_segments":[],"categories_sizes":[],"default_left":[0,0,0,0,0,0,0,0,0,0,0,0,0,0,0,0,0,0,0,0,0,0,0,0,0,0,0,0,0,0,0],"id":40,"left_children":[1,3,5,7,9,11,13,15,17,19,21,23,25,27,29,-1,-1,-1,-1,-1,-1,-1,-1,-1,-1,-1,-1,-1,-1,-1,-1],"loss_changes":[5.435484E2,9.7280685E1,1.5142435E2,6.760869E1,7.500583E1,6.998147E1,5.573523E1,4.9104034E1,2.8138031E1,5.5798416E1,4.173351E1,6.780734E1,6.695129E1,5.0096924E1,2.2527664E1,0E0,0E0,0E0,0E0,0E0,0E0,0E0,0E0,0E0,0E0,0E0,0E0,0E0,0E0,0E0,0E0],"parents":[2147483647,0,0,1,1,2,2,3,3,4,4,5,5,6,6,7,7,8,8,9,9,10,10,11,11,12,12,13,13,14,14],"right_children":[2,4,6,8,10,12,14,16,18,20,22,24,26,28,30,-1,-1,-1,-1,-1,-1,-1,-1,-1,-1,-1,-1,-1,-1,-1,-1],"split_conditions":[1.59E1,1.06E1,1.98E1,5.27E-1,1.2E1,2.76E-1,2.83E1,8.5E0,1.13E1,6.18E-1,-4.7E0,5.48E-1,-8E-1,0E0,1.6E0,-5.3187247E-2,-1.0049462E-2,-9.6997336E-2,-4.6319794E-2,-1.4168384E-2,-7.223726E-2,1.9640991E-1,8.96552E-3,2.1792334E-2,-2.5292113E-2,-1.726959E-2,3.703941E-2,-1.1061909E-1,5.015985E-2,2.689333E-2,1.6923808E-1],"split_indices":[4,4,4,5,10,7,4,4,14,5,20,5,21,20,13,0,0,0,0,0,0,0,0,0,0,0,0,0,0,0,0],"split_type":[0,0,0,0,0,0,0,0,0,0,0,0,0,0,0,0,0,0,0,0,0,0,0,0,0,0,0,0,0,0,0],"sum_hessian":[3.024E3,1.925E3,1.099E3,4.08E2,1.517E3,7.02E2,3.97E2,2.92E2,1.16E2,1.189E3,3.28E2,3.07E2,3.95E2,3.8E2,1.7E1,1E2,1.92E2,5.3E1,6.3E1,1.147E3,4.2E1,2E0,3.26E2,1.38E2,1.69E2,6.8E1,3.27E2,4E0,3.76E2,4E0,1.3E1],"tree_param":{"num_deleted":"0","num_feature":"29","num_nodes":"31","size_leaf_vector":"1"}},{"base_weights":[1.819709E-2,-3.3225924E-1,5.3216547E-1,-2.2338906E-1,-7.3790145E-1,3.6871716E-1,1.2848934E0,-6.385838E-1,-1.00233264E-1,-1.407908E0,-4.900444E-1,9.107995E-2,5.719668E-1,1.082969E0,2.3718388E0,1.3738222E-2,-4.1423347E-2,-8.865011E-3,2.7534068E-2,-9.37951E-2,-3.7950445E-2,-1.1128839E-2,-5.2946158E-2,1.6245743E-2,-2.5803868E-2,-1.4537391E-2,3.4018703E-2,-3.106399E-3,6.1149687E-2,1.5591204E-1,4.0289108E-2],"categories":[],"categories_nodes":[],"categories_segments":[],"categories_sizes":[],"default_left":[0,0,0,0,0,0,0,0,0,0,0,0,0,0,0,0,0,0,0,0,0,0,0,0,0,0,0,0,0,0,0],"id":41,"left_children":[1,3,5,7,9,11,13,15,17,19,21,23,25,27,29,-1,-1,-1,-1,-1,-1,-1,-1,-1,-1,-1,-1,-1,-1,-1,-1],"loss_changes":[5.3892615E2,7.839995E1,1.4876419E2,7.17276E1,6.175084E1,5.626471E1,4.4839203E1,5.58985E1,5.4475418E1,2.9247925E1,4.1759537E1,6.022292E1,5.4067932E1,2.9578888E1,3.606134E1,0E0,0E0,0E0,0E0,0E0,0E0,0E0,0E0,0E0,0E0,0E0,0E0,0E0,0E0,0E0,0E0],"parents":[2147483647,0,0,1,1,2,2,3,3,4,4,5,5,6,6,7,7,8,8,9,9,10,10,11,11,12,12,13,13,14,14],"right_children":[2,4,6,8,10,12,14,16,18,20,22,24,26,28,30,-1,-1,-1,-1,-1,-1,-1,-1,-1,-1,-1,-1,-1,-1,-1,-1],"split_conditions":[1.55E1,3E1,2.18E1,1.06E1,5.8E0,2.76E-1,2.73E1,6.82E2,2.04E1,2.03E-1,1E0,3.85E-1,9.9E0,2.1E1,2.8E1,1.3738222E-2,-4.1423347E-2,-8.865011E-3,2.7534068E-2,-9.37951E-2,-3.7950445E-2,-1.1128839E-2,-5.2946158E-2,1.6245743E-2,-2.5803868E-2,-1.4537391E-2,3.4018703E-2,-3.106399E-3,6.1149687E-2,1.5591204E-1,4.0289108E-2],"split_indices":[4,0,4,4,10,7,4,3,9,7,27,6,14,15,0,0,0,0,0,0,0,0,0,0,0,0,0,0,0,0,0],"split_type":[0,0,0,0,0,0,0,0,0,0,0,0,0,0,0,0,0,0,0,0,0,0,0,0,0,0,0,0,0,0,0],"sum_hessian":[2.99E3,1.778E3,1.212E3,1.403E3,3.75E2,9.97E2,2.15E2,3.2E2,1.083E3,1E2,2.75E2,4.22E2,5.75E2,1.83E2,3.2E1,5.5E1,2.65E2,9.69E2,1.14E2,5.7E1,4.3E1,1.88E2,8.7E1,3.05E2,1.17E2,6.4E1,5.11E2,2E1,1.63E2,2.1E1,1.1E1],"tree_param":{"num_deleted":"0","num_feature":"29","num_nodes":"31","size_leaf_vector":"1"}},{"base_weights":[1.9044675E-3,-2.8789198E-1,5.7326424E-1,-6.7182094E-1,-1.5267946E-1,3.9024928E-1,1.1871213E0,-8.1053984E-1,-7.5547345E-2,-2.1580948E-1,5.265492E-1,1.0264447E0,2.618352E-1,1.3652112E0,9.937971E-2,-6.4860635E-2,-2.6600862E-2,5.3114006E-3,-7.779662E-2,-2.0856386E-2,-3.6344983E-4,4.1542076E-2,-2.0139111E-2,-1.3049987E-2,7.5597756E-2,8.1392145E-3,6.7151636E-2,8.450906E-2,4.262835E-2,5.8390565E-2,-3.088202E-2],"categories":[],"categories_nodes":[],"categories_segments":[],"categories_sizes":[],"default_left":[0,0,0,0,0,0,0,0,0,0,0,0,0,0,0,0,0,0,0,0,0,0,0,0,0,0,0,0,0,0,0],"id":42,"left_children":[1,3,5,7,9,11,13,15,17,19,21,23,25,27,29,-1,-1,-1,-1,-1,-1,-1,-1,-1,-1,-1,-1,-1,-1,-1,-1],"loss_changes":[5.0236322E2,1.04396286E2,1.1424097E2,4.3281113E1,6.4004425E1,6.410805E1,4.5193848E1,5.6918335E1,2.7075035E1,5.726179E1,3.624877E1,8.2903564E1,7.014189E1,3.2044403E1,2.676824E1,0E0,0E0,0E0,0E0,0E0,0E0,0E0,0E0,0E0,0E0,0E0,0E0,0E0,0E0,0E0,0E0],"parents":[2147483647,0,0,1,1,2,2,3,3,4,4,5,5,6,6,7,7,8,8,9,9,10,10,11,11,12,12,13,13,14,14],"right_children":[2,4,6,8,10,12,14,16,18,20,22,24,26,28,30,-1,-1,-1,-1,-1,-1,-1,-1,-1,-1,-1,-1,-1,-1,-1,-1],"split_conditions":[1.62E1,1.5E1,2.15E1,9.7E0,8.6E0,2.3E1,1.29E1,2E-1,1.9E0,1.3E0,1.18E1,1.07E1,2.68E1,2.8E1,2.6E0,-6.4860635E-2,-2.6600862E-2,5.3114006E-3,-7.779662E-2,-2.0856386E-2,-3.6344983E-4,4.1542076E-2,-2.0139111E-2,-1.3049987E-2,7.5597756E-2,8.1392145E-3,6.7151636E-2,8.450906E-2,4.262835E-2,5.8390565E-2,-3.088202E-2],"split_indices":[4,15,4,8,8,0,8,21,12,17,8,14,9,0,22,0,0,0,0,0,0,0,0,0,0,0,0,0,0,0,0],"split_type":[0,0,0,0,0,0,0,0,0,0,0,0,0,0,0,0,0,0,0,0,0,0,0,0,0,0,0,0,0,0,0],"sum_hessian":[3.032E3,2.012E3,1.02E3,5.23E2,1.489E3,7.87E2,2.33E2,4.24E2,9.9E1,1.363E3,1.26E2,1.31E2,6.56E2,2E2,3.3E1,1.53E2,2.71E2,8.9E1,1E1,6.93E2,6.7E2,9.5E1,3.1E1,3.6E1,9.5E1,6.02E2,5.4E1,1.21E2,7.9E1,1.3E1,2E1],"tree_param":{"num_deleted":"0","num_feature":"29","num_nodes":"31","size_leaf_vector":"1"}},{"base_weights":[-1.1791687E-2,-3.1689116E-1,4.387457E-1,-9.3291086E-1,-2.471512E-1,2.4025165E-1,1.0187757E0,-7.4058396E-1,-2.2386382E0,8.096276E-1,-2.8899294E-1,4.12921E-1,-2.1045728E-1,6.4481056E-1,1.4210411E0,-6.92774E-3,-5.484266E-2,-1.3364889E-1,-7.0210174E-3,1.405838E-1,2.5185004E-2,6.024731E-3,-1.9149465E-2,-3.183697E-2,2.5194574E-2,7.5970413E-3,-5.707807E-2,1.549993E-1,2.5738537E-2,-1.0955747E-1,7.4254625E-2],"categories":[],"categories_nodes":[],"categories_segments":[],"categories_sizes":[],"default_left":[0,0,0,0,0,0,0,0,0,0,0,0,0,0,0,0,0,0,0,0,0,0,0,0,0,0,0,0,0,0,0],"id":43,"left_children":[1,3,5,7,9,11,13,15,17,19,21,23,25,27,29,-1,-1,-1,-1,-1,-1,-1,-1,-1,-1,-1,-1,-1,-1,-1,-1],"loss_changes":[4.1567676E2,7.7228485E1,1.4033203E2,4.4298264E1,7.191051E1,7.098422E1,4.586844E1,3.4380028E1,2.0585457E1,3.655762E1,6.009108E1,6.3247528E1,8.5543335E1,5.044532E1,3.7727478E1,0E0,0E0,0E0,0E0,0E0,0E0,0E0,0E0,0E0,0E0,0E0,0E0,0E0,0E0,0E0,0E0],"parents":[2147483647,0,0,1,1,2,2,3,3,4,4,5,5,6,6,7,7,8,8,9,9,10,10,11,11,12,12,13,13,14,14],"right_children":[2,4,6,8,10,12,14,16,18,20,22,24,26,28,30,-1,-1,-1,-1,-1,-1,-1,-1,-1,-1,-1,-1,-1,-1,-1,-1],"split_conditions":[1.55E1,9.1E0,2.06E1,6E-1,4.66E-1,5.85E-1,5.9E0,7E-1,5.72E-1,-6E-3,2.3E1,3E0,2.2E0,2.1E1,7.5E0,-6.92774E-3,-5.484266E-2,-1.3364889E-1,-7.0210174E-3,1.405838E-1,2.5185004E-2,6.024731E-3,-1.9149465E-2,-3.183697E-2,2.5194574E-2,7.5970413E-3,-5.707807E-2,1.549993E-1,2.5738537E-2,-1.0955747E-1,7.4254625E-2],"split_indices":[4,4,4,16,5,5,16,17,5,19,0,2,22,0,9,0,0,0,0,0,0,0,0,0,0,0,0,0,0,0,0],"split_type":[0,0,0,0,0,0,0,0,0,0,0,0,0,0,0,0,0,0,0,0,0,0,0,0,0,0,0,0,0,0,0],"sum_hessian":[3.022E3,1.802E3,1.22E3,1.82E2,1.62E3,9.1E2,3.1E2,1.6E2,2.2E1,6.1E1,1.559E3,6.58E2,2.52E2,1.62E2,1.48E2,6E1,1E2,1.8E1,4E0,7E0,5.4E1,2.91E2,1.268E3,5.2E1,6.06E2,1.82E2,7E1,7E0,1.55E2,2E0,1.46E2],"tree_param":{"num_deleted":"0","num_feature":"29","num_nodes":"31","size_leaf_vector":"1"}},{"base_weights":[-3.8923696E-3,-2.2436592E-1,5.448746E-1,-4.5725107E-1,-4.309766E-3,2.332949E-1,8.212494E-1,-3.6801586E-1,-1.3364743E0,-1.3050944E-1,6.342979E-1,-1.06365025E-1,4.863171E-1,1.0872273E0,-4.03425E-2,-1.9774556E-2,1.1284783E-1,4.5005873E-2,-7.4779086E-2,-9.3061095E-3,4.1364033E-2,2.214023E-2,1.7941512E-1,-1.17472755E-2,1.1456678E-1,1.2851642E-1,2.0536471E-2,1.675412E-2,6.9761306E-2,-1.2173218E-2,5.3661328E-2],"categories":[],"categories_nodes":[],"categories_segments":[],"categories_sizes":[],"default_left":[0,0,0,0,0,0,0,0,0,0,0,0,0,0,0,0,0,0,0,0,0,0,0,0,0,0,0,0,0,0,0],"id":44,"left_children":[1,3,5,7,9,11,13,15,17,19,21,23,25,27,29,-1,-1,-1,-1,-1,-1,-1,-1,-1,-1,-1,-1,-1,-1,-1,-1],"loss_changes":[3.651449E2,1.1033457E2,7.429596E1,8.1574844E1,8.937881E1,3.511586E1,1.0500116E2,6.9480484E1,3.550862E1,4.947769E1,1.0192908E2,5.4490402E1,3.5805283E1,8.061337E1,2.4916027E1,0E0,0E0,0E0,0E0,0E0,0E0,0E0,0E0,0E0,0E0,0E0,0E0,0E0,0E0,0E0,0E0],"parents":[2147483647,0,0,1,1,2,2,3,3,4,4,5,5,6,6,7,7,8,8,9,9,10,10,11,11,12,12,13,13,14,14],"right_children":[2,4,6,8,10,12,14,16,18,20,22,24,26,28,30,-1,-1,-1,-1,-1,-1,-1,-1,-1,-1,-1,-1,-1,-1,-1,-1],"split_conditions":[1.68E1,1.77E1,2.3E0,3.3E1,5.9E0,1.2E1,3E1,4E0,1E0,3.8E-1,1.78E1,2.04E1,-7E-1,2.1E1,5.4E0,-1.9774556E-2,1.1284783E-1,4.5005873E-2,-7.4779086E-2,-9.3061095E-3,4.1364033E-2,2.214023E-2,1.7941512E-1,-1.17472755E-2,1.1456678E-1,1.2851642E-1,2.0536471E-2,1.675412E-2,6.9761306E-2,-1.2173218E-2,5.3661328E-2],"split_indices":[4,15,17,0,8,11,0,17,18,7,14,10,20,15,22,0,0,0,0,0,0,0,0,0,0,0,0,0,0,0,0],"split_type":[0,0,0,0,0,0,0,0,0,0,0,0,0,0,0,0,0,0,0,0,0,0,0,0,0,0,0,0,0,0,0],"sum_hessian":[3.016E3,2.152E3,8.64E2,1.045E3,1.107E3,4.07E2,4.57E2,9.5E2,9.5E1,9.25E2,1.82E2,1.74E2,2.33E2,3.49E2,1.08E2,9.41E2,9E0,6E0,8.9E1,8.75E2,5E1,1.72E2,1E1,1.66E2,8E0,7E0,2.26E2,1.02E2,2.47E2,9.2E1,1.6E1],"tree_param":{"num_deleted":"0","num_feature":"29","num_nodes":"31","size_leaf_vector":"1"}},{"base_weights":[-6.327146E-3,-2.0927483E-1,5.3077936E-1,-1.0254623E0,-1.6262457E-1,1.4373904E-1,7.654347E-1,-2.702578E0,-8.953507E-1,-2.4169114E-1,2.9545787E-1,-1.4573886E-1,6.503341E-1,5.821915E-1,1.5779871E0,1.660347E-4,-1.8025489E-1,-8.135276E-2,-2.6848644E-2,-1.8482342E-2,4.0038857E-3,1.7051394E-1,1.2136753E-2,1.0579869E-2,-3.5964835E-2,1.2750733E-2,8.0646805E-2,3.865401E-2,-4.504073E-3,2.0268321E-1,7.114582E-2],"categories":[],"categories_nodes":[],"categories_segments":[],"categories_sizes":[],"default_left":[0,0,0,0,0,0,0,0,0,0,0,0,0,0,0,0,0,0,0,0,0,0,0,0,0,0,0,0,0,0,0],"id":45,"left_children":[1,3,5,7,9,11,13,15,17,19,21,23,25,27,29,-1,-1,-1,-1,-1,-1,-1,-1,-1,-1,-1,-1,-1,-1,-1,-1],"loss_changes":[3.2832367E2,8.306597E1,7.490817E1,2.3329277E1,7.5008545E1,4.5995632E1,7.561316E1,1.954898E1,2.8233482E1,7.2698456E1,4.925994E1,4.1142807E1,4.29697E1,5.4096268E1,3.0319061E1,0E0,0E0,0E0,0E0,0E0,0E0,0E0,0E0,0E0,0E0,0E0,0E0,0E0,0E0,0E0,0E0],"parents":[2147483647,0,0,1,1,2,2,3,3,4,4,5,5,6,6,7,7,8,8,9,9,10,10,11,11,12,12,13,13,14,14],"right_children":[2,4,6,8,10,12,14,16,18,20,22,24,26,28,30,-1,-1,-1,-1,-1,-1,-1,-1,-1,-1,-1,-1,-1,-1,-1,-1],"split_conditions":[1.7E1,1.18E1,2E0,7E-1,1.32E1,1.94E1,2.95E1,5E-1,9.2E0,5.2E1,2.7E1,8.4E0,8E-1,3E1,1.59E3,1.660347E-4,-1.8025489E-1,-8.135276E-2,-2.6848644E-2,-1.8482342E-2,4.0038857E-3,1.7051394E-1,1.2136753E-2,1.0579869E-2,-3.5964835E-2,1.2750733E-2,8.0646805E-2,3.865401E-2,-4.504073E-3,2.0268321E-1,7.114582E-2],"split_indices":[4,15,17,12,10,9,15,12,4,2,1,10,21,0,3,0,0,0,0,0,0,0,0,0,0,0,0,0,0,0,0],"split_type":[0,0,0,0,0,0,0,0,0,0,0,0,0,0,0,0,0,0,0,0,0,0,0,0,0,0,0,0,0,0,0],"sum_hessian":[3.01E3,2.185E3,8.25E2,1.17E2,2.068E3,3.12E2,5.13E2,7E0,1.1E2,1.764E3,3.04E2,1.99E2,1.13E2,4.2E2,9.3E1,2E0,5E0,3.5E1,7.5E1,1.262E3,5.02E2,4E0,3E2,1.23E2,7.6E1,8.1E1,3.2E1,3.27E2,9.3E1,4E0,8.9E1],"tree_param":{"num_deleted":"0","num_feature":"29","num_nodes":"31","size_leaf_vector":"1"}},{"base_weights":[1.4857313E-2,-1.3520491E-1,7.133569E-1,-2.3163274E-2,-5.6164855E-1,2.5352153E-1,9.4513535E-1,-1.251976E-1,3.698498E-1,-1.5628085E0,-4.3798384E-1,5.6689465E-1,-4.4364578E-1,1.1542836E0,1.795479E-1,-1.6620345E-3,-2.6952405E-2,6.68819E-3,4.3865692E-2,-8.9883216E-2,5.0195637E-3,-2.0000232E-2,-1.4355955E-1,-3.736371E-2,3.6891893E-2,-1.6063595E-1,-8.702088E-3,3.1393133E-2,7.163807E-2,-3.2280415E-2,4.1592076E-2],"categories":[],"categories_nodes":[],"categories_segments":[],"categories_sizes":[],"default_left":[0,0,0,0,0,0,0,0,0,0,0,0,0,0,0,0,0,0,0,0,0,0,0,0,0,0,0,0,0,0,0],"id":46,"left_children":[1,3,5,7,9,11,13,15,17,19,21,23,25,27,29,-1,-1,-1,-1,-1,-1,-1,-1,-1,-1,-1,-1,-1,-1,-1,-1],"loss_changes":[3.1947812E2,1.1986563E2,5.720697E1,7.976675E1,6.394336E1,4.001368E1,5.711618E1,6.007316E1,4.900276E1,2.2445358E1,4.191516E1,2.8857037E1,4.199439E1,4.0294067E1,4.252009E1,0E0,0E0,0E0,0E0,0E0,0E0,0E0,0E0,0E0,0E0,0E0,0E0,0E0,0E0,0E0,0E0],"parents":[2147483647,0,0,1,1,2,2,3,3,4,4,5,5,6,6,7,7,8,8,9,9,10,10,11,11,12,12,13,13,14,14],"right_children":[2,4,6,8,10,12,14,16,18,20,22,24,26,28,30,-1,-1,-1,-1,-1,-1,-1,-1,-1,-1,-1,-1,-1,-1,-1,-1],"split_conditions":[1.88E1,4.97E-1,2.1E0,2.3E0,5.4E0,1.74E-1,3E1,1E0,2.14E1,1.09E1,6.49E-1,4E-1,1.9E0,1.8E-2,1E0,-1.6620345E-3,-2.6952405E-2,6.68819E-3,4.3865692E-2,-8.9883216E-2,5.0195637E-3,-2.0000232E-2,-1.4355955E-1,-3.736371E-2,3.6891893E-2,-1.6063595E-1,-8.702088E-3,3.1393133E-2,7.163807E-2,-3.2280415E-2,4.1592076E-2],"split_indices":[4,6,17,17,11,19,0,27,15,14,5,13,16,6,21,0,0,0,0,0,0,0,0,0,0,0,0,0,0,0,0],"split_type":[0,0,0,0,0,0,0,0,0,0,0,0,0,0,0,0,0,0,0,0,0,0,0,0,0,0,0,0,0,0,0],"sum_hessian":[3.046E3,2.508E3,5.38E2,1.987E3,5.21E2,1.81E2,3.57E2,1.578E3,4.09E2,5.6E1,4.65E2,1.25E2,5.6E1,2.8E2,7.7E1,1.292E3,2.86E2,2.8E2,1.29E2,4.9E1,7E0,4.59E2,6E0,1.4E1,1.11E2,4E0,5.2E1,9.8E1,1.82E2,3.4E1,4.3E1],"tree_param":{"num_deleted":"0","num_feature":"29","num_nodes":"31","size_leaf_vector":"1"}},{"base_weights":[-1.1409274E-2,-2.58601E-1,3.5643286E-1,-8.3079606E-1,-1.8638033E-1,2.1290585E-1,7.684501E-1,1.070785E0,-9.1473126E-1,8.513347E-1,-2.4069561E-1,1.8179308E-1,2.502695E0,3.2449457E-1,1.0211457E0,8.500938E-2,-9.9110864E-2,-5.851603E-3,-5.6718912E-2,1.2140774E-1,2.2504846E-2,-2.682033E-2,-6.0714497E-3,1.8618492E-2,-1.0588671E-2,1.484369E-1,4.1421223E-2,4.344585E-2,-1.5329613E-2,2.82717E-2,6.814834E-2],"categories":[],"categories_nodes":[],"categories_segments":[],"categories_sizes":[],"default_left":[0,0,0,0,0,0,0,0,0,0,0,0,0,0,0,0,0,0,0,0,0,0,0,0,0,0,0,0,0,0,0],"id":47,"left_children":[1,3,5,7,9,11,13,15,17,19,21,23,25,27,29,-1,-1,-1,-1,-1,-1,-1,-1,-1,-1,-1,-1,-1,-1,-1,-1],"loss_changes":[2.7442056E2,7.443555E1,7.156787E1,3.3220627E1,9.061244E1,6.3733814E1,3.4782745E1,2.0664246E1,3.3858414E1,4.952147E1,5.371924E1,6.6832985E1,6.9039993E0,3.977786E1,3.0227936E1,0E0,0E0,0E0,0E0,0E0,0E0,0E0,0E0,0E0,0E0,0E0,0E0,0E0,0E0,0E0,0E0],"parents":[2147483647,0,0,1,1,2,2,3,3,4,4,5,5,6,6,7,7,8,8,9,9,10,10,11,11,12,12,13,13,14,14],"right_children":[2,4,6,8,10,12,14,16,18,20,22,24,26,28,30,-1,-1,-1,-1,-1,-1,-1,-1,-1,-1,-1,-1,-1,-1,-1,-1],"split_conditions":[1.55E1,9.3E0,2.06E1,-1.7E0,4.74E-1,7.06E-1,2.4E0,7.1E1,6.82E2,6.82E2,1.03E1,5.77E-1,6.96E-1,1.79E-1,8.1E-2,8.500938E-2,-9.9110864E-2,-5.851603E-3,-5.6718912E-2,1.2140774E-1,2.2504846E-2,-2.682033E-2,-6.0714497E-3,1.8618492E-2,-1.0588671E-2,1.484369E-1,4.1421223E-2,4.344585E-2,-1.5329613E-2,2.82717E-2,6.814834E-2],"split_indices":[4,4,4,21,5,7,17,1,3,3,14,5,5,19,6,0,0,0,0,0,0,0,0,0,0,0,0,0,0,0,0],"split_type":[0,0,0,0,0,0,0,0,0,0,0,0,0,0,0,0,0,0,0,0,0,0,0,0,0,0,0,0,0,0,0],"sum_hessian":[3.016E3,1.804E3,1.212E3,2.01E2,1.603E3,9E2,3.12E2,8E0,1.93E2,7.9E1,1.524E3,8.89E2,1.1E1,1.14E2,1.98E2,7E0,1E0,4.2E1,1.51E2,1.5E1,6.4E1,4.37E2,1.087E3,5.99E2,2.9E2,8E0,3E0,6.1E1,5.3E1,8.6E1,1.12E2],"tree_param":{"num_deleted":"0","num_feature":"29","num_nodes":"31","size_leaf_vector":"1"}},{"base_weights":[1.9625254E-2,-1.2361259E-1,5.822968E-1,-3.1508103E-1,5.4945208E-2,1.1132291E-1,8.4063685E-1,-4.4370314E-1,4.1513335E-2,7.1958745E-1,-3.2842055E-2,-1.8756099E0,2.1536568E-1,1.0546287E0,1.3963494E-1,-2.8323209E-2,3.92455E-3,1.5944605E-1,1.8477363E-5,1.3267024E-2,7.932174E-2,-6.7923167E-3,1.7683772E-2,5.6176662E-2,-1.3334616E-1,2.3946088E-2,-2.395231E-2,-9.066918E-2,5.5432685E-2,-9.453815E-3,5.812865E-2],"categories":[],"categories_nodes":[],"categories_segments":[],"categories_sizes":[],"default_left":[0,0,0,0,0,0,0,0,0,0,0,0,0,0,0,0,0,0,0,0,0,0,0,0,0,0,0,0,0,0,0],"id":48,"left_children":[1,3,5,7,9,11,13,15,17,19,21,23,25,27,29,-1,-1,-1,-1,-1,-1,-1,-1,-1,-1,-1,-1,-1,-1,-1,-1],"loss_changes":[2.4427745E2,8.261595E1,7.4734314E1,5.3498085E1,7.3015884E1,4.5676933E1,5.940619E1,5.498253E1,4.0142662E1,5.7068413E1,4.4081177E1,2.910225E1,3.8479866E1,4.9113434E1,3.1827429E1,0E0,0E0,0E0,0E0,0E0,0E0,0E0,0E0,0E0,0E0,0E0,0E0,0E0,0E0,0E0,0E0],"parents":[2147483647,0,0,1,1,2,2,3,3,4,4,5,5,6,6,7,7,8,8,9,9,10,10,11,11,12,12,13,13,14,14],"right_children":[2,4,6,8,10,12,14,16,18,20,22,24,26,28,30,-1,-1,-1,-1,-1,-1,-1,-1,-1,-1,-1,-1,-1,-1,-1,-1],"split_conditions":[1.81E1,1.33E1,2.1E0,1.52E1,2.2E1,4.9E0,3E1,1.57E1,2.7E1,2.052E3,2.7E0,4.4E0,1.74E-1,1E0,2.1E0,-2.8323209E-2,3.92455E-3,1.5944605E-1,1.8477363E-5,1.3267024E-2,7.932174E-2,-6.7923167E-3,1.7683772E-2,5.6176662E-2,-1.3334616E-1,2.3946088E-2,-2.395231E-2,-9.066918E-2,5.5432685E-2,-9.453815E-3,5.812865E-2],"split_indices":[4,4,17,9,0,10,0,14,1,3,13,10,19,2,12,0,0,0,0,0,0,0,0,0,0,0,0,0,0,0,0],"split_type":[0,0,0,0,0,0,0,0,0,0,0,0,0,0,0,0,0,0,0,0,0,0,0,0,0,0,0,0,0,0,0],"sum_hessian":[3.029E3,2.415E3,6.14E2,1.165E3,1.25E3,2.18E2,3.96E2,8.56E2,3.09E2,1.45E2,1.105E3,1E1,2.08E2,3.03E2,9.3E1,6.93E2,1.63E2,3E0,3.06E2,9.6E1,4.9E1,8.73E2,2.32E2,2E0,8E0,1.51E2,5.7E1,5E0,2.98E2,7.1E1,2.2E1],"tree_param":{"num_deleted":"0","num_feature":"29","num_nodes":"31","size_leaf_vector":"1"}},{"base_weights":[-1.2073322E-3,-1.1571845E-1,7.3538065E-1,5.8092922E-2,-3.6802715E-1,-2.2400205E0,7.704715E-1,7.099385E-2,-2.1601539E0,-4.8274046E-1,3.056989E-1,-3.0232048E-2,-1.2488526E-1,1.0026363E0,3.4593457E-1,9.183164E-2,2.7977559E-3,-1.5648173E-1,4.1100945E-2,-6.2054712E-2,-2.1397145E-2,8.419699E-3,1.602138E-1,8.681695E-3,5.740726E-2,5.3654546E-3,6.653467E-2],"categories":[],"categories_nodes":[],"categories_segments":[],"categories_sizes":[],"default_left":[0,0,0,0,0,0,0,0,0,0,0,0,0,0,0,0,0,0,0,0,0,0,0,0,0,0,0],"id":49,"left_children":[1,3,5,7,9,11,13,15,17,19,21,-1,-1,23,25,-1,-1,-1,-1,-1,-1,-1,-1,-1,-1,-1,-1],"loss_changes":[2.5515195E2,1.1483148E2,4.4220535E1,4.4539005E1,8.268831E1,5.9684753E-1,3.937384E1,4.0868465E1,2.8593048E1,3.740944E1,6.1546677E1,0E0,0E0,3.1163727E1,3.369555E1,0E0,0E0,0E0,0E0,0E0,0E0,0E0,0E0,0E0,0E0,0E0,0E0],"parents":[2147483647,0,0,1,1,2,2,3,3,4,4,5,5,6,6,7,7,8,8,9,9,10,10,13,13,14,14],"right_children":[2,4,6,8,10,12,14,16,18,20,22,-1,-1,24,26,-1,-1,-1,-1,-1,-1,-1,-1,-1,-1,-1,-1],"split_conditions":[1.98E1,3.83E-1,0E0,2.62E1,2.76E-1,5.8E1,2.8E1,2.7E1,1E0,5.4E0,3.14E1,-3.0232048E-2,-1.2488526E-1,1.12E1,2.4E0,9.183164E-2,2.7977559E-3,-1.5648173E-1,4.1100945E-2,-6.2054712E-2,-2.1397145E-2,8.419699E-3,1.602138E-1,8.681695E-3,5.740726E-2,5.3654546E-3,6.653467E-2],"split_indices":[4,6,20,14,7,1,0,1,25,11,11,0,0,9,12,0,0,0,0,0,0,0,0,0,0,0,0],"split_type":[0,0,0,0,0,0,0,0,0,0,0,0,0,0,0,0,0,0,0,0,0,0,0,0,0,0,0],"sum_hessian":[3.023E3,2.617E3,4.06E2,1.55E3,1.067E3,4E0,4.02E2,1.542E3,8E0,9.12E2,1.55E2,1E0,3E0,2.59E2,1.43E2,1.2E1,1.53E3,6E0,2E0,6E1,8.52E2,1.49E2,6E0,3.9E1,2.2E2,1.16E2,2.7E1],"tree_param":{"num_deleted":"0","num_feature":"29","num_nodes":"27","size_leaf_vector":"1"}},